{"learner":{"attributes":{},"feature_names":["day_of_week","hour_of_day"],"feature_types":[],"gradient_booster":{"model":{"cats":{"enc":[],"feature_segments":[],"sorted_idx":[]},"gbtree_model_param":{"num_parallel_tree":"1","num_trees":"50"},"iteration_indptr":[0,1,2,3,4,5,6,7,8,9,10,11,12,13,14,15,16,17,18,19,20,21,22,23,24,25,26,27,28,29,30,31,32,33,34,35,36,37,38,39,40,41,42,43,44,45,46,47,48,49,50],"tree_info":[0,0,0,0,0,0,0,0,0,0,0,0,0,0,0,0,0,0,0,0,0,0,0,0,0,0,0,0,0,0,0,0,0,0,0,0,0,0,0,0,0,0,0,0,0,0,0,0,0,0],"trees":[{"base_weights":[-2.8581854E-7,-1.0379465E1,1.1276836E0,-1.0751603E1,-6.9065475E0,3.4377341E0,-4.7884197E0,-1.1639091E0,-8.589343E0,-4.9788723E0,-9.5972824E-1,-4.84017E-3,3.9657912E0,-2.1778796E0,-7.9160957E0,-6.865233E-1,-9.098882E-1,-6.1304086E-1,-2.2742069E-1,2.8260466E-1,-5.0658596E-1,4.7742063E-1,4.2207226E-2,-4.198694E-1,-8.9506544E-2,-9.558979E-1,-5.601824E-1],"categories":[],"categories_nodes":[],"categories_segments":[],"categories_sizes":[],"default_left":[0,0,0,0,0,0,0,0,0,0,0,0,0,0,0,0,0,0,0,0,0,0,0,0,0,0,0],"id":0,"left_children":[1,3,5,7,9,11,13,-1,15,17,-1,19,21,23,25,-1,-1,-1,-1,-1,-1,-1,-1,-1,-1,-1,-1],"loss_changes":[1.2982915E5,1.3305859E3,1.3674977E5,1.780625E3,5.1239746E2,1.3081453E4,2.29262E4,0E0,1.9141992E2,1.8850171E2,0E0,1.3739749E4,1.7871445E4,3.9702822E3,4.8055234E3,0E0,0E0,0E0,0E0,0E0,0E0,0E0,0E0,0E0,0E0,0E0,0E0],"parents":[2147483647,0,0,1,1,2,2,3,3,4,4,5,5,6,6,8,8,9,9,11,11,12,12,13,13,14,14],"right_children":[2,4,6,8,10,12,14,-1,16,18,-1,20,22,24,26,-1,-1,-1,-1,-1,-1,-1,-1,-1,-1,-1,-1],"split_conditions":[4E0,3E0,2E1,6E0,6E0,7E0,2.2E1,-1.1639091E0,1E0,4E0,-9.5972824E-1,6E0,1.8E1,4E0,5E0,-6.865233E-1,-9.098882E-1,-6.1304086E-1,-2.2742069E-1,2.8260466E-1,-5.0658596E-1,4.7742063E-1,4.2207226E-2,-4.198694E-1,-8.9506544E-2,-9.558979E-1,-5.601824E-1],"split_indices":[1,1,1,0,0,1,1,0,1,0,0,0,1,0,0,0,0,0,0,0,0,0,0,0,0,0,0],"split_type":[0,0,0,0,0,0,0,0,0,0,0,0,0,0,0,0,0,0,0,0,0,0,0,0,0,0,0],"sum_hessian":[1.109E4,1.086E3,1.0004E4,9.79E2,1.07E2,7.195E3,2.809E3,6.91E2,2.88E2,6.4E1,4.3E1,9.57E2,6.238E3,1.532E3,1.277E3,6.9E1,2.19E2,4.4E1,2E1,6.14E2,3.43E2,5.079E3,1.159E3,5.94E2,9.38E2,7.45E2,5.32E2],"tree_param":{"num_deleted":"0","num_feature":"2","num_nodes":"27","size_leaf_vector":"1"}},{"base_weights":[-5.674098E-4,-9.345714E0,1.0147424E0,-9.679259E0,-6.232561E0,3.0940018E0,-4.3102984E0,-1.0476865E0,-7.735933E0,-4.493915E0,-8.659367E-1,3.6474853E0,2.690835E-1,-1.9604241E0,-7.1256723E0,-6.1885166E-1,-8.193129E-1,-5.5309904E-1,-2.0576158E-1,4.2807218E-1,4.1209724E-2,-4.3990165E-1,1.9888829E-1,-3.7795302E-1,-8.056547E-2,-8.6043626E-1,-5.0426924E-1],"categories":[],"categories_nodes":[],"categories_segments":[],"categories_sizes":[],"default_left":[0,0,0,0,0,0,0,0,0,0,0,0,0,0,0,0,0,0,0,0,0,0,0,0,0,0,0],"id":1,"left_children":[1,3,5,7,9,11,13,-1,15,17,-1,19,21,23,25,-1,-1,-1,-1,-1,-1,-1,-1,-1,-1,-1,-1],"loss_changes":[1.0524332E5,1.0683984E3,1.1079011E5,1.4379609E3,4.1677588E2,1.1250289E4,1.8576355E4,0E0,1.5375586E2,1.528501E2,0E0,1.2325656E4,9.482019E3,3.217249E3,3.8929531E3,0E0,0E0,0E0,0E0,0E0,0E0,0E0,0E0,0E0,0E0,0E0,0E0],"parents":[2147483647,0,0,1,1,2,2,3,3,4,4,5,5,6,6,8,8,9,9,11,11,12,12,13,13,14,14],"right_children":[2,4,6,8,10,12,14,-1,16,18,-1,20,22,24,26,-1,-1,-1,-1,-1,-1,-1,-1,-1,-1,-1,-1],"split_conditions":[4E0,3E0,2E1,6E0,6E0,7E0,2.2E1,-1.0476865E0,1E0,4E0,-8.659367E-1,1.8E1,1E1,4E0,5E0,-6.1885166E-1,-8.193129E-1,-5.5309904E-1,-2.0576158E-1,4.2807218E-1,4.1209724E-2,-4.3990165E-1,1.9888829E-1,-3.7795302E-1,-8.056547E-2,-8.6043626E-1,-5.0426924E-1],"split_indices":[1,1,1,0,0,0,1,0,1,0,0,1,1,0,0,0,0,0,0,0,0,0,0,0,0,0,0],"split_type":[0,0,0,0,0,0,0,0,0,0,0,0,0,0,0,0,0,0,0,0,0,0,0,0,0,0,0],"sum_hessian":[1.109E4,1.086E3,1.0004E4,9.79E2,1.07E2,7.195E3,2.809E3,6.91E2,2.88E2,6.4E1,4.3E1,6.016E3,1.179E3,1.532E3,1.277E3,6.9E1,2.19E2,4.4E1,2E1,5.031E3,9.85E2,3.17E2,8.62E2,5.94E2,9.38E2,7.45E2,5.32E2],"tree_param":{"num_deleted":"0","num_feature":"2","num_nodes":"27","size_leaf_vector":"1"}},{"base_weights":[-1.0250002E-3,-8.414924E0,9.131088E-1,-8.71387E0,-5.62435E0,2.7846334E0,-3.8799176E0,-9.4306916E-1,-6.9673157E0,-4.0561986E0,-7.813111E-1,-3.0899513E-1,3.2592146E0,-1.764681E0,-6.4141726E0,-5.578506E-1,-7.3775405E-1,-4.9901828E-1,-1.861652E-1,2.1165262E-1,-4.644421E-1,3.930857E-1,3.1507563E-2,-3.402213E-1,-7.251751E-2,-7.7450794E-1,-4.5393687E-1],"categories":[],"categories_nodes":[],"categories_segments":[],"categories_sizes":[],"default_left":[0,0,0,0,0,0,0,0,0,0,0,0,0,0,0,0,0,0,0,0,0,0,0,0,0,0,0],"id":2,"left_children":[1,3,5,7,9,11,13,-1,15,17,-1,19,21,23,25,-1,-1,-1,-1,-1,-1,-1,-1,-1,-1,-1,-1],"loss_changes":[8.531333E4,8.578047E2,8.975833E4,1.1612188E3,3.3899805E2,1.0566012E4,1.5051828E4,0E0,1.2349512E2,1.2393872E2,0E0,1.0083841E4,1.23358125E4,2.607042E3,3.1536875E3,0E0,0E0,0E0,0E0,0E0,0E0,0E0,0E0,0E0,0E0,0E0,0E0],"parents":[2147483647,0,0,1,1,2,2,3,3,4,4,5,5,6,6,8,8,9,9,11,11,12,12,13,13,14,14],"right_children":[2,4,6,8,10,12,14,-1,16,18,-1,20,22,24,26,-1,-1,-1,-1,-1,-1,-1,-1,-1,-1,-1,-1],"split_conditions":[4E0,3E0,2E1,6E0,6E0,7E0,2.2E1,-9.4306916E-1,1E0,4E0,-7.813111E-1,6E0,1.8E1,4E0,5E0,-5.578506E-1,-7.3775405E-1,-4.9901828E-1,-1.861652E-1,2.1165262E-1,-4.644421E-1,3.930857E-1,3.1507563E-2,-3.402213E-1,-7.251751E-2,-7.7450794E-1,-4.5393687E-1],"split_indices":[1,1,1,0,0,1,1,0,1,0,0,0,1,0,0,0,0,0,0,0,0,0,0,0,0,0,0],"split_type":[0,0,0,0,0,0,0,0,0,0,0,0,0,0,0,0,0,0,0,0,0,0,0,0,0,0,0],"sum_hessian":[1.109E4,1.086E3,1.0004E4,9.79E2,1.07E2,7.195E3,2.809E3,6.91E2,2.88E2,6.4E1,4.3E1,9.57E2,6.238E3,1.532E3,1.277E3,6.9E1,2.19E2,4.4E1,2E1,6.14E2,3.43E2,5.079E3,1.159E3,5.94E2,9.38E2,7.45E2,5.32E2],"tree_param":{"num_deleted":"0","num_feature":"2","num_nodes":"27","size_leaf_vector":"1"}},{"base_weights":[-1.389024E-3,-7.57684E0,8.216511E-1,-7.844767E0,-5.0754933E0,2.2251909E0,-4.362352E0,-8.4889853E-1,-6.2750673E0,-1.8872683E-1,-6.013064E0,2.9328477E0,-1.00352906E-1,-2.2476306E0,-5.773717E0,-5.0286245E-1,-6.64314E-1,-4.7225952E-1,-7.049557E-1,-2.7835956E-2,3.5378486E-1,9.741276E-2,-4.982042E-2,-4.002419E-1,-1.12052895E-1,-7.517914E-1,-4.5397493E-1],"categories":[],"categories_nodes":[],"categories_segments":[],"categories_sizes":[],"default_left":[0,0,0,0,0,0,0,0,0,0,0,0,0,0,0,0,0,0,0,0,0,0,0,0,0,0,0],"id":3,"left_children":[1,3,5,7,9,11,13,-1,15,-1,17,19,21,23,25,-1,-1,-1,-1,-1,-1,-1,-1,-1,-1,-1,-1],"loss_changes":[6.915751E4,6.8866406E2,7.2805625E4,9.377344E2,3.114839E2,1.29584375E4,6.3502812E3,0E0,9.918262E1,0E0,7.7725586E1,1.172957E4,7.861999E2,1.6865562E3,2.7164883E3,0E0,0E0,0E0,0E0,0E0,0E0,0E0,0E0,0E0,0E0,0E0,0E0],"parents":[2147483647,0,0,1,1,2,2,3,3,4,4,5,5,6,6,8,8,10,10,11,11,12,12,13,13,14,14],"right_children":[2,4,6,8,10,12,14,-1,16,-1,18,20,22,24,26,-1,-1,-1,-1,-1,-1,-1,-1,-1,-1,-1,-1],"split_conditions":[4E0,3E0,2.1E1,6E0,2E0,1.8E1,2.2E1,-8.4889853E-1,1E0,-1.8872683E-1,6E0,7E0,1.9E1,4E0,4E0,-5.0286245E-1,-6.64314E-1,-4.7225952E-1,-7.049557E-1,-2.7835956E-2,3.5378486E-1,9.741276E-2,-4.982042E-2,-4.002419E-1,-1.12052895E-1,-7.517914E-1,-4.5397493E-1],"split_indices":[1,1,1,0,0,1,1,0,1,0,0,1,1,0,0,0,0,0,0,0,0,0,0,0,0,0,0],"split_type":[0,0,0,0,0,0,0,0,0,0,0,0,0,0,0,0,0,0,0,0,0,0,0,0,0,0,0],"sum_hessian":[1.109E4,1.086E3,1.0004E4,9.79E2,1.07E2,7.873E3,2.131E3,6.91E2,2.88E2,2.5E1,8.2E1,6.036E3,1.837E3,8.54E2,1.277E3,6.9E1,2.19E2,3.9E1,4.3E1,9.57E2,5.079E3,4.96E2,1.341E3,3.33E2,5.21E2,5.27E2,7.5E2],"tree_param":{"num_deleted":"0","num_feature":"2","num_nodes":"27","size_leaf_vector":"1"}},{"base_weights":[-1.6762248E-3,-6.822267E0,7.3935163E-1,-7.0623474E0,-4.5805917E0,2.2580674E0,-3.1501212E0,-7.6413125E-1,-5.651599E0,-1.7058006E-1,-5.4259405E0,2.7508712E0,-2.5672725E-1,-1.4414254E0,-5.197289E0,-4.5329452E-1,-5.981845E-1,-4.2621422E-1,-6.3606226E-1,3.2256907E-1,3.2486416E-2,-4.17507E-1,1.1874091E-1,-2.8167087E-1,-5.684383E-2,-6.7675465E-1,-4.086379E-1],"categories":[],"categories_nodes":[],"categories_segments":[],"categories_sizes":[],"default_left":[0,0,0,0,0,0,0,0,0,0,0,0,0,0,0,0,0,0,0,0,0,0,0,0,0,0,0],"id":4,"left_children":[1,3,5,7,9,11,13,-1,15,-1,17,19,21,23,25,-1,-1,-1,-1,-1,-1,-1,-1,-1,-1,-1,-1],"loss_changes":[5.6061707E4,5.5264844E2,5.9106688E4,7.572539E2,2.532063E2,8.918707E3,9.82185E3,0E0,7.965039E1,0E0,6.3176025E1,6.9300312E3,6.68213E3,1.8389258E3,2.201711E3,0E0,0E0,0E0,0E0,0E0,0E0,0E0,0E0,0E0,0E0,0E0,0E0],"parents":[2147483647,0,0,1,1,2,2,3,3,4,4,5,5,6,6,8,8,10,10,11,11,12,12,13,13,14,14],"right_children":[2,4,6,8,10,12,14,-1,16,-1,18,20,22,24,26,-1,-1,-1,-1,-1,-1,-1,-1,-1,-1,-1,-1],"split_conditions":[4E0,3E0,2E1,6E0,2E0,7E0,2.2E1,-7.6413125E-1,1E0,-1.7058006E-1,6E0,1.8E1,1E1,4E0,4E0,-4.5329452E-1,-5.981845E-1,-4.2621422E-1,-6.3606226E-1,3.2256907E-1,3.2486416E-2,-4.17507E-1,1.1874091E-1,-2.8167087E-1,-5.684383E-2,-6.7675465E-1,-4.086379E-1],"split_indices":[1,1,1,0,0,0,1,0,1,0,0,1,1,0,0,0,0,0,0,0,0,0,0,0,0,0,0],"split_type":[0,0,0,0,0,0,0,0,0,0,0,0,0,0,0,0,0,0,0,0,0,0,0,0,0,0,0],"sum_hessian":[1.109E4,1.086E3,1.0004E4,9.79E2,1.07E2,7.195E3,2.809E3,6.91E2,2.88E2,2.5E1,8.2E1,6.016E3,1.179E3,1.532E3,1.277E3,6.9E1,2.19E2,3.9E1,4.3E1,5.031E3,9.85E2,3.17E2,8.62E2,5.94E2,9.38E2,5.27E2,7.5E2],"tree_param":{"num_deleted":"0","num_feature":"2","num_nodes":"27","size_leaf_vector":"1"}},{"base_weights":[-1.9066253E-3,-6.1428447E0,6.652799E-1,-6.357965E0,-4.133948E0,1.8087102E0,-3.5580013E0,-6.878285E-1,-5.090077E0,-1.5417816E-1,-4.896145E0,2.3791919E0,-6.604821E-2,-1.8791252E0,-4.678409E0,-4.0861258E-1,-5.3863794E-1,-6.823071E-1,-4.2174783E-1,-4.6772193E-2,2.9156023E-1,-1.10532E-1,2.8571848E-2,-3.3225486E-1,-9.519558E-2,-5.7103586E-1,-3.2252893E-1],"categories":[],"categories_nodes":[],"categories_segments":[],"categories_sizes":[],"default_left":[0,0,0,0,0,0,0,0,0,0,0,0,0,0,0,0,0,0,0,0,0,0,0,0,0,0,0],"id":5,"left_children":[1,3,5,7,9,11,13,-1,15,-1,17,19,21,23,25,-1,-1,-1,-1,-1,-1,-1,-1,-1,-1,-1,-1],"loss_changes":[4.544559E4,4.4347266E2,4.832086E4,6.115E2,2.0583142E2,8.421523E3,4.0015547E3,0E0,6.396045E1,0E0,7.976636E1,9.220547E3,6.722541E2,1.1410815E3,1.898002E3,0E0,0E0,0E0,0E0,0E0,0E0,0E0,0E0,0E0,0E0,0E0,0E0],"parents":[2147483647,0,0,1,1,2,2,3,3,4,4,5,5,6,6,8,8,10,10,11,11,12,12,13,13,14,14],"right_children":[2,4,6,8,10,12,14,-1,16,-1,18,20,22,24,26,-1,-1,-1,-1,-1,-1,-1,-1,-1,-1,-1,-1],"split_conditions":[4E0,3E0,2.1E1,6E0,2E0,1.8E1,2.2E1,-6.878285E-1,1E0,-1.5417816E-1,4E0,7E0,3E0,4E0,5E0,-4.0861258E-1,-5.3863794E-1,-6.823071E-1,-4.2174783E-1,-4.6772193E-2,2.9156023E-1,-1.10532E-1,2.8571848E-2,-3.3225486E-1,-9.519558E-2,-5.7103586E-1,-3.2252893E-1],"split_indices":[1,1,1,0,0,1,1,0,1,0,0,1,0,0,0,0,0,0,0,0,0,0,0,0,0,0,0],"split_type":[0,0,0,0,0,0,0,0,0,0,0,0,0,0,0,0,0,0,0,0,0,0,0,0,0,0,0],"sum_hessian":[1.109E4,1.086E3,1.0004E4,9.79E2,1.07E2,7.873E3,2.131E3,6.91E2,2.88E2,2.5E1,8.2E1,6.036E3,1.837E3,8.54E2,1.277E3,6.9E1,2.19E2,1.9E1,6.3E1,9.57E2,5.079E3,4.64E2,1.373E3,3.33E2,5.21E2,7.45E2,5.32E2],"tree_param":{"num_deleted":"0","num_feature":"2","num_nodes":"27","size_leaf_vector":"1"}},{"base_weights":[-2.0813E-3,-5.531222E0,5.9863615E-1,-5.7238374E0,-3.732203E0,2.042832E0,-2.1181877E0,-6.191451E0,-4.5843472E0,-2.595329E0,-5.326853E-1,2.5283391E0,-4.3557063E-1,-8.9911926E-1,-4.211268E0,-5.755906E-1,-6.3244474E-1,-3.683351E-1,-4.8501897E-1,-3.5495433E-1,-4.2699795E-2,-5.0909024E-2,2.8030828E-1,-3.9048234E-1,1.0281666E-1,-2.3605846E-1,-3.9019294E-2,-5.965415E-1,-3.4816962E-1],"categories":[],"categories_nodes":[],"categories_segments":[],"categories_sizes":[],"default_left":[0,0,0,0,0,0,0,0,0,0,0,0,0,0,0,0,0,0,0,0,0,0,0,0,0,0,0,0,0],"id":6,"left_children":[1,3,5,7,9,11,13,15,17,19,-1,21,23,25,27,-1,-1,-1,-1,-1,-1,-1,-1,-1,-1,-1,-1,-1,-1],"loss_changes":[3.684153E4,3.5530078E2,3.92602E4,4.9380273E2,1.8196985E2,7.8621465E3,8.857948E3,3.6816406E0,5.135742E1,1.3297269E2,0E0,4.560375E3,5.442633E3,1.6324158E3,1.6147852E3,0E0,0E0,0E0,0E0,0E0,0E0,0E0,0E0,0E0,0E0,0E0,0E0,0E0,0E0],"parents":[2147483647,0,0,1,1,2,2,3,3,4,4,5,5,6,6,7,7,8,8,9,9,11,11,12,12,13,13,14,14],"right_children":[2,4,6,8,10,12,14,16,18,20,-1,22,24,26,28,-1,-1,-1,-1,-1,-1,-1,-1,-1,-1,-1,-1,-1,-1],"split_conditions":[4E0,3E0,1.9E1,6E0,6E0,7E0,2.2E1,1E0,1E0,4E0,-5.326853E-1,5E0,1E1,3E0,3E0,-5.755906E-1,-6.3244474E-1,-3.683351E-1,-4.8501897E-1,-3.5495433E-1,-4.2699795E-2,-5.0909024E-2,2.8030828E-1,-3.9048234E-1,1.0281666E-1,-2.3605846E-1,-3.9019294E-2,-5.965415E-1,-3.4816962E-1],"split_indices":[1,1,1,0,0,0,1,1,1,0,0,1,1,0,0,0,0,0,0,0,0,0,0,0,0,0,0,0,0],"split_type":[0,0,0,0,0,0,0,0,0,0,0,0,0,0,0,0,0,0,0,0,0,0,0,0,0,0,0,0,0],"sum_hessian":[1.109E4,1.086E3,1.0004E4,9.79E2,1.07E2,6.532E3,3.472E3,6.91E2,2.88E2,6.4E1,4.3E1,5.462E3,1.07E3,2.195E3,1.277E3,1.72E2,5.19E2,6.9E1,2.19E2,4.4E1,2E1,4.53E2,5.009E3,3.17E2,7.53E2,5.66E2,1.629E3,3.73E2,9.04E2],"tree_param":{"num_deleted":"0","num_feature":"2","num_nodes":"29","size_leaf_vector":"1"}},{"base_weights":[-2.2584111E-3,-4.980852E0,5.386445E-1,-5.153557E0,-3.3675966E0,1.4732381E0,-2.913292E0,-5.5740514E0,-4.1288652E0,-1.05223015E-1,-4.0523186E0,1.864839E0,-5.2134025E-1,-2.334604E0,-5.04104E0,-5.211369E-1,-5.722315E-1,-3.3202785E-1,-4.3673754E-1,-5.8376724E-1,-3.4310785E-1,2.416449E-1,7.40157E-3,-4.832444E-1,1.757154E-2,-3.7345973E-1,-1.3674712E-1,-5.856113E-1,-4.062236E-1],"categories":[],"categories_nodes":[],"categories_segments":[],"categories_sizes":[],"default_left":[0,0,0,0,0,0,0,0,0,0,0,0,0,0,0,0,0,0,0,0,0,0,0,0,0,0,0,0,0],"id":7,"left_children":[1,3,5,7,9,11,13,15,17,-1,19,21,23,25,27,-1,-1,-1,-1,-1,-1,-1,-1,-1,-1,-1,-1,-1,-1],"loss_changes":[2.9870033E4,2.8550195E2,3.2281998E4,3.992461E2,1.669574E2,6.1511855E3,2.6133672E3,7.388672E0,4.1233887E1,0E0,7.202844E1,6.501756E3,3.886417E3,2.26687E3,3.39208E2,0E0,0E0,0E0,0E0,0E0,0E0,0E0,0E0,0E0,0E0,0E0,0E0,0E0,0E0],"parents":[2147483647,0,0,1,1,2,2,3,3,4,4,5,5,6,6,7,7,8,8,10,10,11,11,12,12,13,13,14,14],"right_children":[2,4,6,8,10,12,14,16,18,-1,20,22,24,26,28,-1,-1,-1,-1,-1,-1,-1,-1,-1,-1,-1,-1,-1,-1],"split_conditions":[4E0,3E0,2.1E1,6E0,2E0,7E0,2.3E1,2E0,1E0,-1.05223015E-1,4E0,1.8E1,8E0,4E0,5E0,-5.211369E-1,-5.722315E-1,-3.3202785E-1,-4.3673754E-1,-5.8376724E-1,-3.4310785E-1,2.416449E-1,7.40157E-3,-4.832444E-1,1.757154E-2,-3.7345973E-1,-1.3674712E-1,-5.856113E-1,-4.062236E-1],"split_indices":[1,1,1,0,0,0,1,0,1,0,0,1,1,0,0,0,0,0,0,0,0,0,0,0,0,0,0,0,0],"split_type":[0,0,0,0,0,0,0,0,0,0,0,0,0,0,0,0,0,0,0,0,0,0,0,0,0,0,0,0,0],"sum_hessian":[1.109E4,1.086E3,1.0004E4,9.79E2,1.07E2,7.873E3,2.131E3,6.91E2,2.88E2,2.5E1,8.2E1,6.581E3,1.292E3,1.677E3,4.54E2,2.11E2,4.8E2,6.9E1,2.19E2,1.9E1,6.3E1,5.031E3,1.55E3,1.79E2,1.113E3,6.84E2,9.93E2,2.45E2,2.09E2],"tree_param":{"num_deleted":"0","num_feature":"2","num_nodes":"29","size_leaf_vector":"1"}},{"base_weights":[-2.448814E-3,-4.48543E0,4.8460793E-1,-4.6401014E0,-3.0403934E0,1.4958385E0,-2.1051784E0,-5.0182266E0,-3.7186394E0,-2.025232E0,-4.4709635E-1,-5.876539E-1,1.8155195E0,-9.750886E-1,-3.4591084E0,-4.637165E-1,-5.1353526E-1,-2.9929942E-1,-3.9326236E-1,-2.89754E-1,-5.9561776E-3,1.3315155E-1,-4.017019E-1,2.1927562E-1,1.6191822E-2,-6.208669E-2,-2.683228E-1,-4.2728457E-1,-2.3136918E-1],"categories":[],"categories_nodes":[],"categories_segments":[],"categories_sizes":[],"default_left":[0,0,0,0,0,0,0,0,0,0,0,0,0,0,0,0,0,0,0,0,0,0,0,0,0,0,0,0,0],"id":8,"left_children":[1,3,5,7,9,11,13,15,17,19,-1,21,23,25,27,-1,-1,-1,-1,-1,-1,-1,-1,-1,-1,-1,-1,-1,-1],"loss_changes":[2.4218996E4,2.288457E2,2.6204953E4,3.2279688E2,1.4778925E2,4.7939844E3,4.2961035E3,7.0722656E0,3.3104736E1,1.11280945E2,0E0,6.310456E3,3.8915254E3,9.2589124E2,1.1812959E3,0E0,0E0,0E0,0E0,0E0,0E0,0E0,0E0,0E0,0E0,0E0,0E0,0E0,0E0],"parents":[2147483647,0,0,1,1,2,2,3,3,4,4,5,5,6,6,7,7,8,8,9,9,11,11,12,12,13,13,14,14],"right_children":[2,4,6,8,10,12,14,16,18,20,-1,22,24,26,28,-1,-1,-1,-1,-1,-1,-1,-1,-1,-1,-1,-1,-1,-1],"split_conditions":[4E0,3E0,2E1,6E0,6E0,7E0,2.2E1,1E0,1E0,4E0,-4.4709635E-1,6E0,1.8E1,7E0,5E0,-4.637165E-1,-5.1353526E-1,-2.9929942E-1,-3.9326236E-1,-2.89754E-1,-5.9561776E-3,1.3315155E-1,-4.017019E-1,2.1927562E-1,1.6191822E-2,-6.208669E-2,-2.683228E-1,-4.2728457E-1,-2.3136918E-1],"split_indices":[1,1,1,0,0,1,1,1,1,0,0,0,1,0,0,0,0,0,0,0,0,0,0,0,0,0,0,0,0],"split_type":[0,0,0,0,0,0,0,0,0,0,0,0,0,0,0,0,0,0,0,0,0,0,0,0,0,0,0,0,0],"sum_hessian":[1.109E4,1.086E3,1.0004E4,9.79E2,1.07E2,7.195E3,2.809E3,6.91E2,2.88E2,6.4E1,4.3E1,9.57E2,6.238E3,1.532E3,1.277E3,1.72E2,5.19E2,6.9E1,2.19E2,4.4E1,2E1,6.14E2,3.43E2,5.079E3,1.159E3,1.27E3,2.62E2,7.45E2,5.32E2],"tree_param":{"num_deleted":"0","num_feature":"2","num_nodes":"29","size_leaf_vector":"1"}},{"base_weights":[-2.5138848E-3,-4.0391064E0,4.360447E-1,-4.1777954E0,-2.7432318E0,1.1974838E0,-2.3763413E0,-4.517816E0,-3.349172E0,-6.72445E-2,-3.3588612E0,1.5412568E0,-5.534146E-1,-1.8796799E0,-4.202762E0,-4.1994366E-1,-4.648749E-1,-2.6979706E-1,-3.5411492E-1,-5.007827E-1,-2.791077E-1,1.9916724E-1,7.895335E-3,-3.2041904E-1,3.1082744E-2,-3.1125557E-1,-1.0281713E-1,-4.847334E-1,-3.4276795E-1],"categories":[],"categories_nodes":[],"categories_segments":[],"categories_sizes":[],"default_left":[0,0,0,0,0,0,0,0,0,0,0,0,0,0,0,0,0,0,0,0,0,0,0,0,0,0,0,0,0],"id":9,"left_children":[1,3,5,7,9,11,13,15,17,-1,19,21,23,25,27,-1,-1,-1,-1,-1,-1,-1,-1,-1,-1,-1,-1,-1,-1],"loss_changes":[1.963596E4,1.8390039E2,2.1428156E4,2.6098242E2,1.3542365E2,4.7403047E3,1.9260654E3,9.325195E0,2.6575928E1,0E0,6.3732178E1,4.335039E3,2.963145E3,1.7583716E3,2.1070068E2,0E0,0E0,0E0,0E0,0E0,0E0,0E0,0E0,0E0,0E0,0E0,0E0,0E0,0E0],"parents":[2147483647,0,0,1,1,2,2,3,3,4,4,5,5,6,6,7,7,8,8,10,10,11,11,12,12,13,13,14,14],"right_children":[2,4,6,8,10,12,14,16,18,-1,20,22,24,26,28,-1,-1,-1,-1,-1,-1,-1,-1,-1,-1,-1,-1,-1,-1],"split_conditions":[4E0,3E0,2.1E1,6E0,2E0,7E0,2.3E1,2E0,1E0,-6.72445E-2,4E0,1.8E1,1E1,4E0,5E0,-4.1994366E-1,-4.648749E-1,-2.6979706E-1,-3.5411492E-1,-5.007827E-1,-2.791077E-1,1.9916724E-1,7.895335E-3,-3.2041904E-1,3.1082744E-2,-3.1125557E-1,-1.0281713E-1,-4.847334E-1,-3.4276795E-1],"split_indices":[1,1,1,0,0,0,1,0,1,0,0,1,1,0,0,0,0,0,0,0,0,0,0,0,0,0,0,0,0],"split_type":[0,0,0,0,0,0,0,0,0,0,0,0,0,0,0,0,0,0,0,0,0,0,0,0,0,0,0,0,0],"sum_hessian":[1.109E4,1.086E3,1.0004E4,9.79E2,1.07E2,7.873E3,2.131E3,6.91E2,2.88E2,2.5E1,8.2E1,6.581E3,1.292E3,1.677E3,4.54E2,2.11E2,4.8E2,6.9E1,2.19E2,1.9E1,6.3E1,5.031E3,1.55E3,3.17E2,9.75E2,6.84E2,9.93E2,2.45E2,2.09E2],"tree_param":{"num_deleted":"0","num_feature":"2","num_nodes":"29","size_leaf_vector":"1"}},{"base_weights":[-2.5942856E-3,-3.637363E0,3.9230788E-1,-3.9586985E0,-3.1719491E0,1.3577468E0,-1.4238755E0,-4.072545E0,-2.365425E0,-3.2724354E0,-2.5163302E0,-8.645178E-2,1.8738714E0,-5.983483E-1,-2.8412728E0,-3.7814736E-1,-4.2226353E-1,-6.0778677E-2,-4.5320836E-1,-3.6757767E-1,-2.7651167E-1,2.1192847E-2,-3.7612644E-1,1.0265618E-1,-2.4580252E-1,2.190456E-1,3.867776E-2,-2.5589526E-1,-3.233294E-2,-4.1222438E-1,-2.3087595E-1],"categories":[],"categories_nodes":[],"categories_segments":[],"categories_sizes":[],"default_left":[0,0,0,0,0,0,0,0,0,0,0,0,0,0,0,0,0,0,0,0,0,0,0,0,0,0,0,0,0,0,0],"id":10,"left_children":[1,3,5,7,9,11,13,15,17,19,21,23,25,27,29,-1,-1,-1,-1,-1,-1,-1,-1,-1,-1,-1,-1,-1,-1,-1,-1],"loss_changes":[1.5921205E4,1.5000977E2,1.7544842E4,1.0627246E2,2.1345703E1,4.8697715E3,4.0620571E3,1.0026367E1,1.686145E2,6.882031E1,2.1817325E2,4.5452627E3,2.2650703E3,1.1832632E3,8.62251E2,0E0,0E0,0E0,0E0,0E0,0E0,0E0,0E0,0E0,0E0,0E0,0E0,0E0,0E0,0E0,0E0],"parents":[2147483647,0,0,1,1,2,2,3,3,4,4,5,5,6,6,7,7,8,8,9,9,10,10,11,11,12,12,13,13,14,14],"right_children":[2,4,6,8,10,12,14,16,18,20,22,24,26,28,30,-1,-1,-1,-1,-1,-1,-1,-1,-1,-1,-1,-1,-1,-1,-1,-1],"split_conditions":[4E0,5E0,1.9E1,3E0,3E0,9E0,2.2E1,2E0,2E0,7E0,6E0,6E0,7E0,2E0,3E0,-3.7814736E-1,-4.2226353E-1,-6.0778677E-2,-4.5320836E-1,-3.6757767E-1,-2.7651167E-1,2.1192847E-2,-3.7612644E-1,1.0265618E-1,-2.4580252E-1,2.190456E-1,3.867776E-2,-2.5589526E-1,-3.233294E-2,-4.1222438E-1,-2.3087595E-1],"split_indices":[1,0,1,1,1,1,1,0,0,0,0,0,0,0,0,0,0,0,0,0,0,0,0,0,0,0,0,0,0,0,0],"split_type":[0,0,0,0,0,0,0,0,0,0,0,0,0,0,0,0,0,0,0,0,0,0,0,0,0,0,0,0,0,0,0],"sum_hessian":[1.109E4,1.086E3,1.0004E4,6.38E2,4.48E2,6.532E3,3.472E3,5.94E2,4.4E1,3.85E2,6.3E1,1.72E3,4.812E3,2.195E3,1.277E3,2.11E2,3.83E2,2.5E1,1.9E1,2.11E2,1.74E2,2E1,4.3E1,1.171E3,5.49E2,3.967E3,8.45E2,2.69E2,1.926E3,3.73E2,9.04E2],"tree_param":{"num_deleted":"0","num_feature":"2","num_nodes":"31","size_leaf_vector":"1"}},{"base_weights":[-2.6170134E-3,-2.6606205E0,4.4804433E-1,-3.386874E0,-1.5248667E0,1.4472373E0,-1.2817558E0,-3.6667771E0,-2.7049367E0,-6.221463E-4,-4.7235246E0,1.7570703E0,-1.01826474E-1,-5.386443E-1,-2.5576487E0,-3.3490428E-1,-3.7654334E-1,-2.0983219E-1,-2.8856555E-1,-2.0788E-1,7.812024E-2,-5.719719E-1,-3.8630477E-1,1.2920275E-1,2.225323E-1,-2.3290932E-1,6.3679226E-2,-1.66911E-1,-1.450782E-2,-2.1693794E-1,-4.4150096E-1],"categories":[],"categories_nodes":[],"categories_segments":[],"categories_sizes":[],"default_left":[0,0,0,0,0,0,0,0,0,0,0,0,0,0,0,0,0,0,0,0,0,0,0,0,0,0,0,0,0,0,0],"id":11,"left_children":[1,3,5,7,9,11,13,15,17,19,21,23,25,27,29,-1,-1,-1,-1,-1,-1,-1,-1,-1,-1,-1,-1,-1,-1,-1,-1],"loss_changes":[1.328665E4,1.3211865E3,1.639404E4,1.7714062E2,3.0667095E3,2.8856455E3,3.29148E3,9.081055E0,2.5627197E1,6.9540094E2,1.519165E2,1.0880898E3,1.6515194E3,9.7678687E2,9.120596E2,0E0,0E0,0E0,0E0,0E0,0E0,0E0,0E0,0E0,0E0,0E0,0E0,0E0,0E0,0E0,0E0],"parents":[2147483647,0,0,1,1,2,2,3,3,4,4,5,5,6,6,7,7,8,8,9,9,10,10,11,11,12,12,13,13,14,14],"right_children":[2,4,6,8,10,12,14,16,18,20,22,24,26,28,30,-1,-1,-1,-1,-1,-1,-1,-1,-1,-1,-1,-1,-1,-1,-1,-1],"split_conditions":[5E0,3E0,1.9E1,6E0,6E0,7E0,2.2E1,1E0,1E0,2E0,7E0,1.3E1,1E1,3E0,7E0,-3.3490428E-1,-3.7654334E-1,-2.0983219E-1,-2.8856555E-1,-2.0788E-1,7.812024E-2,-5.719719E-1,-3.8630477E-1,1.2920275E-1,2.225323E-1,-2.3290932E-1,6.3679226E-2,-1.66911E-1,-1.450782E-2,-2.1693794E-1,-4.4150096E-1],"split_indices":[1,1,1,0,0,0,1,1,1,0,0,1,1,0,0,0,0,0,0,0,0,0,0,0,0,0,0,0,0,0,0],"split_type":[0,0,0,0,0,0,0,0,0,0,0,0,0,0,0,0,0,0,0,0,0,0,0,0,0,0,0,0,0,0,0],"sum_hessian":[1.109E4,1.607E3,9.483E3,9.79E2,6.28E2,6.011E3,3.472E3,6.91E2,2.88E2,4.26E2,2.02E2,5.009E3,1.002E3,2.195E3,1.277E3,1.72E2,5.19E2,6.9E1,2.19E2,1.16E2,3.1E2,9.1E1,1.11E2,2.515E3,2.494E3,2.49E2,7.53E2,5.66E2,1.629E3,1.058E3,2.19E2],"tree_param":{"num_deleted":"0","num_feature":"2","num_nodes":"31","size_leaf_vector":"1"}},{"base_weights":[-2.621537E-3,-2.3959873E0,4.0317082E-1,-3.049421E0,-1.3741099E0,1.3025441E0,-1.1538218E0,-3.3011274E0,-2.4361675E0,-8.6390384E-4,-4.2558928E0,1.5814339E0,-9.181286E-2,-4.8486212E-1,-2.302399E0,-3.04527E-1,-3.407033E-1,-1.8914874E-1,-2.5984013E-1,-1.8726967E-1,7.0333324E-2,-5.153964E-1,-3.480192E-1,1.7154697E-1,1.5705673E-2,-2.0971158E-1,5.7319712E-2,-2.1377118E-1,-2.5302285E-2,-2.982066E-1,-1.3468005E-1],"categories":[],"categories_nodes":[],"categories_segments":[],"categories_sizes":[],"default_left":[0,0,0,0,0,0,0,0,0,0,0,0,0,0,0,0,0,0,0,0,0,0,0,0,0,0,0,0,0,0,0],"id":12,"left_children":[1,3,5,7,9,11,13,15,17,19,21,23,25,27,29,-1,-1,-1,-1,-1,-1,-1,-1,-1,-1,-1,-1,-1,-1,-1,-1],"loss_changes":[1.0772651E4,1.0695186E3,1.3282116E4,1.4323047E2,2.4891987E3,2.338042E3,2.6673696E3,8.375488E0,2.062268E1,5.6416266E2,1.2347998E2,9.5622754E2,1.3387491E3,8.4095636E2,8.260298E2,0E0,0E0,0E0,0E0,0E0,0E0,0E0,0E0,0E0,0E0,0E0,0E0,0E0,0E0,0E0,0E0],"parents":[2147483647,0,0,1,1,2,2,3,3,4,4,5,5,6,6,7,7,8,8,9,9,10,10,11,11,12,12,13,13,14,14],"right_children":[2,4,6,8,10,12,14,16,18,20,22,24,26,28,30,-1,-1,-1,-1,-1,-1,-1,-1,-1,-1,-1,-1,-1,-1,-1,-1],"split_conditions":[5E0,3E0,1.9E1,6E0,6E0,7E0,2.2E1,2E0,1E0,2E0,7E0,1.8E1,1E1,2E0,5E0,-3.04527E-1,-3.407033E-1,-1.8914874E-1,-2.5984013E-1,-1.8726967E-1,7.0333324E-2,-5.153964E-1,-3.480192E-1,1.7154697E-1,1.5705673E-2,-2.0971158E-1,5.7319712E-2,-2.1377118E-1,-2.5302285E-2,-2.982066E-1,-1.3468005E-1],"split_indices":[1,1,1,0,0,0,1,0,1,0,0,1,1,0,0,0,0,0,0,0,0,0,0,0,0,0,0,0,0,0,0],"split_type":[0,0,0,0,0,0,0,0,0,0,0,0,0,0,0,0,0,0,0,0,0,0,0,0,0,0,0,0,0,0,0],"sum_hessian":[1.109E4,1.607E3,9.483E3,9.79E2,6.28E2,6.011E3,3.472E3,6.91E2,2.88E2,4.26E2,2.02E2,5.009E3,1.002E3,2.195E3,1.277E3,2.11E2,4.8E2,6.9E1,2.19E2,1.16E2,3.1E2,9.1E1,1.11E2,4.578E3,4.31E2,2.49E2,7.53E2,2.69E2,1.926E3,7.45E2,5.32E2],"tree_param":{"num_deleted":"0","num_feature":"2","num_nodes":"31","size_leaf_vector":"1"}},{"base_weights":[-2.6039367E-3,-2.1576788E0,3.627865E-1,-2.7455955E0,-1.2382575E0,1.1722956E0,-1.0386333E0,-2.9119558E0,-1.9636981E0,-1.0514271E-3,-3.8345566E0,1.4233278E0,-8.278333E-2,-4.3648514E-1,-2.0724978E0,-2.6325127E-1,-3.0117267E-1,-2.6649341E-2,-2.2059989E-1,-1.6870281E-1,6.332262E-2,-4.6441704E-1,-3.13528E-1,7.993281E-2,1.7314604E-1,-1.8882425E-1,5.159535E-2,-1.6463958E-2,-1.7689627E-1,-1.7030536E-1,-3.8414484E-1],"categories":[],"categories_nodes":[],"categories_segments":[],"categories_sizes":[],"default_left":[0,0,0,0,0,0,0,0,0,0,0,0,0,0,0,0,0,0,0,0,0,0,0,0,0,0,0,0,0,0,0],"id":13,"left_children":[1,3,5,7,9,11,13,15,17,19,21,23,25,27,29,-1,-1,-1,-1,-1,-1,-1,-1,-1,-1,-1,-1,-1,-1,-1,-1],"loss_changes":[8.734321E3,8.6579297E2,1.0760456E4,1.21757324E2,2.0204429E3,1.894291E3,2.1611753E3,1.4543457E1,7.137805E1,4.576923E2,1.00366455E2,9.619121E2,1.085212E3,7.951617E2,8.286675E2,0E0,0E0,0E0,0E0,0E0,0E0,0E0,0E0,0E0,0E0,0E0,0E0,0E0,0E0,0E0,0E0],"parents":[2147483647,0,0,1,1,2,2,3,3,4,4,5,5,6,6,7,7,8,8,9,9,10,10,11,11,12,12,13,13,14,14],"right_children":[2,4,6,8,10,12,14,16,18,20,22,24,26,28,30,-1,-1,-1,-1,-1,-1,-1,-1,-1,-1,-1,-1,-1,-1,-1,-1],"split_conditions":[5E0,3E0,1.9E1,7E0,6E0,7E0,2.2E1,1E0,1E0,2E0,7E0,1.1E1,1E1,7E0,7E0,-2.6325127E-1,-3.0117267E-1,-2.6649341E-2,-2.2059989E-1,-1.6870281E-1,6.332262E-2,-4.6441704E-1,-3.13528E-1,7.993281E-2,1.7314604E-1,-1.8882425E-1,5.159535E-2,-1.6463958E-2,-1.7689627E-1,-1.7030536E-1,-3.8414484E-1],"split_indices":[1,1,1,0,0,0,1,1,1,0,0,1,1,0,0,0,0,0,0,0,0,0,0,0,0,0,0,0,0,0,0],"split_type":[0,0,0,0,0,0,0,0,0,0,0,0,0,0,0,0,0,0,0,0,0,0,0,0,0,0,0,0,0,0,0],"sum_hessian":[1.109E4,1.607E3,9.483E3,9.79E2,6.28E2,6.011E3,3.472E3,8.05E2,1.74E2,4.26E2,2.02E2,5.009E3,1.002E3,2.195E3,1.277E3,2.19E2,5.86E2,2.2E1,1.52E2,1.16E2,3.1E2,9.1E1,1.11E2,1.657E3,3.352E3,2.49E2,7.53E2,1.824E3,3.71E2,1.058E3,2.19E2],"tree_param":{"num_deleted":"0","num_feature":"2","num_nodes":"31","size_leaf_vector":"1"}},{"base_weights":[-2.553146E-3,-1.942965E0,3.2644147E-1,-2.4039938E0,-9.792076E-1,1.152138E0,-8.211696E-1,-2.6295583E0,-2.0776248E0,2.367506E-1,-3.7317927E0,5.780812E-1,1.8562076E0,-3.2499284E-1,-1.8656819E0,-2.1977358E-1,-2.8769836E-1,-2.1460624E-1,-1.6323978E-1,-1.930718E-1,9.689946E-2,-4.1848007E-1,-3.073698E-1,8.797097E-2,-8.6853854E-2,2.438513E-1,8.6293034E-2,-9.369888E-2,6.8151555E-3,-2.514182E-1,-9.545249E-2],"categories":[],"categories_nodes":[],"categories_segments":[],"categories_sizes":[],"default_left":[0,0,0,0,0,0,0,0,0,0,0,0,0,0,0,0,0,0,0,0,0,0,0,0,0,0,0,0,0,0,0],"id":14,"left_children":[1,3,5,7,9,11,13,15,17,19,21,23,25,27,29,-1,-1,-1,-1,-1,-1,-1,-1,-1,-1,-1,-1,-1,-1,-1,-1],"loss_changes":[7.080963E3,7.121128E2,8.98778E3,7.455859E1,1.7480323E3,2.2283604E3,2.0563784E3,6.1950195E1,1.0177856E1,5.779939E2,3.483667E1,1.3272427E3,1.4305703E3,6.477666E2,7.5275195E2,0E0,0E0,0E0,0E0,0E0,0E0,0E0,0E0,0E0,0E0,0E0,0E0,0E0,0E0,0E0,0E0],"parents":[2147483647,0,0,1,1,2,2,3,3,4,4,5,5,6,6,7,7,8,8,9,9,10,10,11,11,12,12,13,13,14,14],"right_children":[2,4,6,8,10,12,14,16,18,20,22,24,26,28,30,-1,-1,-1,-1,-1,-1,-1,-1,-1,-1,-1,-1,-1,-1,-1,-1],"split_conditions":[5E0,4E0,1.8E1,5E0,6E0,1.3E1,2.2E1,2E0,3E0,2E0,7E0,7E0,6E0,4E0,5E0,-2.1977358E-1,-2.8769836E-1,-2.1460624E-1,-1.6323978E-1,-1.930718E-1,9.689946E-2,-4.1848007E-1,-3.073698E-1,8.797097E-2,-8.6853854E-2,2.438513E-1,8.6293034E-2,-9.369888E-2,6.8151555E-3,-2.514182E-1,-9.545249E-2],"split_indices":[1,1,1,0,0,1,1,0,1,0,0,0,0,0,0,0,0,0,0,0,0,0,0,0,0,0,0,0,0,0,0],"split_type":[0,0,0,0,0,0,0,0,0,0,0,0,0,0,0,0,0,0,0,0,0,0,0,0,0,0,0,0,0,0,0],"sum_hessian":[1.109E4,1.607E3,9.483E3,1.086E3,5.21E2,5.515E3,3.968E3,6.38E2,4.48E2,3.62E2,1.59E2,3.039E3,2.476E3,2.691E3,1.277E3,2.36E2,4.02E2,3.85E2,6.3E1,9.1E1,2.71E2,9.1E1,6.8E1,2.515E3,5.24E2,1.56E3,9.16E2,1.052E3,1.639E3,7.45E2,5.32E2],"tree_param":{"num_deleted":"0","num_feature":"2","num_nodes":"31","size_leaf_vector":"1"}},{"base_weights":[-2.4608197E-3,-1.7497302E0,2.937867E-1,-2.164409E0,-8.8286144E-1,7.6855767E-1,-1.3437765E0,-2.3673966E0,-1.8707038E0,2.1281081E-1,-3.36315E0,1.0369847E0,-3.7433468E-2,-9.7070354E-1,-3.123605E0,-1.9788894E-1,-2.589999E-1,-2.0280717E-1,-1.6946487E-1,-1.7397451E-1,8.724518E-2,-3.7708697E-1,-2.7707824E-1,5.202737E-2,1.6707207E-1,-6.954607E-2,1.8528862E-2,-1.9259407E-1,1.20386295E-1,-2.8665152E-1,-3.7865123E-1],"categories":[],"categories_nodes":[],"categories_segments":[],"categories_sizes":[],"default_left":[0,0,0,0,0,0,0,0,0,0,0,0,0,0,0,0,0,0,0,0,0,0,0,0,0,0,0,0,0,0,0],"id":15,"left_children":[1,3,5,7,9,11,13,15,17,19,21,23,25,27,29,-1,-1,-1,-1,-1,-1,-1,-1,-1,-1,-1,-1,-1,-1,-1,-1],"loss_changes":[5.7414844E3,5.761206E2,7.374534E3,6.0376465E1,1.4192942E3,1.5908589E3,1.4126282E3,5.0137207E1,9.002808E0,4.690567E2,2.8195068E1,1.8053906E3,2.69501E2,3.666546E3,5.2033203E1,0E0,0E0,0E0,0E0,0E0,0E0,0E0,0E0,0E0,0E0,0E0,0E0,0E0,0E0,0E0,0E0],"parents":[2147483647,0,0,1,1,2,2,3,3,4,4,5,5,6,6,7,7,8,8,9,9,10,10,11,11,12,12,13,13,14,14],"right_children":[2,4,6,8,10,12,14,16,18,20,22,24,26,28,30,-1,-1,-1,-1,-1,-1,-1,-1,-1,-1,-1,-1,-1,-1,-1,-1],"split_conditions":[5E0,4E0,2.1E1,5E0,6E0,1.8E1,7E0,2E0,7E0,2E0,7E0,1.3E1,3E0,5E0,2.3E1,-1.9788894E-1,-2.589999E-1,-2.0280717E-1,-1.6946487E-1,-1.7397451E-1,8.724518E-2,-3.7708697E-1,-2.7707824E-1,5.202737E-2,1.6707207E-1,-6.954607E-2,1.8528862E-2,-1.9259407E-1,1.20386295E-1,-2.8665152E-1,-3.7865123E-1],"split_indices":[1,1,1,0,0,1,0,0,0,0,0,1,0,0,1,0,0,0,0,0,0,0,0,0,0,0,0,0,0,0,0],"split_type":[0,0,0,0,0,0,0,0,0,0,0,0,0,0,0,0,0,0,0,0,0,0,0,0,0,0,0,0,0,0,0],"sum_hessian":[1.109E4,1.607E3,9.483E3,1.086E3,5.21E2,7.352E3,2.131E3,6.38E2,4.48E2,3.62E2,1.59E2,5.515E3,1.837E3,1.763E3,3.68E2,2.36E2,4.02E2,2.31E2,2.17E2,9.1E1,2.71E2,9.1E1,6.8E1,3.039E3,2.476E3,4.64E2,1.373E3,1.225E3,5.38E2,2.69E2,9.9E1],"tree_param":{"num_deleted":"0","num_feature":"2","num_nodes":"31","size_leaf_vector":"1"}},{"base_weights":[-2.4075576E-3,-1.5757335E0,2.643481E-1,-2.0102162E0,-8.9629185E-1,6.9172484E-1,-1.2097446E0,-2.1430655E0,-1.3868643E0,2.6085313E-2,-2.8320494E0,8.86882E-1,-2.8526306E-1,-8.73674E-1,-2.8130476E0,-1.9278239E-1,-2.2200842E-1,1.2636997E-2,-1.6052794E-1,-1.1450422E-1,4.6658643E-2,-3.3978817E-1,-2.3419724E-1,1.1598625E-1,8.039296E-3,-2.4954239E-1,-6.280053E-3,-1.7335035E-1,1.0837002E-1,-2.5809252E-1,-3.4116474E-1],"categories":[],"categories_nodes":[],"categories_segments":[],"categories_sizes":[],"default_left":[0,0,0,0,0,0,0,0,0,0,0,0,0,0,0,0,0,0,0,0,0,0,0,0,0,0,0,0,0,0,0],"id":16,"left_children":[1,3,5,7,9,11,13,15,17,19,21,23,25,27,29,-1,-1,-1,-1,-1,-1,-1,-1,-1,-1,-1,-1,-1,-1,-1,-1],"loss_changes":[4.655238E3,4.7288892E2,5.9756895E3,7.818359E1,1.1231525E3,1.4022222E3,1.146313E3,9.081543E0,5.8042725E1,2.208163E2,4.833435E1,1.3492412E3,6.0214886E2,2.970705E3,4.2466797E1,0E0,0E0,0E0,0E0,0E0,0E0,0E0,0E0,0E0,0E0,0E0,0E0,0E0,0E0,0E0,0E0],"parents":[2147483647,0,0,1,1,2,2,3,3,4,4,5,5,6,6,7,7,8,8,9,9,10,10,11,11,12,12,13,13,14,14],"right_children":[2,4,6,8,10,12,14,16,18,20,22,24,26,28,30,-1,-1,-1,-1,-1,-1,-1,-1,-1,-1,-1,-1,-1,-1,-1,-1],"split_conditions":[5E0,3E0,2.1E1,7E0,6E0,7E0,7E0,1E0,1E0,2E0,7E0,1.8E1,8E0,5E0,2.3E1,-1.9278239E-1,-2.2200842E-1,1.2636997E-2,-1.6052794E-1,-1.1450422E-1,4.6658643E-2,-3.3978817E-1,-2.3419724E-1,1.1598625E-1,8.039296E-3,-2.4954239E-1,-6.280053E-3,-1.7335035E-1,1.0837002E-1,-2.5809252E-1,-3.4116474E-1],"split_indices":[1,1,1,0,0,0,0,1,1,0,0,1,1,0,1,0,0,0,0,0,0,0,0,0,0,0,0,0,0,0,0],"split_type":[0,0,0,0,0,0,0,0,0,0,0,0,0,0,0,0,0,0,0,0,0,0,0,0,0,0,0,0,0,0,0],"sum_hessian":[1.109E4,1.607E3,9.483E3,9.79E2,6.28E2,7.352E3,2.131E3,8.05E2,1.74E2,4.26E2,2.02E2,6.128E3,1.224E3,1.763E3,3.68E2,2.19E2,5.86E2,2.2E1,1.52E2,1.16E2,3.1E2,9.1E1,1.11E2,4.578E3,1.55E3,1.11E2,1.113E3,1.225E3,5.38E2,2.69E2,9.9E1],"tree_param":{"num_deleted":"0","num_feature":"2","num_nodes":"31","size_leaf_vector":"1"}},{"base_weights":[-2.347017E-3,-1.4189093E0,2.3782954E-1,-1.7577908E0,-7.105126E-1,6.2253463E-1,-1.0890816E0,-1.9274856E0,-1.5123726E0,1.8516268E-1,-2.738135E0,7.982143E-1,-2.5694543E-1,-7.863434E-1,-2.5333667E0,-1.5814762E-1,-2.1261874E-1,-1.5682548E-1,-1.1517014E-1,-1.454402E-1,7.390406E-2,-3.0617866E-1,-2.2669165E-1,1.04390204E-1,7.235866E-3,-1.551223E-1,7.484381E-3,-1.5602945E-1,9.755314E-2,-2.3237883E-1,-3.0738947E-1],"categories":[],"categories_nodes":[],"categories_segments":[],"categories_sizes":[],"default_left":[0,0,0,0,0,0,0,0,0,0,0,0,0,0,0,0,0,0,0,0,0,0,0,0,0,0,0,0,0,0,0],"id":17,"left_children":[1,3,5,7,9,11,13,15,17,19,21,23,25,27,29,-1,-1,-1,-1,-1,-1,-1,-1,-1,-1,-1,-1,-1,-1,-1,-1],"loss_changes":[3.7737734E3,3.8477173E2,4.8419707E3,4.2354004E1,9.485066E2,1.1362935E3,9.3020435E2,4.0570312E1,7.2436523E0,3.307219E2,1.7460938E1,1.0929321E3,5.2616455E2,2.4069214E3,3.4658447E1,0E0,0E0,0E0,0E0,0E0,0E0,0E0,0E0,0E0,0E0,0E0,0E0,0E0,0E0,0E0,0E0],"parents":[2147483647,0,0,1,1,2,2,3,3,4,4,5,5,6,6,7,7,8,8,9,9,10,10,11,11,12,12,13,13,14,14],"right_children":[2,4,6,8,10,12,14,16,18,20,22,24,26,28,30,-1,-1,-1,-1,-1,-1,-1,-1,-1,-1,-1,-1,-1,-1,-1,-1],"split_conditions":[5E0,4E0,2.1E1,5E0,6E0,7E0,7E0,2E0,3E0,2E0,7E0,1.8E1,1E1,5E0,2.3E1,-1.5814762E-1,-2.1261874E-1,-1.5682548E-1,-1.1517014E-1,-1.454402E-1,7.390406E-2,-3.0617866E-1,-2.2669165E-1,1.04390204E-1,7.235866E-3,-1.551223E-1,7.484381E-3,-1.5602945E-1,9.755314E-2,-2.3237883E-1,-3.0738947E-1],"split_indices":[1,1,1,0,0,0,0,0,1,0,0,1,1,0,1,0,0,0,0,0,0,0,0,0,0,0,0,0,0,0,0],"split_type":[0,0,0,0,0,0,0,0,0,0,0,0,0,0,0,0,0,0,0,0,0,0,0,0,0,0,0,0,0,0,0],"sum_hessian":[1.109E4,1.607E3,9.483E3,1.086E3,5.21E2,7.352E3,2.131E3,6.38E2,4.48E2,3.62E2,1.59E2,6.128E3,1.224E3,1.763E3,3.68E2,2.36E2,4.02E2,3.85E2,6.3E1,9.1E1,2.71E2,9.1E1,6.8E1,4.578E3,1.55E3,2.49E2,9.75E2,1.225E3,5.38E2,2.69E2,9.9E1],"tree_param":{"num_deleted":"0","num_feature":"2","num_nodes":"31","size_leaf_vector":"1"}},{"base_weights":[-2.2822558E-3,-1.2777939E0,2.1397933E-1,-1.6310138E0,-7.254358E-1,7.6245534E-1,-5.483305E-1,-1.7457843E0,-1.0930934E0,3.152367E-2,-2.3140874E0,3.079389E-1,1.3199716E0,-3.3553728E-1,-2.1910114E0,-1.7898887E-1,-1.4652094E-1,2.6428927E-2,-1.29E-1,-8.846048E-2,3.7607517E-2,-2.7589354E-1,-1.9280149E-1,5.194785E-2,-7.064259E-2,1.8076175E-1,4.8841715E-2,-1.1257017E-1,-4.707066E-3,-2.5822017E-1,-1.7223267E-1],"categories":[],"categories_nodes":[],"categories_segments":[],"categories_sizes":[],"default_left":[0,0,0,0,0,0,0,0,0,0,0,0,0,0,0,0,0,0,0,0,0,0,0,0,0,0,0,0,0,0,0],"id":18,"left_children":[1,3,5,7,9,11,13,15,17,19,21,23,25,27,29,-1,-1,-1,-1,-1,-1,-1,-1,-1,-1,-1,-1,-1,-1,-1,-1],"loss_changes":[3.0596611E3,3.1254346E2,3.9657605E3,5.8594482E1,7.5647363E2,1.3973494E3,1.386634E3,7.3513184E0,4.7114487E1,1.3511668E2,2.9544678E1,6.52685E2,1.0035508E3,8.011423E2,7.8974365E1,0E0,0E0,0E0,0E0,0E0,0E0,0E0,0E0,0E0,0E0,0E0,0E0,0E0,0E0,0E0,0E0],"parents":[2147483647,0,0,1,1,2,2,3,3,4,4,5,5,6,6,7,7,8,8,9,9,10,10,11,11,12,12,13,13,14,14],"right_children":[2,4,6,8,10,12,14,16,18,20,22,24,26,28,30,-1,-1,-1,-1,-1,-1,-1,-1,-1,-1,-1,-1,-1,-1,-1,-1],"split_conditions":[5E0,3E0,1.8E1,7E0,6E0,1.3E1,2.3E1,6E0,1E0,2E0,7E0,7E0,6E0,3E0,5E0,-1.7898887E-1,-1.4652094E-1,2.6428927E-2,-1.29E-1,-8.846048E-2,3.7607517E-2,-2.7589354E-1,-1.9280149E-1,5.194785E-2,-7.064259E-2,1.8076175E-1,4.8841715E-2,-1.1257017E-1,-4.707066E-3,-2.5822017E-1,-1.7223267E-1],"split_indices":[1,1,1,0,0,1,1,0,1,0,0,0,0,0,0,0,0,0,0,0,0,0,0,0,0,0,0,0,0,0,0],"split_type":[0,0,0,0,0,0,0,0,0,0,0,0,0,0,0,0,0,0,0,0,0,0,0,0,0,0,0,0,0,0,0],"sum_hessian":[1.109E4,1.607E3,9.483E3,9.79E2,6.28E2,5.515E3,3.968E3,8.05E2,1.74E2,4.26E2,2.02E2,3.039E3,2.476E3,3.514E3,4.54E2,6.91E2,1.14E2,2.2E1,1.52E2,1.16E2,3.1E2,9.1E1,1.11E2,2.515E3,5.24E2,1.56E3,9.16E2,9.39E2,2.575E3,2.45E2,2.09E2],"tree_param":{"num_deleted":"0","num_feature":"2","num_nodes":"31","size_leaf_vector":"1"}},{"base_weights":[-2.1698598E-3,-1.1506037E0,1.9254585E-1,-1.4276382E0,-5.7150954E-1,5.1108986E-1,-9.061626E-1,-1.5665904E0,-1.2267071E0,1.6054961E-1,-2.2287967E0,6.564329E-1,-2.1651731E-1,-6.2833625E-1,-2.2318525E0,-1.2553114E-1,-1.745763E-1,-1.3443178E-1,-1.09591626E-1,-1.2230432E-1,6.279393E-2,-2.486041E-1,-1.853503E-1,8.440532E-2,1.0210047E-2,-2.0243602E-1,-3.4564962E-3,-1.3072376E-1,9.170466E-2,-2.0875803E-1,-2.599069E-1],"categories":[],"categories_nodes":[],"categories_segments":[],"categories_sizes":[],"default_left":[0,0,0,0,0,0,0,0,0,0,0,0,0,0,0,0,0,0,0,0,0,0,0,0,0,0,0,0,0,0,0],"id":19,"left_children":[1,3,5,7,9,11,13,15,17,19,21,23,25,27,29,-1,-1,-1,-1,-1,-1,-1,-1,-1,-1,-1,-1,-1,-1,-1,-1],"loss_changes":[2.4803699E3,2.5715405E2,3.3197395E3,2.8427002E1,6.3366516E2,7.7774146E2,7.838379E2,3.3447266E1,5.4334717E0,2.3551175E2,1.0838867E1,6.373545E2,4.0288312E2,1.8519211E3,1.4123657E1,0E0,0E0,0E0,0E0,0E0,0E0,0E0,0E0,0E0,0E0,0E0,0E0,0E0,0E0,0E0,0E0],"parents":[2147483647,0,0,1,1,2,2,3,3,4,4,5,5,6,6,7,7,8,8,9,9,10,10,11,11,12,12,13,13,14,14],"right_children":[2,4,6,8,10,12,14,16,18,20,22,24,26,28,30,-1,-1,-1,-1,-1,-1,-1,-1,-1,-1,-1,-1,-1,-1,-1,-1],"split_conditions":[5E0,4E0,2.1E1,5E0,6E0,7E0,7E0,2E0,7E0,2E0,7E0,1.8E1,8E0,5E0,2.3E1,-1.2553114E-1,-1.745763E-1,-1.3443178E-1,-1.09591626E-1,-1.2230432E-1,6.279393E-2,-2.486041E-1,-1.853503E-1,8.440532E-2,1.0210047E-2,-2.0243602E-1,-3.4564962E-3,-1.3072376E-1,9.170466E-2,-2.0875803E-1,-2.599069E-1],"split_indices":[1,1,1,0,0,0,0,0,0,0,0,1,1,0,1,0,0,0,0,0,0,0,0,0,0,0,0,0,0,0,0],"split_type":[0,0,0,0,0,0,0,0,0,0,0,0,0,0,0,0,0,0,0,0,0,0,0,0,0,0,0,0,0,0,0],"sum_hessian":[1.109E4,1.607E3,9.483E3,1.086E3,5.21E2,7.352E3,2.131E3,6.38E2,4.48E2,3.62E2,1.59E2,6.128E3,1.224E3,1.763E3,3.68E2,2.36E2,4.02E2,2.31E2,2.17E2,9.1E1,2.71E2,9.1E1,6.8E1,4.578E3,1.55E3,1.11E2,1.113E3,1.225E3,5.38E2,2.69E2,9.9E1],"tree_param":{"num_deleted":"0","num_feature":"2","num_nodes":"31","size_leaf_vector":"1"}},{"base_weights":[-2.1024682E-3,-1.0361886E0,1.7322573E-1,-1.324692E0,-5.850445E-1,5.1935685E-1,-6.4905137E-1,-1.4205985E0,-8.7540466E-1,3.5878856E-2,-1.8882427E0,7.509306E-1,1.0439807E-1,-4.0071508E-1,-1.8476533E0,-1.2573034E-1,-1.4793794E-1,3.4383647E-2,-1.0529677E-1,-1.3751723E-2,1.6286172E-1,-2.2401395E-1,-1.5823254E-1,3.4603417E-2,1.0855781E-1,-1.765596E-1,3.0128226E-2,-1.05568804E-1,8.596041E-2,-1.3061582E-1,-2.0099373E-1],"categories":[],"categories_nodes":[],"categories_segments":[],"categories_sizes":[],"default_left":[0,0,0,0,0,0,0,0,0,0,0,0,0,0,0,0,0,0,0,0,0,0,0,0,0,0,0,0,0,0,0],"id":20,"left_children":[1,3,5,7,9,11,13,15,17,19,21,23,25,27,29,-1,-1,-1,-1,-1,-1,-1,-1,-1,-1,-1,-1,-1,-1,-1,-1],"loss_changes":[2.0110271E3,2.0851685E2,2.6996323E3,4.098413E1,5.0904596E2,6.4134607E2,8.356738E2,5.876343E0,3.8248184E1,1.18150505E2,1.8308594E1,5.8009595E2,8.8119995E2,1.9234386E3,3.9730957E1,0E0,0E0,0E0,0E0,0E0,0E0,0E0,0E0,0E0,0E0,0E0,0E0,0E0,0E0,0E0,0E0],"parents":[2147483647,0,0,1,1,2,2,3,3,4,4,5,5,6,6,7,7,8,8,9,9,10,10,11,11,12,12,13,13,14,14],"right_children":[2,4,6,8,10,12,14,16,18,20,22,24,26,28,30,-1,-1,-1,-1,-1,-1,-1,-1,-1,-1,-1,-1,-1,-1,-1,-1],"split_conditions":[5E0,3E0,2E1,7E0,6E0,6E0,7E0,1E0,1E0,5E0,7E0,1.3E1,8E0,5E0,2.1E1,-1.2573034E-1,-1.4793794E-1,3.4383647E-2,-1.0529677E-1,-1.3751723E-2,1.6286172E-1,-2.2401395E-1,-1.5823254E-1,3.4603417E-2,1.0855781E-1,-1.765596E-1,3.0128226E-2,-1.05568804E-1,8.596041E-2,-1.3061582E-1,-2.0099373E-1],"split_indices":[1,1,1,0,0,0,0,1,1,0,0,1,1,0,1,0,0,0,0,0,0,0,0,0,0,0,0,0,0,0,0],"split_type":[0,0,0,0,0,0,0,0,0,0,0,0,0,0,0,0,0,0,0,0,0,0,0,0,0,0,0,0,0,0,0],"sum_hessian":[1.109E4,1.607E3,9.483E3,9.79E2,6.28E2,6.674E3,2.809E3,8.05E2,1.74E2,4.26E2,2.02E2,4.283E3,2.391E3,2.328E3,4.81E2,2.19E2,5.86E2,2.2E1,1.52E2,3.85E2,4.1E1,9.1E1,1.11E2,1.939E3,2.344E3,2.27E2,2.164E3,1.532E3,7.96E2,1.13E2,3.68E2],"tree_param":{"num_deleted":"0","num_feature":"2","num_nodes":"31","size_leaf_vector":"1"}},{"base_weights":[-1.9763657E-3,-9.329289E-1,1.5586565E-1,-1.1624429E0,-4.5320725E-1,5.754153E-1,-4.2725146E-1,-1.256416E0,-9.4495493E-1,1.4782758E-1,-1.8139725E0,1.9763124E-1,1.038834E0,-2.5094998E-1,-1.7882898E0,-1.3152118E-1,-6.1113775E-2,-7.714387E-2,-1.22251764E-1,-1.0884663E-1,5.6544226E-2,-2.0185602E-1,-1.5148994E-1,3.591427E-2,-5.767696E-2,1.4341311E-1,3.6479093E-2,-1.2542461E-1,-8.724639E-3,-2.0896986E-1,-1.4266953E-1],"categories":[],"categories_nodes":[],"categories_segments":[],"categories_sizes":[],"default_left":[0,0,0,0,0,0,0,0,0,0,0,0,0,0,0,0,0,0,0,0,0,0,0,0,0,0,0,0,0,0,0],"id":21,"left_children":[1,3,5,7,9,11,13,15,17,19,21,23,25,27,29,-1,-1,-1,-1,-1,-1,-1,-1,-1,-1,-1,-1,-1,-1,-1,-1],"loss_changes":[1.6298949E3,1.7651868E2,2.3204739E3,2.1028809E1,4.2719485E2,9.6549304E2,9.51925E2,2.7878662E1,1.504657E1,1.8803036E2,6.7319336E0,3.804339E2,6.5946655E2,5.772053E2,4.6608032E1,0E0,0E0,0E0,0E0,0E0,0E0,0E0,0E0,0E0,0E0,0E0,0E0,0E0,0E0,0E0,0E0],"parents":[2147483647,0,0,1,1,2,2,3,3,4,4,5,5,6,6,7,7,8,8,9,9,10,10,11,11,12,12,13,13,14,14],"right_children":[2,4,6,8,10,12,14,16,18,20,22,24,26,28,30,-1,-1,-1,-1,-1,-1,-1,-1,-1,-1,-1,-1,-1,-1,-1,-1],"split_conditions":[5E0,4E0,1.8E1,6E0,6E0,1.3E1,2.3E1,3E0,2E0,2E0,7E0,7E0,6E0,2E0,5E0,-1.3152118E-1,-6.1113775E-2,-7.714387E-2,-1.22251764E-1,-1.0884663E-1,5.6544226E-2,-2.0185602E-1,-1.5148994E-1,3.591427E-2,-5.767696E-2,1.4341311E-1,3.6479093E-2,-1.2542461E-1,-8.724639E-3,-2.0896986E-1,-1.4266953E-1],"split_indices":[1,1,1,0,0,1,1,1,1,0,0,0,0,0,0,0,0,0,0,0,0,0,0,0,0,0,0,0,0,0,0],"split_type":[0,0,0,0,0,0,0,0,0,0,0,0,0,0,0,0,0,0,0,0,0,0,0,0,0,0,0,0,0,0,0],"sum_hessian":[1.109E4,1.607E3,9.483E3,1.086E3,5.21E2,5.515E3,3.968E3,7.55E2,3.31E2,3.62E2,1.59E2,3.039E3,2.476E3,3.514E3,4.54E2,6.91E2,6.4E1,2.06E2,1.25E2,9.1E1,2.71E2,9.1E1,6.8E1,2.515E3,5.24E2,1.56E3,9.16E2,4.92E2,3.022E3,2.45E2,2.09E2],"tree_param":{"num_deleted":"0","num_feature":"2","num_nodes":"31","size_leaf_vector":"1"}},{"base_weights":[-1.8802114E-3,-7.855023E-1,1.5082628E-1,-1.0465593E0,-3.9192772E-1,5.5066645E-1,-3.8464898E-1,-1.1889554E0,-9.195711E-1,5.010356E-1,-1.190361E0,2.8934252E-1,1.052755E0,-2.2589347E-1,-1.6102334E0,-8.807328E-2,-1.4521782E-1,-9.99267E-2,-7.830139E-2,1.799365E-2,1.411801E-1,-6.715762E-2,-1.6397342E-1,4.4463262E-2,-4.2356886E-2,1.540579E-1,5.395738E-2,-5.755124E-3,-1.1197871E-1,-1.881578E-1,-1.284705E-1],"categories":[],"categories_nodes":[],"categories_segments":[],"categories_sizes":[],"default_left":[0,0,0,0,0,0,0,0,0,0,0,0,0,0,0,0,0,0,0,0,0,0,0,0,0,0,0,0,0,0,0],"id":22,"left_children":[1,3,5,7,9,11,13,15,17,19,21,23,25,27,29,-1,-1,-1,-1,-1,-1,-1,-1,-1,-1,-1,-1,-1,-1,-1,-1],"loss_changes":[1.327314E3,1.854563E2,1.987744E3,1.85625E1,5.160748E2,6.970646E2,7.718778E2,4.0016724E1,5.51886E0,9.976247E1,8.7953674E1,3.8733447E2,4.5454114E2,5.288729E2,3.777295E1,0E0,0E0,0E0,0E0,0E0,0E0,0E0,0E0,0E0,0E0,0E0,0E0,0E0,0E0,0E0,0E0],"parents":[2147483647,0,0,1,1,2,2,3,3,4,4,5,5,6,6,7,7,8,8,9,9,10,10,11,11,12,12,13,13,14,14],"right_children":[2,4,6,8,10,12,14,16,18,20,22,24,26,28,30,-1,-1,-1,-1,-1,-1,-1,-1,-1,-1,-1,-1,-1,-1,-1,-1],"split_conditions":[6E0,4E0,1.8E1,4E0,4E0,1.5E1,2.3E1,2E0,7E0,5E0,6E0,7E0,5E0,7E0,5E0,-8.807328E-2,-1.4521782E-1,-9.99267E-2,-7.830139E-2,1.799365E-2,1.411801E-1,-6.715762E-2,-1.6397342E-1,4.4463262E-2,-4.2356886E-2,1.540579E-1,5.395738E-2,-5.755124E-3,-1.1197871E-1,-1.881578E-1,-1.284705E-1],"split_indices":[1,1,1,0,0,1,1,0,0,1,0,0,0,0,0,0,0,0,0,0,0,0,0,0,0,0,0,0,0,0,0],"split_type":[0,0,0,0,0,0,0,0,0,0,0,0,0,0,0,0,0,0,0,0,0,0,0,0,0,0,0,0,0,0,0],"sum_hessian":[1.109E4,1.808E3,9.282E3,1.086E3,7.22E2,5.314E3,3.968E3,5.08E2,5.78E2,3.41E2,3.81E2,3.496E3,1.818E3,3.514E3,4.54E2,2.36E2,2.72E2,3.61E2,2.17E2,2.53E2,8.8E1,1.78E2,2.03E2,2.871E3,6.25E2,9.31E2,8.87E2,2.958E3,5.56E2,2.45E2,2.09E2],"tree_param":{"num_deleted":"0","num_feature":"2","num_nodes":"31","size_leaf_vector":"1"}},{"base_weights":[-1.756196E-3,1.13062285E-1,-8.834673E-1,-7.0721936E-1,2.9839534E-1,-1.66879E0,-5.5794895E-1,-3.0350536E-1,-9.149083E-1,4.956388E-1,-9.114676E-2,-2.069081E0,-1.3631371E0,-1.6552107E-1,-1.7790742E-1,-6.447113E-2,3.57184E-1,-8.0920525E-2,-1.6288148E-1,1.8605938E-2,8.5026145E-2,4.970426E-3,-8.1807755E-2,-2.2537191E-1,-1.6178031E-1,-9.610974E-2,-1.9435969E-1,-7.790222E-2,5.6378283E-2],"categories":[],"categories_nodes":[],"categories_segments":[],"categories_sizes":[],"default_left":[0,0,0,0,0,0,0,0,0,0,0,0,0,0,0,0,0,0,0,0,0,0,0,0,0,0,0,0,0],"id":23,"left_children":[1,3,5,7,9,11,13,15,17,19,21,23,25,27,-1,-1,-1,-1,-1,-1,-1,-1,-1,-1,-1,-1,-1,-1,-1],"loss_changes":[1.1229165E3,1.4921874E3,3.2577295E2,1.5140143E2,6.1518317E2,4.2938477E1,4.333847E2,8.168339E2,8.878369E1,5.83343E2,2.756717E2,9.685547E0,4.830609E1,3.073753E2,0E0,0E0,0E0,0E0,0E0,0E0,0E0,0E0,0E0,0E0,0E0,0E0,0E0,0E0,0E0],"parents":[2147483647,0,0,1,1,2,2,3,3,4,4,5,5,6,6,7,7,8,8,9,9,10,10,11,11,12,12,13,13],"right_children":[2,4,6,8,10,12,14,16,18,20,22,24,26,28,-1,-1,-1,-1,-1,-1,-1,-1,-1,-1,-1,-1,-1,-1,-1],"split_conditions":[2.2E1,6E0,3E0,3E0,1.8E1,2E0,7E0,5E0,5E0,1.3E1,7E0,2.3E1,2.3E1,5E0,-1.7790742E-1,-6.447113E-2,3.57184E-1,-8.0920525E-2,-1.6288148E-1,1.8605938E-2,8.5026145E-2,4.970426E-3,-8.1807755E-2,-2.2537191E-1,-1.6178031E-1,-9.610974E-2,-1.9435969E-1,-7.790222E-2,5.6378283E-2],"split_indices":[1,1,0,0,1,0,0,1,1,1,0,1,1,0,0,0,0,0,0,0,0,0,0,0,0,0,0,0,0],"split_type":[0,0,0,0,0,0,0,0,0,0,0,0,0,0,0,0,0,0,0,0,0,0,0,0,0,0,0,0,0],"sum_hessian":[1.109E4,9.813E3,1.277E3,1.808E3,8.005E3,3.73E2,9.04E2,6.15E2,1.193E3,5.314E3,2.691E3,1.59E2,2.14E2,6.85E2,2.19E2,5.66E2,4.9E1,1.041E3,1.52E2,2.838E3,2.476E3,2.255E3,4.36E2,1.1E2,4.9E1,1.28E2,8.6E1,3.72E2,3.13E2],"tree_param":{"num_deleted":"0","num_feature":"2","num_nodes":"29","size_leaf_vector":"1"}},{"base_weights":[-1.6528096E-3,1.01763785E-1,-7.958068E-1,-4.6090958E-1,3.271237E-1,-1.5037228E0,-5.0237435E-1,-2.401661E-1,-9.432158E-1,5.822076E-1,-8.206069E-2,-1.8645927E0,-1.2281743E0,-1.490003E-1,-1.6019754E-1,-9.987651E-2,1.8474542E-2,-1.11364685E-1,-1.9130874E-2,3.7786886E-2,8.626147E-2,-4.8753466E-2,1.7833333E-2,-2.0303777E-1,-1.4592585E-1,-8.657326E-2,-1.7514712E-1,-7.0132874E-2,5.075841E-2],"categories":[],"categories_nodes":[],"categories_segments":[],"categories_sizes":[],"default_left":[0,0,0,0,0,0,0,0,0,0,0,0,0,0,0,0,0,0,0,0,0,0,0,0,0,0,0,0,0],"id":24,"left_children":[1,3,5,7,9,11,13,15,17,19,21,23,25,27,-1,-1,-1,-1,-1,-1,-1,-1,-1,-1,-1,-1,-1,-1,-1],"loss_changes":[9.1097046E2,1.2446056E3,2.6471783E2,2.9862335E2,7.315173E2,3.4899475E1,3.514176E2,6.2132874E2,1.1268567E2,2.4702966E2,2.8431638E2,7.7888794E0,3.9261597E1,2.49134E2,0E0,0E0,0E0,0E0,0E0,0E0,0E0,0E0,0E0,0E0,0E0,0E0,0E0,0E0,0E0],"parents":[2147483647,0,0,1,1,2,2,3,3,4,4,5,5,6,6,7,7,8,8,9,9,10,10,11,11,12,12,13,13],"right_children":[2,4,6,8,10,12,14,16,18,20,22,24,26,28,-1,-1,-1,-1,-1,-1,-1,-1,-1,-1,-1,-1,-1,-1,-1],"split_conditions":[2.2E1,9E0,3E0,6E0,1.8E1,2E0,7E0,3E0,8E0,1.5E1,4E0,2.3E1,2.3E1,5E0,-1.6019754E-1,-9.987651E-2,1.8474542E-2,-1.11364685E-1,-1.9130874E-2,3.7786886E-2,8.626147E-2,-4.8753466E-2,1.7833333E-2,-2.0303777E-1,-1.4592585E-1,-8.657326E-2,-1.7514712E-1,-7.0132874E-2,5.075841E-2],"split_indices":[1,1,0,0,1,0,0,1,1,1,0,1,1,0,0,0,0,0,0,0,0,0,0,0,0,0,0,0,0],"split_type":[0,0,0,0,0,0,0,0,0,0,0,0,0,0,0,0,0,0,0,0,0,0,0,0,0,0,0,0,0],"sum_hessian":[1.109E4,9.813E3,1.277E3,2.806E3,7.007E3,3.73E2,9.04E2,1.926E3,8.8E2,4.316E3,2.691E3,1.59E2,2.14E2,6.85E2,2.19E2,6.91E2,1.235E3,7.17E2,1.63E2,2.498E3,1.818E3,1.052E3,1.639E3,1.1E2,4.9E1,1.28E2,8.6E1,3.72E2,3.13E2],"tree_param":{"num_deleted":"0","num_feature":"2","num_nodes":"29","size_leaf_vector":"1"}},{"base_weights":[-1.5694833E-3,5.2408915E-2,-1.2634742E0,-5.713997E-1,1.8021697E-1,-1.437522E0,-1.053573E0,-2.2311054E-1,-7.5060797E-1,4.0098402E-1,-1.5365416E-1,-1.2736851E0,-1.8312597E-1,-1.1718459E-2,-1.3082415E0,-5.249045E-2,3.203695E-1,-6.474857E-2,-1.4480118E-1,1.4700375E-2,6.919202E-2,-5.9750956E-2,1.4148153E-2,-1.4935875E-1,-5.3129416E-2,-9.378391E-2,-1.5396248E-1],"categories":[],"categories_nodes":[],"categories_segments":[],"categories_sizes":[],"default_left":[0,0,0,0,0,0,0,0,0,0,0,0,0,0,0,0,0,0,0,0,0,0,0,0,0,0,0],"id":25,"left_children":[1,3,5,7,9,11,13,15,17,19,21,23,-1,-1,25,-1,-1,-1,-1,-1,-1,-1,-1,-1,-1,-1,-1],"loss_changes":[7.555363E2,8.481671E2,1.510791E1,1.1274365E2,6.508273E2,1.3536743E1,4.9925095E1,6.387422E2,8.4932434E1,3.9263458E2,4.6054095E2,2.8102386E1,0E0,0E0,1.2697388E1,0E0,0E0,0E0,0E0,0E0,0E0,0E0,0E0,0E0,0E0,0E0,0E0],"parents":[2147483647,0,0,1,1,2,2,3,3,4,4,5,5,6,6,7,7,8,8,9,9,10,10,11,11,14,14],"right_children":[2,4,6,8,10,12,14,16,18,20,22,24,-1,-1,26,-1,-1,-1,-1,-1,-1,-1,-1,-1,-1,-1,-1],"split_conditions":[2.3E1,6E0,5E0,3E0,1.8E1,4E0,6E0,5E0,5E0,1.3E1,4E0,3E0,-1.8312597E-1,-1.1718459E-2,7E0,-5.249045E-2,3.203695E-1,-6.474857E-2,-1.4480118E-1,1.4700375E-2,6.919202E-2,-5.9750956E-2,1.4148153E-2,-1.4935875E-1,-5.3129416E-2,-9.378391E-2,-1.5396248E-1],"split_indices":[1,1,0,0,1,0,0,1,1,1,0,0,0,0,0,0,0,0,0,0,0,0,0,0,0,0,0],"split_type":[0,0,0,0,0,0,0,0,0,0,0,0,0,0,0,0,0,0,0,0,0,0,0,0,0,0,0],"sum_hessian":[1.109E4,1.0636E4,4.54E2,1.808E3,8.828E3,2.45E2,2.09E2,6.15E2,1.193E3,5.314E3,3.514E3,1.76E2,6.9E1,4.5E1,1.64E2,5.66E2,4.9E1,1.041E3,1.52E2,2.838E3,2.476E3,1.403E3,2.111E3,1.35E2,4.1E1,6.5E1,9.9E1],"tree_param":{"num_deleted":"0","num_feature":"2","num_nodes":"27","size_leaf_vector":"1"}},{"base_weights":[-1.4620252E-3,8.444815E-2,-6.6118115E-1,-3.832753E-1,2.717791E-1,-1.2630471E0,-4.117236E-1,-1.8726483E-1,-8.115714E-1,4.7806495E-1,-5.913019E-2,-1.5934945E0,-1.0112581E0,-1.0029609E-1,-1.38094E-1,-7.9782985E-2,2.0674063E-2,-9.531226E-2,-1.86905E-2,5.7787538E-2,2.5430596E-3,7.827883E-3,-7.6836504E-2,-1.7699564E-1,-1.1698796E-1,-7.2054274E-2,-1.4306954E-1,2.737124E-2,-8.8847555E-2],"categories":[],"categories_nodes":[],"categories_segments":[],"categories_sizes":[],"default_left":[0,0,0,0,0,0,0,0,0,0,0,0,0,0,0,0,0,0,0,0,0,0,0,0,0,0,0,0,0],"id":26,"left_children":[1,3,5,7,9,11,13,15,17,19,21,23,25,27,-1,-1,-1,-1,-1,-1,-1,-1,-1,-1,-1,-1,-1,-1,-1],"loss_changes":[6.286559E2,8.5999774E2,1.9135895E2,2.354972E2,4.784077E2,2.950647E1,2.7302728E2,4.637355E2,7.77218E1,1.9501709E2,2.624097E2,9.889648E0,2.5185532E1,2.0246623E2,0E0,0E0,0E0,0E0,0E0,0E0,0E0,0E0,0E0,0E0,0E0,0E0,0E0,0E0,0E0],"parents":[2147483647,0,0,1,1,2,2,3,3,4,4,5,5,6,6,7,7,8,8,9,9,10,10,11,11,12,12,13,13],"right_children":[2,4,6,8,10,12,14,16,18,20,22,24,26,28,-1,-1,-1,-1,-1,-1,-1,-1,-1,-1,-1,-1,-1,-1,-1],"split_conditions":[2.2E1,9E0,3E0,6E0,1.8E1,2E0,7E0,4E0,8E0,7E0,7E0,2.3E1,2.3E1,2.3E1,-1.38094E-1,-7.9782985E-2,2.0674063E-2,-9.531226E-2,-1.86905E-2,5.7787538E-2,2.5430596E-3,7.827883E-3,-7.6836504E-2,-1.7699564E-1,-1.1698796E-1,-7.2054274E-2,-1.4306954E-1,2.737124E-2,-8.8847555E-2],"split_indices":[1,1,0,0,1,0,0,1,1,0,0,1,1,1,0,0,0,0,0,0,0,0,0,0,0,0,0,0,0],"split_type":[0,0,0,0,0,0,0,0,0,0,0,0,0,0,0,0,0,0,0,0,0,0,0,0,0,0,0,0,0],"sum_hessian":[1.109E4,9.813E3,1.277E3,2.806E3,7.007E3,3.73E2,9.04E2,1.926E3,8.8E2,4.316E3,2.691E3,1.59E2,2.14E2,6.85E2,2.19E2,7.55E2,1.171E3,7.17E2,1.63E2,3.536E3,7.8E2,2.255E3,4.36E2,1.1E2,4.9E1,1.28E2,8.6E1,4.65E2,2.2E2],"tree_param":{"num_deleted":"0","num_feature":"2","num_nodes":"29","size_leaf_vector":"1"}},{"base_weights":[-1.3958643E-3,1.03970736E-1,-4.442117E-1,-3.4500933E-1,3.0874535E-1,-2.6948696E-1,-1.2782773E-1,5.560002E-2,-5.3041667E-1,-2.4670249E-2,4.2343292E-1,-7.132635E-1,7.404193E-1,-8.148116E-2,6.33059E-2,-6.6018835E-2,-1.9434512E-2,-1.7335053E-1,2.33544E-2,5.7664465E-2,-8.078351E-3,-1.2874262E-1,-5.458795E-2,1.0488983E-1,-4.5848068E-2],"categories":[],"categories_nodes":[],"categories_segments":[],"categories_sizes":[],"default_left":[0,0,0,0,0,0,0,0,0,0,0,0,0,0,0,0,0,0,0,0,0,0,0,0,0],"id":27,"left_children":[1,3,5,7,9,11,-1,13,15,17,19,21,23,-1,-1,-1,-1,-1,-1,-1,-1,-1,-1,-1,-1],"loss_changes":[5.1753E2,8.238865E2,3.103559E2,2.08522E2,2.3533087E2,7.911048E2,0E0,4.473512E2,8.356421E1,6.958078E2,3.5378296E2,1.1712274E2,1.9982217E2,0E0,0E0,0E0,0E0,0E0,0E0,0E0,0E0,0E0,0E0,0E0,0E0],"parents":[2147483647,0,0,1,1,2,2,3,3,4,4,5,5,7,7,8,8,9,9,10,10,11,11,12,12],"right_children":[2,4,6,8,10,12,-1,14,16,18,20,22,24,-1,-1,-1,-1,-1,-1,-1,-1,-1,-1,-1,-1],"split_conditions":[2.1E1,9E0,7E0,3E0,3E0,5E0,-1.2782773E-1,3E0,7E0,1.1E1,7E0,2E0,2.3E1,-8.148116E-2,6.33059E-2,-6.6018835E-2,-1.9434512E-2,-1.7335053E-1,2.33544E-2,5.7664465E-2,-8.078351E-3,-1.2874262E-1,-5.458795E-2,1.0488983E-1,-4.5848068E-2],"split_indices":[1,1,0,0,0,0,0,1,1,1,0,0,1,0,0,0,0,0,0,0,0,0,0,0,0],"split_type":[0,0,0,0,0,0,0,0,0,0,0,0,0,0,0,0,0,0,0,0,0,0,0,0,0],"sum_hessian":[1.109E4,8.959E3,2.131E3,2.806E3,6.153E3,1.763E3,3.68E2,8.88E2,1.918E3,1.575E3,4.578E3,1.225E3,5.38E2,3.54E2,5.34E2,1.383E3,5.35E2,2.06E2,1.369E3,3.511E3,1.067E3,2.75E2,9.5E2,4.28E2,1.1E2],"tree_param":{"num_deleted":"0","num_feature":"2","num_nodes":"25","size_leaf_vector":"1"}},{"base_weights":[-1.2975057E-3,6.955423E-2,-5.453802E-1,-3.1054544E-1,2.2179028E-1,-1.052136E0,-3.3535582E-1,-1.4353518E-1,-6.754924E-1,4.0271652E-1,-6.843273E-2,-1.3080443E0,-8.567989E-1,-8.444178E-2,-1.11622706E-1,-6.871477E-2,1.6093358E-2,-1.8849071E-2,-8.2383886E-2,2.4405165E-2,6.20474E-2,-3.857774E-2,1.3536747E-2,-1.4669722E-1,-9.2906356E-2,-5.9488226E-2,-1.23530984E-1,-5.1780123E-2,4.30614E-2],"categories":[],"categories_nodes":[],"categories_segments":[],"categories_sizes":[],"default_left":[0,0,0,0,0,0,0,0,0,0,0,0,0,0,0,0,0,0,0,0,0,0,0,0,0,0,0,0,0],"id":28,"left_children":[1,3,5,7,9,11,13,15,17,19,21,23,25,27,-1,-1,-1,-1,-1,-1,-1,-1,-1,-1,-1,-1,-1,-1,-1],"loss_changes":[4.2758716E2,5.679548E2,1.3566608E2,1.7098938E2,3.6801035E2,1.757489E1,1.7722382E2,3.190542E2,6.3492554E1,1.4900293E2,1.7415707E2,8.273987E0,2.0579895E1,1.5334111E2,0E0,0E0,0E0,0E0,0E0,0E0,0E0,0E0,0E0,0E0,0E0,0E0,0E0,0E0,0E0],"parents":[2147483647,0,0,1,1,2,2,3,3,4,4,5,5,6,6,7,7,8,8,9,9,10,10,11,11,12,12,13,13],"right_children":[2,4,6,8,10,12,14,16,18,20,22,24,26,28,-1,-1,-1,-1,-1,-1,-1,-1,-1,-1,-1,-1,-1,-1,-1],"split_conditions":[2.2E1,9E0,3E0,6E0,1.8E1,2E0,7E0,3E0,2E0,1.5E1,4E0,2.3E1,2.3E1,5E0,-1.11622706E-1,-6.871477E-2,1.6093358E-2,-1.8849071E-2,-8.2383886E-2,2.4405165E-2,6.20474E-2,-3.857774E-2,1.3536747E-2,-1.4669722E-1,-9.2906356E-2,-5.9488226E-2,-1.23530984E-1,-5.1780123E-2,4.30614E-2],"split_indices":[1,1,0,0,1,0,0,1,1,1,0,1,1,0,0,0,0,0,0,0,0,0,0,0,0,0,0,0,0],"split_type":[0,0,0,0,0,0,0,0,0,0,0,0,0,0,0,0,0,0,0,0,0,0,0,0,0,0,0,0,0],"sum_hessian":[1.109E4,9.813E3,1.277E3,2.806E3,7.007E3,3.73E2,9.04E2,1.926E3,8.8E2,4.316E3,2.691E3,1.59E2,2.14E2,6.85E2,2.19E2,6.91E2,1.235E3,2.06E2,6.74E2,2.498E3,1.818E3,1.052E3,1.639E3,1.1E2,4.9E1,1.28E2,8.6E1,3.72E2,3.13E2],"tree_param":{"num_deleted":"0","num_feature":"2","num_nodes":"29","size_leaf_vector":"1"}},{"base_weights":[-1.2249837E-3,3.678722E-2,-8.8987243E-1,-2.795459E-1,1.5017125E-1,-1.0283084E0,-7.234672E-1,6.7714185E-2,-4.4027266E-1,3.6246496E-1,-1.1060319E-1,-8.524365E-1,-1.458323E-1,-1.6078865E-3,-9.162938E-1,-6.650386E-2,5.538068E-2,-6.617707E-2,-2.9540537E-2,4.440409E-2,-7.440981E-4,-4.5510393E-2,1.1846389E-2,-1.0202136E-1,-2.8886218E-2,-7.5523034E-2,-1.01343274E-1],"categories":[],"categories_nodes":[],"categories_segments":[],"categories_sizes":[],"default_left":[0,0,0,0,0,0,0,0,0,0,0,0,0,0,0,0,0,0,0,0,0,0,0,0,0,0,0],"id":29,"left_children":[1,3,5,7,9,11,13,15,17,19,21,23,-1,-1,25,-1,-1,-1,-1,-1,-1,-1,-1,-1,-1,-1,-1],"loss_changes":[3.746806E2,3.8156055E2,9.737671E0,1.566997E2,4.335703E2,1.7361237E1,2.862996E1,3.1701736E2,6.1381042E1,1.3027057E2,2.7743585E2,1.6441498E1,0E0,0E0,1.8161316E0,0E0,0E0,0E0,0E0,0E0,0E0,0E0,0E0,0E0,0E0,0E0,0E0],"parents":[2147483647,0,0,1,1,2,2,3,3,4,4,5,5,6,6,7,7,8,8,9,9,10,10,11,11,14,14],"right_children":[2,4,6,8,10,12,14,16,18,20,22,24,-1,-1,26,-1,-1,-1,-1,-1,-1,-1,-1,-1,-1,-1,-1],"split_conditions":[2.3E1,9E0,5E0,3E0,1.8E1,4E0,6E0,3E0,5E0,7E0,4E0,3E0,-1.458323E-1,-1.6078865E-3,7E0,-6.650386E-2,5.538068E-2,-6.617707E-2,-2.9540537E-2,4.440409E-2,-7.440981E-4,-4.5510393E-2,1.1846389E-2,-1.0202136E-1,-2.8886218E-2,-7.5523034E-2,-1.01343274E-1],"split_indices":[1,1,0,0,1,0,0,1,0,0,0,0,0,0,0,0,0,0,0,0,0,0,0,0,0,0,0],"split_type":[0,0,0,0,0,0,0,0,0,0,0,0,0,0,0,0,0,0,0,0,0,0,0,0,0,0,0],"sum_hessian":[1.109E4,1.0636E4,4.54E2,2.806E3,7.83E3,2.45E2,2.09E2,8.88E2,1.918E3,4.316E3,3.514E3,1.76E2,6.9E1,4.5E1,1.64E2,3.54E2,5.34E2,7.57E2,1.161E3,3.536E3,7.8E2,1.403E3,2.111E3,1.35E2,4.1E1,6.5E1,9.9E1],"tree_param":{"num_deleted":"0","num_feature":"2","num_nodes":"27","size_leaf_vector":"1"}},{"base_weights":[-1.1525719E-3,7.6791085E-2,-3.8356563E-1,-3.6065137E-1,1.6203476E-1,-1.552053E-1,-1.0446358E0,-2.580105E-1,-9.3054855E-1,-1.7609513E-1,3.2025695E-1,-4.4211102E-1,2.8479007E-1,-1.1064688E0,-9.65969E-2,-5.312599E-2,1.39748175E-2,-7.350195E-2,-2.570067E-1,3.3007738E-1,-2.422757E-2,3.637667E-2,-6.722694E-2,-2.7193982E-2,-9.3108155E-2,7.318624E-2,3.0684527E-3,-9.486443E-2,-1.2190391E-1],"categories":[],"categories_nodes":[],"categories_segments":[],"categories_sizes":[],"default_left":[0,0,0,0,0,0,0,0,0,0,0,0,0,0,0,0,0,0,0,0,0,0,0,0,0,0,0,0,0],"id":30,"left_children":[1,3,5,7,9,11,13,15,17,19,21,23,25,27,-1,-1,-1,-1,-1,-1,-1,-1,-1,-1,-1,-1,-1,-1,-1],"loss_changes":[3.3061526E2,3.436412E2,2.8334494E2,8.7677505E1,4.1264566E2,1.7647925E2,1.2757568E0,1.3865056E2,7.152229E1,5.666185E2,2.2713629E2,7.014139E1,6.268671E1,3.5161438E0,0E0,0E0,0E0,0E0,0E0,0E0,0E0,0E0,0E0,0E0,0E0,0E0,0E0,0E0,0E0],"parents":[2147483647,0,0,1,1,2,2,3,3,4,4,5,5,6,6,7,7,8,8,9,9,10,10,11,11,12,12,13,13],"right_children":[2,4,6,8,10,12,14,16,18,20,22,24,26,28,-1,-1,-1,-1,-1,-1,-1,-1,-1,-1,-1,-1,-1,-1,-1],"split_conditions":[7E0,6E0,2E1,6E0,3E0,1.4E1,2.2E1,4E0,5E0,7E0,2.3E1,1.1E1,1.6E1,2.1E1,-9.65969E-2,-5.312599E-2,1.39748175E-2,-7.350195E-2,-2.570067E-1,3.3007738E-1,-2.422757E-2,3.637667E-2,-6.722694E-2,-2.7193982E-2,-9.3108155E-2,7.318624E-2,3.0684527E-3,-9.486443E-2,-1.2190391E-1],"split_indices":[0,1,1,0,0,1,1,1,1,1,1,1,1,1,0,0,0,0,0,0,0,0,0,0,0,0,0,0,0],"split_type":[0,0,0,0,0,0,0,0,0,0,0,0,0,0,0,0,0,0,0,0,0,0,0,0,0,0,0,0,0],"sum_hessian":[1.109E4,9.213E3,1.877E3,1.502E3,7.711E3,1.396E3,4.81E2,1.274E3,2.28E2,2.458E3,5.253E3,8.45E2,5.51E2,2.62E2,2.19E2,7.55E2,5.19E2,2.05E2,2.3E1,4.5E1,2.413E3,5.033E3,2.2E2,6.28E2,2.17E2,1.99E2,3.52E2,1.13E2,1.49E2],"tree_param":{"num_deleted":"0","num_feature":"2","num_nodes":"29","size_leaf_vector":"1"}},{"base_weights":[-1.0782978E-3,7.492728E-2,-3.2050085E-1,-2.3912472E-1,2.1816242E-1,-1.8551996E-1,-9.6490675E-1,-9.6979395E-2,-5.4976594E-1,-3.3564083E-2,3.04754E-1,-5.39728E-1,6.204996E-1,-1.0979475E-1,-8.698113E-2,-2.3622809E-2,7.161423E-2,-8.776937E-3,-6.9063045E-2,-1.0177509E-1,3.8940787E-2,8.721151E-2,1.869533E-2,-9.884579E-2,-4.089297E-2,8.686661E-2,-3.442202E-2],"categories":[],"categories_nodes":[],"categories_segments":[],"categories_sizes":[],"default_left":[0,0,0,0,0,0,0,0,0,0,0,0,0,0,0,0,0,0,0,0,0,0,0,0,0,0,0],"id":31,"left_children":[1,3,5,7,9,11,13,15,17,19,21,23,25,-1,-1,-1,-1,-1,-1,-1,-1,-1,-1,-1,-1,-1,-1],"loss_changes":[2.6929013E2,4.0310236E2,1.8526764E2,1.2389314E2,1.3415137E2,5.0395444E2,3.7134094E0,2.183559E2,5.7273865E1,6.564589E2,3.0587686E2,7.155353E1,1.2934161E2,0E0,0E0,0E0,0E0,0E0,0E0,0E0,0E0,0E0,0E0,0E0,0E0,0E0,0E0],"parents":[2147483647,0,0,1,1,2,2,3,3,4,4,5,5,6,6,7,7,8,8,9,9,10,10,11,11,12,12],"right_children":[2,4,6,8,10,12,14,16,18,20,22,24,26,-1,-1,-1,-1,-1,-1,-1,-1,-1,-1,-1,-1,-1,-1],"split_conditions":[2.1E1,9E0,7E0,6E0,3E0,5E0,2.2E1,5E0,2E0,1.3E1,4E0,2E0,2.3E1,-1.0979475E-1,-8.698113E-2,-2.3622809E-2,7.161423E-2,-8.776937E-3,-6.9063045E-2,-1.0177509E-1,3.8940787E-2,8.721151E-2,1.869533E-2,-9.884579E-2,-4.089297E-2,8.686661E-2,-3.442202E-2],"split_indices":[1,1,0,0,0,0,1,0,1,1,0,0,1,0,0,0,0,0,0,0,0,0,0,0,0,0,0],"split_type":[0,0,0,0,0,0,0,0,0,0,0,0,0,0,0,0,0,0,0,0,0,0,0,0,0,0,0],"sum_hessian":[1.109E4,8.959E3,2.131E3,2.806E3,6.153E3,1.763E3,3.68E2,1.926E3,8.8E2,1.575E3,4.578E3,1.225E3,5.38E2,1.49E2,2.19E2,1.645E3,2.81E2,2.06E2,6.74E2,4.73E2,1.102E3,7.86E2,3.792E3,2.75E2,9.5E2,4.28E2,1.1E2],"tree_param":{"num_deleted":"0","num_feature":"2","num_nodes":"27","size_leaf_vector":"1"}},{"base_weights":[-9.949503E-4,6.481281E-2,-3.2386592E-1,-4.51383E-1,1.1862054E-1,-1.3460247E-1,-8.7174386E-1,-2.5501132E-1,-5.2407813E-1,1.5378354E-1,-6.709047E-1,-5.1823914E-1,1.0338158E-1,-9.424751E-2,-7.8322545E-2,-4.242364E-2,1.134632E-1,-7.2761886E-2,-3.691314E-2,-2.3446834E-2,2.285715E-2,-8.309758E-2,-3.101084E-2,-1.3410062E-2,-1.03095666E-1,1.5240847E-1,-7.226234E-3],"categories":[],"categories_nodes":[],"categories_segments":[],"categories_sizes":[],"default_left":[0,0,0,0,0,0,0,0,0,0,0,0,0,0,0,0,0,0,0,0,0,0,0,0,0,0,0],"id":32,"left_children":[1,3,5,7,9,11,13,15,17,19,21,23,25,-1,-1,-1,-1,-1,-1,-1,-1,-1,-1,-1,-1,-1,-1],"loss_changes":[2.3567604E2,2.5597542E2,1.9461862E2,1.2285828E1,2.317777E2,1.27598854E2,2.279663E0,5.6214867E1,1.972647E1,2.3205576E2,2.0302399E1,1.0523241E2,2.1546129E2,0E0,0E0,0E0,0E0,0E0,0E0,0E0,0E0,0E0,0E0,0E0,0E0,0E0,0E0],"parents":[2147483647,0,0,1,1,2,2,3,3,4,4,5,5,6,6,7,7,8,8,9,9,10,10,11,11,12,12],"right_children":[2,4,6,8,10,12,14,16,18,20,22,24,26,-1,-1,-1,-1,-1,-1,-1,-1,-1,-1,-1,-1,-1,-1],"split_conditions":[7E0,4E0,2E1,2E0,2.3E1,1E1,2.2E1,3E0,4E0,2E0,5E0,6E0,1.1E1,-9.424751E-2,-7.8322545E-2,-4.242364E-2,1.134632E-1,-7.2761886E-2,-3.691314E-2,-2.3446834E-2,2.285715E-2,-8.309758E-2,-3.101084E-2,-1.3410062E-2,-1.03095666E-1,1.5240847E-1,-7.226234E-3],"split_indices":[0,1,1,0,1,1,1,1,0,0,0,1,1,0,0,0,0,0,0,0,0,0,0,0,0,0,0],"split_type":[0,0,0,0,0,0,0,0,0,0,0,0,0,0,0,0,0,0,0,0,0,0,0,0,0,0,0],"sum_hessian":[1.109E4,9.213E3,1.877E3,8.69E2,8.344E3,1.396E3,4.81E2,2.36E2,6.33E2,7.989E3,3.55E2,5.34E2,8.62E2,2.62E2,2.19E2,2.11E2,2.5E1,2.72E2,3.61E2,1.29E3,6.699E3,2.45E2,1.1E2,3.06E2,2.28E2,9.4E1,7.68E2],"tree_param":{"num_deleted":"0","num_feature":"2","num_nodes":"27","size_leaf_vector":"1"}},{"base_weights":[-9.2228624E-4,4.7309786E-2,-3.7130463E-1,-2.0278992E-1,1.4747854E-1,-7.636126E-1,-2.0876928E-1,1.11643836E-1,-3.483495E-1,2.8446507E-1,-7.2253406E-2,-9.5233256E-1,-6.1961824E-1,-4.924087E-2,-7.052589E-2,-2.5758421E-2,7.5944774E-2,-5.670466E-2,-2.0538846E-2,4.059344E-2,8.338428E-3,-3.2276593E-2,8.863802E-3,-1.13129616E-1,-5.359868E-2,-4.487617E-2,-8.658352E-2,-2.8896812E-2,6.3137755E-2],"categories":[],"categories_nodes":[],"categories_segments":[],"categories_sizes":[],"default_left":[0,0,0,0,0,0,0,0,0,0,0,0,0,0,0,0,0,0,0,0,0,0,0,0,0,0,0,0,0],"id":33,"left_children":[1,3,5,7,9,11,13,15,17,19,21,23,25,27,-1,-1,-1,-1,-1,-1,-1,-1,-1,-1,-1,-1,-1,-1,-1],"loss_changes":[1.981506E2,2.4589194E2,8.133087E1,1.2851204E2,2.109636E2,9.573227E0,7.164508E1,2.1283319E2,5.988138E1,1.05409515E2,1.0853051E2,1.1315353E1,8.656006E0,1.1211211E2,0E0,0E0,0E0,0E0,0E0,0E0,0E0,0E0,0E0,0E0,0E0,0E0,0E0,0E0,0E0],"parents":[2147483647,0,0,1,1,2,2,3,3,4,4,5,5,6,6,7,7,8,8,9,9,10,10,11,11,12,12,13,13],"right_children":[2,4,6,8,10,12,14,16,18,20,22,24,26,28,-1,-1,-1,-1,-1,-1,-1,-1,-1,-1,-1,-1,-1,-1,-1],"split_conditions":[2.2E1,9E0,3E0,3E0,1.8E1,2E0,7E0,5E0,5E0,6E0,4E0,2.3E1,2.3E1,6E0,-7.052589E-2,-2.5758421E-2,7.5944774E-2,-5.670466E-2,-2.0538846E-2,4.059344E-2,8.338428E-3,-3.2276593E-2,8.863802E-3,-1.13129616E-1,-5.359868E-2,-4.487617E-2,-8.658352E-2,-2.8896812E-2,6.3137755E-2],"split_indices":[1,1,0,0,1,0,0,1,0,0,0,1,1,0,0,0,0,0,0,0,0,0,0,0,0,0,0,0,0],"split_type":[0,0,0,0,0,0,0,0,0,0,0,0,0,0,0,0,0,0,0,0,0,0,0,0,0,0,0,0,0],"sum_hessian":[1.109E4,9.813E3,1.277E3,2.806E3,7.007E3,3.73E2,9.04E2,8.88E2,1.918E3,4.316E3,2.691E3,1.59E2,2.14E2,6.85E2,2.19E2,5.66E2,3.22E2,7.57E2,1.161E3,2.69E3,1.626E3,1.052E3,1.639E3,1.1E2,4.9E1,1.28E2,8.6E1,5.07E2,1.78E2],"tree_param":{"num_deleted":"0","num_feature":"2","num_nodes":"29","size_leaf_vector":"1"}},{"base_weights":[-8.605174E-4,5.685292E-2,-2.8401855E-1,-2.5761023E-1,1.18131615E-1,-1.2038285E-1,-7.577012E-1,-1.6488683E-1,-7.7274007E-1,-1.3800919E-1,2.3798928E-1,-3.5310775E-1,2.3651142E-1,-8.574154E-1,-6.3505334E-1,-3.8750555E-2,1.5908359E-2,-5.957387E-2,-2.2598043E-1,2.9264715E-1,-1.9634727E-2,5.020107E-2,1.0416936E-2,-1.775193E-2,-8.58117E-2,6.3933276E-2,7.614049E-4,-7.88507E-2,-9.040697E-2,-6.719973E-2,-5.8400072E-2],"categories":[],"categories_nodes":[],"categories_segments":[],"categories_sizes":[],"default_left":[0,0,0,0,0,0,0,0,0,0,0,0,0,0,0,0,0,0,0,0,0,0,0,0,0,0,0,0,0,0,0],"id":34,"left_children":[1,3,5,7,9,11,13,15,17,19,21,23,25,27,29,-1,-1,-1,-1,-1,-1,-1,-1,-1,-1,-1,-1,-1,-1,-1,-1],"loss_changes":[1.8126553E2,1.7758322E2,1.4547517E2,7.166277E1,2.3679462E2,1.1611579E2,5.3502197E0,9.201704E1,5.8929367E1,4.401845E2,1.8557846E2,7.4865685E1,5.089214E1,1.3264465E-1,2.2491455E-2,0E0,0E0,0E0,0E0,0E0,0E0,0E0,0E0,0E0,0E0,0E0,0E0,0E0,0E0,0E0,0E0],"parents":[2147483647,0,0,1,1,2,2,3,3,4,4,5,5,6,6,7,7,8,8,9,9,10,10,11,11,12,12,13,13,14,14],"right_children":[2,4,6,8,10,12,14,16,18,20,22,24,26,28,30,-1,-1,-1,-1,-1,-1,-1,-1,-1,-1,-1,-1,-1,-1,-1,-1],"split_conditions":[7E0,6E0,2E1,6E0,3E0,1.4E1,2.2E1,4E0,5E0,7E0,1.4E1,1.1E1,1.6E1,2.1E1,2.3E1,-3.8750555E-2,1.5908359E-2,-5.957387E-2,-2.2598043E-1,2.9264715E-1,-1.9634727E-2,5.020107E-2,1.0416936E-2,-1.775193E-2,-8.58117E-2,6.3933276E-2,7.614049E-4,-7.88507E-2,-9.040697E-2,-6.719973E-2,-5.8400072E-2],"split_indices":[0,1,1,0,0,1,1,1,1,1,1,1,1,1,1,0,0,0,0,0,0,0,0,0,0,0,0,0,0,0,0],"split_type":[0,0,0,0,0,0,0,0,0,0,0,0,0,0,0,0,0,0,0,0,0,0,0,0,0,0,0,0,0,0,0],"sum_hessian":[1.109E4,9.213E3,1.877E3,1.502E3,7.711E3,1.396E3,4.81E2,1.274E3,2.28E2,2.458E3,5.253E3,8.45E2,5.51E2,2.62E2,2.19E2,7.55E2,5.19E2,2.05E2,2.3E1,4.5E1,2.413E3,1.766E3,3.487E3,6.28E2,2.17E2,1.99E2,3.52E2,1.13E2,1.49E2,1.2E2,9.9E1],"tree_param":{"num_deleted":"0","num_feature":"2","num_nodes":"31","size_leaf_vector":"1"}},{"base_weights":[-8.022662E-4,2.331353E-2,-5.645801E-1,-1.7967208E-1,9.607017E-2,-6.8823236E-1,-4.1704184E-1,1.0305514E-1,-3.1055525E-1,2.464839E-1,-8.869005E-2,-5.183846E-1,-1.10787265E-1,1.3334863E-2,-5.679565E-1,-2.1121575E-2,6.544128E-2,-5.192998E-2,-1.74119E-2,1.1703124E-2,4.241946E-2,-3.6236346E-2,9.328256E-3,-6.5738074E-2,-5.5959215E-3,-6.226418E-2,-5.2618463E-2],"categories":[],"categories_nodes":[],"categories_segments":[],"categories_sizes":[],"default_left":[0,0,0,0,0,0,0,0,0,0,0,0,0,0,0,0,0,0,0,0,0,0,0,0,0,0,0],"id":35,"left_children":[1,3,5,7,9,11,13,15,17,19,21,23,-1,-1,25,-1,-1,-1,-1,-1,-1,-1,-1,-1,-1,-1,-1],"loss_changes":[1.5080585E2,1.5711032E2,8.013748E0,1.0390289E2,2.1764908E2,1.6959335E1,1.751876E1,1.541803E2,5.4563324E1,9.926349E1,1.7508455E2,1.1339947E1,0E0,0E0,4.9282074E-2,0E0,0E0,0E0,0E0,0E0,0E0,0E0,0E0,0E0,0E0,0E0,0E0],"parents":[2147483647,0,0,1,1,2,2,3,3,4,4,5,5,6,6,7,7,8,8,9,9,10,10,11,11,14,14],"right_children":[2,4,6,8,10,12,14,16,18,20,22,24,-1,-1,26,-1,-1,-1,-1,-1,-1,-1,-1,-1,-1,-1,-1],"split_conditions":[2.3E1,9E0,5E0,3E0,1.8E1,4E0,6E0,5E0,5E0,1.5E1,4E0,3E0,-1.10787265E-1,1.3334863E-2,7E0,-2.1121575E-2,6.544128E-2,-5.192998E-2,-1.74119E-2,1.1703124E-2,4.241946E-2,-3.6236346E-2,9.328256E-3,-6.5738074E-2,-5.5959215E-3,-6.226418E-2,-5.2618463E-2],"split_indices":[1,1,0,0,1,0,0,1,0,1,0,0,0,0,0,0,0,0,0,0,0,0,0,0,0,0,0],"split_type":[0,0,0,0,0,0,0,0,0,0,0,0,0,0,0,0,0,0,0,0,0,0,0,0,0,0,0],"sum_hessian":[1.109E4,1.0636E4,4.54E2,2.806E3,7.83E3,2.45E2,2.09E2,8.88E2,1.918E3,4.316E3,3.514E3,1.76E2,6.9E1,4.5E1,1.64E2,5.66E2,3.22E2,7.57E2,1.161E3,2.498E3,1.818E3,1.403E3,2.111E3,1.35E2,4.1E1,6.5E1,9.9E1],"tree_param":{"num_deleted":"0","num_feature":"2","num_nodes":"27","size_leaf_vector":"1"}},{"base_weights":[-7.47393E-4,5.235951E-2,-2.613045E-1,-2.0600094E-1,1.0565493E-1,-1.1695792E-1,-6.791279E-1,1.9989904E-2,-8.1027013E-1,-1.50172E-1,1.8890019E-1,-3.5598767E-1,1.543643E-1,-7.8160954E-1,-5.535288E-1,-1.8728679E-2,3.8379457E-2,-2.7817798E-1,-5.94771E-2,3.0959E-2,-2.7458271E-2,2.2955311E-2,-5.3446334E-2,-1.5102132E-2,-1.4739689E-1,3.5598177E-2,-1.913273E-3,-7.19594E-2,-8.235306E-2,-6.1460424E-2,-4.7409225E-2],"categories":[],"categories_nodes":[],"categories_segments":[],"categories_sizes":[],"default_left":[0,0,0,0,0,0,0,0,0,0,0,0,0,0,0,0,0,0,0,0,0,0,0,0,0,0,0,0,0,0,0],"id":36,"left_children":[1,3,5,7,9,11,13,15,17,19,21,23,25,27,29,-1,-1,-1,-1,-1,-1,-1,-1,-1,-1,-1,-1,-1,-1,-1,-1],"loss_changes":[1.5348407E2,1.2689328E2,1.1318533E2,2.1523369E2,1.627114E2,9.0656105E1,5.7714844E0,8.664051E1,1.8060983E2,1.0739093E2,1.6962376E2,1.7003473E2,2.2918728E1,9.112549E-2,7.7597046E-1,0E0,0E0,0E0,0E0,0E0,0E0,0E0,0E0,0E0,0E0,0E0,0E0,0E0,0E0,0E0,0E0],"parents":[2147483647,0,0,1,1,2,2,3,3,4,4,5,5,6,6,7,7,8,8,9,9,10,10,11,11,12,12,13,13,14,14],"right_children":[2,4,6,8,10,12,14,16,18,20,22,24,26,28,30,-1,-1,-1,-1,-1,-1,-1,-1,-1,-1,-1,-1,-1,-1,-1,-1],"split_conditions":[7E0,2E0,2E1,1.9E1,9E0,1.2E1,2.2E1,1.3E1,2E1,3E0,2.3E1,1.1E1,1.6E1,2.1E1,2.3E1,-1.8728679E-2,3.8379457E-2,-2.7817798E-1,-5.94771E-2,3.0959E-2,-2.7458271E-2,2.2955311E-2,-5.3446334E-2,-1.5102132E-2,-1.4739689E-1,3.5598177E-2,-1.913273E-3,-7.19594E-2,-8.235306E-2,-6.1460424E-2,-4.7409225E-2],"split_indices":[0,0,1,1,1,1,1,1,1,0,1,1,1,1,1,0,0,0,0,0,0,0,0,0,0,0,0,0,0,0,0],"split_type":[0,0,0,0,0,0,0,0,0,0,0,0,0,0,0,0,0,0,0,0,0,0,0,0,0,0,0,0,0,0,0],"sum_hessian":[1.109E4,9.213E3,1.877E3,1.575E3,7.638E3,1.396E3,4.81E2,1.147E3,4.28E2,1.875E3,5.763E3,7.42E2,6.54E2,2.62E2,2.19E2,7.31E2,4.16E2,4.1E1,3.87E2,3.99E2,1.476E3,5.457E3,3.06E2,6.28E2,1.14E2,3.02E2,3.52E2,1.13E2,1.49E2,1.2E2,9.9E1],"tree_param":{"num_deleted":"0","num_feature":"2","num_nodes":"31","size_leaf_vector":"1"}},{"base_weights":[-7.389687E-4,4.70863E-2,-2.3538288E-1,-3.023729E-1,8.0576256E-2,-1.0535441E-1,-6.117613E-1,-2.6902288E-1,-5.0245357E-1,1.2559447E-1,-2.3199168E-1,-4.0593323E-1,8.1105635E-2,-7.040356E-1,-4.9867082E-1,-3.8623046E-2,-1.8472163E-2,-3.6660355E-2,-6.816097E-2,-9.620773E-3,1.690972E-2,-3.966813E-2,5.798718E-2,-5.016074E-3,-8.8111326E-2,1.385958E-1,-8.019745E-3,-6.482658E-2,-7.4172705E-2,-5.536517E-2,-4.271573E-2],"categories":[],"categories_nodes":[],"categories_segments":[],"categories_sizes":[],"default_left":[0,0,0,0,0,0,0,0,0,0,0,0,0,0,0,0,0,0,0,0,0,0,0,0,0,0,0,0,0,0,0],"id":37,"left_children":[1,3,5,7,9,11,13,15,17,19,21,23,25,27,29,-1,-1,-1,-1,-1,-1,-1,-1,-1,-1,-1,-1,-1,-1,-1,-1],"loss_changes":[1.2447325E2,1.0785924E2,9.184469E1,5.2430267E0,1.1835426E2,7.83291E1,4.6787567E0,6.7760124E0,2.5246925E0,7.09461E1,1.4182414E2,9.0400764E1,1.8175255E2,7.199097E-2,6.2851334E-1,0E0,0E0,0E0,0E0,0E0,0E0,0E0,0E0,0E0,0E0,0E0,0E0,0E0,0E0,0E0,0E0],"parents":[2147483647,0,0,1,1,2,2,3,3,4,4,5,5,6,6,7,7,8,8,9,9,10,10,11,11,12,12,13,13,14,14],"right_children":[2,4,6,8,10,12,14,16,18,20,22,24,26,28,30,-1,-1,-1,-1,-1,-1,-1,-1,-1,-1,-1,-1,-1,-1,-1,-1],"split_conditions":[7E0,3E0,2E1,2E0,2.2E1,1E1,2.2E1,3E0,2E0,2E0,6E0,6E0,1.1E1,2.1E1,2.3E1,-3.8623046E-2,-1.8472163E-2,-3.6660355E-2,-6.816097E-2,-9.620773E-3,1.690972E-2,-3.966813E-2,5.798718E-2,-5.016074E-3,-8.8111326E-2,1.385958E-1,-8.019745E-3,-6.482658E-2,-7.4172705E-2,-5.536517E-2,-4.271573E-2],"split_indices":[0,1,1,1,1,1,1,0,0,0,0,1,1,1,1,0,0,0,0,0,0,0,0,0,0,0,0,0,0,0,0],"split_type":[0,0,0,0,0,0,0,0,0,0,0,0,0,0,0,0,0,0,0,0,0,0,0,0,0,0,0,0,0,0,0],"sum_hessian":[1.109E4,9.213E3,1.877E3,8.05E2,8.408E3,1.396E3,4.81E2,6.92E2,1.13E2,7.35E3,1.058E3,5.34E2,8.62E2,2.62E2,2.19E2,2.88E2,4.04E2,6.6E1,4.7E1,1.205E3,6.145E3,8.8E2,1.78E2,3.06E2,2.28E2,9.4E1,7.68E2,1.13E2,1.49E2,1.2E2,9.9E1],"tree_param":{"num_deleted":"0","num_feature":"2","num_nodes":"31","size_leaf_vector":"1"}},{"base_weights":[-6.956316E-4,4.2362537E-2,-2.1195084E-1,-1.785195E-1,8.5404985E-2,-9.4792135E-2,-5.510769E-1,-9.347141E-2,-6.51261E-1,-1.2111652E-1,1.8204583E-1,-3.0780756E-1,1.4698689E-1,-6.341602E-1,-4.492497E-1,-2.754016E-2,1.7120684E-2,-1.5053484E-2,-1.1463239E-1,2.5657925E-1,-1.7226677E-2,4.3184742E-2,5.5445638E-3,-1.222768E-2,-1.3199036E-1,6.4298615E-2,8.937646E-3,-5.8400746E-2,-6.6804856E-2,-4.987442E-2,-3.848689E-2],"categories":[],"categories_nodes":[],"categories_segments":[],"categories_sizes":[],"default_left":[0,0,0,0,0,0,0,0,0,0,0,0,0,0,0,0,0,0,0,0,0,0,0,0,0,0,0,0,0,0,0],"id":38,"left_children":[1,3,5,7,9,11,13,15,17,19,21,23,25,27,29,-1,-1,-1,-1,-1,-1,-1,-1,-1,-1,-1,-1,-1,-1,-1,-1],"loss_changes":[1.0089563E2,8.761554E1,7.456366E1,6.036838E1,1.5394131E2,7.199447E1,3.7928925E0,6.1442173E1,5.6594467E1,3.3839725E2,1.661334E2,1.3935541E2,1.8658978E1,5.6854248E-2,5.09079E-1,0E0,0E0,0E0,0E0,0E0,0E0,0E0,0E0,0E0,0E0,0E0,0E0,0E0,0E0,0E0,0E0],"parents":[2147483647,0,0,1,1,2,2,3,3,4,4,5,5,6,6,7,7,8,8,9,9,10,10,11,11,12,12,13,13,14,14],"right_children":[2,4,6,8,10,12,14,16,18,20,22,24,26,28,30,-1,-1,-1,-1,-1,-1,-1,-1,-1,-1,-1,-1,-1,-1,-1,-1],"split_conditions":[7E0,6E0,2E1,6E0,3E0,1.2E1,2.2E1,4E0,2E0,7E0,1.4E1,1.1E1,1.3E1,2.1E1,2.3E1,-2.754016E-2,1.7120684E-2,-1.5053484E-2,-1.1463239E-1,2.5657925E-1,-1.7226677E-2,4.3184742E-2,5.5445638E-3,-1.222768E-2,-1.3199036E-1,6.4298615E-2,8.937646E-3,-5.8400746E-2,-6.6804856E-2,-4.987442E-2,-3.848689E-2],"split_indices":[0,1,1,0,0,1,1,1,1,1,1,1,1,1,1,0,0,0,0,0,0,0,0,0,0,0,0,0,0,0,0],"split_type":[0,0,0,0,0,0,0,0,0,0,0,0,0,0,0,0,0,0,0,0,0,0,0,0,0,0,0,0,0,0,0],"sum_hessian":[1.109E4,9.213E3,1.877E3,1.502E3,7.711E3,1.396E3,4.81E2,1.274E3,2.28E2,2.458E3,5.253E3,7.42E2,6.54E2,2.62E2,2.19E2,7.55E2,5.19E2,1.14E2,1.14E2,4.5E1,2.413E3,1.766E3,3.487E3,6.28E2,1.14E2,6.7E1,5.87E2,1.13E2,1.49E2,1.2E2,9.9E1],"tree_param":{"num_deleted":"0","num_feature":"2","num_nodes":"31","size_leaf_vector":"1"}},{"base_weights":[-6.382918E-4,3.0611988E-2,-2.4061452E-1,-1.397004E-1,9.8824926E-2,-4.1981748E-1,1.0653823E-2,1.01206094E-1,-2.5123045E-1,1.8910909E-1,-4.5995124E-2,-6.7794013E-1,-3.487452E-1,3.016506E-1,-4.047264E-1,2.2435417E-2,-1.3207583E-1,-4.564106E-2,-1.1717039E-2,3.7091352E-2,7.73731E-3,-2.373833E-2,7.691815E-3,-8.4849454E-2,-2.8575046E-2,-2.3342302E-2,-5.758631E-2,6.0267836E-2,-2.5430715E-2,-4.4928197E-2,-3.4676682E-2],"categories":[],"categories_nodes":[],"categories_segments":[],"categories_sizes":[],"default_left":[0,0,0,0,0,0,0,0,0,0,0,0,0,0,0,0,0,0,0,0,0,0,0,0,0,0,0,0,0,0,0],"id":39,"left_children":[1,3,5,7,9,11,13,15,17,19,21,23,25,27,29,-1,-1,-1,-1,-1,-1,-1,-1,-1,-1,-1,-1,-1,-1,-1,-1],"loss_changes":[8.318237E1,1.1402802E2,5.755031E1,7.5444786E1,9.1638E1,1.34492035E1,6.454808E1,1.5597102E2,5.2731438E1,8.766725E1,6.3345264E1,1.0459892E1,1.524012E1,5.2703896E1,4.1233826E-1,0E0,0E0,0E0,0E0,0E0,0E0,0E0,0E0,0E0,0E0,0E0,0E0,0E0,0E0,0E0,0E0],"parents":[2147483647,0,0,1,1,2,2,3,3,4,4,5,5,6,6,7,7,8,8,9,9,10,10,11,11,12,12,13,13,14,14],"right_children":[2,4,6,8,10,12,14,16,18,20,22,24,26,28,30,-1,-1,-1,-1,-1,-1,-1,-1,-1,-1,-1,-1,-1,-1,-1,-1],"split_conditions":[2.2E1,9E0,5E0,3E0,1.8E1,2E0,7E0,8E0,5E0,4E0,4E0,2.3E1,2.3E1,2.3E1,2.3E1,2.2435417E-2,-1.3207583E-1,-4.564106E-2,-1.1717039E-2,3.7091352E-2,7.73731E-3,-2.373833E-2,7.691815E-3,-8.4849454E-2,-2.8575046E-2,-2.3342302E-2,-5.758631E-2,6.0267836E-2,-2.5430715E-2,-4.4928197E-2,-3.4676682E-2],"split_indices":[1,1,0,0,1,0,0,1,0,0,0,1,1,1,1,0,0,0,0,0,0,0,0,0,0,0,0,0,0,0,0],"split_type":[0,0,0,0,0,0,0,0,0,0,0,0,0,0,0,0,0,0,0,0,0,0,0,0,0,0,0,0,0,0,0],"sum_hessian":[1.109E4,9.813E3,1.277E3,2.806E3,7.007E3,7.45E2,5.32E2,8.88E2,1.918E3,4.316E3,2.691E3,1.59E2,5.86E2,3.13E2,2.19E2,8.18E2,7E1,7.57E2,1.161E3,1.642E3,2.674E3,1.052E3,1.639E3,1.1E2,4.9E1,3.9E2,1.96E2,2.03E2,1.1E2,1.2E2,9.9E1],"tree_param":{"num_deleted":"0","num_feature":"2","num_nodes":"31","size_leaf_vector":"1"}},{"base_weights":[-6.08799E-4,3.7677165E-2,-1.8845026E-1,-1.6163874E-1,7.879304E-2,-8.693494E-2,-4.8228523E-1,2.1823335E-2,-6.5220475E-1,-1.1997166E-1,1.43471E-1,-2.5161514E-1,1.6561285E-1,-5.788822E-1,-3.646157E-1,-1.6616838E-2,3.5177086E-2,-2.4608445E-1,-4.547432E-2,-1.7311209E-4,-5.0701022E-2,8.248436E-2,1.1397562E-2,-1.041231E-2,-6.760228E-2,5.0268747E-2,-2.5833442E-3,-5.337425E-2,-6.0932916E-2,-4.0472526E-2,-3.1243702E-2],"categories":[],"categories_nodes":[],"categories_segments":[],"categories_sizes":[],"default_left":[0,0,0,0,0,0,0,0,0,0,0,0,0,0,0,0,0,0,0,0,0,0,0,0,0,0,0,0,0,0,0],"id":40,"left_children":[1,3,5,7,9,11,13,15,17,19,21,23,25,27,29,-1,-1,-1,-1,-1,-1,-1,-1,-1,-1,-1,-1,-1,-1,-1,-1],"loss_changes":[7.977015E1,7.55219E1,5.597647E1,1.4185461E2,9.822188E1,5.8142365E1,5.2675934E0,7.126591E1,1.5209265E2,8.585173E1,1.15747086E2,5.288646E1,3.5634476E1,3.6231995E-2,3.3397865E-1,0E0,0E0,0E0,0E0,0E0,0E0,0E0,0E0,0E0,0E0,0E0,0E0,0E0,0E0,0E0,0E0],"parents":[2147483647,0,0,1,1,2,2,3,3,4,4,5,5,6,6,7,7,8,8,9,9,10,10,11,11,12,12,13,13,14,14],"right_children":[2,4,6,8,10,12,14,16,18,20,22,24,26,28,30,-1,-1,-1,-1,-1,-1,-1,-1,-1,-1,-1,-1,-1,-1,-1,-1],"split_conditions":[7E0,2E0,2E1,1.9E1,9E0,1.4E1,2.2E1,1.3E1,2E1,6E0,1E1,1.1E1,1.6E1,2.1E1,2.3E1,-1.6616838E-2,3.5177086E-2,-2.4608445E-1,-4.547432E-2,-1.7311209E-4,-5.0701022E-2,8.248436E-2,1.1397562E-2,-1.041231E-2,-6.760228E-2,5.0268747E-2,-2.5833442E-3,-5.337425E-2,-6.0932916E-2,-4.0472526E-2,-3.1243702E-2],"split_indices":[0,0,1,1,1,1,1,1,1,0,1,1,1,1,1,0,0,0,0,0,0,0,0,0,0,0,0,0,0,0,0],"split_type":[0,0,0,0,0,0,0,0,0,0,0,0,0,0,0,0,0,0,0,0,0,0,0,0,0,0,0,0,0,0,0],"sum_hessian":[1.109E4,9.213E3,1.877E3,1.575E3,7.638E3,1.396E3,4.81E2,1.147E3,4.28E2,1.875E3,5.763E3,8.45E2,5.51E2,2.62E2,2.19E2,7.31E2,4.16E2,4.1E1,3.87E2,1.437E3,4.38E2,2.38E2,5.525E3,6.28E2,2.17E2,1.99E2,3.52E2,1.13E2,1.49E2,1.2E2,9.9E1],"tree_param":{"num_deleted":"0","num_feature":"2","num_nodes":"31","size_leaf_vector":"1"}},{"base_weights":[-5.8829994E-4,1.5357838E-2,-3.7337616E-1,5.1241204E-2,-1.6334148E-1,-4.676876E-1,-2.6111907E-1,-7.401332E-2,1.1471182E-1,-7.826324E-2,-4.7323957E-1,-3.0719626E-1,-8.668202E-2,2.1969805E-2,-3.935825E-1,-2.5155235E-2,3.0503843E-2,2.796096E-2,8.239012E-4,-3.345671E-2,8.071802E-3,-5.2142847E-2,-3.6458727E-2,-4.2453658E-2,8.007708E-3,-5.5743244E-2,-2.8150573E-2],"categories":[],"categories_nodes":[],"categories_segments":[],"categories_sizes":[],"default_left":[0,0,0,0,0,0,0,0,0,0,0,0,0,0,0,0,0,0,0,0,0,0,0,0,0,0,0],"id":41,"left_children":[1,3,5,7,9,11,13,15,17,19,21,23,-1,-1,25,-1,-1,-1,-1,-1,-1,-1,-1,-1,-1,-1,-1],"loss_changes":[6.593648E1,6.821636E1,4.6950264E0,7.043738E1,4.6867344E1,1.5491821E1,1.3461515E1,2.0062022E2,1.0323362E2,5.6951275E1,1.8152084E0,8.077368E0,0E0,0E0,2.8731003E0,0E0,0E0,0E0,0E0,0E0,0E0,0E0,0E0,0E0,0E0,0E0,0E0],"parents":[2147483647,0,0,1,1,2,2,3,3,4,4,5,5,6,6,7,7,8,8,9,9,10,10,11,11,14,14],"right_children":[2,4,6,8,10,12,14,16,18,20,22,24,-1,-1,26,-1,-1,-1,-1,-1,-1,-1,-1,-1,-1,-1,-1],"split_conditions":[2.3E1,7E0,5E0,1.1E1,2E1,4E0,6E0,5E0,1.7E1,1E1,2.2E1,3E0,-8.668202E-2,2.1969805E-2,7E0,-2.5155235E-2,3.0503843E-2,2.796096E-2,8.239012E-4,-3.345671E-2,8.071802E-3,-5.2142847E-2,-3.6458727E-2,-4.2453658E-2,8.007708E-3,-5.5743244E-2,-2.8150573E-2],"split_indices":[1,0,0,1,1,0,0,0,1,1,1,0,0,0,0,0,0,0,0,0,0,0,0,0,0,0,0],"split_type":[0,0,0,0,0,0,0,0,0,0,0,0,0,0,0,0,0,0,0,0,0,0,0,0,0,0,0],"sum_hessian":[1.109E4,1.0636E4,4.54E2,8.858E3,1.778E3,2.45E2,2.09E2,2.979E3,5.879E3,1.396E3,3.82E2,1.76E2,6.9E1,4.5E1,1.64E2,2.029E3,9.5E2,2.306E3,3.573E3,5.34E2,8.62E2,2.62E2,1.2E2,1.35E2,4.1E1,6.5E1,9.9E1],"tree_param":{"num_deleted":"0","num_feature":"2","num_nodes":"27","size_leaf_vector":"1"}},{"base_weights":[-5.5330555E-4,2.4997141E-2,-1.9675952E-1,-1.01058826E-1,7.548431E-2,-3.6264926E-1,3.5793044E-2,5.585435E-3,-3.3420575E-1,-8.905632E-2,1.3288167E-1,-5.5323005E-1,-3.100844E-1,2.6809362E-1,-2.9592592E-1,-1.09864455E-2,6.794327E-2,1.1596142E-2,-4.717619E-2,-9.836195E-2,2.2744516E-2,6.1460197E-2,7.0452164E-3,-7.201616E-2,-1.7157754E-2,-2.2233061E-2,-4.826816E-2,5.305449E-2,-2.166645E-2,-3.2843005E-2,-2.5363667E-2],"categories":[],"categories_nodes":[],"categories_segments":[],"categories_sizes":[],"default_left":[0,0,0,0,0,0,0,0,0,0,0,0,0,0,0,0,0,0,0,0,0,0,0,0,0,0,0,0,0,0,0],"id":42,"left_children":[1,3,5,7,9,11,13,15,17,19,21,23,25,27,29,-1,-1,-1,-1,-1,-1,-1,-1,-1,-1,-1,-1,-1,-1,-1,-1],"loss_changes":[5.5605835E1,6.2465973E1,4.931578E1,6.9794495E1,6.619678E1,7.3017654E0,4.1151516E1,1.4998672E2,5.4609085E1,5.1353937E2,1.5621896E2,1.0070007E1,8.783421E0,4.0063713E1,2.1910477E-1,0E0,0E0,0E0,0E0,0E0,0E0,0E0,0E0,0E0,0E0,0E0,0E0,0E0,0E0,0E0,0E0],"parents":[2147483647,0,0,1,1,2,2,3,3,4,4,5,5,6,6,7,7,8,8,9,9,10,10,11,11,12,12,13,13,14,14],"right_children":[2,4,6,8,10,12,14,16,18,20,22,24,26,28,30,-1,-1,-1,-1,-1,-1,-1,-1,-1,-1,-1,-1,-1,-1,-1,-1],"split_conditions":[2.2E1,9E0,5E0,6E0,3E0,2E0,7E0,5E0,2E0,1.3E1,1.1E1,2.3E1,2.3E1,2.3E1,2.3E1,-1.09864455E-2,6.794327E-2,1.1596142E-2,-4.717619E-2,-9.836195E-2,2.2744516E-2,6.1460197E-2,7.0452164E-3,-7.201616E-2,-1.7157754E-2,-2.2233061E-2,-4.826816E-2,5.305449E-2,-2.166645E-2,-3.2843005E-2,-2.5363667E-2],"split_indices":[1,1,0,0,0,0,0,0,1,1,1,1,1,1,1,0,0,0,0,0,0,0,0,0,0,0,0,0,0,0,0],"split_type":[0,0,0,0,0,0,0,0,0,0,0,0,0,0,0,0,0,0,0,0,0,0,0,0,0,0,0,0,0,0,0],"sum_hessian":[1.109E4,9.813E3,1.277E3,2.806E3,7.007E3,7.45E2,5.32E2,1.926E3,8.8E2,1.812E3,5.195E3,1.59E2,5.86E2,3.13E2,2.19E2,1.645E3,2.81E2,2.06E2,6.74E2,4.73E2,1.339E3,5.95E2,4.6E3,1.1E2,4.9E1,3.9E2,1.96E2,2.03E2,1.1E2,1.2E2,9.9E1],"tree_param":{"num_deleted":"0","num_feature":"2","num_nodes":"31","size_leaf_vector":"1"}},{"base_weights":[-5.1358395E-4,3.0182188E-2,-1.5111546E-1,-2.1933539E-1,5.409478E-2,1.079626E-1,-1.6628568E-1,-1.8206777E-1,-4.4395933E-1,1.1922755E-1,-4.607743E-2,-9.065801E-2,-3.8168356E-1,-2.9821455E-2,-9.873817E-3,-2.7349073E-2,-6.726559E-2,2.899815E-2,-3.603052E-3,-1.5681162E-2,4.0627107E-2,-3.434081E-2,5.9691295E-3,-4.7650162E-2,-2.6659796E-2],"categories":[],"categories_nodes":[],"categories_segments":[],"categories_sizes":[],"default_left":[0,0,0,0,0,0,0,0,0,0,0,0,0,0,0,0,0,0,0,0,0,0,0,0,0],"id":43,"left_children":[1,3,5,7,9,-1,11,13,15,17,19,21,23,-1,-1,-1,-1,-1,-1,-1,-1,-1,-1,-1,-1],"loss_changes":[5.127649E1,5.4988228E1,3.5242958E1,6.666359E0,5.4869957E1,0E0,3.0199715E1,6.6777325E0,4.260391E0,1.3511014E2,1.6606345E2,5.227159E1,5.1326447E0,0E0,0E0,0E0,0E0,0E0,0E0,0E0,0E0,0E0,0E0,0E0,0E0],"parents":[2147483647,0,0,1,1,2,2,3,3,4,4,6,6,7,7,8,8,9,9,10,10,11,11,12,12],"right_children":[2,4,6,8,10,-1,12,14,16,18,20,22,24,-1,-1,-1,-1,-1,-1,-1,-1,-1,-1,-1,-1],"split_conditions":[7E0,3E0,1E0,2E0,1.8E1,1.079626E-1,2E1,3E0,2E0,4E0,6E0,1E1,2.2E1,-2.9821455E-2,-9.873817E-3,-2.7349073E-2,-6.726559E-2,2.899815E-2,-3.603052E-3,-1.5681162E-2,4.0627107E-2,-3.434081E-2,5.9691295E-3,-4.7650162E-2,-2.6659796E-2],"split_indices":[0,1,1,1,1,0,1,0,0,0,0,1,1,0,0,0,0,0,0,0,0,0,0,0,0],"split_type":[0,0,0,0,0,0,0,0,0,0,0,0,0,0,0,0,0,0,0,0,0,0,0,0,0],"sum_hessian":[1.109E4,9.213E3,1.877E3,8.05E2,8.408E3,2.2E1,1.855E3,6.92E2,1.13E2,5.095E3,3.313E3,1.374E3,4.81E2,2.88E2,4.04E2,6.6E1,4.7E1,2.426E3,2.669E3,2.662E3,6.51E2,5.12E2,8.62E2,2.62E2,2.19E2],"tree_param":{"num_deleted":"0","num_feature":"2","num_nodes":"25","size_leaf_vector":"1"}},{"base_weights":[-4.692213E-4,2.7155008E-2,-1.3600127E-1,-1.3334763E-1,6.026471E-2,9.763573E-2,-1.497126E-1,2.6853798E-2,-5.617343E-1,-2.5510353E-1,8.8795E-2,-8.161312E-2,-3.436692E-1,-2.818797E-2,1.5016407E-2,-2.2283185E-1,-3.7988313E-2,-1.7792981E-2,-7.382771E-2,1.08694555E-2,-3.4578428E-2,-3.0913416E-2,5.37286E-3,-4.2903252E-2,-2.4005914E-2],"categories":[],"categories_nodes":[],"categories_segments":[],"categories_sizes":[],"default_left":[0,0,0,0,0,0,0,0,0,0,0,0,0,0,0,0,0,0,0,0,0,0,0,0,0],"id":44,"left_children":[1,3,5,7,9,-1,11,13,15,17,19,21,23,-1,-1,-1,-1,-1,-1,-1,-1,-1,-1,-1,-1],"loss_changes":[4.152805E1,4.897302E1,2.8789291E1,1.0817305E2,6.87549E1,0E0,2.448664E1,4.3746693E1,1.2917068E2,2.3509426E1,6.0625015E1,4.235711E1,4.1600533E0,0E0,0E0,0E0,0E0,0E0,0E0,0E0,0E0,0E0,0E0,0E0,0E0],"parents":[2147483647,0,0,1,1,2,2,3,3,4,4,6,6,7,7,8,8,9,9,10,10,11,11,12,12],"right_children":[2,4,6,8,10,-1,12,14,16,18,20,22,24,-1,-1,-1,-1,-1,-1,-1,-1,-1,-1,-1,-1],"split_conditions":[7E0,2E0,1E0,1.9E1,4E0,9.763573E-2,2E1,5E0,2E1,2E0,2.3E1,1E1,2.2E1,-2.818797E-2,1.5016407E-2,-2.2283185E-1,-3.7988313E-2,-1.7792981E-2,-7.382771E-2,1.08694555E-2,-3.4578428E-2,-3.0913416E-2,5.37286E-3,-4.2903252E-2,-2.4005914E-2],"split_indices":[0,0,1,1,1,0,1,1,1,1,1,1,1,0,0,0,0,0,0,0,0,0,0,0,0],"split_type":[0,0,0,0,0,0,0,0,0,0,0,0,0,0,0,0,0,0,0,0,0,0,0,0,0],"sum_hessian":[1.109E4,9.213E3,1.877E3,1.575E3,7.638E3,2.2E1,1.855E3,1.147E3,4.28E2,6.33E2,7.005E3,1.374E3,4.81E2,3.27E2,8.2E2,4.1E1,3.87E2,5.47E2,8.6E1,6.699E3,3.06E2,5.12E2,8.62E2,2.62E2,2.19E2],"tree_param":{"num_deleted":"0","num_feature":"2","num_nodes":"25","size_leaf_vector":"1"}},{"base_weights":[-4.570567E-4,1.9725995E-2,-1.5544611E-1,6.8434514E-2,-7.15227E-2,-2.9943898E-1,4.6381533E-2,1.4303488E-1,-1.89031E-1,-1.711621E-1,2.7750635E-1,-3.7951732E-1,-2.183432E-1,2.3018177E-1,-2.1616235E-1,4.271036E-5,6.5563016E-2,-5.404651E-2,-1.0769974E-2,-1.3754964E-3,-1.16948545E-1,8.5956044E-2,-3.303283E-2,-4.2626645E-2,-2.94572E-2,-1.5444346E-2,-3.6777828E-2,4.513482E-2,-1.7835995E-2,-2.456112E-2,-1.7836766E-2],"categories":[],"categories_nodes":[],"categories_segments":[],"categories_sizes":[],"default_left":[0,0,0,0,0,0,0,0,0,0,0,0,0,0,0,0,0,0,0,0,0,0,0,0,0,0,0,0,0,0,0],"id":45,"left_children":[1,3,5,7,9,11,13,15,17,19,21,23,25,27,29,-1,-1,-1,-1,-1,-1,-1,-1,-1,-1,-1,-1,-1,-1,-1,-1],"loss_changes":[3.4697403E1,4.3624092E1,3.71548E1,1.2293277E2,1.188459E2,4.761673E0,2.5770008E1,3.627223E2,4.1043545E1,4.1767056E2,2.688125E2,1.3596306E0,3.5049248E0,2.8452196E1,2.0105267E-1,0E0,0E0,0E0,0E0,0E0,0E0,0E0,0E0,0E0,0E0,0E0,0E0,0E0,0E0,0E0,0E0],"parents":[2147483647,0,0,1,1,2,2,3,3,4,4,5,5,6,6,7,7,8,8,9,9,10,10,11,11,12,12,13,13,14,14],"right_children":[2,4,6,8,10,12,14,16,18,20,22,24,26,28,30,-1,-1,-1,-1,-1,-1,-1,-1,-1,-1,-1,-1,-1,-1,-1,-1],"split_conditions":[2.2E1,6E0,5E0,1.9E1,1.9E1,3E0,7E0,1.6E1,2E0,1.7E1,7E0,2.3E1,2.3E1,2.3E1,2.3E1,4.271036E-5,6.5563016E-2,-5.404651E-2,-1.0769974E-2,-1.3754964E-3,-1.16948545E-1,8.5956044E-2,-3.303283E-2,-4.2626645E-2,-2.94572E-2,-1.5444346E-2,-3.6777828E-2,4.513482E-2,-1.7835995E-2,-2.456112E-2,-1.7836766E-2],"split_indices":[1,0,0,1,1,0,0,1,0,1,0,1,1,1,1,0,0,0,0,0,0,0,0,0,0,0,0,0,0,0,0],"split_type":[0,0,0,0,0,0,0,0,0,0,0,0,0,0,0,0,0,0,0,0,0,0,0,0,0,0,0,0,0,0,0],"sum_hessian":[1.109E4,9.813E3,1.277E3,6.398E3,3.415E3,7.45E2,5.32E2,4.961E3,1.437E3,2.657E3,7.58E2,3.73E2,3.72E2,3.13E2,2.19E2,3.882E3,1.079E3,2.69E2,1.168E3,2.296E3,3.61E2,3.87E2,3.71E2,2.38E2,1.35E2,2.62E2,1.1E2,2.03E2,1.1E2,1.2E2,9.9E1],"tree_param":{"num_deleted":"0","num_feature":"2","num_nodes":"31","size_leaf_vector":"1"}},{"base_weights":[-4.296238E-4,3.7501168E-2,-6.850234E-2,-3.656732E-2,2.5349668E-1,-2.3102424E-1,3.8967583E-2,-1.278347E-1,7.2124526E-2,6.216864E-1,-1.3322215E-1,-9.030837E-2,-2.883839E-1,1.324702E-1,-2.0838915E-1,3.6045667E-3,-6.353563E-2,5.7967838E-2,-7.3815295E-3,1.805383E-2,7.884813E-2,-3.1176478E-2,2.3226814E-2,-3.0608023E-2,1.9642278E-3,-3.1296417E-2,-1.5538216E-2,1.8832399E-2,-3.510907E-2,2.5403667E-2,-2.5967801E-2],"categories":[],"categories_nodes":[],"categories_segments":[],"categories_sizes":[],"default_left":[0,0,0,0,0,0,0,0,0,0,0,0,0,0,0,0,0,0,0,0,0,0,0,0,0,0,0,0,0,0,0],"id":46,"left_children":[1,3,5,7,9,11,13,15,17,19,21,23,25,27,29,-1,-1,-1,-1,-1,-1,-1,-1,-1,-1,-1,-1,-1,-1,-1,-1],"loss_changes":[2.8640108E1,1.139663E2,6.933242E1,5.263492E1,2.5908276E2,1.2726791E1,5.5304726E1,2.3989331E2,1.7944592E2,6.8435394E1,5.8019375E1,1.0895445E1,3.6194305E0,4.6926224E1,1.5624512E1,0E0,0E0,0E0,0E0,0E0,0E0,0E0,0E0,0E0,0E0,0E0,0E0,0E0,0E0,0E0,0E0],"parents":[2147483647,0,0,1,1,2,2,3,3,4,4,5,5,6,6,7,7,8,8,9,9,10,10,11,11,12,12,13,13,14,14],"right_children":[2,4,6,8,10,12,14,16,18,20,22,24,26,28,30,-1,-1,-1,-1,-1,-1,-1,-1,-1,-1,-1,-1,-1,-1,-1,-1],"split_conditions":[1.8E1,1.5E1,4E0,5E0,5E0,2E1,7E0,4E0,6E0,2E0,7E0,2E0,2.3E1,2.3E1,1.9E1,3.6045667E-3,-6.353563E-2,5.7967838E-2,-7.3815295E-3,1.805383E-2,7.884813E-2,-3.1176478E-2,2.3226814E-2,-3.0608023E-2,1.9642278E-3,-3.1296417E-2,-1.5538216E-2,1.8832399E-2,-3.510907E-2,2.5403667E-2,-2.5967801E-2],"split_indices":[1,1,0,0,0,1,0,0,0,0,0,0,1,1,1,0,0,0,0,0,0,0,0,0,0,0,0,0,0,0,0],"split_type":[0,0,0,0,0,0,0,0,0,0,0,0,0,0,0,0,0,0,0,0,0,0,0,0,0,0,0,0,0,0,0],"sum_hessian":[1.109E4,7.122E3,3.968E3,5.304E3,1.818E3,1.579E3,2.389E3,2.883E3,2.421E3,9.31E2,8.87E2,4.58E2,1.121E3,1.734E3,6.55E2,2.18E3,7.03E2,5.4E2,1.881E3,2.56E2,6.75E2,5.96E2,2.91E2,1.54E2,3.04E2,9.45E2,1.76E2,1.555E3,1.79E2,6.5E1,5.9E2],"tree_param":{"num_deleted":"0","num_feature":"2","num_nodes":"31","size_leaf_vector":"1"}},{"base_weights":[-3.8789908E-4,-1.13060355E-1,1.827248E-2,4.963313E-3,-4.2862704E-1,-1.2338687E-1,4.839623E-2,-2.5741407E-1,1.09780386E-1,-1.9281532E-1,-2.652025E-1,4.2411554E-1,-2.3643766E-1,1.08341E-1,-2.892706E-2,1.442148E-3,-9.548881E-2,2.7196088E-1,-5.5797063E-3,1.9018124E-4,-3.7359953E-2,-4.1307487E-2,1.2641945E-1,-4.248507E-3,-8.249571E-2,2.9620543E-2,2.6800488E-3,-1.7609682E-2,3.5063855E-3],"categories":[],"categories_nodes":[],"categories_segments":[],"categories_sizes":[],"default_left":[0,0,0,0,0,0,0,0,0,0,0,0,0,0,0,0,0,0,0,0,0,0,0,0,0,0,0,0,0],"id":47,"left_children":[1,3,5,7,9,11,13,15,17,-1,19,21,23,25,27,-1,-1,-1,-1,-1,-1,-1,-1,-1,-1,-1,-1,-1,-1],"loss_changes":[2.3321014E1,5.8699203E1,4.06137E1,3.160013E1,1.0461912E2,1.0340399E2,3.6379612E1,6.2201992E1,3.549294E2,0E0,1.1234598E1,2.0166772E2,1.5794145E2,6.771542E1,3.2289455E1,0E0,0E0,0E0,0E0,0E0,0E0,0E0,0E0,0E0,0E0,0E0,0E0,0E0,0E0],"parents":[2147483647,0,0,1,1,2,2,3,3,4,4,5,5,6,6,7,7,8,8,10,10,11,11,12,12,13,13,14,14],"right_children":[2,4,6,8,10,12,14,16,18,-1,20,22,24,26,28,-1,-1,-1,-1,-1,-1,-1,-1,-1,-1,-1,-1,-1,-1],"split_conditions":[2E0,1.9E1,7E0,5E0,2E1,3E0,1.8E1,4E0,7E0,-1.9281532E-1,2.1E1,2E0,5E0,4E0,4E0,1.442148E-3,-9.548881E-2,2.7196088E-1,-5.5797063E-3,1.9018124E-4,-3.7359953E-2,-4.1307487E-2,1.2641945E-1,-4.248507E-3,-8.249571E-2,2.9620543E-2,2.6800488E-3,-1.7609682E-2,3.5063855E-3],"split_indices":[0,1,1,1,1,0,1,1,1,0,1,1,1,0,0,0,0,0,0,0,0,0,0,0,0,0,0,0,0],"split_type":[0,0,0,0,0,0,0,0,0,0,0,0,0,0,0,0,0,0,0,0,0,0,0,0,0,0,0,0,0],"sum_hessian":[1.109E4,1.575E3,9.515E3,1.147E3,4.28E2,1.668E3,7.847E3,3.27E2,8.2E2,4.1E1,3.87E2,2.85E2,1.383E3,4.42E3,3.427E3,2.36E2,9.1E1,4.8E1,7.72E2,1.12E2,2.75E2,1.43E2,1.42E2,1.041E3,3.42E2,1.337E3,3.083E3,1.038E3,2.389E3],"tree_param":{"num_deleted":"0","num_feature":"2","num_nodes":"29","size_leaf_vector":"1"}},{"base_weights":[-3.5288764E-4,1.8810607E-2,-9.437424E-2,-6.454909E-2,5.8649115E-2,3.8855413E-1,-1.1946828E-1,-2.1778102E-1,2.6260692E-1,2.0773931E-1,-2.8907448E-2,8.95407E-2,2.1888975E-2,-3.3312365E-1,-4.895578E-2,-5.575335E-3,-2.8192863E-1,-2.6972366E-2,1.0125957E-1,9.168541E-3,8.9301676E-2,-2.6915539E-2,1.7314062E-3,-2.7361614E-4,-6.418581E-2,1.1895553E-1,-1.4304346E-2],"categories":[],"categories_nodes":[],"categories_segments":[],"categories_sizes":[],"default_left":[0,0,0,0,0,0,0,0,0,0,0,0,0,0,0,0,0,0,0,0,0,0,0,0,0,0,0],"id":48,"left_children":[1,3,5,7,9,11,13,15,17,19,21,-1,-1,23,25,-1,-1,-1,-1,-1,-1,-1,-1,-1,-1,-1,-1],"loss_changes":[1.9985292E1,3.0602798E1,2.28052E1,1.4944682E2,8.139661E1,7.801528E0,2.6890453E1,8.5552E2,3.7995215E2,1.8339182E2,4.363472E1,0E0,0E0,4.5185123E1,1.5678464E2,0E0,0E0,0E0,0E0,0E0,0E0,0E0,0E0,0E0,0E0,0E0,0E0],"parents":[2147483647,0,0,1,1,2,2,3,3,4,4,5,5,6,6,7,7,8,8,9,9,10,10,13,13,14,14],"right_children":[2,4,6,8,10,12,14,16,18,20,22,-1,-1,24,26,-1,-1,-1,-1,-1,-1,-1,-1,-1,-1,-1,-1],"split_conditions":[7E0,1.1E1,2E0,5E0,1.7E1,1E0,1E1,1E1,8E0,1.6E1,2E0,8.95407E-2,2.1888975E-2,6E0,1.1E1,-5.575335E-3,-2.8192863E-1,-2.6972366E-2,1.0125957E-1,9.168541E-3,8.9301676E-2,-2.6915539E-2,1.7314062E-3,-2.7361614E-4,-6.418581E-2,1.1895553E-1,-1.4304346E-2],"split_indices":[0,1,1,0,1,1,1,1,1,1,0,0,0,1,1,0,0,0,0,0,0,0,0,0,0,0,0],"split_type":[0,0,0,0,0,0,0,0,0,0,0,0,0,0,0,0,0,0,0,0,0,0,0,0,0,0,0],"sum_hessian":[1.109E4,9.213E3,1.877E3,2.979E3,6.234E3,9.2E1,1.785E3,2.029E3,9.5E2,2.306E3,3.928E3,2.2E1,7E1,4.42E2,1.343E3,1.911E3,1.18E2,5.56E2,3.94E2,1.973E3,3.33E2,6.33E2,3.295E3,2.14E2,2.28E2,9.4E1,1.249E3],"tree_param":{"num_deleted":"0","num_feature":"2","num_nodes":"27","size_leaf_vector":"1"}},{"base_weights":[-3.1667706E-4,8.119785E-3,-1.9754378E-1,-6.843778E-2,3.5560593E-2,4.918809E-4,-2.2199103E-1,1.1792026E-1,-1.5473473E-1,-1.1812781E-1,9.0080455E-2,-3.2054308E-1,-1.2848273E-1,2.3248693E-2,-1.2052913E-1,-3.3601385E-2,-3.6348922E-3,-1.4472783E-1,3.1060413E-3,3.4563288E-2,-6.115315E-4,-1.5506111E-2,-6.185595E-2,3.152379E-2,-2.5140798E-2],"categories":[],"categories_nodes":[],"categories_segments":[],"categories_sizes":[],"default_left":[0,0,0,0,0,0,0,0,0,0,0,0,0,0,0,0,0,0,0,0,0,0,0,0,0],"id":49,"left_children":[1,3,5,7,9,-1,11,13,15,17,19,21,23,-1,-1,-1,-1,-1,-1,-1,-1,-1,-1,-1,-1],"loss_changes":[1.8455908E1,2.2348658E1,2.2531853E0,4.5160786E1,6.562715E1,0E0,3.7002811E0,1.35049E2,4.1171215E1,4.067451E2,1.4211678E2,9.619408E0,1.1533591E1,0E0,0E0,0E0,0E0,0E0,0E0,0E0,0E0,0E0,0E0,0E0,0E0],"parents":[2147483647,0,0,1,1,2,2,3,3,4,4,6,6,7,7,8,8,9,9,10,10,11,11,12,12],"right_children":[2,4,6,8,10,-1,12,14,16,18,20,22,24,-1,-1,-1,-1,-1,-1,-1,-1,-1,-1,-1,-1],"split_conditions":[2.3E1,9E0,2E0,3E0,3E0,4.918809E-4,5E0,8E0,5E0,1.1E1,1.4E1,4E0,6E0,2.3248693E-2,-1.2052913E-1,-3.3601385E-2,-3.6348922E-3,-1.4472783E-1,3.1060413E-3,3.4563288E-2,-6.115315E-4,-1.5506111E-2,-6.185595E-2,3.152379E-2,-2.5140798E-2],"split_indices":[1,1,0,0,0,0,0,1,0,1,1,0,0,0,0,0,0,0,0,0,0,0,0,0,0],"split_type":[0,0,0,0,0,0,0,0,0,0,0,0,0,0,0,0,0,0,0,0,0,0,0,0,0],"sum_hessian":[1.109E4,1.0636E4,4.54E2,2.806E3,7.83E3,4.9E1,4.05E2,8.88E2,1.918E3,2.05E3,5.78E3,1.96E2,2.09E2,8.18E2,7E1,7.57E2,1.161E3,2.06E2,1.844E3,1.58E3,4.2E3,1.27E2,6.9E1,4.5E1,1.64E2],"tree_param":{"num_deleted":"0","num_feature":"2","num_nodes":"25","size_leaf_vector":"1"}}]},"name":"gbtree"},"learner_model_param":{"base_score":"[1.3587917E1]","boost_from_average":"1","num_class":"0","num_feature":"2","num_target":"1"},"objective":{"name":"reg:squarederror","reg_loss_param":{"scale_pos_weight":"1"}}},"version":[3,2,0]}