{"learner":{"attributes":{},"feature_names":["day_of_week","hour_of_day"],"feature_types":[],"gradient_booster":{"model":{"cats":{"enc":[],"feature_segments":[],"sorted_idx":[]},"gbtree_model_param":{"num_parallel_tree":"1","num_trees":"50"},"iteration_indptr":[0,1,2,3,4,5,6,7,8,9,10,11,12,13,14,15,16,17,18,19,20,21,22,23,24,25,26,27,28,29,30,31,32,33,34,35,36,37,38,39,40,41,42,43,44,45,46,47,48,49,50],"tree_info":[0,0,0,0,0,0,0,0,0,0,0,0,0,0,0,0,0,0,0,0,0,0,0,0,0,0,0,0,0,0,0,0,0,0,0,0,0,0,0,0,0,0,0,0,0,0,0,0,0,0],"trees":[{"base_weights":[1.6094103E-7,-1.0410795E1,1.167076E0,-1.0931853E1,-6.0278964E0,3.4464934E0,-4.843992E0,-1.1752223E0,-8.927422E0,-2.8763509E0,-9.8501676E-1,-3.0564547E-1,4.0229564E0,-2.307445E0,-7.757427E0,-7.181185E-1,-9.3178123E-1,-1.9767766E-1,-3.768202E-1,1.9694737E-1,-5.0207067E-1,4.8425704E-1,6.3492216E-2,-4.514254E-1,-8.949263E-2,-1.010998E0,-6.114677E-1],"categories":[],"categories_nodes":[],"categories_segments":[],"categories_sizes":[],"default_left":[0,0,0,0,0,0,0,0,0,0,0,0,0,0,0,0,0,0,0,0,0,0,0,0,0,0,0],"id":0,"left_children":[1,3,5,7,9,11,13,-1,15,17,-1,19,21,23,25,-1,-1,-1,-1,-1,-1,-1,-1,-1,-1,-1,-1],"loss_changes":[9.389665E4,1.7131484E3,9.523003E4,1.0379141E3,9.955825E2,1.09004375E4,1.4104516E4,0E0,7.3521484E1,3.1060852E1,0E0,7.2186514E3,1.2126336E4,3.1848145E3,3.3738594E3,0E0,0E0,0E0,0E0,0E0,0E0,0E0,0E0,0E0,0E0,0E0,0E0],"parents":[2147483647,0,0,1,1,2,2,3,3,4,4,5,5,6,6,8,8,9,9,11,11,12,12,13,13,14,14],"right_children":[2,4,6,8,10,12,14,-1,16,18,-1,20,22,24,26,-1,-1,-1,-1,-1,-1,-1,-1,-1,-1,-1,-1],"split_conditions":[4E0,3E0,2E1,6E0,6E0,7E0,2.2E1,-1.1752223E0,1E0,2E0,-9.8501676E-1,6E0,1.8E1,4E0,4E0,-7.181185E-1,-9.3178123E-1,-1.9767766E-1,-3.768202E-1,1.9694737E-1,-5.0207067E-1,4.8425704E-1,6.3492216E-2,-4.514254E-1,-8.949263E-2,-1.010998E0,-6.114677E-1],"split_indices":[1,1,1,0,0,1,1,0,1,0,0,0,1,0,0,0,0,0,0,0,0,0,0,0,0,0,0],"split_type":[0,0,0,0,0,0,0,0,0,0,0,0,0,0,0,0,0,0,0,0,0,0,0,0,0,0,0],"sum_hessian":[7.726E3,7.78E2,6.948E3,6.94E2,8.4E1,5.038E3,1.91E3,4.89E2,2.05E2,4.7E1,3.7E1,6.71E2,4.367E3,1.022E3,8.88E2,4.1E1,1.64E2,2.5E1,2.2E1,4.53E2,2.18E2,3.516E3,8.51E2,3.98E2,6.24E2,3.63E2,5.25E2],"tree_param":{"num_deleted":"0","num_feature":"2","num_nodes":"27","size_leaf_vector":"1"}},{"base_weights":[-8.1570813E-4,-9.375344E0,1.0500921E0,-9.842733E0,-5.443454E0,3.436278E0,-3.6302078E0,-1.0579399E0,-8.042688E0,-2.6006842E0,-8.891072E-1,-2.755349E-1,4.0697727E0,-1.5844808E0,-6.9835095E0,-6.480164E-1,-8.391679E-1,-1.786702E-1,-3.407765E-1,1.7729603E-1,-4.520929E-1,4.489947E-1,1.7874785E-1,-3.3272663E-1,-5.201534E-2,-9.10176E-1,-5.504372E-1],"categories":[],"categories_nodes":[],"categories_segments":[],"categories_sizes":[],"default_left":[0,0,0,0,0,0,0,0,0,0,0,0,0,0,0,0,0,0,0,0,0,0,0,0,0,0,0],"id":1,"left_children":[1,3,5,7,9,11,13,-1,15,17,-1,19,21,23,25,-1,-1,-1,-1,-1,-1,-1,-1,-1,-1,-1,-1],"loss_changes":[7.613444E4,1.378E3,7.761936E4,8.365078E2,8.0994385E2,1.08246875E4,1.6089213E4,0E0,5.7953125E1,2.5444885E1,0E0,5.852177E3,3.7626094E3,2.7045598E3,2.7353008E3,0E0,0E0,0E0,0E0,0E0,0E0,0E0,0E0,0E0,0E0,0E0,0E0],"parents":[2147483647,0,0,1,1,2,2,3,3,4,4,5,5,6,6,8,8,9,9,11,11,12,12,13,13,14,14],"right_children":[2,4,6,8,10,12,14,-1,16,18,-1,20,22,24,26,-1,-1,-1,-1,-1,-1,-1,-1,-1,-1,-1,-1],"split_conditions":[4E0,3E0,1.9E1,6E0,6E0,7E0,2.2E1,-1.0579399E0,1E0,2E0,-8.891072E-1,6E0,7E0,4E0,4E0,-6.480164E-1,-8.391679E-1,-1.786702E-1,-3.407765E-1,1.7729603E-1,-4.520929E-1,4.489947E-1,1.7874785E-1,-3.3272663E-1,-5.201534E-2,-9.10176E-1,-5.504372E-1],"split_indices":[1,1,1,0,0,1,1,0,1,0,0,0,0,0,0,0,0,0,0,0,0,0,0,0,0,0,0],"split_type":[0,0,0,0,0,0,0,0,0,0,0,0,0,0,0,0,0,0,0,0,0,0,0,0,0,0,0],"sum_hessian":[7.726E3,7.78E2,6.948E3,6.94E2,8.4E1,4.602E3,2.346E3,4.89E2,2.05E2,4.7E1,3.7E1,6.71E2,3.931E3,1.458E3,8.88E2,4.1E1,1.64E2,2.5E1,2.2E1,4.53E2,2.18E2,3.319E3,6.12E2,5.52E2,9.06E2,3.63E2,5.25E2],"tree_param":{"num_deleted":"0","num_feature":"2","num_nodes":"27","size_leaf_vector":"1"}},{"base_weights":[-1.4389178E-3,-8.442885E0,9.448682E-1,-8.862123E0,-4.9156795E0,2.8011467E0,-3.9503345E0,-9.523619E-1,-7.2456393E0,-2.3514378E0,-8.025362E-1,-2.4839E-1,3.269665E0,-1.9160535E0,-6.286802E0,-5.8475775E-1,-7.5575966E-1,-1.614904E-1,-3.081805E-1,1.5960552E-1,-4.0709E-1,3.9517698E-1,4.501445E-2,-3.7320673E-1,-7.536446E-2,-8.194084E-1,-4.9549815E-1],"categories":[],"categories_nodes":[],"categories_segments":[],"categories_sizes":[],"default_left":[0,0,0,0,0,0,0,0,0,0,0,0,0,0,0,0,0,0,0,0,0,0,0,0,0,0,0],"id":2,"left_children":[1,3,5,7,9,11,13,-1,15,17,-1,19,21,23,25,-1,-1,-1,-1,-1,-1,-1,-1,-1,-1,-1,-1],"loss_changes":[6.173281E4,1.1083672E3,6.3155664E4,6.7415625E2,6.5891724E2,7.2003516E3,9.070996E3,0E0,4.565039E1,2.08443E1,0E0,4.744373E3,8.398789E3,2.1566902E3,2.2175938E3,0E0,0E0,0E0,0E0,0E0,0E0,0E0,0E0,0E0,0E0,0E0,0E0],"parents":[2147483647,0,0,1,1,2,2,3,3,4,4,5,5,6,6,8,8,9,9,11,11,12,12,13,13,14,14],"right_children":[2,4,6,8,10,12,14,-1,16,18,-1,20,22,24,26,-1,-1,-1,-1,-1,-1,-1,-1,-1,-1,-1,-1],"split_conditions":[4E0,3E0,2E1,6E0,6E0,7E0,2.2E1,-9.523619E-1,1E0,2E0,-8.025362E-1,6E0,1.8E1,4E0,4E0,-5.8475775E-1,-7.5575966E-1,-1.614904E-1,-3.081805E-1,1.5960552E-1,-4.0709E-1,3.9517698E-1,4.501445E-2,-3.7320673E-1,-7.536446E-2,-8.194084E-1,-4.9549815E-1],"split_indices":[1,1,1,0,0,1,1,0,1,0,0,0,1,0,0,0,0,0,0,0,0,0,0,0,0,0,0],"split_type":[0,0,0,0,0,0,0,0,0,0,0,0,0,0,0,0,0,0,0,0,0,0,0,0,0,0,0],"sum_hessian":[7.726E3,7.78E2,6.948E3,6.94E2,8.4E1,5.038E3,1.91E3,4.89E2,2.05E2,4.7E1,3.7E1,6.71E2,4.367E3,1.022E3,8.88E2,4.1E1,1.64E2,2.5E1,2.2E1,4.53E2,2.18E2,3.516E3,8.51E2,3.98E2,6.24E2,3.63E2,5.25E2],"tree_param":{"num_deleted":"0","num_feature":"2","num_nodes":"27","size_leaf_vector":"1"}},{"base_weights":[-1.9597476E-3,-7.6031733E0,8.501553E-1,-7.979209E0,-4.439079E0,2.7903852E0,-2.9554386E0,-8.5732E-1,-6.527583E0,-2.1260786E0,-7.243945E-1,-2.2391947E-1,3.3048365E0,-1.3057088E0,-5.6596007E0,-5.276742E-1,-6.8064183E-1,-1.4596246E-1,-2.7870235E-1,1.4368008E-1,-3.6656687E-1,3.6831552E-1,1.2504771E-1,-2.739076E-1,-4.3034192E-2,-7.3769265E-1,-4.460426E-1],"categories":[],"categories_nodes":[],"categories_segments":[],"categories_sizes":[],"default_left":[0,0,0,0,0,0,0,0,0,0,0,0,0,0,0,0,0,0,0,0,0,0,0,0,0,0,0],"id":3,"left_children":[1,3,5,7,9,11,13,-1,15,17,-1,19,21,23,25,-1,-1,-1,-1,-1,-1,-1,-1,-1,-1,-1,-1],"loss_changes":[5.005508E4,8.914492E2,5.131777E4,5.433008E2,5.360497E2,7.138672E3,1.0462898E4,0E0,3.5932617E1,1.707547E1,0E0,3.846273E3,3.0513516E3,1.8294612E3,1.7978809E3,0E0,0E0,0E0,0E0,0E0,0E0,0E0,0E0,0E0,0E0,0E0,0E0],"parents":[2147483647,0,0,1,1,2,2,3,3,4,4,5,5,6,6,8,8,9,9,11,11,12,12,13,13,14,14],"right_children":[2,4,6,8,10,12,14,-1,16,18,-1,20,22,24,26,-1,-1,-1,-1,-1,-1,-1,-1,-1,-1,-1,-1],"split_conditions":[4E0,3E0,1.9E1,6E0,6E0,7E0,2.2E1,-8.5732E-1,1E0,2E0,-7.243945E-1,6E0,7E0,4E0,4E0,-5.276742E-1,-6.8064183E-1,-1.4596246E-1,-2.7870235E-1,1.4368008E-1,-3.6656687E-1,3.6831552E-1,1.2504771E-1,-2.739076E-1,-4.3034192E-2,-7.3769265E-1,-4.460426E-1],"split_indices":[1,1,1,0,0,1,1,0,1,0,0,0,0,0,0,0,0,0,0,0,0,0,0,0,0,0,0],"split_type":[0,0,0,0,0,0,0,0,0,0,0,0,0,0,0,0,0,0,0,0,0,0,0,0,0,0,0],"sum_hessian":[7.726E3,7.78E2,6.948E3,6.94E2,8.4E1,4.602E3,2.346E3,4.89E2,2.05E2,4.7E1,3.7E1,6.71E2,3.931E3,1.458E3,8.88E2,4.1E1,1.64E2,2.5E1,2.2E1,4.53E2,2.18E2,3.319E3,6.12E2,5.52E2,9.06E2,3.63E2,5.25E2],"tree_param":{"num_deleted":"0","num_feature":"2","num_nodes":"27","size_leaf_vector":"1"}},{"base_weights":[-2.3389452E-3,-6.846983E0,7.649628E-1,-7.1842604E0,-4.008689E0,2.2770088E0,-3.2224596E0,-7.71763E-1,-5.88069E0,-1.9223177E0,-6.5386134E-1,-2.0185903E-1,2.6578517E0,-1.5920726E0,-5.094972E0,-4.7616312E-1,-6.129901E-1,-1.319276E-1,-2.520438E-1,1.2934376E-1,-3.3007762E-1,3.2264683E-1,3.0752143E-2,-3.0865744E-1,-6.3543536E-2,-6.6412604E-1,-4.0152308E-1],"categories":[],"categories_nodes":[],"categories_segments":[],"categories_sizes":[],"default_left":[0,0,0,0,0,0,0,0,0,0,0,0,0,0,0,0,0,0,0,0,0,0,0,0,0,0,0],"id":4,"left_children":[1,3,5,7,9,11,13,-1,15,17,-1,19,21,23,25,-1,-1,-1,-1,-1,-1,-1,-1,-1,-1,-1,-1],"loss_changes":[4.0586723E4,7.169297E2,4.190401E4,4.3783984E2,4.3609155E2,4.7576523E3,5.8260176E3,0E0,2.826123E1,1.3988052E1,0E0,3.1181829E3,5.8365605E3,1.4606179E3,1.4575996E3,0E0,0E0,0E0,0E0,0E0,0E0,0E0,0E0,0E0,0E0,0E0,0E0],"parents":[2147483647,0,0,1,1,2,2,3,3,4,4,5,5,6,6,8,8,9,9,11,11,12,12,13,13,14,14],"right_children":[2,4,6,8,10,12,14,-1,16,18,-1,20,22,24,26,-1,-1,-1,-1,-1,-1,-1,-1,-1,-1,-1,-1],"split_conditions":[4E0,3E0,2E1,6E0,6E0,7E0,2.2E1,-7.71763E-1,1E0,2E0,-6.5386134E-1,6E0,1.8E1,4E0,4E0,-4.7616312E-1,-6.129901E-1,-1.319276E-1,-2.520438E-1,1.2934376E-1,-3.3007762E-1,3.2264683E-1,3.0752143E-2,-3.0865744E-1,-6.3543536E-2,-6.6412604E-1,-4.0152308E-1],"split_indices":[1,1,1,0,0,1,1,0,1,0,0,0,1,0,0,0,0,0,0,0,0,0,0,0,0,0,0],"split_type":[0,0,0,0,0,0,0,0,0,0,0,0,0,0,0,0,0,0,0,0,0,0,0,0,0,0,0],"sum_hessian":[7.726E3,7.78E2,6.948E3,6.94E2,8.4E1,5.038E3,1.91E3,4.89E2,2.05E2,4.7E1,3.7E1,6.71E2,4.367E3,1.022E3,8.88E2,4.1E1,1.64E2,2.5E1,2.2E1,4.53E2,2.18E2,3.516E3,8.51E2,3.98E2,6.24E2,3.63E2,5.25E2],"tree_param":{"num_deleted":"0","num_feature":"2","num_nodes":"27","size_leaf_vector":"1"}},{"base_weights":[-2.6467245E-3,-6.1660056E0,6.8828136E-1,-6.468512E0,-3.6200302E0,2.0493379E0,-2.9009662E0,-6.947443E-1,-5.297908E0,-1.7380854E0,-5.9019595E-1,-1.819722E-1,2.392147E0,-1.4332292E0,-4.5866737E0,-4.2968056E-1,-5.520626E-1,-1.19242266E-1,-2.2793527E-1,1.16437845E-1,-2.972206E-1,2.9039127E-1,2.768053E-2,-2.7786905E-1,-5.719937E-2,-6.4396876E-1,-3.8516298E-1],"categories":[],"categories_nodes":[],"categories_segments":[],"categories_sizes":[],"default_left":[0,0,0,0,0,0,0,0,0,0,0,0,0,0,0,0,0,0,0,0,0,0,0,0,0,0,0],"id":5,"left_children":[1,3,5,7,9,11,13,-1,15,17,-1,19,21,23,25,-1,-1,-1,-1,-1,-1,-1,-1,-1,-1,-1,-1],"loss_changes":[3.290919E4,5.765488E2,3.395298E4,3.5283594E2,3.5477124E2,3.854838E3,4.721574E3,0E0,2.2209473E1,1.1458817E1,0E0,2.5279182E3,4.7278125E3,1.183821E3,1.1860566E3,0E0,0E0,0E0,0E0,0E0,0E0,0E0,0E0,0E0,0E0,0E0,0E0],"parents":[2147483647,0,0,1,1,2,2,3,3,4,4,5,5,6,6,8,8,9,9,11,11,12,12,13,13,14,14],"right_children":[2,4,6,8,10,12,14,-1,16,18,-1,20,22,24,26,-1,-1,-1,-1,-1,-1,-1,-1,-1,-1,-1,-1],"split_conditions":[4E0,3E0,2E1,6E0,6E0,7E0,2.2E1,-6.947443E-1,1E0,2E0,-5.9019595E-1,6E0,1.8E1,4E0,3E0,-4.2968056E-1,-5.520626E-1,-1.19242266E-1,-2.2793527E-1,1.16437845E-1,-2.972206E-1,2.9039127E-1,2.768053E-2,-2.7786905E-1,-5.719937E-2,-6.4396876E-1,-3.8516298E-1],"split_indices":[1,1,1,0,0,1,1,0,1,0,0,0,1,0,0,0,0,0,0,0,0,0,0,0,0,0,0],"split_type":[0,0,0,0,0,0,0,0,0,0,0,0,0,0,0,0,0,0,0,0,0,0,0,0,0,0,0],"sum_hessian":[7.726E3,7.78E2,6.948E3,6.94E2,8.4E1,5.038E3,1.91E3,4.89E2,2.05E2,4.7E1,3.7E1,6.71E2,4.367E3,1.022E3,8.88E2,4.1E1,1.64E2,2.5E1,2.2E1,4.53E2,2.18E2,3.516E3,8.51E2,3.98E2,6.24E2,2.5E2,6.38E2],"tree_param":{"num_deleted":"0","num_feature":"2","num_nodes":"27","size_leaf_vector":"1"}},{"base_weights":[-2.8789758E-3,-5.5527606E0,6.192768E-1,-5.824073E0,-3.2690551E0,1.6361408E0,-3.3167844E0,-6.254116E-1,-4.7728825E0,-1.5715097E0,-5.3272957E-1,2.168531E0,-3.3983566E-2,-5.273879E0,-2.6065311E0,-3.877355E-1,-4.9719086E-1,-1.0777662E-1,-2.0613281E-1,-1.6404403E-2,2.613604E-1,-1.05383895E-1,6.1517037E-2,-4.2126426E-1,-5.7982844E-1,-1.859954E-1,-5.5982286E-1],"categories":[],"categories_nodes":[],"categories_segments":[],"categories_sizes":[],"default_left":[0,0,0,0,0,0,0,0,0,0,0,0,0,0,0,0,0,0,0,0,0,0,0,0,0,0,0],"id":6,"left_children":[1,3,5,7,9,11,13,-1,15,17,-1,19,21,23,25,-1,-1,-1,-1,-1,-1,-1,-1,-1,-1,-1,-1],"loss_changes":[2.6683926E4,4.6362695E2,2.7818377E4,2.8433008E2,2.8861438E2,4.9108936E3,1.9698301E3,0E0,1.7437988E1,9.386925E0,0E0,4.3482695E3,8.851379E2,1.8649414E2,2.332564E3,0E0,0E0,0E0,0E0,0E0,0E0,0E0,0E0,0E0,0E0,0E0,0E0],"parents":[2147483647,0,0,1,1,2,2,3,3,4,4,5,5,6,6,8,8,9,9,11,11,12,12,13,13,14,14],"right_children":[2,4,6,8,10,12,14,-1,16,18,-1,20,22,24,26,-1,-1,-1,-1,-1,-1,-1,-1,-1,-1,-1,-1],"split_conditions":[4E0,3E0,2.1E1,6E0,6E0,1.8E1,3E0,-6.254116E-1,1E0,2E0,-5.3272957E-1,7E0,4E0,2.2E1,7E0,-3.877355E-1,-4.9719086E-1,-1.0777662E-1,-2.0613281E-1,-1.6404403E-2,2.613604E-1,-1.05383895E-1,6.1517037E-2,-4.2126426E-1,-5.7982844E-1,-1.859954E-1,-5.5982286E-1],"split_indices":[1,1,1,0,0,1,0,0,1,0,0,1,0,1,0,0,0,0,0,0,0,0,0,0,0,0,0],"split_type":[0,0,0,0,0,0,0,0,0,0,0,0,0,0,0,0,0,0,0,0,0,0,0,0,0,0,0],"sum_hessian":[7.726E3,7.78E2,6.948E3,6.94E2,8.4E1,5.522E3,1.426E3,4.89E2,2.05E2,4.7E1,3.7E1,4.187E3,1.335E3,3.78E2,1.048E3,4.1E1,1.64E2,2.5E1,2.2E1,6.71E2,3.516E3,5.19E2,8.16E2,1.28E2,2.5E2,8.4E2,2.08E2],"tree_param":{"num_deleted":"0","num_feature":"2","num_nodes":"27","size_leaf_vector":"1"}},{"base_weights":[-3.096098E-3,-5.00051E0,5.5712676E-1,-5.2438393E0,-2.9521103E0,1.8466132E0,-1.9720862E0,-5.629981E0,-4.2998905E0,-1.4208984E0,-4.8085853E-1,2.2313058E0,-3.1241262E-1,-8.660207E-1,-3.785109E0,-5.7521486E-1,-5.0757134E-1,-3.4988514E-1,-4.4777313E-1,-9.741347E-2,-1.8641576E-1,5.4580428E-2,2.5291502E-1,-4.085358E-1,1.4478947E-1,-2.2076212E-1,-3.998696E-2,-4.6283102E-1,-2.4484432E-1],"categories":[],"categories_nodes":[],"categories_segments":[],"categories_sizes":[],"default_left":[0,0,0,0,0,0,0,0,0,0,0,0,0,0,0,0,0,0,0,0,0,0,0,0,0,0,0,0,0],"id":7,"left_children":[1,3,5,7,9,11,13,15,17,19,-1,21,23,25,27,-1,-1,-1,-1,-1,-1,-1,-1,-1,-1,-1,-1,-1,-1],"loss_changes":[2.1635805E4,3.7279883E2,2.2667008E4,2.2911914E2,2.3479333E2,3.8237725E3,4.703213E3,3.9824219E0,1.3679443E1,7.689598E0,0E0,1.96E3,4.6350713E3,9.115591E2,9.906406E2,0E0,0E0,0E0,0E0,0E0,0E0,0E0,0E0,0E0,0E0,0E0,0E0,0E0,0E0],"parents":[2147483647,0,0,1,1,2,2,3,3,4,4,5,5,6,6,7,7,8,8,9,9,11,11,12,12,13,13,14,14],"right_children":[2,4,6,8,10,12,14,16,18,20,-1,22,24,26,28,-1,-1,-1,-1,-1,-1,-1,-1,-1,-1,-1,-1,-1,-1],"split_conditions":[4E0,3E0,1.9E1,6E0,6E0,7E0,2.2E1,2E0,1E0,2E0,-4.8085853E-1,7E0,1E1,3E0,5E0,-5.7521486E-1,-5.0757134E-1,-3.4988514E-1,-4.4777313E-1,-9.741347E-2,-1.8641576E-1,5.4580428E-2,2.5291502E-1,-4.085358E-1,1.4478947E-1,-2.2076212E-1,-3.998696E-2,-4.6283102E-1,-2.4484432E-1],"split_indices":[1,1,1,0,0,0,1,1,1,0,0,1,1,0,0,0,0,0,0,0,0,0,0,0,0,0,0,0,0],"split_type":[0,0,0,0,0,0,0,0,0,0,0,0,0,0,0,0,0,0,0,0,0,0,0,0,0,0,0,0,0],"sum_hessian":[7.726E3,7.78E2,6.948E3,6.94E2,8.4E1,4.602E3,2.346E3,4.89E2,2.05E2,4.7E1,3.7E1,3.906E3,6.96E2,1.458E3,8.88E2,3.93E2,9.6E1,4.1E1,1.64E2,2.5E1,2.2E1,5.87E2,3.319E3,2.21E2,4.75E2,3.75E2,1.083E3,5.43E2,3.45E2],"tree_param":{"num_deleted":"0","num_feature":"2","num_nodes":"29","size_leaf_vector":"1"}},{"base_weights":[-3.2483113E-3,-4.5038548E0,5.012812E-1,-4.722161E0,-2.6658957E0,1.3334159E0,-2.7197285E0,-5.069193E0,-3.8737736E0,-1.284722E0,-4.3403813E-1,1.772223E0,-4.3124385E-2,-2.2168667E0,-4.7357635E0,-5.233411E-1,-4.646422E-1,-3.157297E-1,-4.032672E-1,-8.804684E-2,-1.6858469E-1,2.1550994E-1,-3.7745774E-2,-9.163829E-2,5.1273555E-2,-3.7550205E-1,-1.1425721E-1,-5.4591864E-1,-3.896881E-1],"categories":[],"categories_nodes":[],"categories_segments":[],"categories_sizes":[],"default_left":[0,0,0,0,0,0,0,0,0,0,0,0,0,0,0,0,0,0,0,0,0,0,0,0,0,0,0,0,0],"id":8,"left_children":[1,3,5,7,9,11,13,15,17,19,-1,21,23,25,27,-1,-1,-1,-1,-1,-1,-1,-1,-1,-1,-1,-1,-1,-1],"loss_changes":[1.7547871E4,2.999756E2,1.8629127E4,1.849834E2,1.91008E2,3.336166E3,1.4361748E3,9.702148E0,1.0719971E1,6.299164E0,0E0,3.447796E3,6.4897687E2,1.8860903E3,1.5107666E2,0E0,0E0,0E0,0E0,0E0,0E0,0E0,0E0,0E0,0E0,0E0,0E0,0E0,0E0],"parents":[2147483647,0,0,1,1,2,2,3,3,4,4,5,5,6,6,7,7,8,8,9,9,11,11,12,12,13,13,14,14],"right_children":[2,4,6,8,10,12,14,16,18,20,-1,22,24,26,28,-1,-1,-1,-1,-1,-1,-1,-1,-1,-1,-1,-1,-1,-1],"split_conditions":[4E0,3E0,2.1E1,6E0,6E0,1.8E1,2.3E1,4E0,1E0,2E0,-4.3403813E-1,7E0,4E0,4E0,5E0,-5.233411E-1,-4.646422E-1,-3.157297E-1,-4.032672E-1,-8.804684E-2,-1.6858469E-1,2.1550994E-1,-3.7745774E-2,-9.163829E-2,5.1273555E-2,-3.7550205E-1,-1.1425721E-1,-5.4591864E-1,-3.896881E-1],"split_indices":[1,1,1,0,0,1,1,0,1,0,0,0,0,0,0,0,0,0,0,0,0,0,0,0,0,0,0,0,0],"split_type":[0,0,0,0,0,0,0,0,0,0,0,0,0,0,0,0,0,0,0,0,0,0,0,0,0,0,0,0,0],"sum_hessian":[7.726E3,7.78E2,6.948E3,6.94E2,8.4E1,5.522E3,1.426E3,4.89E2,2.05E2,4.7E1,3.7E1,4.187E3,1.335E3,1.143E3,2.83E2,3.44E2,1.45E2,4.1E1,1.64E2,2.5E1,2.2E1,3.554E3,6.33E2,5.19E2,8.16E2,4.69E2,6.74E2,1.49E2,1.34E2],"tree_param":{"num_deleted":"0","num_feature":"2","num_nodes":"29","size_leaf_vector":"1"}},{"base_weights":[-3.400337E-3,-4.056547E0,4.5096788E-1,-4.252401E0,-2.4074316E0,1.2000993E0,-2.4487548E0,-4.5642896E0,-3.4898863E0,-1.1615962E0,-3.917765E-1,1.4984912E0,-4.5823082E-1,-2.0573106E0,-4.7201505E0,-4.711587E-1,-4.1849622E-1,-2.8490844E-1,-3.631849E-1,-7.958078E-2,-1.5245919E-1,1.9396505E-1,1.0557263E-2,-3.6410868E-1,6.785092E-2,-3.1655225E-1,2.9758766E-2,-3.5073698E-1,-5.7000345E-1],"categories":[],"categories_nodes":[],"categories_segments":[],"categories_sizes":[],"default_left":[0,0,0,0,0,0,0,0,0,0,0,0,0,0,0,0,0,0,0,0,0,0,0,0,0,0,0,0,0],"id":9,"left_children":[1,3,5,7,9,11,13,15,17,19,-1,21,23,25,27,-1,-1,-1,-1,-1,-1,-1,-1,-1,-1,-1,-1,-1,-1],"loss_changes":[1.4232037E4,2.4136719E2,1.5098066E4,1.4935645E2,1.5538745E2,2.733646E3,1.2590703E3,7.6601562E0,8.392334E0,5.1601334E0,0E0,2.8762637E3,3.0525117E3,3.1821982E3,2.2838037E2,0E0,0E0,0E0,0E0,0E0,0E0,0E0,0E0,0E0,0E0,0E0,0E0,0E0,0E0],"parents":[2147483647,0,0,1,1,2,2,3,3,4,4,5,5,6,6,7,7,8,8,9,9,11,11,12,12,13,13,14,14],"right_children":[2,4,6,8,10,12,14,16,18,20,-1,22,24,26,28,-1,-1,-1,-1,-1,-1,-1,-1,-1,-1,-1,-1,-1,-1],"split_conditions":[4E0,3E0,2.1E1,6E0,6E0,7E0,7E0,4E0,1E0,2E0,-3.917765E-1,1.8E1,1E1,5E0,2.2E1,-4.711587E-1,-4.1849622E-1,-2.8490844E-1,-3.631849E-1,-7.958078E-2,-1.5245919E-1,1.9396505E-1,1.0557263E-2,-3.6410868E-1,6.785092E-2,-3.1655225E-1,2.9758766E-2,-3.5073698E-1,-5.7000345E-1],"split_indices":[1,1,1,0,0,0,0,0,1,0,0,1,1,0,1,0,0,0,0,0,0,0,0,0,0,0,0,0,0],"split_type":[0,0,0,0,0,0,0,0,0,0,0,0,0,0,0,0,0,0,0,0,0,0,0,0,0,0,0,0,0],"sum_hessian":[7.726E3,7.78E2,6.948E3,6.94E2,8.4E1,5.522E3,1.426E3,4.89E2,2.05E2,4.7E1,3.7E1,4.68E3,8.42E2,1.218E3,2.08E2,3.44E2,1.45E2,4.1E1,1.64E2,2.5E1,2.2E1,3.554E3,1.126E3,2.21E2,6.21E2,8.28E2,3.9E2,9.5E1,1.13E2],"tree_param":{"num_deleted":"0","num_feature":"2","num_nodes":"29","size_leaf_vector":"1"}},{"base_weights":[-3.5085096E-3,-3.6536674E0,4.056838E-1,-3.8293734E0,-2.1740274E0,1.3611981E0,-1.4684695E0,-4.1096764E0,-3.1440437E0,-1.0502709E0,-3.5362983E-1,-4.51724E-1,1.67069E0,-6.305281E-1,-2.8420217E0,-4.21977E-1,-3.6201254E-1,-2.5709596E-1,-3.270865E-1,-7.192882E-2,-1.3787614E-1,6.0153123E-2,-2.633122E-1,1.9109643E-1,3.666425E-2,-3.2507043E-2,-2.165309E-1,-2.5014997E-1,-5.1350313E-1],"categories":[],"categories_nodes":[],"categories_segments":[],"categories_sizes":[],"default_left":[0,0,0,0,0,0,0,0,0,0,0,0,0,0,0,0,0,0,0,0,0,0,0,0,0,0,0,0,0],"id":10,"left_children":[1,3,5,7,9,11,13,15,17,19,-1,21,23,25,27,-1,-1,-1,-1,-1,-1,-1,-1,-1,-1,-1,-1,-1,-1],"loss_changes":[1.154266E4,1.9420117E2,1.244613E4,1.2058789E2,1.2640915E2,2.5834287E3,2.699502E3,1.1133789E1,6.562622E0,4.2270584E0,0E0,1.5455502E3,1.2313086E3,6.832909E2,6.813037E2,0E0,0E0,0E0,0E0,0E0,0E0,0E0,0E0,0E0,0E0,0E0,0E0,0E0,0E0],"parents":[2147483647,0,0,1,1,2,2,3,3,4,4,5,5,6,6,7,7,8,8,9,9,11,11,12,12,13,13,14,14],"right_children":[2,4,6,8,10,12,14,16,18,20,-1,22,24,26,28,-1,-1,-1,-1,-1,-1,-1,-1,-1,-1,-1,-1,-1,-1],"split_conditions":[4E0,3E0,1.9E1,6E0,6E0,7E0,2.2E1,2E0,1E0,2E0,-3.5362983E-1,6E0,7E0,7E0,7E0,-4.21977E-1,-3.6201254E-1,-2.5709596E-1,-3.270865E-1,-7.192882E-2,-1.3787614E-1,6.0153123E-2,-2.633122E-1,1.9109643E-1,3.666425E-2,-3.2507043E-2,-2.165309E-1,-2.5014997E-1,-5.1350313E-1],"split_indices":[1,1,1,0,0,1,1,1,1,0,0,0,0,0,0,0,0,0,0,0,0,0,0,0,0,0,0,0,0],"split_type":[0,0,0,0,0,0,0,0,0,0,0,0,0,0,0,0,0,0,0,0,0,0,0,0,0,0,0,0,0],"sum_hessian":[7.726E3,7.78E2,6.948E3,6.94E2,8.4E1,4.602E3,2.346E3,4.89E2,2.05E2,4.7E1,3.7E1,6.71E2,3.931E3,1.458E3,8.88E2,3.93E2,9.6E1,4.1E1,1.64E2,2.5E1,2.2E1,4.53E2,2.18E2,3.319E3,6.12E2,1.217E3,2.41E2,7.75E2,1.13E2],"tree_param":{"num_deleted":"0","num_feature":"2","num_nodes":"29","size_leaf_vector":"1"}},{"base_weights":[-3.535841E-3,-3.29078E0,3.6497286E-1,-3.4484046E0,-1.9632531E0,1.1078267E0,-1.5940044E0,-3.7003088E0,-2.8324752E0,-9.496145E-1,-3.1919745E-1,-4.0685374E-1,1.3406008E0,-7.541318E-1,-2.5586789E0,-3.833033E-1,-3.3613354E-1,-2.3199844E-1,-2.9457608E-1,-6.5012574E-2,-1.2468795E-1,5.4151084E-2,-2.371012E-1,1.6376586E-1,1.1279224E-2,-3.4523413E-2,-2.8038055E-1,-3.2387295E-1,-1.4820711E-1],"categories":[],"categories_nodes":[],"categories_segments":[],"categories_sizes":[],"default_left":[0,0,0,0,0,0,0,0,0,0,0,0,0,0,0,0,0,0,0,0,0,0,0,0,0,0,0,0,0],"id":11,"left_children":[1,3,5,7,9,11,13,15,17,19,-1,21,23,25,27,-1,-1,-1,-1,-1,-1,-1,-1,-1,-1,-1,-1,-1,-1],"loss_changes":[9.36152E3,1.5623633E2,1.0114186E4,9.735156E1,1.02834595E2,1.777188E3,1.5463696E3,9.161133E0,5.1257324E0,3.462696E0,0E0,1.253044E3,1.5929565E3,8.564153E2,6.460796E2,0E0,0E0,0E0,0E0,0E0,0E0,0E0,0E0,0E0,0E0,0E0,0E0,0E0,0E0],"parents":[2147483647,0,0,1,1,2,2,3,3,4,4,5,5,6,6,7,7,8,8,9,9,11,11,12,12,13,13,14,14],"right_children":[2,4,6,8,10,12,14,16,18,20,-1,22,24,26,28,-1,-1,-1,-1,-1,-1,-1,-1,-1,-1,-1,-1,-1,-1],"split_conditions":[4E0,3E0,2E1,6E0,6E0,7E0,2.2E1,4E0,1E0,2E0,-3.1919745E-1,6E0,1.8E1,7E0,5E0,-3.833033E-1,-3.3613354E-1,-2.3199844E-1,-2.9457608E-1,-6.5012574E-2,-1.2468795E-1,5.4151084E-2,-2.371012E-1,1.6376586E-1,1.1279224E-2,-3.4523413E-2,-2.8038055E-1,-3.2387295E-1,-1.4820711E-1],"split_indices":[1,1,1,0,0,1,1,0,1,0,0,0,1,0,0,0,0,0,0,0,0,0,0,0,0,0,0,0,0],"split_type":[0,0,0,0,0,0,0,0,0,0,0,0,0,0,0,0,0,0,0,0,0,0,0,0,0,0,0,0,0],"sum_hessian":[7.726E3,7.78E2,6.948E3,6.94E2,8.4E1,5.038E3,1.91E3,4.89E2,2.05E2,4.7E1,3.7E1,6.71E2,4.367E3,1.022E3,8.88E2,3.44E2,1.45E2,4.1E1,1.64E2,2.5E1,2.2E1,4.53E2,2.18E2,3.516E3,8.51E2,8.53E2,1.69E2,5.43E2,3.45E2],"tree_param":{"num_deleted":"0","num_feature":"2","num_nodes":"29","size_leaf_vector":"1"}},{"base_weights":[-3.5119778E-3,-2.963955E0,3.2836148E-1,-3.1053572E0,-1.7729146E0,8.8215464E-1,-1.8152461E0,-3.3317463E0,-2.5517838E0,-8.586049E-1,-2.8811765E-1,1.1193267E0,-4.3585774E-1,-3.2458427E0,-1.2966461E0,-3.4306607E-1,-2.895623E-1,-2.0935099E-1,-2.65297E-1,-5.8761336E-2,-1.1276126E-1,1.4538684E-1,6.3057705E-3,-3.2129607E-1,5.560277E-2,-3.5883674E-1,-2.9561153E-1,-7.055654E-2,-3.668906E-1],"categories":[],"categories_nodes":[],"categories_segments":[],"categories_sizes":[],"default_left":[0,0,0,0,0,0,0,0,0,0,0,0,0,0,0,0,0,0,0,0,0,0,0,0,0,0,0,0,0],"id":12,"left_children":[1,3,5,7,9,11,13,15,17,19,-1,21,23,25,27,-1,-1,-1,-1,-1,-1,-1,-1,-1,-1,-1,-1,-1,-1],"loss_changes":[7.592693E3,1.2568945E2,8.250865E3,7.8598145E1,8.365622E1,1.7269536E3,1.0544932E3,1.1204102E1,3.998291E0,2.8365402E0,0E0,1.6540151E3,2.3238872E3,2.7003662E1,1.4683163E3,0E0,0E0,0E0,0E0,0E0,0E0,0E0,0E0,0E0,0E0,0E0,0E0,0E0,0E0],"parents":[2147483647,0,0,1,1,2,2,3,3,4,4,5,5,6,6,7,7,8,8,9,9,11,11,12,12,13,13,14,14],"right_children":[2,4,6,8,10,12,14,16,18,20,-1,22,24,26,28,-1,-1,-1,-1,-1,-1,-1,-1,-1,-1,-1,-1,-1,-1],"split_conditions":[4E0,3E0,2.1E1,6E0,6E0,7E0,3E0,2E0,1E0,2E0,-2.8811765E-1,1.8E1,1E1,2E0,7E0,-3.4306607E-1,-2.895623E-1,-2.0935099E-1,-2.65297E-1,-5.8761336E-2,-1.1276126E-1,1.4538684E-1,6.3057705E-3,-3.2129607E-1,5.560277E-2,-3.5883674E-1,-2.9561153E-1,-7.055654E-2,-3.668906E-1],"split_indices":[1,1,1,0,0,0,0,1,1,0,0,1,1,0,0,0,0,0,0,0,0,0,0,0,0,0,0,0,0],"split_type":[0,0,0,0,0,0,0,0,0,0,0,0,0,0,0,0,0,0,0,0,0,0,0,0,0,0,0,0,0],"sum_hessian":[7.726E3,7.78E2,6.948E3,6.94E2,8.4E1,5.522E3,1.426E3,4.89E2,2.05E2,4.7E1,3.7E1,4.68E3,8.42E2,3.78E2,1.048E3,3.93E2,9.6E1,4.1E1,1.64E2,2.5E1,2.2E1,3.554E3,1.126E3,2.21E2,6.21E2,1.68E2,2.1E2,8.4E2,2.08E2],"tree_param":{"num_deleted":"0","num_feature":"2","num_nodes":"29","size_leaf_vector":"1"}},{"base_weights":[-3.5199318E-3,-2.669571E0,2.9535145E-1,-2.7964146E0,-1.6010307E0,1.0018258E0,-1.0903311E0,-3.11947E0,-2.4709144E0,-7.7631754E-1,-2.6006413E-1,2.221918E-1,1.517655E0,-7.833471E-1,-3.31753E0,-2.7338398E-1,-3.4498212E-1,-2.6966822E-1,-2.2989097E-1,-5.3111177E-2,-1.01975374E-1,5.9168298E-2,-1.7470704E-1,1.7246242E-1,3.423423E-2,-1.7928712E-1,-1.1376438E-2,-3.846806E-1,-2.7048716E-1],"categories":[],"categories_nodes":[],"categories_segments":[],"categories_sizes":[],"default_left":[0,0,0,0,0,0,0,0,0,0,0,0,0,0,0,0,0,0,0,0,0,0,0,0,0,0,0,0,0],"id":13,"left_children":[1,3,5,7,9,11,13,15,17,19,-1,21,23,25,27,-1,-1,-1,-1,-1,-1,-1,-1,-1,-1,-1,-1,-1,-1],"loss_changes":[6.157711E3,1.01106445E2,6.8038096E3,6.537402E1,6.805437E1,1.8507959E3,1.6020784E3,3.4519775E1,7.4311523E0,2.3236103E0,0E0,1.3354979E3,6.732217E2,1.3949773E3,8.1686035E1,0E0,0E0,0E0,0E0,0E0,0E0,0E0,0E0,0E0,0E0,0E0,0E0,0E0,0E0],"parents":[2147483647,0,0,1,1,2,2,3,3,4,4,5,5,6,6,7,7,8,8,9,9,11,11,12,12,13,13,14,14],"right_children":[2,4,6,8,10,12,14,16,18,20,-1,22,24,26,28,-1,-1,-1,-1,-1,-1,-1,-1,-1,-1,-1,-1,-1,-1],"split_conditions":[4E0,3E0,1.9E1,4E0,6E0,1.1E1,2.3E1,2E0,6E0,2E0,-2.6006413E-1,7E0,1.8E1,4E0,5E0,-2.7338398E-1,-3.4498212E-1,-2.6966822E-1,-2.2989097E-1,-5.3111177E-2,-1.01975374E-1,5.9168298E-2,-1.7470704E-1,1.7246242E-1,3.423423E-2,-1.7928712E-1,-1.1376438E-2,-3.846806E-1,-2.7048716E-1],"split_indices":[1,1,1,0,0,1,1,0,0,0,0,0,1,0,0,0,0,0,0,0,0,0,0,0,0,0,0,0,0],"split_type":[0,0,0,0,0,0,0,0,0,0,0,0,0,0,0,0,0,0,0,0,0,0,0,0,0,0,0,0,0],"sum_hessian":[7.726E3,7.78E2,6.948E3,6.94E2,8.4E1,4.602E3,2.346E3,3.44E2,3.5E2,4.7E1,3.7E1,1.833E3,2.769E3,2.063E3,2.83E2,1.63E2,1.81E2,1.45E2,2.05E2,2.5E1,2.2E1,1.544E3,2.89E2,2.354E3,4.15E2,8.22E2,1.241E3,1.49E2,1.34E2],"tree_param":{"num_deleted":"0","num_feature":"2","num_nodes":"29","size_leaf_vector":"1"}},{"base_weights":[-3.4639484E-3,-2.4045818E0,2.6570776E-1,-2.5183816E0,-1.4458117E0,7.230671E-1,-1.5046226E0,-2.8093152E0,-2.2252464E0,-7.0191675E-1,-2.3474209E-1,9.258243E-1,-4.036579E-1,-1.1350355E0,-2.9880838E0,-2.4621227E-1,-3.1067345E-1,-2.4288611E-1,-2.0701349E-1,-4.800434E-2,-9.22212E-2,1.1853137E-1,1.0647128E-2,-2.7191922E-1,4.2343568E-2,-2.2902095E-1,-3.2901052E-2,-2.7504492E-1,-4.2217636E-1],"categories":[],"categories_nodes":[],"categories_segments":[],"categories_sizes":[],"default_left":[0,0,0,0,0,0,0,0,0,0,0,0,0,0,0,0,0,0,0,0,0,0,0,0,0,0,0,0,0],"id":14,"left_children":[1,3,5,7,9,11,13,15,17,19,-1,21,23,25,27,-1,-1,-1,-1,-1,-1,-1,-1,-1,-1,-1,-1,-1,-1],"loss_changes":[4.994699E3,8.135449E1,5.6275347E3,5.301953E1,5.536203E1,1.2621118E3,7.7898706E2,2.7976318E1,6.0577393E0,1.9034233E0,0E0,9.951172E2,1.615634E3,1.0644241E3,7.164697E1,0E0,0E0,0E0,0E0,0E0,0E0,0E0,0E0,0E0,0E0,0E0,0E0,0E0,0E0],"parents":[2147483647,0,0,1,1,2,2,3,3,4,4,5,5,6,6,7,7,8,8,9,9,11,11,12,12,13,13,14,14],"right_children":[2,4,6,8,10,12,14,16,18,20,-1,22,24,26,28,-1,-1,-1,-1,-1,-1,-1,-1,-1,-1,-1,-1,-1,-1],"split_conditions":[4E0,3E0,2.1E1,4E0,6E0,7E0,2.3E1,2E0,6E0,2E0,-2.3474209E-1,1.8E1,1E1,4E0,7E0,-2.4621227E-1,-3.1067345E-1,-2.4288611E-1,-2.0701349E-1,-4.800434E-2,-9.22212E-2,1.1853137E-1,1.0647128E-2,-2.7191922E-1,4.2343568E-2,-2.2902095E-1,-3.2901052E-2,-2.7504492E-1,-4.2217636E-1],"split_indices":[1,1,1,0,0,0,1,0,0,0,0,1,1,0,0,0,0,0,0,0,0,0,0,0,0,0,0,0,0],"split_type":[0,0,0,0,0,0,0,0,0,0,0,0,0,0,0,0,0,0,0,0,0,0,0,0,0,0,0,0,0],"sum_hessian":[7.726E3,7.78E2,6.948E3,6.94E2,8.4E1,5.522E3,1.426E3,3.44E2,3.5E2,4.7E1,3.7E1,4.68E3,8.42E2,1.143E3,2.83E2,1.63E2,1.81E2,1.45E2,2.05E2,2.5E1,2.2E1,3.554E3,1.126E3,2.21E2,6.21E2,4.69E2,6.74E2,2.4E2,4.3E1],"tree_param":{"num_deleted":"0","num_feature":"2","num_nodes":"29","size_leaf_vector":"1"}},{"base_weights":[-3.4337288E-3,-1.7439945E0,3.168385E-1,-2.267992E0,-1.0222541E0,9.97998E-1,-8.967297E-1,-2.5299978E0,-2.0040035E0,-2.7670434E-1,-2.579857E0,5.630591E-1,1.4468299E0,-3.5567197E-1,-1.7836887E0,-2.2174115E-1,-2.797768E-1,-2.1876386E-1,-1.8641262E-1,-7.406078E-2,2.677155E-2,-2.1188562E-1,-2.6974806E-1,7.4969195E-2,-3.987025E-2,2.036858E-1,7.704781E-2,-2.0074986E-1,-1.3189787E-2,-1.4812133E-1,-3.8269982E-1],"categories":[],"categories_nodes":[],"categories_segments":[],"categories_sizes":[],"default_left":[0,0,0,0,0,0,0,0,0,0,0,0,0,0,0,0,0,0,0,0,0,0,0,0,0,0,0,0,0,0,0],"id":15,"left_children":[1,3,5,7,9,11,13,15,17,19,21,23,25,27,29,-1,-1,-1,-1,-1,-1,-1,-1,-1,-1,-1,-1,-1,-1,-1,-1],"loss_changes":[4.3079937E3,4.5188818E2,5.396332E3,4.3000732E1,5.880503E2,8.1537695E2,1.1256816E3,2.2673096E1,4.9379883E0,8.707831E1,3.177246E0,3.8172858E2,8.1931104E2,5.390342E2,5.437783E2,0E0,0E0,0E0,0E0,0E0,0E0,0E0,0E0,0E0,0E0,0E0,0E0,0E0,0E0,0E0,0E0],"parents":[2147483647,0,0,1,1,2,2,3,3,4,4,5,5,6,6,7,7,8,8,9,9,10,10,11,11,12,12,13,13,14,14],"right_children":[2,4,6,8,10,12,14,16,18,20,22,24,26,28,30,-1,-1,-1,-1,-1,-1,-1,-1,-1,-1,-1,-1,-1,-1,-1,-1],"split_conditions":[5E0,3E0,1.9E1,4E0,6E0,1.3E1,2.2E1,2E0,6E0,3E0,4E0,7E0,5E0,2E0,7E0,-2.2174115E-1,-2.797768E-1,-2.1876386E-1,-1.8641262E-1,-7.406078E-2,2.677155E-2,-2.1188562E-1,-2.6974806E-1,7.4969195E-2,-3.987025E-2,2.036858E-1,7.704781E-2,-2.0074986E-1,-1.3189787E-2,-1.4812133E-1,-3.8269982E-1],"split_indices":[1,1,1,0,0,1,1,0,0,0,1,0,0,0,0,0,0,0,0,0,0,0,0,0,0,0,0,0,0,0,0],"split_type":[0,0,0,0,0,0,0,0,0,0,0,0,0,0,0,0,0,0,0,0,0,0,0,0,0,0,0,0,0,0,0],"sum_hessian":[7.726E3,1.2E3,6.526E3,6.94E2,5.06E2,4.18E3,2.346E3,3.44E2,3.5E2,3.43E2,1.63E2,2.124E3,2.056E3,1.458E3,8.88E2,1.63E2,1.81E2,1.45E2,2.05E2,1.85E2,1.58E2,3.7E1,1.26E2,1.779E3,3.45E2,1.097E3,9.59E2,1.73E2,1.285E3,7.75E2,1.13E2],"tree_param":{"num_deleted":"0","num_feature":"2","num_nodes":"31","size_leaf_vector":"1"}},{"base_weights":[-3.3315404E-3,-1.5707904E0,2.8508908E-1,-2.0424974E0,-9.210721E-1,8.982741E-1,-8.073744E-1,-2.2784517E0,-1.8047574E0,-2.4917148E-1,-2.3248084E0,5.0677025E-1,1.3022835E0,-5.72898E-1,-2.5086138E0,-1.9970225E-1,-2.5195286E-1,-1.9703732E-1,-1.6786182E-1,-6.669454E-2,2.4111232E-2,-1.9125466E-1,-2.4298568E-1,6.747656E-2,-3.589478E-2,1.594925E-1,1.4406404E-2,-1.3909909E-1,-3.0334888E-3,-3.0443445E-1,-1.8947753E-1],"categories":[],"categories_nodes":[],"categories_segments":[],"categories_sizes":[],"default_left":[0,0,0,0,0,0,0,0,0,0,0,0,0,0,0,0,0,0,0,0,0,0,0,0,0,0,0,0,0,0,0],"id":16,"left_children":[1,3,5,7,9,11,13,15,17,19,21,23,25,27,29,-1,-1,-1,-1,-1,-1,-1,-1,-1,-1,-1,-1,-1,-1,-1,-1],"loss_changes":[3.4937275E3,3.6619727E2,4.373047E3,3.487451E1,4.7760855E2,6.6065405E2,9.347826E2,1.8375366E1,4.0250244E0,7.0621574E1,2.4552002E0,3.0929492E2,6.969761E2,9.1609937E2,8.762549E1,0E0,0E0,0E0,0E0,0E0,0E0,0E0,0E0,0E0,0E0,0E0,0E0,0E0,0E0,0E0,0E0],"parents":[2147483647,0,0,1,1,2,2,3,3,4,4,5,5,6,6,7,7,8,8,9,9,10,10,11,11,12,12,13,13,14,14],"right_children":[2,4,6,8,10,12,14,16,18,20,22,24,26,28,30,-1,-1,-1,-1,-1,-1,-1,-1,-1,-1,-1,-1,-1,-1,-1,-1],"split_conditions":[5E0,3E0,1.9E1,4E0,6E0,1.3E1,2.3E1,2E0,6E0,3E0,4E0,7E0,1.8E1,4E0,5E0,-1.9970225E-1,-2.5195286E-1,-1.9703732E-1,-1.6786182E-1,-6.669454E-2,2.4111232E-2,-1.9125466E-1,-2.4298568E-1,6.747656E-2,-3.589478E-2,1.594925E-1,1.4406404E-2,-1.3909909E-1,-3.0334888E-3,-3.0443445E-1,-1.8947753E-1],"split_indices":[1,1,1,0,0,1,1,0,0,0,1,0,1,0,0,0,0,0,0,0,0,0,0,0,0,0,0,0,0,0,0],"split_type":[0,0,0,0,0,0,0,0,0,0,0,0,0,0,0,0,0,0,0,0,0,0,0,0,0,0,0,0,0,0,0],"sum_hessian":[7.726E3,1.2E3,6.526E3,6.94E2,5.06E2,4.18E3,2.346E3,3.44E2,3.5E2,3.43E2,1.63E2,2.124E3,2.056E3,2.063E3,2.83E2,1.63E2,1.81E2,1.45E2,2.05E2,1.85E2,1.58E2,3.7E1,1.26E2,1.779E3,3.45E2,1.641E3,4.15E2,8.22E2,1.241E3,1.49E2,1.34E2],"tree_param":{"num_deleted":"0","num_feature":"2","num_nodes":"31","size_leaf_vector":"1"}},{"base_weights":[-3.2214017E-3,-1.4147882E0,2.565143E-1,-1.8394225E0,-8.2990533E-1,7.3058766E-1,-8.889871E-1,-2.0519156E0,-1.6253211E0,-2.2437805E-1,-2.0949752E0,8.832633E-1,5.4875214E-2,-5.6495726E-1,-2.7510211E0,-1.7985378E-1,-2.26896E-1,-1.7746855E-1,-1.5115713E-1,-6.0060985E-2,2.1715336E-2,-1.726325E-1,-2.1887843E-1,4.5610826E-2,1.4355296E-1,-6.498816E-2,4.8001066E-2,-1.4329599E-1,1.1311871E-1,-2.3168598E-1,-3.3743227E-1],"categories":[],"categories_nodes":[],"categories_segments":[],"categories_sizes":[],"default_left":[0,0,0,0,0,0,0,0,0,0,0,0,0,0,0,0,0,0,0,0,0,0,0,0,0,0,0,0,0,0,0],"id":17,"left_children":[1,3,5,7,9,11,13,15,17,19,21,23,25,27,29,-1,-1,-1,-1,-1,-1,-1,-1,-1,-1,-1,-1,-1,-1,-1,-1],"loss_changes":[2.8333464E3,2.9675537E2,3.5451477E3,2.8283936E1,3.8790936E2,4.7626392E2,1.1514562E3,1.489209E1,3.281067E0,5.727507E1,1.8930054E0,8.877571E2,2.5558572E2,2.3999282E3,6.876587E1,0E0,0E0,0E0,0E0,0E0,0E0,0E0,0E0,0E0,0E0,0E0,0E0,0E0,0E0,0E0,0E0],"parents":[2147483647,0,0,1,1,2,2,3,3,4,4,5,5,6,6,7,7,8,8,9,9,10,10,11,11,12,12,13,13,14,14],"right_children":[2,4,6,8,10,12,14,16,18,20,22,24,26,28,30,-1,-1,-1,-1,-1,-1,-1,-1,-1,-1,-1,-1,-1,-1,-1,-1],"split_conditions":[5E0,3E0,2E1,4E0,6E0,1.8E1,7E0,2E0,6E0,3E0,4E0,1.3E1,4E0,5E0,2.2E1,-1.7985378E-1,-2.26896E-1,-1.7746855E-1,-1.5115713E-1,-6.0060985E-2,2.1715336E-2,-1.726325E-1,-2.1887843E-1,4.5610826E-2,1.4355296E-1,-6.498816E-2,4.8001066E-2,-1.4329599E-1,1.1311871E-1,-2.3168598E-1,-3.3743227E-1],"split_indices":[1,1,1,0,0,1,0,0,0,0,1,1,0,0,1,0,0,0,0,0,0,0,0,0,0,0,0,0,0,0,0],"split_type":[0,0,0,0,0,0,0,0,0,0,0,0,0,0,0,0,0,0,0,0,0,0,0,0,0,0,0,0,0,0,0],"sum_hessian":[7.726E3,1.2E3,6.526E3,6.94E2,5.06E2,4.616E3,1.91E3,3.44E2,3.5E2,3.43E2,1.63E2,3.765E3,8.51E2,1.628E3,2.82E2,1.63E2,1.81E2,1.45E2,2.05E2,1.85E2,1.58E2,3.7E1,1.26E2,2.124E3,1.641E3,3.2E2,5.31E2,1.077E3,5.51E2,1.69E2,1.13E2],"tree_param":{"num_deleted":"0","num_feature":"2","num_nodes":"31","size_leaf_vector":"1"}},{"base_weights":[-3.105221E-3,-1.2742795E0,2.3079756E-1,-1.6565384E0,-7.477623E-1,5.862537E-1,-1.0399892E0,-1.8479031E0,-1.4637254E0,-2.0205143E-1,-1.8878647E0,7.3933095E-1,-2.6013994E-1,-7.743667E-1,-2.5842662E0,-1.6197808E-1,-2.0433107E-1,-1.5984325E-1,-1.361148E-1,-5.408713E-2,1.955746E-2,-1.5582353E-1,-1.971629E-1,9.5401764E-2,1.3023714E-2,-2.2800015E-1,2.631042E-2,-1.5109695E-1,7.8936264E-2,-2.0163405E-1,-3.0398503E-1],"categories":[],"categories_nodes":[],"categories_segments":[],"categories_sizes":[],"default_left":[0,0,0,0,0,0,0,0,0,0,0,0,0,0,0,0,0,0,0,0,0,0,0,0,0,0,0,0,0,0,0],"id":18,"left_children":[1,3,5,7,9,11,13,15,17,19,21,23,25,27,29,-1,-1,-1,-1,-1,-1,-1,-1,-1,-1,-1,-1,-1,-1,-1,-1],"loss_changes":[2.2977725E3,2.4048157E2,2.9489143E3,2.2938965E1,3.150569E2,6.610962E2,5.833467E2,1.2069214E1,2.6743164E0,4.6450687E1,1.4559937E0,5.6477783E2,8.270806E2,1.4052946E3,4.794702E1,0E0,0E0,0E0,0E0,0E0,0E0,0E0,0E0,0E0,0E0,0E0,0E0,0E0,0E0,0E0,0E0],"parents":[2147483647,0,0,1,1,2,2,3,3,4,4,5,5,6,6,7,7,8,8,9,9,10,10,11,11,12,12,13,13,14,14],"right_children":[2,4,6,8,10,12,14,16,18,20,22,24,26,28,30,-1,-1,-1,-1,-1,-1,-1,-1,-1,-1,-1,-1,-1,-1,-1,-1],"split_conditions":[5E0,3E0,2.1E1,4E0,6E0,7E0,7E0,2E0,6E0,3E0,4E0,1.8E1,1E1,5E0,2.2E1,-1.6197808E-1,-2.0433107E-1,-1.5984325E-1,-1.361148E-1,-5.408713E-2,1.955746E-2,-1.5582353E-1,-1.971629E-1,9.5401764E-2,1.3023714E-2,-2.2800015E-1,2.631042E-2,-1.5109695E-1,7.8936264E-2,-2.0163405E-1,-3.0398503E-1],"split_indices":[1,1,1,0,0,0,0,0,0,0,1,1,1,0,1,0,0,0,0,0,0,0,0,0,0,0,0,0,0,0,0],"split_type":[0,0,0,0,0,0,0,0,0,0,0,0,0,0,0,0,0,0,0,0,0,0,0,0,0,0,0,0,0,0,0],"sum_hessian":[7.726E3,1.2E3,6.526E3,6.94E2,5.06E2,5.1E3,1.426E3,3.44E2,3.5E2,3.43E2,1.63E2,4.319E3,7.81E2,1.218E3,2.08E2,1.63E2,1.81E2,1.45E2,2.05E2,1.85E2,1.58E2,3.7E1,1.26E2,3.193E3,1.126E3,1.6E2,6.21E2,8.28E2,3.9E2,9.5E1,1.13E2],"tree_param":{"num_deleted":"0","num_feature":"2","num_nodes":"31","size_leaf_vector":"1"}},{"base_weights":[-3.0173347E-3,-1.1477257E0,2.0761508E-1,-1.4918375E0,-6.7375046E-1,5.276102E-1,-9.363951E-1,-1.6641746E0,-1.3181962E0,-1.2851004E-1,-1.6140391E0,7.2090954E-1,-1.7669024E-2,-6.969892E-1,-2.3282585E0,-1.4587905E-1,-1.8401021E-1,-1.4396842E-1,-1.2256942E-1,-4.8707534E-2,3.5923924E-2,-9.2214815E-2,-1.7012309E-1,3.455277E-2,1.2062722E-1,-6.182745E-2,3.6462292E-2,-1.3600548E-1,7.1062796E-2,-1.8168065E-1,-2.7385315E-1],"categories":[],"categories_nodes":[],"categories_segments":[],"categories_sizes":[],"default_left":[0,0,0,0,0,0,0,0,0,0,0,0,0,0,0,0,0,0,0,0,0,0,0,0,0,0,0,0,0,0,0],"id":19,"left_children":[1,3,5,7,9,11,13,15,17,19,21,23,25,27,29,-1,-1,-1,-1,-1,-1,-1,-1,-1,-1,-1,-1,-1,-1,-1,-1],"loss_changes":[1.863316E3,1.9487854E2,2.3898828E3,1.8604126E1,2.5972302E2,5.3766895E2,4.738827E2,9.781494E0,2.1798096E0,5.648954E1,9.6521E0,6.857344E2,3.0697992E2,1.1387107E3,3.8880005E1,0E0,0E0,0E0,0E0,0E0,0E0,0E0,0E0,0E0,0E0,0E0,0E0,0E0,0E0,0E0,0E0],"parents":[2147483647,0,0,1,1,2,2,3,3,4,4,5,5,6,6,7,7,8,8,9,9,10,10,11,11,12,12,13,13,14,14],"right_children":[2,4,6,8,10,12,14,16,18,20,22,24,26,28,30,-1,-1,-1,-1,-1,-1,-1,-1,-1,-1,-1,-1,-1,-1,-1,-1],"split_conditions":[5E0,3E0,2.1E1,4E0,5E0,1.8E1,7E0,2E0,6E0,3E0,6E0,1.3E1,4E0,5E0,2.2E1,-1.4587905E-1,-1.8401021E-1,-1.4396842E-1,-1.2256942E-1,-4.8707534E-2,3.5923924E-2,-9.2214815E-2,-1.7012309E-1,3.455277E-2,1.2062722E-1,-6.182745E-2,3.6462292E-2,-1.3600548E-1,7.1062796E-2,-1.8168065E-1,-2.7385315E-1],"split_indices":[1,1,1,0,0,1,0,0,0,0,0,1,0,0,1,0,0,0,0,0,0,0,0,0,0,0,0,0,0,0,0],"split_type":[0,0,0,0,0,0,0,0,0,0,0,0,0,0,0,0,0,0,0,0,0,0,0,0,0,0,0,0,0,0,0],"sum_hessian":[7.726E3,1.2E3,6.526E3,6.94E2,5.06E2,5.1E3,1.426E3,3.44E2,3.5E2,3.21E2,1.85E2,3.765E3,1.335E3,1.218E3,2.08E2,1.63E2,1.81E2,1.45E2,2.05E2,1.85E2,1.36E2,2.2E1,1.63E2,2.124E3,1.641E3,5.19E2,8.16E2,8.28E2,3.9E2,9.5E1,1.13E2],"tree_param":{"num_deleted":"0","num_feature":"2","num_nodes":"31","size_leaf_vector":"1"}},{"base_weights":[-2.8788787E-3,-1.0336788E0,1.8679379E-1,-1.3435119E0,-6.06918E-1,5.95871E-1,-5.420253E-1,-1.4987133E0,-1.1871359E0,-1.1569857E-1,-1.4540455E0,3.1099066E-1,8.898791E-1,-3.4398255E-1,-1.9794136E0,-1.313801E-1,-1.657103E-1,-1.2967019E-1,-1.1037196E-1,-4.3862924E-2,3.2357737E-2,-1.10556E-1,-1.6072352E-1,4.3186028E-2,-3.1172285E-2,1.434217E-1,2.6636584E-2,-1.1432309E-2,-1.6332422E-1,-2.3144113E-1,-1.5925318E-1],"categories":[],"categories_nodes":[],"categories_segments":[],"categories_sizes":[],"default_left":[0,0,0,0,0,0,0,0,0,0,0,0,0,0,0,0,0,0,0,0,0,0,0,0,0,0,0,0,0,0,0],"id":20,"left_children":[1,3,5,7,9,11,13,15,17,19,21,23,25,27,29,-1,-1,-1,-1,-1,-1,-1,-1,-1,-1,-1,-1,-1,-1,-1,-1],"loss_changes":[1.5109342E3,1.5798633E2,1.946304E3,1.5088257E1,2.1080739E2,3.4991187E2,6.6742633E2,7.927307E0,1.7767944E0,4.581946E1,8.152618E0,1.6007727E2,6.977677E2,6.1094446E2,3.312195E1,0E0,0E0,0E0,0E0,0E0,0E0,0E0,0E0,0E0,0E0,0E0,0E0,0E0,0E0,0E0,0E0],"parents":[2147483647,0,0,1,1,2,2,3,3,4,4,5,5,6,6,7,7,8,8,9,9,10,10,11,11,12,12,13,13,14,14],"right_children":[2,4,6,8,10,12,14,16,18,20,22,24,26,28,30,-1,-1,-1,-1,-1,-1,-1,-1,-1,-1,-1,-1,-1,-1,-1,-1],"split_conditions":[5E0,3E0,1.9E1,4E0,5E0,1.3E1,2.3E1,2E0,6E0,3E0,4E0,7E0,5E0,7E0,5E0,-1.313801E-1,-1.657103E-1,-1.2967019E-1,-1.1037196E-1,-4.3862924E-2,3.2357737E-2,-1.10556E-1,-1.6072352E-1,4.3186028E-2,-3.1172285E-2,1.434217E-1,2.6636584E-2,-1.1432309E-2,-1.6332422E-1,-2.3144113E-1,-1.5925318E-1],"split_indices":[1,1,1,0,0,1,1,0,0,0,1,0,0,0,0,0,0,0,0,0,0,0,0,0,0,0,0,0,0,0,0],"split_type":[0,0,0,0,0,0,0,0,0,0,0,0,0,0,0,0,0,0,0,0,0,0,0,0,0,0,0,0,0,0,0],"sum_hessian":[7.726E3,1.2E3,6.526E3,6.94E2,5.06E2,4.18E3,2.346E3,3.44E2,3.5E2,3.21E2,1.85E2,2.124E3,2.056E3,2.063E3,2.83E2,1.63E2,1.81E2,1.45E2,2.05E2,1.85E2,1.36E2,5.9E1,1.26E2,1.779E3,3.45E2,1.097E3,9.59E2,1.752E3,3.11E2,1.49E2,1.34E2],"tree_param":{"num_deleted":"0","num_feature":"2","num_nodes":"31","size_leaf_vector":"1"}},{"base_weights":[-2.7465802E-3,-9.3099356E-1,1.6805583E-1,-1.2099335E0,-5.4678386E-1,4.3247974E-1,-7.7728015E-1,-1.3497031E0,-1.0691061E0,-1.0416435E-1,-1.3100994E0,5.57735E-1,-2.6002055E-1,-1.6847223E0,-4.486835E-1,-1.1832219E-1,-1.4923033E-1,-1.16791986E-1,-9.938832E-2,-3.9500184E-2,2.9145563E-2,-7.2819404E-2,-1.3837197E-1,7.1867086E-2,1.0113628E-2,-2.0567767E-1,2.054743E-2,-2.0029044E-1,-1.4218906E-1,-7.855466E-3,-1.9359069E-1],"categories":[],"categories_nodes":[],"categories_segments":[],"categories_sizes":[],"default_left":[0,0,0,0,0,0,0,0,0,0,0,0,0,0,0,0,0,0,0,0,0,0,0,0,0,0,0,0,0,0,0],"id":21,"left_children":[1,3,5,7,9,11,13,15,17,19,21,23,25,27,29,-1,-1,-1,-1,-1,-1,-1,-1,-1,-1,-1,-1,-1,-1,-1,-1],"loss_changes":[1.2252478E3,1.2805127E2,1.6318865E3,1.2236938E1,1.7115771E2,4.426023E2,4.2475037E2,6.4246826E0,1.4482117E0,3.7164803E1,6.9606323E0,3.1737427E2,6.544723E2,2.884729E1,5.7728503E2,0E0,0E0,0E0,0E0,0E0,0E0,0E0,0E0,0E0,0E0,0E0,0E0,0E0,0E0,0E0,0E0],"parents":[2147483647,0,0,1,1,2,2,3,3,4,4,5,5,6,6,7,7,8,8,9,9,10,10,11,11,12,12,13,13,14,14],"right_children":[2,4,6,8,10,12,14,16,18,20,22,24,26,28,30,-1,-1,-1,-1,-1,-1,-1,-1,-1,-1,-1,-1,-1,-1,-1,-1],"split_conditions":[5E0,3E0,2.1E1,4E0,5E0,7E0,3E0,2E0,6E0,3E0,6E0,1.8E1,1E1,2E0,7E0,-1.1832219E-1,-1.4923033E-1,-1.16791986E-1,-9.938832E-2,-3.9500184E-2,2.9145563E-2,-7.2819404E-2,-1.3837197E-1,7.1867086E-2,1.0113628E-2,-2.0567767E-1,2.054743E-2,-2.0029044E-1,-1.4218906E-1,-7.855466E-3,-1.9359069E-1],"split_indices":[1,1,1,0,0,0,0,0,0,0,0,1,1,0,0,0,0,0,0,0,0,0,0,0,0,0,0,0,0,0,0],"split_type":[0,0,0,0,0,0,0,0,0,0,0,0,0,0,0,0,0,0,0,0,0,0,0,0,0,0,0,0,0,0,0],"sum_hessian":[7.726E3,1.2E3,6.526E3,6.94E2,5.06E2,5.1E3,1.426E3,3.44E2,3.5E2,3.21E2,1.85E2,4.319E3,7.81E2,3.78E2,1.048E3,1.63E2,1.81E2,1.45E2,2.05E2,1.85E2,1.36E2,2.2E1,1.63E2,3.193E3,1.126E3,1.6E2,6.21E2,1.68E2,2.1E2,8.4E2,2.08E2],"tree_param":{"num_deleted":"0","num_feature":"2","num_nodes":"31","size_leaf_vector":"1"}},{"base_weights":[-2.646944E-3,1.2876995E-1,-1.0136228E0,-8.384814E-1,3.347533E-1,-1.4524773E0,-3.2070217E-1,-1.0896363E0,-4.925423E-1,4.6065682E-1,-3.4941232E-1,-1.2389848E0,-2.004991E0,5.584889E-1,-2.1148323E-1,-1.21550836E-1,-9.6281156E-2,-9.377996E-3,-1.1802248E-1,6.468263E-2,8.162116E-3,-1.8523763E-1,-1.1439349E-3,-1.5984039E-1,-4.498523E-2,-1.339024E-1,-3.0680776E-1,1.5934443E-1,-1.04501285E-1],"categories":[],"categories_nodes":[],"categories_segments":[],"categories_sizes":[],"default_left":[0,0,0,0,0,0,0,0,0,0,0,0,0,0,0,0,0,0,0,0,0,0,0,0,0,0,0,0,0],"id":22,"left_children":[1,3,5,7,9,11,13,15,17,19,21,23,25,27,-1,-1,-1,-1,-1,-1,-1,-1,-1,-1,-1,-1,-1,-1,-1],"loss_changes":[1.0267344E3,1.3628673E3,2.698714E2,1.0381134E2,4.85898E2,6.1684814E1,5.469556E2,9.924438E0,1.3891978E2,3.360476E2,4.4546075E2,1.11314575E2,1.0208887E2,3.88341E2,0E0,0E0,0E0,0E0,0E0,0E0,0E0,0E0,0E0,0E0,0E0,0E0,0E0,0E0,0E0],"parents":[2147483647,0,0,1,1,2,2,3,3,4,4,5,5,6,6,7,7,8,8,9,9,10,10,11,11,12,12,13,13],"right_children":[2,4,6,8,10,12,14,16,18,20,22,24,26,28,-1,-1,-1,-1,-1,-1,-1,-1,-1,-1,-1,-1,-1,-1,-1],"split_conditions":[2.2E1,5E0,5E0,3E0,7E0,2.3E1,7E0,4E0,5E0,1.8E1,1E1,4E0,4E0,2.3E1,-2.1148323E-1,-1.21550836E-1,-9.6281156E-2,-9.377996E-3,-1.1802248E-1,6.468263E-2,8.162116E-3,-1.8523763E-1,-1.1439349E-3,-1.5984039E-1,-4.498523E-2,-1.339024E-1,-3.0680776E-1,1.5934443E-1,-1.04501285E-1],"split_indices":[1,1,0,1,0,1,0,0,0,1,1,0,0,1,0,0,0,0,0,0,0,0,0,0,0,0,0,0,0],"split_type":[0,0,0,0,0,0,0,0,0,0,0,0,0,0,0,0,0,0,0,0,0,0,0,0,0,0,0,0,0],"sum_hessian":[7.726E3,6.838E3,8.88E2,1.2E3,5.638E3,5.43E2,3.45E2,6.94E2,5.06E2,4.762E3,8.76E2,3.94E2,1.49E2,2.32E2,1.13E2,3.44E2,3.5E2,3.21E2,1.85E2,3.193E3,1.569E3,1.6E2,7.16E2,2.7E2,1.24E2,9.3E1,5.6E1,1.41E2,9.1E1],"tree_param":{"num_deleted":"0","num_feature":"2","num_nodes":"29","size_leaf_vector":"1"}},{"base_weights":[-2.5452243E-3,1.15826115E-1,-9.131628E-1,-6.6785544E-1,3.2662806E-1,-1.3084162E0,-2.8908476E-1,-2.8303853E-1,-1.0149302E0,5.440865E-1,-8.165805E-2,-1.1156049E0,-1.8074303E0,5.028753E-1,-1.9052044E-1,-7.283021E-2,2.8063518E-1,-7.804566E-2,-1.8651421E-1,2.5189131E-2,8.775909E-2,-6.6222E-2,2.79506E-2,-2.0425247E-1,-8.510171E-2,-1.20654605E-1,-2.7666527E-1,1.4352217E-1,-9.416471E-2],"categories":[],"categories_nodes":[],"categories_segments":[],"categories_sizes":[],"default_left":[0,0,0,0,0,0,0,0,0,0,0,0,0,0,0,0,0,0,0,0,0,0,0,0,0,0,0,0,0],"id":23,"left_children":[1,3,5,7,9,11,13,15,17,19,21,23,25,27,-1,-1,-1,-1,-1,-1,-1,-1,-1,-1,-1,-1,-1,-1,-1],"loss_changes":[8.330071E2,1.1300319E3,2.1891046E2,1.93375E2,4.78597E2,5.032495E1,4.438042E2,9.498273E2,1.504508E2,3.4250488E2,3.931218E2,9.513617E1,8.311914E1,3.151548E2,0E0,0E0,0E0,0E0,0E0,0E0,0E0,0E0,0E0,0E0,0E0,0E0,0E0,0E0,0E0],"parents":[2147483647,0,0,1,1,2,2,3,3,4,4,5,5,6,6,7,7,8,8,9,9,10,10,11,11,12,12,13,13],"right_children":[2,4,6,8,10,12,14,16,18,20,22,24,26,28,-1,-1,-1,-1,-1,-1,-1,-1,-1,-1,-1,-1,-1,-1,-1],"split_conditions":[2.2E1,7E0,5E0,4E0,1.8E1,2.3E1,7E0,5E0,5E0,1.3E1,4E0,2E0,4E0,2.3E1,-1.9052044E-1,-7.283021E-2,2.8063518E-1,-7.804566E-2,-1.8651421E-1,2.5189131E-2,8.775909E-2,-6.6222E-2,2.79506E-2,-2.0425247E-1,-8.510171E-2,-1.20654605E-1,-2.7666527E-1,1.4352217E-1,-9.416471E-2],"split_indices":[1,1,0,0,1,1,0,1,1,1,0,0,0,1,0,0,0,0,0,0,0,0,0,0,0,0,0,0,0],"split_type":[0,0,0,0,0,0,0,0,0,0,0,0,0,0,0,0,0,0,0,0,0,0,0,0,0,0,0,0,0],"sum_hessian":[7.726E3,6.838E3,8.88E2,1.449E3,5.389E3,5.43E2,3.45E2,6.88E2,7.61E2,3.516E3,1.873E3,3.94E2,1.49E2,2.32E2,1.13E2,6.02E2,8.6E1,5.98E2,1.63E2,1.875E3,1.641E3,7.18E2,1.155E3,8.6E1,3.08E2,9.3E1,5.6E1,1.41E2,9.1E1],"tree_param":{"num_deleted":"0","num_feature":"2","num_nodes":"29","size_leaf_vector":"1"}},{"base_weights":[-2.3952974E-3,1.0424638E-1,-8.2277775E-1,-6.011091E-1,2.9397944E-1,-1.178837E0,-2.6058424E-1,-2.5443316E-1,-9.137844E-1,4.8971036E-1,-7.3512405E-2,-1.0047768E0,-1.629336E0,4.5279977E-1,-1.7163552E-1,-6.555926E-2,2.5289416E-1,-7.025412E-2,-1.6797656E-1,2.2671621E-2,7.898854E-2,-5.9608985E-2,2.5157992E-2,-1.316554E-1,-3.208061E-2,-1.087175E-1,-2.4948414E-1,1.2927103E-1,-8.485057E-2],"categories":[],"categories_nodes":[],"categories_segments":[],"categories_sizes":[],"default_left":[0,0,0,0,0,0,0,0,0,0,0,0,0,0,0,0,0,0,0,0,0,0,0,0,0,0,0,0,0],"id":24,"left_children":[1,3,5,7,9,11,13,15,17,19,21,23,25,27,-1,-1,-1,-1,-1,-1,-1,-1,-1,-1,-1,-1,-1,-1,-1],"loss_changes":[6.7609753E2,9.154349E2,1.7764764E2,1.5694312E2,3.8773608E2,4.102002E1,3.6010632E2,7.709796E2,1.2211786E2,2.7746796E2,3.1851614E2,8.380997E1,6.767413E1,2.5576125E2,0E0,0E0,0E0,0E0,0E0,0E0,0E0,0E0,0E0,0E0,0E0,0E0,0E0,0E0,0E0],"parents":[2147483647,0,0,1,1,2,2,3,3,4,4,5,5,6,6,7,7,8,8,9,9,10,10,11,11,12,12,13,13],"right_children":[2,4,6,8,10,12,14,16,18,20,22,24,26,28,-1,-1,-1,-1,-1,-1,-1,-1,-1,-1,-1,-1,-1,-1,-1],"split_conditions":[2.2E1,7E0,5E0,4E0,1.8E1,2.3E1,7E0,5E0,5E0,1.3E1,4E0,4E0,4E0,2.3E1,-1.7163552E-1,-6.555926E-2,2.5289416E-1,-7.025412E-2,-1.6797656E-1,2.2671621E-2,7.898854E-2,-5.9608985E-2,2.5157992E-2,-1.316554E-1,-3.208061E-2,-1.087175E-1,-2.4948414E-1,1.2927103E-1,-8.485057E-2],"split_indices":[1,1,0,0,1,1,0,1,1,1,0,0,0,1,0,0,0,0,0,0,0,0,0,0,0,0,0,0,0],"split_type":[0,0,0,0,0,0,0,0,0,0,0,0,0,0,0,0,0,0,0,0,0,0,0,0,0,0,0,0,0],"sum_hessian":[7.726E3,6.838E3,8.88E2,1.449E3,5.389E3,5.43E2,3.45E2,6.88E2,7.61E2,3.516E3,1.873E3,3.94E2,1.49E2,2.32E2,1.13E2,6.02E2,8.6E1,5.98E2,1.63E2,1.875E3,1.641E3,7.18E2,1.155E3,2.7E2,1.24E2,9.3E1,5.6E1,1.41E2,9.1E1],"tree_param":{"num_deleted":"0","num_feature":"2","num_nodes":"29","size_leaf_vector":"1"}},{"base_weights":[-2.237546E-3,9.382428E-2,-7.4123037E-1,-5.4103315E-1,2.6459414E-1,-1.0619128E0,-2.3489374E-1,-2.2871788E-1,-8.2271844E-1,3.7745413E-1,-3.3530095E-1,-1.6083468E0,-9.244373E-1,4.0771002E-1,-1.5462252E-1,-5.9014212E-2,2.278955E-1,-6.324042E-2,-1.5128134E-1,4.7115553E-3,5.3784873E-2,1.3195636E-4,-1.6897114E-1,-1.7104782E-1,-1.1313569E-1,-6.749203E-2,-1.5149514E-1,1.1643491E-1,-7.645776E-2],"categories":[],"categories_nodes":[],"categories_segments":[],"categories_sizes":[],"default_left":[0,0,0,0,0,0,0,0,0,0,0,0,0,0,0,0,0,0,0,0,0,0,0,0,0,0,0,0,0],"id":25,"left_children":[1,3,5,7,9,11,13,15,17,19,21,23,25,27,-1,-1,-1,-1,-1,-1,-1,-1,-1,-1,-1,-1,-1,-1,-1],"loss_changes":[5.486015E2,7.4159E2,1.441004E2,1.2737503E2,3.65052E2,3.937915E1,2.92193E2,6.258089E2,9.9120544E1,2.4036536E2,3.8935992E2,3.3261108E0,6.3366577E1,2.0756094E2,0E0,0E0,0E0,0E0,0E0,0E0,0E0,0E0,0E0,0E0,0E0,0E0,0E0,0E0,0E0],"parents":[2147483647,0,0,1,1,2,2,3,3,4,4,5,5,6,6,7,7,8,8,9,9,10,10,11,11,12,12,13,13],"right_children":[2,4,6,8,10,12,14,16,18,20,22,24,26,28,-1,-1,-1,-1,-1,-1,-1,-1,-1,-1,-1,-1,-1,-1,-1],"split_conditions":[2.2E1,7E0,5E0,4E0,7E0,2E0,7E0,5E0,5E0,3E0,2E1,2.3E1,2.3E1,2.3E1,-1.5462252E-1,-5.9014212E-2,2.278955E-1,-6.324042E-2,-1.5128134E-1,4.7115553E-3,5.3784873E-2,1.3195636E-4,-1.6897114E-1,-1.7104782E-1,-1.1313569E-1,-6.749203E-2,-1.5149514E-1,1.1643491E-1,-7.645776E-2],"split_indices":[1,1,0,0,0,0,0,1,1,0,1,1,1,1,0,0,0,0,0,0,0,0,0,0,0,0,0,0,0],"split_type":[0,0,0,0,0,0,0,0,0,0,0,0,0,0,0,0,0,0,0,0,0,0,0,0,0,0,0,0,0],"sum_hessian":[7.726E3,6.838E3,8.88E2,1.449E3,5.389E3,5.43E2,3.45E2,6.88E2,7.61E2,4.536E3,8.53E2,1.07E2,4.36E2,2.32E2,1.13E2,6.02E2,8.6E1,5.98E2,1.63E2,1.483E3,3.053E3,6.84E2,1.69E2,8.6E1,2.1E1,3.08E2,1.28E2,1.41E2,9.1E1],"tree_param":{"num_deleted":"0","num_feature":"2","num_nodes":"29","size_leaf_vector":"1"}},{"base_weights":[-2.1139716E-3,-7.3160625E-1,7.966421E-2,-7.767473E-1,-3.539045E-1,1.8928605E-1,-6.678022E-1,-8.5423964E-1,-5.8865017E-1,1.3703435E-2,-5.607462E-1,2.964148E-1,-3.9612645E-1,-9.0351194E-1,-8.144377E-2,-1.14264205E-1,-7.847028E-2,-2.1146076E-2,-6.8109445E-2,-3.433061E-2,-6.775983E-2,3.9931513E-2,6.322555E-3,-1.4856638E-1,-5.8227684E-3,-1.4501436E-1,-7.897743E-2,9.646693E-2,-1.3929589E-1],"categories":[],"categories_nodes":[],"categories_segments":[],"categories_sizes":[],"default_left":[0,0,0,0,0,0,0,0,0,0,0,0,0,0,0,0,0,0,0,0,0,0,0,0,0,0,0,0,0],"id":26,"left_children":[1,3,5,7,9,11,13,15,17,-1,19,21,23,25,27,-1,-1,-1,-1,-1,-1,-1,-1,-1,-1,-1,-1,-1,-1],"loss_changes":[4.610244E2,1.3006958E1,5.695181E2,9.627533E0,8.708306E0,3.8022998E2,1.2279544E2,8.930115E0,7.038994E0,0E0,1.2918758E0,1.2292642E2,3.452413E2,3.8272095E1,3.5257397E2,0E0,0E0,0E0,0E0,0E0,0E0,0E0,0E0,0E0,0E0,0E0,0E0,0E0,0E0],"parents":[2147483647,0,0,1,1,2,2,3,3,4,4,5,5,6,6,7,7,8,8,10,10,11,11,12,12,13,13,14,14],"right_children":[2,4,6,8,10,12,14,16,18,-1,20,22,24,26,28,-1,-1,-1,-1,-1,-1,-1,-1,-1,-1,-1,-1,-1,-1],"split_conditions":[4E0,3E0,2.2E1,6E0,2E0,7E0,6E0,1E0,1E0,1.3703435E-2,6E0,1.8E1,1E1,2E0,7E0,-1.14264205E-1,-7.847028E-2,-2.1146076E-2,-6.8109445E-2,-3.433061E-2,-6.775983E-2,3.9931513E-2,6.322555E-3,-1.4856638E-1,-5.8227684E-3,-1.4501436E-1,-7.897743E-2,9.646693E-2,-1.3929589E-1],"split_indices":[1,1,1,0,0,0,0,1,1,0,0,1,1,0,0,0,0,0,0,0,0,0,0,0,0,0,0,0,0],"split_type":[0,0,0,0,0,0,0,0,0,0,0,0,0,0,0,0,0,0,0,0,0,0,0,0,0,0,0,0,0],"sum_hessian":[7.726E3,7.78E2,6.948E3,6.94E2,8.4E1,6.06E3,8.88E2,4.89E2,2.05E2,2.5E1,5.9E1,5.123E3,9.37E2,6.33E2,2.55E2,9.2E1,3.97E2,4.1E1,1.64E2,2.2E1,3.7E1,3.554E3,1.569E3,2.21E2,7.16E2,1.07E2,5.26E2,1.42E2,1.13E2],"tree_param":{"num_deleted":"0","num_feature":"2","num_nodes":"29","size_leaf_vector":"1"}},{"base_weights":[-1.9993528E-3,-4.939769E-1,9.667161E-2,-2.670491E-1,-7.1943974E-1,3.595508E-1,-2.5323445E-1,-4.984211E-1,2.9837496E0,-5.167018E-1,-3.1831245E0,1.2916036E-1,6.4486444E-1,-6.866541E-1,2.5893033E-2,-8.121806E-2,-7.855452E-3,4.5118338E-1,1.00086145E-1,-1.0523881E-2,-6.6261694E-2,-7.806283E-1,5.6304038E-2,-3.228725E-2,3.148335E-2,1.277231E-1,-5.3912527E-3,-1.102732E-1,-4.845142E-2,3.487221E-2,-9.503794E-2],"categories":[],"categories_nodes":[],"categories_segments":[],"categories_sizes":[],"default_left":[0,0,0,0,0,0,0,0,0,0,0,0,0,0,0,0,0,0,0,0,0,0,0,0,0,0,0,0,0,0,0],"id":27,"left_children":[1,3,5,7,9,11,13,15,17,19,21,23,25,27,29,-1,-1,-1,-1,-1,-1,-1,-1,-1,-1,-1,-1,-1,-1,-1,-1],"loss_changes":[3.7514645E2,6.586032E1,5.921857E2,4.8661984E2,3.2152026E2,2.4155322E2,3.3416272E2,7.937367E1,1.2577518E2,3.5893417E1,8.5303186E2,1.7089992E2,7.256409E2,9.046832E1,5.3013074E2,0E0,0E0,0E0,0E0,0E0,0E0,0E0,0E0,0E0,0E0,0E0,0E0,0E0,0E0,0E0,0E0],"parents":[2147483647,0,0,1,1,2,2,3,3,4,4,5,5,6,6,7,7,8,8,9,9,10,10,11,11,12,12,13,13,14,14],"right_children":[2,4,6,8,10,12,14,16,18,20,22,24,26,28,30,-1,-1,-1,-1,-1,-1,-1,-1,-1,-1,-1,-1,-1,-1,-1,-1],"split_conditions":[6E0,4E0,1.8E1,5E0,5E0,1.3E1,4E0,3E0,2E0,5E0,5E0,3E0,5E0,2E0,7E0,-8.121806E-2,-7.855452E-3,4.5118338E-1,1.00086145E-1,-1.0523881E-2,-6.6261694E-2,-7.806283E-1,5.6304038E-2,-3.228725E-2,3.148335E-2,1.277231E-1,-5.3912527E-3,-1.102732E-1,-4.845142E-2,3.487221E-2,-9.503794E-2],"split_indices":[1,0,1,1,1,1,0,1,0,0,0,0,0,0,0,0,0,0,0,0,0,0,0,0,0,0,0,0,0,0,0],"split_type":[0,0,0,0,0,0,0,0,0,0,0,0,0,0,0,0,0,0,0,0,0,0,0,0,0,0,0,0,0,0,0],"sum_hessian":[7.726E3,1.29E3,6.436E3,6.44E2,6.46E2,3.675E3,2.761E3,6.02E2,4.2E1,5.98E2,4.8E1,2.034E3,1.641E3,1.081E3,1.68E3,3.44E2,2.58E2,2.3E1,1.9E1,1.57E2,4.41E2,2.1E1,2.7E1,5.92E2,1.442E3,8.61E2,7.8E2,3.52E2,7.29E2,1.263E3,4.17E2],"tree_param":{"num_deleted":"0","num_feature":"2","num_nodes":"31","size_leaf_vector":"1"}},{"base_weights":[-1.8557132E-3,7.3060594E-2,-5.781783E-1,-3.2882446E-1,2.3227388E-1,-7.901901E-1,-5.08594E-2,2.4299452E-1,-6.1293733E-1,-1.5992282E-1,3.8120124E-1,-6.407658E-1,-1.184663E0,8.342487E-1,-1.1606804E-1,-4.9981147E-2,1.8627977E-1,-5.2777614E-2,-1.1820996E-1,-9.649258E-2,3.2594588E-2,7.722644E-2,1.9188115E-2,-9.177451E-2,-2.4648381E-2,-6.8366304E-2,-1.75853E-1,2.2292864E-1,-6.9418736E-2],"categories":[],"categories_nodes":[],"categories_segments":[],"categories_sizes":[],"default_left":[0,0,0,0,0,0,0,0,0,0,0,0,0,0,0,0,0,0,0,0,0,0,0,0,0,0,0,0,0],"id":28,"left_children":[1,3,5,7,9,11,13,15,17,19,21,23,25,27,-1,-1,-1,-1,-1,-1,-1,-1,-1,-1,-1,-1,-1,-1,-1],"loss_changes":[3.336629E2,4.376728E2,9.934805E1,3.1548596E2,2.8620575E2,3.661133E1,2.5244008E2,7.769947E2,6.22424E1,5.279431E2,2.6275403E2,5.022786E1,4.853653E1,3.0645587E2,0E0,0E0,0E0,0E0,0E0,0E0,0E0,0E0,0E0,0E0,0E0,0E0,0E0,0E0,0E0],"parents":[2147483647,0,0,1,1,2,2,3,3,4,4,5,5,6,6,7,7,8,8,9,9,10,10,11,11,12,12,13,13],"right_children":[2,4,6,8,10,12,14,16,18,20,22,24,26,28,-1,-1,-1,-1,-1,-1,-1,-1,-1,-1,-1,-1,-1,-1,-1],"split_conditions":[2.2E1,9E0,6E0,3E0,3E0,2.3E1,7E0,5E0,8E0,1.4E1,1.4E1,4E0,4E0,2.3E1,-1.1606804E-1,-4.9981147E-2,1.8627977E-1,-5.2777614E-2,-1.1820996E-1,-9.649258E-2,3.2594588E-2,7.722644E-2,1.9188115E-2,-9.177451E-2,-2.4648381E-2,-6.8366304E-2,-1.75853E-1,2.2292864E-1,-6.9418736E-2],"split_indices":[1,1,0,0,0,1,0,1,1,1,1,0,0,1,0,0,0,0,0,0,0,0,0,0,0,0,0,0,0],"split_type":[0,0,0,0,0,0,0,0,0,0,0,0,0,0,0,0,0,0,0,0,0,0,0,0,0,0,0,0,0],"sum_hessian":[7.726E3,6.838E3,8.88E2,1.94E3,4.898E3,6.33E2,2.55E2,6.44E2,1.296E3,1.348E3,3.55E3,4.61E2,1.72E2,1.42E2,1.13E2,4.42E2,2.02E2,1.129E3,1.67E2,5.07E2,8.41E2,1.157E3,2.393E3,2.7E2,1.91E2,9.3E1,7.9E1,7.4E1,6.8E1],"tree_param":{"num_deleted":"0","num_feature":"2","num_nodes":"29","size_leaf_vector":"1"}},{"base_weights":[-1.7122115E-3,6.5754265E-2,-5.20724E-1,-2.9595986E-1,2.0905316E-1,-7.1173984E-1,-4.562732E-2,2.1890652E-1,-5.5177546E-1,3.9065653E-1,-8.42984E-2,-5.7694113E-1,-1.0676085E0,7.518973E-1,-1.0456307E-1,-4.4994317E-2,1.6774361E-1,-4.282124E-2,-9.169986E-2,2.1842068E-2,6.0092237E-2,-5.2288473E-2,1.885631E-2,-1.1983239E-1,-4.316293E-2,-6.1602395E-2,-1.5848754E-1,2.0093301E-1,-6.257745E-2],"categories":[],"categories_nodes":[],"categories_segments":[],"categories_sizes":[],"default_left":[0,0,0,0,0,0,0,0,0,0,0,0,0,0,0,0,0,0,0,0,0,0,0,0,0,0,0,0,0],"id":29,"left_children":[1,3,5,7,9,11,13,15,17,19,21,23,25,27,-1,-1,-1,-1,-1,-1,-1,-1,-1,-1,-1,-1,-1,-1,-1],"loss_changes":[2.7060208E2,3.545494E2,8.064516E1,2.5577156E2,2.6102045E2,2.9797485E1,2.0495319E2,6.299761E2,5.8138428E1,1.0945627E2,2.2436641E2,4.1198715E1,3.9434692E1,2.489805E2,0E0,0E0,0E0,0E0,0E0,0E0,0E0,0E0,0E0,0E0,0E0,0E0,0E0,0E0,0E0],"parents":[2147483647,0,0,1,1,2,2,3,3,4,4,5,5,6,6,7,7,8,8,9,9,10,10,11,11,12,12,13,13],"right_children":[2,4,6,8,10,12,14,16,18,20,22,24,26,28,-1,-1,-1,-1,-1,-1,-1,-1,-1,-1,-1,-1,-1,-1,-1],"split_conditions":[2.2E1,9E0,6E0,3E0,1.8E1,2.3E1,7E0,5E0,7E0,1.4E1,4E0,2E0,4E0,2.3E1,-1.0456307E-1,-4.4994317E-2,1.6774361E-1,-4.282124E-2,-9.169986E-2,2.1842068E-2,6.0092237E-2,-5.2288473E-2,1.885631E-2,-1.1983239E-1,-4.316293E-2,-6.1602395E-2,-1.5848754E-1,2.0093301E-1,-6.257745E-2],"split_indices":[1,1,0,0,1,1,0,1,0,1,0,0,0,1,0,0,0,0,0,0,0,0,0,0,0,0,0,0,0],"split_type":[0,0,0,0,0,0,0,0,0,0,0,0,0,0,0,0,0,0,0,0,0,0,0,0,0,0,0,0,0],"sum_hessian":[7.726E3,6.838E3,8.88E2,1.94E3,4.898E3,6.33E2,2.55E2,6.44E2,1.296E3,3.025E3,1.873E3,4.61E2,1.72E2,1.42E2,1.13E2,4.42E2,2.02E2,9.7E2,3.26E2,1.664E3,1.361E3,7.18E2,1.155E3,8.6E1,3.75E2,9.3E1,7.9E1,7.4E1,6.8E1],"tree_param":{"num_deleted":"0","num_feature":"2","num_nodes":"29","size_leaf_vector":"1"}},{"base_weights":[-1.5817408E-3,7.621563E-2,-4.1417304E-1,-5.844375E-1,1.3809043E-1,-1.613466E-1,-1.25606E0,-6.233446E-1,-3.9350328E-1,2.1865793E-1,-3.9896184E-1,-8.532897E-1,3.402278E-1,-1.892204E-1,-1.0217688E0,-3.964092E-2,-6.803896E-2,-5.9989315E-2,1.3652508E-2,-5.015791E-3,2.741764E-2,-6.4117014E-2,6.776747E-2,-4.2865396E-2,-1.4730749E-1,1.9070773E-1,1.1428441E-2,-1.0599817E-1,-8.543798E-2],"categories":[],"categories_nodes":[],"categories_segments":[],"categories_sizes":[],"default_left":[0,0,0,0,0,0,0,0,0,0,0,0,0,0,0,0,0,0,0,0,0,0,0,0,0,0,0,0,0],"id":30,"left_children":[1,3,5,7,9,11,13,15,17,19,21,23,25,-1,27,-1,-1,-1,-1,-1,-1,-1,-1,-1,-1,-1,-1,-1,-1],"loss_changes":[2.4805684E2,2.6586804E2,2.60753E2,3.8924866E0,2.5736444E2,3.2791586E2,4.0245728E1,5.6981964E0,1.0692971E1,7.718703E1,2.0279227E2,1.0385214E2,1.9378464E2,0E0,4.3122864E-1,0E0,0E0,0E0,0E0,0E0,0E0,0E0,0E0,0E0,0E0,0E0,0E0,0E0,0E0],"parents":[2147483647,0,0,1,1,2,2,3,3,4,4,5,5,6,6,7,7,8,8,9,9,10,10,11,11,12,12,14,14],"right_children":[2,4,6,8,10,12,14,16,18,20,22,24,26,-1,28,-1,-1,-1,-1,-1,-1,-1,-1,-1,-1,-1,-1,-1,-1],"split_conditions":[7E0,3E0,2E1,2E0,2.2E1,1E1,2.1E1,2E0,2E0,2E0,6E0,5E0,1.1E1,-1.892204E-1,2.3E1,-3.964092E-2,-6.803896E-2,-5.9989315E-2,1.3652508E-2,-5.015791E-3,2.741764E-2,-6.4117014E-2,6.776747E-2,-4.2865396E-2,-1.4730749E-1,1.9070773E-1,1.1428441E-2,-1.0599817E-1,-8.543798E-2],"split_indices":[0,1,1,1,1,1,1,0,0,0,0,1,1,0,1,0,0,0,0,0,0,0,0,0,0,0,0,0,0],"split_type":[0,0,0,0,0,0,0,0,0,0,0,0,0,0,0,0,0,0,0,0,0,0,0,0,0,0,0,0,0],"sum_hessian":[7.726E3,6.501E3,1.225E3,5.56E2,5.945E3,9.43E2,2.82E2,4.6E2,9.6E1,5.17E3,7.75E2,3.96E2,5.47E2,7.4E1,2.08E2,9.4E1,3.66E2,6.9E1,2.7E1,8.85E2,4.285E3,6.33E2,1.42E2,2.36E2,1.6E2,6.8E1,4.79E2,1.65E2,4.3E1],"tree_param":{"num_deleted":"0","num_feature":"2","num_nodes":"29","size_leaf_vector":"1"}},{"base_weights":[-1.4879202E-3,6.857434E-2,-3.7305668E-1,-5.262703E-1,1.2428572E-1,-1.4519952E-1,-1.1317991E0,-5.612438E-1,-3.546307E-1,1.643801E-1,-8.255186E-1,-7.684399E-1,3.065735E-1,-1.7055064E-1,-9.20508E-1,-3.5718556E-2,-6.1253607E-2,-5.4076087E-2,1.233601E-2,-2.6439654E-3,2.6070276E-2,-4.9164202E-2,-1.0319976E-1,-3.8596954E-2,-1.3266824E-1,1.719133E-1,1.0287939E-2,-1.000975E-1,-8.4467165E-2],"categories":[],"categories_nodes":[],"categories_segments":[],"categories_sizes":[],"default_left":[0,0,0,0,0,0,0,0,0,0,0,0,0,0,0,0,0,0,0,0,0,0,0,0,0,0,0,0,0],"id":31,"left_children":[1,3,5,7,9,11,13,15,17,19,21,23,25,-1,27,-1,-1,-1,-1,-1,-1,-1,-1,-1,-1,-1,-1,-1,-1],"loss_changes":[2.0118216E2,2.1553922E2,2.1179256E2,3.1445465E0,2.2657022E2,2.6603122E2,3.2735107E1,4.606308E0,8.696654E0,1.0488466E2,1.6106796E1,8.425188E1,1.574992E2,0E0,4.298706E-1,0E0,0E0,0E0,0E0,0E0,0E0,0E0,0E0,0E0,0E0,0E0,0E0,0E0,0E0],"parents":[2147483647,0,0,1,1,2,2,3,3,4,4,5,5,6,6,7,7,8,8,9,9,10,10,11,11,12,12,14,14],"right_children":[2,4,6,8,10,12,14,16,18,20,22,24,26,-1,28,-1,-1,-1,-1,-1,-1,-1,-1,-1,-1,-1,-1,-1,-1],"split_conditions":[7E0,3E0,2E1,2E0,2.3E1,1E1,2.1E1,2E0,2E0,3E0,4E0,5E0,1.1E1,-1.7055064E-1,2.2E1,-3.5718556E-2,-6.1253607E-2,-5.4076087E-2,1.233601E-2,-2.6439654E-3,2.6070276E-2,-4.9164202E-2,-1.0319976E-1,-3.8596954E-2,-1.3266824E-1,1.719133E-1,1.0287939E-2,-1.000975E-1,-8.4467165E-2],"split_indices":[0,1,1,1,1,1,1,0,0,0,0,1,1,0,1,0,0,0,0,0,0,0,0,0,0,0,0,0,0],"split_type":[0,0,0,0,0,0,0,0,0,0,0,0,0,0,0,0,0,0,0,0,0,0,0,0,0,0,0,0,0],"sum_hessian":[7.726E3,6.501E3,1.225E3,5.56E2,5.945E3,9.43E2,2.82E2,4.6E2,9.6E1,5.705E3,2.4E2,3.96E2,5.47E2,7.4E1,2.08E2,9.4E1,3.66E2,6.9E1,2.7E1,1.914E3,3.791E3,9.3E1,1.47E2,2.36E2,1.6E2,6.8E1,4.79E2,9.5E1,1.13E2],"tree_param":{"num_deleted":"0","num_feature":"2","num_nodes":"29","size_leaf_vector":"1"}},{"base_weights":[-1.4183128E-3,6.886937E-2,-3.1177658E-1,-2.3184879E-1,2.0269763E-1,-8.1835526E-1,-1.2845427E-1,2.3442617E-1,-4.6354926E-1,-2.487931E-1,2.781536E-1,-1.053853E-1,-6.940622E-1,4.5878254E-2,-8.2934034E-1,-3.473228E-2,1.5028024E-1,-2.6618456E-2,-7.4061096E-2,2.6499627E-2,-1.00529365E-1,3.4555536E-2,-1.8932807E-3,-9.2825815E-2,-5.1359534E-2,-2.3085298E-2,7.820245E-2,-8.617189E-2,-6.8833664E-2],"categories":[],"categories_nodes":[],"categories_segments":[],"categories_sizes":[],"default_left":[0,0,0,0,0,0,0,0,0,0,0,0,0,0,0,0,0,0,0,0,0,0,0,0,0,0,0,0,0],"id":32,"left_children":[1,3,5,7,9,11,13,15,17,19,21,-1,23,25,27,-1,-1,-1,-1,-1,-1,-1,-1,-1,-1,-1,-1,-1,-1],"loss_changes":[1.6858104E2,2.5362816E2,1.3241634E2,2.098068E2,1.4863835E2,1.0362167E1,1.2821245E2,4.7645233E2,7.072565E1,2.431926E2,7.483676E1,0E0,1.0131676E1,1.7150458E2,3.610382E-1,0E0,0E0,0E0,0E0,0E0,0E0,0E0,0E0,0E0,0E0,0E0,0E0,0E0,0E0],"parents":[2147483647,0,0,1,1,2,2,3,3,4,4,5,5,6,6,7,7,8,8,9,9,10,10,12,12,13,13,14,14],"right_children":[2,4,6,8,10,12,14,16,18,20,22,-1,24,26,28,-1,-1,-1,-1,-1,-1,-1,-1,-1,-1,-1,-1,-1,-1],"split_conditions":[2.1E1,9E0,3E0,3E0,2E0,2.2E1,7E0,5E0,5E0,1.7E1,7E0,-1.053853E-1,2E0,6E0,2.3E1,-3.473228E-2,1.5028024E-1,-2.6618456E-2,-7.4061096E-2,2.6499627E-2,-1.00529365E-1,3.4555536E-2,-1.8932807E-3,-9.2825815E-2,-5.1359534E-2,-2.3085298E-2,7.820245E-2,-8.617189E-2,-6.8833664E-2],"split_indices":[1,1,0,0,0,1,0,1,1,1,0,0,0,0,1,0,0,0,0,0,0,0,0,0,0,0,0,0,0],"split_type":[0,0,0,0,0,0,0,0,0,0,0,0,0,0,0,0,0,0,0,0,0,0,0,0,0,0,0,0,0],"sum_hessian":[7.726E3,6.3E3,1.426E3,1.94E3,4.36E3,3.78E2,1.048E3,6.44E2,1.296E3,6.24E2,3.736E3,1.28E2,2.5E2,8.4E2,2.08E2,4.42E2,2.02E2,7.58E2,5.38E2,3.72E2,2.52E2,3.045E3,6.91E2,1.07E2,1.43E2,6.11E2,2.29E2,1.65E2,4.3E1],"tree_param":{"num_deleted":"0","num_feature":"2","num_nodes":"29","size_leaf_vector":"1"}},{"base_weights":[-1.3250309E-3,2.6163973E-2,-7.21842E-1,8.7508544E-2,-2.9857472E-1,-3.8954133E-1,-8.8160336E-1,-4.4357795E-1,1.3933603E-1,-1.15714826E-1,-1.0165796E0,-6.9687736E-1,5.894906E-2,-1.5420291E-1,-5.962265E-1,-5.9175868E-2,-4.045325E-2,2.3318192E-2,-2.1315848E-3,-6.590801E-2,2.7813867E-2,-1.5353623E-1,-7.760659E-2,-4.5888077E-2,-7.858783E-2,-4.721711E-2,-6.1748642E-2],"categories":[],"categories_nodes":[],"categories_segments":[],"categories_sizes":[],"default_left":[0,0,0,0,0,0,0,0,0,0,0,0,0,0,0,0,0,0,0,0,0,0,0,0,0,0,0],"id":33,"left_children":[1,3,5,7,9,11,13,15,17,19,21,23,-1,-1,25,-1,-1,-1,-1,-1,-1,-1,-1,-1,-1,-1,-1],"loss_changes":[1.530621E2,1.4831773E2,1.473381E1,1.724226E2,1.5520354E2,2.869463E1,3.50784E1,2.9832916E0,8.6031586E1,2.0220525E2,2.8754288E1,1.1644745E0,0E0,0E0,6.449127E-2,0E0,0E0,0E0,0E0,0E0,0E0,0E0,0E0,0E0,0E0,0E0,0E0],"parents":[2147483647,0,0,1,1,2,2,3,3,4,4,5,5,6,6,7,7,8,8,9,9,10,10,11,11,14,14],"right_children":[2,4,6,8,10,12,14,16,18,20,22,24,-1,-1,26,-1,-1,-1,-1,-1,-1,-1,-1,-1,-1,-1,-1],"split_conditions":[2.3E1,7E0,4E0,3E0,2E1,3E0,5E0,1E0,1.8E1,1E1,2.1E1,2E0,5.894906E-2,-1.5420291E-1,6E0,-5.9175868E-2,-4.045325E-2,2.3318192E-2,-2.1315848E-3,-6.590801E-2,2.7813867E-2,-1.5353623E-1,-7.760659E-2,-4.5888077E-2,-7.858783E-2,-4.721711E-2,-6.1748642E-2],"split_indices":[1,0,0,1,1,0,0,1,1,1,1,0,0,0,0,0,0,0,0,0,0,0,0,0,0,0,0],"split_type":[0,0,0,0,0,0,0,0,0,0,0,0,0,0,0,0,0,0,0,0,0,0,0,0,0,0,0],"sum_hessian":[7.726E3,7.443E3,2.83E2,6.261E3,1.182E3,9.3E1,1.9E2,5.56E2,5.705E3,9.43E2,2.39E2,7.1E1,2.2E1,5.6E1,1.34E2,1.13E2,4.43E2,3.601E3,2.104E3,3.96E2,5.47E2,7.4E1,1.65E2,2.1E1,5E1,2.3E1,1.11E2],"tree_param":{"num_deleted":"0","num_feature":"2","num_nodes":"27","size_leaf_vector":"1"}},{"base_weights":[-1.2797172E-3,2.3501227E-2,-6.508152E-1,-1.9761908E-1,1.0147561E-1,-3.5128427E-1,-7.948209E-1,2.1526442E-1,-4.0279427E-1,-2.1688436E-1,2.2376692E-1,-6.289184E-1,5.331046E-2,-1.3905315E-1,-5.374111E-1,-2.960647E-2,1.3300602E-1,-2.089131E-2,-6.7506336E-2,-1.0810437E-1,1.0417289E-2,5.811981E-2,7.691265E-3,-4.1507844E-2,-7.088315E-2,-4.2692155E-2,-5.5628914E-2],"categories":[],"categories_nodes":[],"categories_segments":[],"categories_sizes":[],"default_left":[0,0,0,0,0,0,0,0,0,0,0,0,0,0,0,0,0,0,0,0,0,0,0,0,0,0,0],"id":34,"left_children":[1,3,5,7,9,11,13,15,17,19,21,23,-1,-1,25,-1,-1,-1,-1,-1,-1,-1,-1,-1,-1,-1,-1],"loss_changes":[1.2438988E2,1.2836742E2,1.1970886E1,1.6451553E2,2.143339E2,2.3415722E1,2.8540985E1,3.6806158E2,6.83248E1,4.2404797E2,2.0870918E2,9.361553E-1,0E0,0E0,4.4094086E-2,0E0,0E0,0E0,0E0,0E0,0E0,0E0,0E0,0E0,0E0,0E0,0E0],"parents":[2147483647,0,0,1,1,2,2,3,3,4,4,5,5,6,6,7,7,8,8,9,9,10,10,11,11,14,14],"right_children":[2,4,6,8,10,12,14,16,18,20,22,24,-1,-1,26,-1,-1,-1,-1,-1,-1,-1,-1,-1,-1,-1,-1],"split_conditions":[2.3E1,9E0,4E0,3E0,3E0,3E0,5E0,5E0,5E0,1.3E1,1.4E1,2E0,5.331046E-2,-1.3905315E-1,6E0,-2.960647E-2,1.3300602E-1,-2.089131E-2,-6.7506336E-2,-1.0810437E-1,1.0417289E-2,5.811981E-2,7.691265E-3,-4.1507844E-2,-7.088315E-2,-4.2692155E-2,-5.5628914E-2],"split_indices":[1,1,0,0,0,0,0,1,1,1,1,0,0,0,0,0,0,0,0,0,0,0,0,0,0,0,0],"split_type":[0,0,0,0,0,0,0,0,0,0,0,0,0,0,0,0,0,0,0,0,0,0,0,0,0,0,0],"sum_hessian":[7.726E3,7.443E3,2.83E2,1.94E3,5.503E3,9.3E1,1.9E2,6.44E2,1.296E3,1.527E3,3.976E3,7.1E1,2.2E1,5.6E1,1.34E2,4.42E2,2.02E2,7.58E2,5.38E2,4.13E2,1.114E3,1.157E3,2.819E3,2.1E1,5E1,2.3E1,1.11E2],"tree_param":{"num_deleted":"0","num_feature":"2","num_nodes":"27","size_leaf_vector":"1"}},{"base_weights":[-1.1922937E-3,5.2418523E-2,-2.855123E-1,-3.74524E-1,9.240416E-2,-1.1240226E-1,-8.6194474E-1,-4.0009132E-1,-1.8478134E-1,1.4934619E-1,-2.8715727E-1,-5.7586306E-1,2.235582E-1,-1.3914625E-1,-6.678023E-1,-6.3935705E-2,-3.4317724E-2,7.454326E-3,-3.0223582E-2,2.1232606E-3,2.4323465E-2,-4.91597E-2,6.2124778E-2,-2.3459623E-2,-1.07464805E-1,1.4668895E-1,4.4363583E-3,-7.06572E-2,-5.0635733E-2],"categories":[],"categories_nodes":[],"categories_segments":[],"categories_sizes":[],"default_left":[0,0,0,0,0,0,0,0,0,0,0,0,0,0,0,0,0,0,0,0,0,0,0,0,0,0,0,0,0],"id":35,"left_children":[1,3,5,7,9,11,13,15,17,19,21,23,25,-1,27,-1,-1,-1,-1,-1,-1,-1,-1,-1,-1,-1,-1,-1,-1],"loss_changes":[1.17794754E2,1.11033936E2,1.2224104E2,2.628189E0,1.2855377E2,1.471138E2,2.8163712E1,6.4532166E0,2.09373E0,6.2193634E1,1.444195E2,6.732474E1,1.2202838E2,0E0,9.5038605E-1,0E0,0E0,0E0,0E0,0E0,0E0,0E0,0E0,0E0,0E0,0E0,0E0,0E0,0E0],"parents":[2147483647,0,0,1,1,2,2,3,3,4,4,5,5,6,6,7,7,8,8,9,9,10,10,11,11,12,12,14,14],"right_children":[2,4,6,8,10,12,14,16,18,20,22,24,26,-1,28,-1,-1,-1,-1,-1,-1,-1,-1,-1,-1,-1,-1,-1,-1],"split_conditions":[7E0,3E0,2E1,6E0,2.2E1,1E1,2.1E1,1E0,1E0,1.3E1,6E0,5E0,1.1E1,-1.3914625E-1,2.3E1,-6.3935705E-2,-3.4317724E-2,7.454326E-3,-3.0223582E-2,2.1232606E-3,2.4323465E-2,-4.91597E-2,6.2124778E-2,-2.3459623E-2,-1.07464805E-1,1.4668895E-1,4.4363583E-3,-7.06572E-2,-5.0635733E-2],"split_indices":[0,1,1,0,1,1,1,1,1,1,0,1,1,0,1,0,0,0,0,0,0,0,0,0,0,0,0,0,0],"split_type":[0,0,0,0,0,0,0,0,0,0,0,0,0,0,0,0,0,0,0,0,0,0,0,0,0,0,0,0,0],"sum_hessian":[7.726E3,6.501E3,1.225E3,5.56E2,5.945E3,9.43E2,2.82E2,4.89E2,6.7E1,5.17E3,7.75E2,3.96E2,5.47E2,7.4E1,2.08E2,9.2E1,3.97E2,2.1E1,4.6E1,2.187E3,2.983E3,6.33E2,1.42E2,2.36E2,1.6E2,6.8E1,4.79E2,1.65E2,4.3E1],"tree_param":{"num_deleted":"0","num_feature":"2","num_nodes":"29","size_leaf_vector":"1"}},{"base_weights":[-1.1148147E-3,8.59089E-2,-1.5758064E-1,-4.3774802E-2,4.290982E-1,-5.040119E-1,6.5498605E-2,-2.677533E-1,6.1386984E-2,1.309858E0,-4.3310958E-1,-7.9730034E-1,-3.6149848E-1,2.5851753E-1,-5.1833254E-1,2.8447364E-2,-1.5496759E-1,-3.4431756E-2,5.1573705E-2,1.7552605E-1,5.474342E-2,-1.1015945E-1,-1.4174484E-2,-2.5280712E-2,-9.35915E-2,-1.5308832E-1,-1.8625787E-2,3.9542925E-2,-7.7654235E-2,2.3050106E-3,-7.766708E-2],"categories":[],"categories_nodes":[],"categories_segments":[],"categories_sizes":[],"default_left":[0,0,0,0,0,0,0,0,0,0,0,0,0,0,0,0,0,0,0,0,0,0,0,0,0,0,0,0,0,0,0],"id":36,"left_children":[1,3,5,7,9,11,13,15,17,19,21,23,25,27,29,-1,-1,-1,-1,-1,-1,-1,-1,-1,-1,-1,-1,-1,-1,-1,-1],"loss_changes":[1.05226204E2,2.2103586E2,2.1348486E2,8.4928535E1,1.0348673E3,4.4936737E1,1.8956667E2,8.1595575E2,4.52528E2,2.2791968E2,1.340424E2,2.6405975E1,1.4930914E2,1.7943076E2,5.84793E1,0E0,0E0,0E0,0E0,0E0,0E0,0E0,0E0,0E0,0E0,0E0,0E0,0E0,0E0,0E0,0E0],"parents":[2147483647,0,0,1,1,2,2,3,3,4,4,5,5,6,6,7,7,8,8,9,9,10,10,11,11,12,12,13,13,14,14],"right_children":[2,4,6,8,10,12,14,16,18,20,22,24,26,28,30,-1,-1,-1,-1,-1,-1,-1,-1,-1,-1,-1,-1,-1,-1,-1,-1],"split_conditions":[1.8E1,1.4E1,4E0,3E0,5E0,2E0,7E0,1E1,9E0,1.7E1,6E0,1.9E1,1.9E1,2.3E1,2E1,2.8447364E-2,-1.5496759E-1,-3.4431756E-2,5.1573705E-2,1.7552605E-1,5.474342E-2,-1.1015945E-1,-1.4174484E-2,-2.5280712E-2,-9.35915E-2,-1.5308832E-1,-1.8625787E-2,3.9542925E-2,-7.7654235E-2,2.3050106E-3,-7.766708E-2],"split_indices":[1,1,0,0,0,0,0,1,1,1,0,1,1,1,1,0,0,0,0,0,0,0,0,0,0,0,0,0,0,0,0],"split_type":[0,0,0,0,0,0,0,0,0,0,0,0,0,0,0,0,0,0,0,0,0,0,0,0,0,0,0,0,0,0,0],"sum_hessian":[7.726E3,4.965E3,2.761E3,3.604E3,1.361E3,1.081E3,1.68E3,1.151E3,2.453E3,6.73E2,6.88E2,3.52E2,7.29E2,1.263E3,4.17E2,8.05E2,3.46E2,1.296E3,1.157E3,4.24E2,2.49E2,2.08E2,4.8E2,7.2E1,2.8E2,9.4E1,6.35E2,1.116E3,1.47E2,1.35E2,2.82E2],"tree_param":{"num_deleted":"0","num_feature":"2","num_nodes":"31","size_leaf_vector":"1"}},{"base_weights":[-1.0558739E-3,7.73176E-2,-1.4196885E-1,-5.8943972E-2,3.5319605E-1,-4.5387906E-1,5.8881138E-2,-2.387081E-1,2.4940236E-2,8.747416E-1,-2.2289284E-1,-8.843009E-1,-3.749115E-1,2.3263547E-1,-4.666795E-1,2.560613E-2,-1.8139865E-1,-3.0991247E-2,4.7172938E-2,-2.1567797E-2,1.1792143E-1,1.0173758E-1,-3.899786E-2,-2.2787247E-2,-1.3794059E-1,-8.426564E-2,-1.676611E-2,-3.786149E-3,6.94357E-2,2.076198E-3,-6.9927804E-2],"categories":[],"categories_nodes":[],"categories_segments":[],"categories_sizes":[],"default_left":[0,0,0,0,0,0,0,0,0,0,0,0,0,0,0,0,0,0,0,0,0,0,0,0,0,0,0,0,0,0,0],"id":37,"left_children":[1,3,5,7,9,11,13,15,17,19,21,23,25,27,29,-1,-1,-1,-1,-1,-1,-1,-1,-1,-1,-1,-1,-1,-1,-1,-1],"loss_changes":[8.534673E1,1.8670088E2,1.730582E2,5.0144863E1,4.9354468E2,3.644496E1,1.5361487E2,8.250691E2,3.3945837E2,2.864408E2,1.6224435E2,5.396083E1,8.865602E1,1.5789261E2,4.7406578E1,0E0,0E0,0E0,0E0,0E0,0E0,0E0,0E0,0E0,0E0,0E0,0E0,0E0,0E0,0E0,0E0],"parents":[2147483647,0,0,1,1,2,2,3,3,4,4,5,5,6,6,7,7,8,8,9,9,10,10,11,11,12,12,13,13,14,14],"right_children":[2,4,6,8,10,12,14,16,18,20,22,24,26,28,30,-1,-1,-1,-1,-1,-1,-1,-1,-1,-1,-1,-1,-1,-1,-1,-1],"split_conditions":[1.8E1,1.3E1,4E0,3E0,5E0,1.9E1,7E0,1E1,9E0,1.4E1,1.4E1,2E0,2E0,6E0,2E1,2.560613E-2,-1.8139865E-1,-3.0991247E-2,4.7172938E-2,-2.1567797E-2,1.1792143E-1,1.0173758E-1,-3.899786E-2,-2.2787247E-2,-1.3794059E-1,-8.426564E-2,-1.676611E-2,-3.786149E-3,6.94357E-2,2.076198E-3,-6.9927804E-2],"split_indices":[1,1,0,0,0,1,0,1,1,1,1,0,0,0,1,0,0,0,0,0,0,0,0,0,0,0,0,0,0,0,0],"split_type":[0,0,0,0,0,0,0,0,0,0,0,0,0,0,0,0,0,0,0,0,0,0,0,0,0,0,0,0,0,0,0],"sum_hessian":[7.726E3,4.965E3,2.761E3,3.324E3,1.641E3,1.081E3,1.68E3,1.057E3,2.267E3,8.61E2,7.8E2,1.66E2,9.15E2,1.263E3,4.17E2,8.05E2,2.52E2,1.296E3,9.71E2,1.88E2,6.73E2,9.2E1,6.88E2,7.2E1,9.4E1,2.8E2,6.35E2,7.97E2,4.66E2,1.35E2,2.82E2],"tree_param":{"num_deleted":"0","num_feature":"2","num_nodes":"31","size_leaf_vector":"1"}},{"base_weights":[-9.819447E-4,1.7870318E-2,-4.951202E-1,6.2287796E-2,-2.1726081E-1,-2.0130499E-1,-6.371281E-1,-3.2710984E-1,1.0028853E-1,-9.8092556E-2,-6.85084E-1,-4.4265798E-1,5.629872E-2,-1.1256089E-1,-4.2616123E-1,-4.0494043E-2,-1.9951051E-2,1.9083343E-2,-1.6649526E-3,-4.8229516E-2,1.80423E-2,-1.10854425E-1,-4.8963457E-2,-1.587592E-2,-5.564446E-2,-4.758256E-2,-3.126321E-2],"categories":[],"categories_nodes":[],"categories_segments":[],"categories_sizes":[],"default_left":[0,0,0,0,0,0,0,0,0,0,0,0,0,0,0,0,0,0,0,0,0,0,0,0,0,0,0],"id":38,"left_children":[1,3,5,7,9,11,13,15,17,19,21,23,-1,-1,25,-1,-1,-1,-1,-1,-1,-1,-1,-1,-1,-1,-1],"loss_changes":[7.199068E1,7.775816E1,1.1721382E1,9.269411E1,6.588466E1,1.7588848E1,1.9203484E1,5.4508514E0,6.0419136E1,1.0110106E2,1.9320839E1,2.2375383E0,0E0,0E0,6.124191E-1,0E0,0E0,0E0,0E0,0E0,0E0,0E0,0E0,0E0,0E0,0E0,0E0],"parents":[2147483647,0,0,1,1,2,2,3,3,4,4,5,5,6,6,7,7,8,8,9,9,10,10,11,11,14,14],"right_children":[2,4,6,8,10,12,14,16,18,20,22,24,-1,-1,26,-1,-1,-1,-1,-1,-1,-1,-1,-1,-1,-1,-1],"split_conditions":[2.3E1,7E0,4E0,3E0,2E1,3E0,5E0,4E0,1.7E1,1E1,2.1E1,2E0,5.629872E-2,-1.1256089E-1,7E0,-4.0494043E-2,-1.9951051E-2,1.9083343E-2,-1.6649526E-3,-4.8229516E-2,1.80423E-2,-1.10854425E-1,-4.8963457E-2,-1.587592E-2,-5.564446E-2,-4.758256E-2,-3.126321E-2],"split_indices":[1,0,0,1,1,0,0,0,1,1,1,0,0,0,0,0,0,0,0,0,0,0,0,0,0,0,0],"split_type":[0,0,0,0,0,0,0,0,0,0,0,0,0,0,0,0,0,0,0,0,0,0,0,0,0,0,0],"sum_hessian":[7.726E3,7.443E3,2.83E2,6.261E3,1.182E3,9.3E1,1.9E2,5.56E2,5.705E3,9.43E2,2.39E2,7.1E1,2.2E1,5.6E1,1.34E2,3.44E2,2.12E2,3.215E3,2.49E3,3.96E2,5.47E2,7.4E1,1.65E2,2.1E1,5E1,9.1E1,4.3E1],"tree_param":{"num_deleted":"0","num_feature":"2","num_nodes":"27","size_leaf_vector":"1"}},{"base_weights":[-9.404452E-4,7.248069E-2,-1.0527545E-1,-2.698231E-2,5.770219E-1,-8.12141E-1,2.1183721E-3,-1.9462626E-1,4.823396E-2,1.3784716E0,-2.5213E-1,-1.661012E-1,-6.4391375E-1,8.2317434E-2,-3.9905512E-1,2.3042422E-2,-1.1225288E-1,-2.7071794E-2,3.613546E-2,1.0986394E-1,2.0914471E-1,-5.7912555E-2,4.9090523E-2,-2.0375522E-2,-7.559695E-2,-6.9085993E-3,5.875039E-2,-1.3229999E-2,-5.673126E-2],"categories":[],"categories_nodes":[],"categories_segments":[],"categories_sizes":[],"default_left":[0,0,0,0,0,0,0,0,0,0,0,0,0,0,0,0,0,0,0,0,0,0,0,0,0,0,0,0,0],"id":39,"left_children":[1,3,5,7,9,11,13,15,17,19,21,-1,23,25,27,-1,-1,-1,-1,-1,-1,-1,-1,-1,-1,-1,-1,-1,-1],"loss_changes":[5.91995E1,2.2764651E2,2.4231601E2,4.779959E1,4.9674664E2,5.905063E1,8.921845E1,4.632906E2,2.6145877E2,7.3517395E1,8.969696E1,0E0,1.7256744E1,1.7680194E2,2.0661148E1,0E0,0E0,0E0,0E0,0E0,0E0,0E0,0E0,0E0,0E0,0E0,0E0,0E0,0E0],"parents":[2147483647,0,0,1,1,2,2,3,3,4,4,5,5,6,6,7,7,8,8,9,9,10,10,12,12,13,13,14,14],"right_children":[2,4,6,8,10,12,14,16,18,20,22,-1,24,26,28,-1,-1,-1,-1,-1,-1,-1,-1,-1,-1,-1,-1,-1,-1],"split_conditions":[1.7E1,1.5E1,2E0,3E0,5E0,1.8E1,7E0,1E1,9E0,4E0,7E0,-1.661012E-1,1.9E1,6E0,2E1,2.3042422E-2,-1.1225288E-1,-2.7071794E-2,3.613546E-2,1.0986394E-1,2.0914471E-1,-5.7912555E-2,4.9090523E-2,-2.0375522E-2,-7.559695E-2,-6.9085993E-3,5.875039E-2,-1.3229999E-2,-5.673126E-2],"split_indices":[1,1,0,0,0,1,0,1,1,0,0,0,1,0,1,0,0,0,0,0,0,0,0,0,0,0,0,0,0],"split_type":[0,0,0,0,0,0,0,0,0,0,0,0,0,0,0,0,0,0,0,0,0,0,0,0,0,0,0,0,0],"sum_hessian":[7.726E3,4.535E3,3.191E3,3.789E3,7.46E2,4.2E2,2.771E3,1.173E3,2.616E3,3.79E2,3.67E2,6.8E1,3.52E2,2.31E3,4.61E2,8.05E2,3.68E2,1.296E3,1.32E3,2.74E2,1.05E2,2.55E2,1.12E2,7.2E1,2.8E2,1.778E3,5.32E2,1.79E2,2.82E2],"tree_param":{"num_deleted":"0","num_feature":"2","num_nodes":"29","size_leaf_vector":"1"}},{"base_weights":[-8.5279666E-4,1.5998743E-2,-4.4255003E-1,5.479524E-2,-1.8937713E-1,-1.5915605E-1,-5.797044E-1,-2.9060695E-1,8.85026E-2,-9.476053E-2,-5.607467E-1,-3.7253872E-1,5.1574428E-2,-1.00823574E-1,-3.9447486E-1,-4.1504625E-2,-1.8262044E-2,1.6355794E-2,-8.4329315E-4,-4.183283E-2,1.3982187E-2,-9.431935E-2,-3.845765E-2,-7.1444227E-3,-4.9511794E-2,-4.7045708E-2,-2.2663759E-2],"categories":[],"categories_nodes":[],"categories_segments":[],"categories_sizes":[],"default_left":[0,0,0,0,0,0,0,0,0,0,0,0,0,0,0,0,0,0,0,0,0,0,0,0,0,0,0],"id":40,"left_children":[1,3,5,7,9,11,13,15,17,19,21,23,-1,-1,25,-1,-1,-1,-1,-1,-1,-1,-1,-1,-1,-1,-1],"loss_changes":[5.7521294E1,5.932316E1,1.0946453E1,7.2931656E1,4.1514797E1,1.3729267E1,1.4763214E1,7.4090385E0,4.1515545E1,7.1711205E1,1.5807442E1,2.6219978E0,0E0,0E0,1.6149826E0,0E0,0E0,0E0,0E0,0E0,0E0,0E0,0E0,0E0,0E0,0E0,0E0],"parents":[2147483647,0,0,1,1,2,2,3,3,4,4,5,5,6,6,7,7,8,8,9,9,10,10,11,11,14,14],"right_children":[2,4,6,8,10,12,14,16,18,20,22,24,-1,-1,26,-1,-1,-1,-1,-1,-1,-1,-1,-1,-1,-1,-1],"split_conditions":[2.3E1,7E0,4E0,3E0,2E1,3E0,5E0,3E0,1.7E1,1E1,2.1E1,2E0,5.1574428E-2,-1.00823574E-1,7E0,-4.1504625E-2,-1.8262044E-2,1.6355794E-2,-8.4329315E-4,-4.183283E-2,1.3982187E-2,-9.431935E-2,-3.845765E-2,-7.1444227E-3,-4.9511794E-2,-4.7045708E-2,-2.2663759E-2],"split_indices":[1,0,0,1,1,0,0,0,1,1,1,0,0,0,0,0,0,0,0,0,0,0,0,0,0,0,0],"split_type":[0,0,0,0,0,0,0,0,0,0,0,0,0,0,0,0,0,0,0,0,0,0,0,0,0,0,0],"sum_hessian":[7.726E3,7.443E3,2.83E2,6.261E3,1.182E3,9.3E1,1.9E2,5.56E2,5.705E3,9.43E2,2.39E2,7.1E1,2.2E1,5.6E1,1.34E2,2.57E2,2.99E2,3.215E3,2.49E3,3.96E2,5.47E2,7.4E1,1.65E2,2.1E1,5E1,9.1E1,4.3E1],"tree_param":{"num_deleted":"0","num_feature":"2","num_nodes":"27","size_leaf_vector":"1"}},{"base_weights":[-8.1671344E-4,1.4371392E-2,-3.9891335E-1,4.9308725E-2,-1.705753E-1,-1.4329435E-1,-5.226268E-1,-1.7023855E-1,9.37736E-2,-8.531415E-2,-5.052251E-1,-3.360716E-1,4.664125E-2,-9.0918116E-2,-3.555437E-1,-3.3618063E-3,-3.842288E-2,-1.6063975E-2,1.4371151E-2,-3.7660073E-2,1.2586485E-2,-8.501317E-2,-3.4635033E-2,-6.462446E-3,-4.465768E-2,-4.2392273E-2,-2.0448884E-2],"categories":[],"categories_nodes":[],"categories_segments":[],"categories_sizes":[],"default_left":[0,0,0,0,0,0,0,0,0,0,0,0,0,0,0,0,0,0,0,0,0,0,0,0,0,0,0],"id":41,"left_children":[1,3,5,7,9,11,13,15,17,19,21,23,-1,-1,25,-1,-1,-1,-1,-1,-1,-1,-1,-1,-1,-1,-1],"loss_changes":[4.6725754E1,4.8108147E1,8.906193E0,6.1146496E1,3.3711002E1,1.1205283E1,1.2012798E1,3.083048E1,6.619005E1,5.8116245E1,1.2856823E1,2.1308746E0,0E0,0E0,1.307724E0,0E0,0E0,0E0,0E0,0E0,0E0,0E0,0E0,0E0,0E0,0E0,0E0],"parents":[2147483647,0,0,1,1,2,2,3,3,4,4,5,5,6,6,7,7,8,8,9,9,10,10,11,11,14,14],"right_children":[2,4,6,8,10,12,14,16,18,20,22,24,-1,-1,26,-1,-1,-1,-1,-1,-1,-1,-1,-1,-1,-1,-1],"split_conditions":[2.3E1,7E0,4E0,6E0,2E1,3E0,5E0,4E0,2E0,1E1,2.1E1,2E0,4.664125E-2,-9.0918116E-2,7E0,-3.3618063E-3,-3.842288E-2,-1.6063975E-2,1.4371151E-2,-3.7660073E-2,1.2586485E-2,-8.501317E-2,-3.4635033E-2,-6.462446E-3,-4.465768E-2,-4.2392273E-2,-2.0448884E-2],"split_indices":[1,0,0,1,1,0,0,0,0,1,1,0,0,0,0,0,0,0,0,0,0,0,0,0,0,0,0],"split_type":[0,0,0,0,0,0,0,0,0,0,0,0,0,0,0,0,0,0,0,0,0,0,0,0,0,0,0],"sum_hessian":[7.726E3,7.443E3,2.83E2,6.261E3,1.182E3,9.3E1,1.9E2,1.054E3,5.207E3,9.43E2,2.39E2,7.1E1,2.2E1,5.6E1,1.34E2,6.44E2,4.1E2,8.54E2,4.353E3,3.96E2,5.47E2,7.4E1,1.65E2,2.1E1,5E1,9.1E1,4.3E1],"tree_param":{"num_deleted":"0","num_feature":"2","num_nodes":"27","size_leaf_vector":"1"}},{"base_weights":[-7.8010716E-4,6.042549E-2,-8.775624E-2,-2.5157653E-2,4.945616E-1,-7.148472E-1,7.51543E-3,-1.77566E-1,4.322315E-2,1.2204292E0,-2.5631943E-1,-1.4806561E-1,-5.631315E-1,7.113842E-2,-3.107535E-1,2.1200927E-2,-1.02802694E-1,-2.1954997E-2,3.0118946E-2,1.6436285E-1,7.974859E-2,-5.5204626E-2,4.159141E-2,-1.669839E-2,-6.640413E-2,-6.592943E-3,5.284978E-2,-1.4556444E-2,-4.1472267E-2],"categories":[],"categories_nodes":[],"categories_segments":[],"categories_sizes":[],"default_left":[0,0,0,0,0,0,0,0,0,0,0,0,0,0,0,0,0,0,0,0,0,0,0,0,0,0,0,0,0],"id":42,"left_children":[1,3,5,7,9,11,13,15,17,19,21,-1,23,25,27,-1,-1,-1,-1,-1,-1,-1,-1,-1,-1,-1,-1,-1,-1],"loss_changes":[4.1139416E1,1.6854631E2,1.9070824E2,3.9506317E1,4.0745786E2,4.808017E1,5.6152943E1,3.8918594E2,1.7746368E2,6.67052E1,7.338708E1,0E0,1.4000351E1,1.4490973E2,7.874283E0,0E0,0E0,0E0,0E0,0E0,0E0,0E0,0E0,0E0,0E0,0E0,0E0,0E0,0E0],"parents":[2147483647,0,0,1,1,2,2,3,3,4,4,5,5,6,6,7,7,8,8,9,9,10,10,12,12,13,13,14,14],"right_children":[2,4,6,8,10,12,14,16,18,20,22,-1,24,26,28,-1,-1,-1,-1,-1,-1,-1,-1,-1,-1,-1,-1,-1,-1],"split_conditions":[1.7E1,1.5E1,2E0,3E0,5E0,1.8E1,7E0,1E1,9E0,3E0,7E0,-1.4806561E-1,1.9E1,6E0,2E1,2.1200927E-2,-1.02802694E-1,-2.1954997E-2,3.0118946E-2,1.6436285E-1,7.974859E-2,-5.5204626E-2,4.159141E-2,-1.669839E-2,-6.640413E-2,-6.592943E-3,5.284978E-2,-1.4556444E-2,-4.1472267E-2],"split_indices":[1,1,0,0,0,1,0,1,1,0,0,0,1,0,1,0,0,0,0,0,0,0,0,0,0,0,0,0,0],"split_type":[0,0,0,0,0,0,0,0,0,0,0,0,0,0,0,0,0,0,0,0,0,0,0,0,0,0,0,0,0],"sum_hessian":[7.726E3,4.535E3,3.191E3,3.789E3,7.46E2,4.2E2,2.771E3,1.173E3,2.616E3,3.79E2,3.67E2,6.8E1,3.52E2,2.31E3,4.61E2,8.05E2,3.68E2,1.296E3,1.32E3,1.88E2,1.91E2,2.55E2,1.12E2,7.2E1,2.8E2,1.778E3,5.32E2,1.79E2,2.82E2],"tree_param":{"num_deleted":"0","num_feature":"2","num_nodes":"29","size_leaf_vector":"1"}},{"base_weights":[-7.129072E-4,1.2900633E-2,-3.5753852E-1,4.3530952E-2,-1.4924642E-1,-1.09127745E-1,-4.7792113E-1,-2.4294972E-1,7.148858E-2,5.0319785E-1,-1.7668311E-1,-2.7922812E-1,4.281051E-2,-8.13381E-2,-3.3274236E-1,-3.914725E-2,-1.1441031E-2,1.2767441E-2,-2.468853E-3,5.7739764E-2,4.295766E-2,-4.391476E-2,-5.973361E-3,4.9298676E-4,-3.9633106E-2,-4.1940566E-2,-1.4397504E-2],"categories":[],"categories_nodes":[],"categories_segments":[],"categories_sizes":[],"default_left":[0,0,0,0,0,0,0,0,0,0,0,0,0,0,0,0,0,0,0,0,0,0,0,0,0,0,0],"id":43,"left_children":[1,3,5,7,9,11,13,15,17,19,21,23,-1,-1,25,-1,-1,-1,-1,-1,-1,-1,-1,-1,-1,-1,-1],"loss_changes":[3.7539753E1,3.697799E1,8.440674E0,5.0171722E1,2.126568E1,8.70959E0,9.031372E0,1.0588917E1,3.0837173E1,1.4172554E-2,3.4843395E1,2.3978066E0,0E0,0E0,2.1481066E0,0E0,0E0,0E0,0E0,0E0,0E0,0E0,0E0,0E0,0E0,0E0,0E0],"parents":[2147483647,0,0,1,1,2,2,3,3,4,4,5,5,6,6,7,7,8,8,9,9,10,10,11,11,14,14],"right_children":[2,4,6,8,10,12,14,16,18,20,22,24,-1,-1,26,-1,-1,-1,-1,-1,-1,-1,-1,-1,-1,-1,-1],"split_conditions":[2.3E1,7E0,4E0,3E0,2E0,3E0,5E0,3E0,1.8E1,1E0,1E1,2E0,4.281051E-2,-8.13381E-2,7E0,-3.914725E-2,-1.1441031E-2,1.2767441E-2,-2.468853E-3,5.7739764E-2,4.295766E-2,-4.391476E-2,-5.973361E-3,4.9298676E-4,-3.9633106E-2,-4.1940566E-2,-1.4397504E-2],"split_indices":[1,0,0,1,1,0,0,0,1,1,1,0,0,0,0,0,0,0,0,0,0,0,0,0,0,0,0],"split_type":[0,0,0,0,0,0,0,0,0,0,0,0,0,0,0,0,0,0,0,0,0,0,0,0,0,0,0],"sum_hessian":[7.726E3,7.443E3,2.83E2,6.261E3,1.182E3,9.3E1,1.9E2,5.56E2,5.705E3,4.7E1,1.135E3,7.1E1,2.2E1,5.6E1,1.34E2,2.57E2,2.99E2,3.601E3,2.104E3,2E1,2.7E1,3.49E2,7.86E2,2.1E1,5E1,9.1E1,4.3E1],"tree_param":{"num_deleted":"0","num_feature":"2","num_nodes":"27","size_leaf_vector":"1"}},{"base_weights":[-6.5767573E-4,4.6323728E-2,-8.512871E-2,-4.7374997E-2,2.3603258E-1,-3.5438445E-1,8.82323E-2,-1.3721597E-1,7.903472E-2,6.777481E-1,-2.5179687E-1,-7.6946586E-1,-2.7832228E-1,1.9846866E-1,-2.4532507E-1,4.707957E-3,-6.406702E-2,-2.5943672E-2,3.773347E-2,-1.7505607E-2,9.15882E-2,7.9520606E-2,-3.9275404E-2,-1.480786E-2,-1.23885326E-1,2.168539E-2,-3.7868183E-2,2.9314315E-2,-5.1740885E-2,7.930924E-4,-3.6616426E-2],"categories":[],"categories_nodes":[],"categories_segments":[],"categories_sizes":[],"default_left":[0,0,0,0,0,0,0,0,0,0,0,0,0,0,0,0,0,0,0,0,0,0,0,0,0,0,0,0,0,0,0],"id":44,"left_children":[1,3,5,7,9,11,13,15,17,19,21,23,25,27,29,-1,-1,-1,-1,-1,-1,-1,-1,-1,-1,-1,-1,-1,-1,-1,-1],"loss_changes":[3.0669064E1,8.828421E1,1.2895715E2,3.7772114E1,3.539918E2,3.3946747E1,6.1859303E1,1.8040297E2,1.3963293E2,1.7521661E2,1.1557428E2,4.8525658E1,4.5603348E1,8.581969E1,1.2795063E1,0E0,0E0,0E0,0E0,0E0,0E0,0E0,0E0,0E0,0E0,0E0,0E0,0E0,0E0,0E0,0E0],"parents":[2147483647,0,0,1,1,2,2,3,3,4,4,5,5,6,6,7,7,8,8,9,9,10,10,11,11,12,12,13,13,14,14],"right_children":[2,4,6,8,10,12,14,16,18,20,22,24,26,28,30,-1,-1,-1,-1,-1,-1,-1,-1,-1,-1,-1,-1,-1,-1,-1,-1],"split_conditions":[1.8E1,1.3E1,4E0,5E0,5E0,1.9E1,7E0,1E1,8E0,1.4E1,1.4E1,2E0,2E1,2.3E1,2E1,4.707957E-3,-6.406702E-2,-2.5943672E-2,3.773347E-2,-1.7505607E-2,9.15882E-2,7.9520606E-2,-3.9275404E-2,-1.480786E-2,-1.23885326E-1,2.168539E-2,-3.7868183E-2,2.9314315E-2,-5.1740885E-2,7.930924E-4,-3.6616426E-2],"split_indices":[1,1,0,0,0,1,0,1,1,1,1,0,1,1,1,0,0,0,0,0,0,0,0,0,0,0,0,0,0,0,0],"split_type":[0,0,0,0,0,0,0,0,0,0,0,0,0,0,0,0,0,0,0,0,0,0,0,0,0,0,0,0,0,0,0],"sum_hessian":[7.726E3,4.965E3,2.761E3,3.324E3,1.641E3,1.081E3,1.68E3,1.943E3,1.381E3,8.61E2,7.8E2,1.66E2,9.15E2,1.263E3,4.17E2,1.423E3,5.2E2,6.47E2,7.34E2,1.88E2,6.73E2,9.2E1,6.88E2,7.2E1,9.4E1,1.54E2,7.61E2,1.116E3,1.47E2,1.35E2,2.82E2],"tree_param":{"num_deleted":"0","num_feature":"2","num_nodes":"31","size_leaf_vector":"1"}},{"base_weights":[-6.106997E-4,5.0097346E-2,-7.266931E-2,-2.051696E-2,4.08301E-1,-6.3778114E-1,1.3183776E-2,-1.510616E-1,3.805389E-2,9.9494714E-1,-1.9858444E-1,-1.4375807E-1,-4.7963965E-1,6.523136E-2,-2.4719533E-1,1.899346E-2,-8.95484E-2,-1.8643813E-2,2.5843853E-2,7.3056035E-2,1.6714701E-1,-4.706527E-2,4.1954E-2,-1.3347377E-2,-5.67862E-2,-5.6357007E-3,4.709358E-2,-1.1614206E-2,-3.2967728E-2],"categories":[],"categories_nodes":[],"categories_segments":[],"categories_sizes":[],"default_left":[0,0,0,0,0,0,0,0,0,0,0,0,0,0,0,0,0,0,0,0,0,0,0,0,0,0,0,0,0],"id":45,"left_children":[1,3,5,7,9,11,13,15,17,19,21,-1,23,25,27,-1,-1,-1,-1,-1,-1,-1,-1,-1,-1,-1,-1,-1,-1],"loss_changes":[2.8237722E1,1.1474333E2,1.5487338E2,2.8984503E1,2.6614972E2,5.255919E1,3.7582554E1,2.9818433E2,1.295232E2,6.67471E1,6.208477E1,0E0,1.0704674E1,1.1402573E2,4.9557133E0,0E0,0E0,0E0,0E0,0E0,0E0,0E0,0E0,0E0,0E0,0E0,0E0,0E0,0E0],"parents":[2147483647,0,0,1,1,2,2,3,3,4,4,5,5,6,6,7,7,8,8,9,9,10,10,12,12,13,13,14,14],"right_children":[2,4,6,8,10,12,14,16,18,20,22,-1,24,26,28,-1,-1,-1,-1,-1,-1,-1,-1,-1,-1,-1,-1,-1,-1],"split_conditions":[1.7E1,1.5E1,2E0,3E0,5E0,1.8E1,7E0,1E1,9E0,4E0,7E0,-1.4375807E-1,1.9E1,6E0,2E1,1.899346E-2,-8.95484E-2,-1.8643813E-2,2.5843853E-2,7.3056035E-2,1.6714701E-1,-4.706527E-2,4.1954E-2,-1.3347377E-2,-5.67862E-2,-5.6357007E-3,4.709358E-2,-1.1614206E-2,-3.2967728E-2],"split_indices":[1,1,0,0,0,1,0,1,1,0,0,0,1,0,1,0,0,0,0,0,0,0,0,0,0,0,0,0,0],"split_type":[0,0,0,0,0,0,0,0,0,0,0,0,0,0,0,0,0,0,0,0,0,0,0,0,0,0,0,0,0],"sum_hessian":[7.726E3,4.535E3,3.191E3,3.789E3,7.46E2,4.2E2,2.771E3,1.173E3,2.616E3,3.79E2,3.67E2,6.8E1,3.52E2,2.31E3,4.61E2,8.05E2,3.68E2,1.296E3,1.32E3,2.74E2,1.05E2,2.55E2,1.12E2,7.2E1,2.8E2,1.778E3,5.32E2,1.79E2,2.82E2],"tree_param":{"num_deleted":"0","num_feature":"2","num_nodes":"29","size_leaf_vector":"1"}},{"base_weights":[-5.556135E-4,4.5125343E-2,-6.547048E-2,-1.8482232E-2,3.6778608E-1,-5.745108E-1,1.1864099E-2,-7.534458E-2,1.07508376E-1,1.3036628E0,5.070472E-2,-1.2959054E-1,-4.318742E-1,5.8726E-2,-2.2257254E-1,-1.0230249E-3,-6.241956E-2,2.4533665E-2,-1.4031469E-2,1.83513E-1,-2.9575372E-2,-2.7268657E-2,4.6030294E-2,-1.20308995E-2,-5.112777E-2,-5.0724647E-3,4.2393047E-2,-1.0459273E-2,-2.9682621E-2],"categories":[],"categories_nodes":[],"categories_segments":[],"categories_sizes":[],"default_left":[0,0,0,0,0,0,0,0,0,0,0,0,0,0,0,0,0,0,0,0,0,0,0,0,0,0,0,0,0],"id":46,"left_children":[1,3,5,7,9,11,13,15,17,19,21,-1,23,25,27,-1,-1,-1,-1,-1,-1,-1,-1,-1,-1,-1,-1,-1,-1],"loss_changes":[2.2916391E1,9.310216E1,1.2566444E2,2.716012E1,2.2160544E2,4.27601E1,3.0466671E1,9.3341446E1,4.0305557E1,1.6119983E2,7.417094E1,0E0,8.671478E0,9.239648E1,4.0162754E0,0E0,0E0,0E0,0E0,0E0,0E0,0E0,0E0,0E0,0E0,0E0,0E0,0E0,0E0],"parents":[2147483647,0,0,1,1,2,2,3,3,4,4,5,5,6,6,7,7,8,8,9,9,10,10,12,12,13,13,14,14],"right_children":[2,4,6,8,10,12,14,16,18,20,22,-1,24,26,28,-1,-1,-1,-1,-1,-1,-1,-1,-1,-1,-1,-1,-1,-1],"split_conditions":[1.7E1,1.5E1,2E0,1.1E1,3E0,1.8E1,7E0,1E1,6E0,1.6E1,1.6E1,-1.2959054E-1,1.9E1,6E0,2E1,-1.0230249E-3,-6.241956E-2,2.4533665E-2,-1.4031469E-2,1.83513E-1,-2.9575372E-2,-2.7268657E-2,4.6030294E-2,-1.20308995E-2,-5.112777E-2,-5.0724647E-3,4.2393047E-2,-1.0459273E-2,-2.9682621E-2],"split_indices":[1,1,0,1,0,1,0,1,0,1,1,0,1,0,1,0,0,0,0,0,0,0,0,0,0,0,0,0,0],"split_type":[0,0,0,0,0,0,0,0,0,0,0,0,0,0,0,0,0,0,0,0,0,0,0,0,0,0,0,0,0],"sum_hessian":[7.726E3,4.535E3,3.191E3,3.789E3,7.46E2,4.2E2,2.771E3,2.611E3,1.178E3,1.88E2,5.58E2,6.8E1,3.52E2,2.31E3,4.61E2,2.335E3,2.76E2,7.57E2,4.21E2,1.41E2,4.7E1,3.12E2,2.46E2,7.2E1,2.8E2,1.778E3,5.32E2,1.79E2,2.82E2],"tree_param":{"num_deleted":"0","num_feature":"2","num_nodes":"29","size_leaf_vector":"1"}},{"base_weights":[-5.098874E-4,9.992851E-3,-2.7579817E-1,-6.783453E-2,5.2052673E-2,-2.8400183E-2,-3.9611027E-1,-9.207838E-3,-5.62001E-1,1.8780419E-1,-3.7797358E-2,-1.7559563E-1,4.3362036E-2,-5.014171E-1,-3.289391E-3,1.6796203E-2,-1.7141238E-2,-5.62983E-1,5.7906177E-2,3.5488468E-2,-1.200192E-2,-5.5258613E-2,4.425576E-3,1.4361495E-2,-3.0985126E-2,-6.7211665E-2,-3.9020743E-2],"categories":[],"categories_nodes":[],"categories_segments":[],"categories_sizes":[],"default_left":[0,0,0,0,0,0,0,0,0,0,0,0,0,0,0,0,0,0,0,0,0,0,0,0,0,0,0],"id":47,"left_children":[1,3,5,7,9,11,13,15,17,19,21,23,-1,25,-1,-1,-1,-1,-1,-1,-1,-1,-1,-1,-1,-1,-1],"loss_changes":[2.2343683E1,2.4370762E1,8.442001E0,7.566798E1,5.8956547E1,6.4688296E0,7.289093E0,6.716019E1,1.6050708E3,9.904782E1,1.2290069E2,3.1301181E0,0E0,2.547287E0,0E0,0E0,0E0,0E0,0E0,0E0,0E0,0E0,0E0,0E0,0E0,0E0,0E0],"parents":[2147483647,0,0,1,1,2,2,3,3,4,4,5,5,6,6,7,7,8,8,9,9,10,10,11,11,13,13],"right_children":[2,4,6,8,10,12,14,16,18,20,22,24,-1,26,-1,-1,-1,-1,-1,-1,-1,-1,-1,-1,-1,-1,-1],"split_conditions":[2.3E1,1.1E1,4E0,1E1,1.7E1,3E0,7E0,4E0,3E0,6E0,2E0,2E0,4.3362036E-2,5E0,-3.289391E-3,1.6796203E-2,-1.7141238E-2,-5.62983E-1,5.7906177E-2,3.5488468E-2,-1.200192E-2,-5.5258613E-2,4.425576E-3,1.4361495E-2,-3.0985126E-2,-6.7211665E-2,-3.9020743E-2],"split_indices":[1,1,0,1,1,0,0,0,0,0,0,0,0,0,0,0,0,0,0,0,0,0,0,0,0,0,0],"split_type":[0,0,0,0,0,0,0,0,0,0,0,0,0,0,0,0,0,0,0,0,0,0,0,0,0,0,0],"sum_hessian":[7.726E3,7.443E3,2.83E2,2.611E3,4.832E3,9.3E1,1.9E2,2.335E3,2.76E2,1.924E3,2.908E3,7.1E1,2.2E1,1.47E2,4.3E1,1.116E3,1.219E3,5E1,2.26E2,1.247E3,6.77E2,3.99E2,2.509E3,2.1E1,5E1,5.6E1,9.1E1],"tree_param":{"num_deleted":"0","num_feature":"2","num_nodes":"27","size_leaf_vector":"1"}},{"base_weights":[-5.386458E-4,8.92191E-3,-2.4850991E-1,-6.124459E-2,4.684162E-2,-2.527573E-2,-3.5707277E-1,-8.287117E-3,-5.076251E-1,1.6903588E-1,-3.4035243E-2,-1.5826692E-1,3.9214347E-2,-4.5199332E-1,-2.967921E-3,1.5118094E-2,-1.54285105E-2,-5.077886E-1,5.2140977E-2,3.6360323E-2,-4.7477614E-3,-4.9746577E-2,3.9831786E-3,1.29906405E-2,-2.794737E-2,-6.0608417E-2,-3.5161104E-2],"categories":[],"categories_nodes":[],"categories_segments":[],"categories_sizes":[],"default_left":[0,0,0,0,0,0,0,0,0,0,0,0,0,0,0,0,0,0,0,0,0,0,0,0,0,0,0],"id":48,"left_children":[1,3,5,7,9,11,13,15,17,19,21,23,-1,25,-1,-1,-1,-1,-1,-1,-1,-1,-1,-1,-1,-1,-1],"loss_changes":[1.8129343E1,1.9809069E1,6.8736973E0,6.174135E1,4.776879E1,5.2802925E0,5.9221725E0,5.441011E1,1.305367E3,8.111067E1,9.960139E1,2.551162E0,0E0,2.0761585E0,0E0,0E0,0E0,0E0,0E0,0E0,0E0,0E0,0E0,0E0,0E0,0E0,0E0],"parents":[2147483647,0,0,1,1,2,2,3,3,4,4,5,5,6,6,7,7,8,8,9,9,10,10,11,11,13,13],"right_children":[2,4,6,8,10,12,14,16,18,20,22,24,-1,26,-1,-1,-1,-1,-1,-1,-1,-1,-1,-1,-1,-1,-1],"split_conditions":[2.3E1,1.1E1,4E0,1E1,1.7E1,3E0,7E0,4E0,3E0,5E0,2E0,2E0,3.9214347E-2,5E0,-2.967921E-3,1.5118094E-2,-1.54285105E-2,-5.077886E-1,5.2140977E-2,3.6360323E-2,-4.7477614E-3,-4.9746577E-2,3.9831786E-3,1.29906405E-2,-2.794737E-2,-6.0608417E-2,-3.5161104E-2],"split_indices":[1,1,0,1,1,0,0,0,0,0,0,0,0,0,0,0,0,0,0,0,0,0,0,0,0,0,0],"split_type":[0,0,0,0,0,0,0,0,0,0,0,0,0,0,0,0,0,0,0,0,0,0,0,0,0,0,0],"sum_hessian":[7.726E3,7.443E3,2.83E2,2.611E3,4.832E3,9.3E1,1.9E2,2.335E3,2.76E2,1.924E3,2.908E3,7.1E1,2.2E1,1.47E2,4.3E1,1.116E3,1.219E3,5E1,2.26E2,1.013E3,9.11E2,3.99E2,2.509E3,2.1E1,5E1,5.6E1,9.1E1],"tree_param":{"num_deleted":"0","num_feature":"2","num_nodes":"27","size_leaf_vector":"1"}},{"base_weights":[-5.5521255E-4,-1.6862269E-1,1.12701105E-2,-3.011412E-1,2.8686357E-1,3.785384E-2,-1.2497262E-1,-5.2442056E-1,-2.3138583E-1,1.09941065E-1,5.3152747E-2,6.1443787E-2,-1.22308664E-1,-3.434005E-1,-3.2713898E-2,-4.1375887E-2,-6.1954595E-2,-3.8163524E-2,-1.3022338E-2,3.353756E-2,2.079355E-4,-2.9701667E-4,1.10726645E-2,-2.4623618E-2,4.2798754E-2,3.1644013E-3,-7.838667E-2,1.0120477E-1,-1.2727536E-2],"categories":[],"categories_nodes":[],"categories_segments":[],"categories_sizes":[],"default_left":[0,0,0,0,0,0,0,0,0,0,0,0,0,0,0,0,0,0,0,0,0,0,0,0,0,0,0,0,0],"id":49,"left_children":[1,3,5,7,9,11,13,15,17,19,-1,21,23,25,27,-1,-1,-1,-1,-1,-1,-1,-1,-1,-1,-1,-1,-1,-1],"loss_changes":[1.5358942E1,3.0749453E1,2.6154417E1,6.0151787E0,4.9195147E0,2.2835548E1,2.3747828E1,7.226448E-1,4.5405827E0,1.652774E0,0E0,1.6720438E1,5.3026127E1,5.7842857E1,8.212798E1,0E0,0E0,0E0,0E0,0E0,0E0,0E0,0E0,0E0,0E0,0E0,0E0,0E0,0E0],"parents":[2147483647,0,0,1,1,2,2,3,3,4,4,5,5,6,6,7,7,8,8,9,9,11,11,12,12,13,13,14,14],"right_children":[2,4,6,8,10,12,14,16,18,20,-1,22,24,26,28,-1,-1,-1,-1,-1,-1,-1,-1,-1,-1,-1,-1,-1,-1],"split_conditions":[2E0,6E0,7E0,1E0,7E0,2.2E1,1E1,2E0,3E0,1E0,5.3152747E-2,1.3E1,6E0,5E0,1.1E1,-4.1375887E-2,-6.1954595E-2,-3.8163524E-2,-1.3022338E-2,3.353756E-2,2.079355E-4,-2.9701667E-4,1.10726645E-2,-2.4623618E-2,4.2798754E-2,3.1644013E-3,-7.838667E-2,1.0120477E-1,-1.2727536E-2],"split_indices":[1,0,0,1,0,1,1,0,0,1,0,1,0,1,1,0,0,0,0,0,0,0,0,0,0,0,0,0,0],"split_type":[0,0,0,0,0,0,0,0,0,0,0,0,0,0,0,0,0,0,0,0,0,0,0,0,0,0,0,0,0],"sum_hessian":[7.726E3,5.07E2,7.219E3,3.93E2,1.14E2,6.041E3,1.178E3,9.2E1,3.01E2,6.7E1,4.7E1,5.266E3,7.75E2,3.49E2,8.29E2,4.5E1,4.7E1,1.2E2,1.81E2,2.1E1,4.6E1,2.283E3,2.983E3,6.33E2,1.42E2,1.89E2,1.6E2,6.8E1,7.61E2],"tree_param":{"num_deleted":"0","num_feature":"2","num_nodes":"29","size_leaf_vector":"1"}}]},"name":"gbtree"},"learner_model_param":{"base_score":"[1.3575848E1]","boost_from_average":"1","num_class":"0","num_feature":"2","num_target":"1"},"objective":{"name":"reg:squarederror","reg_loss_param":{"scale_pos_weight":"1"}}},"version":[3,2,0]}