{"learner":{"attributes":{},"feature_names":["day_of_week","hour_of_day"],"feature_types":[],"gradient_booster":{"model":{"cats":{"enc":[],"feature_segments":[],"sorted_idx":[]},"gbtree_model_param":{"num_parallel_tree":"1","num_trees":"50"},"iteration_indptr":[0,1,2,3,4,5,6,7,8,9,10,11,12,13,14,15,16,17,18,19,20,21,22,23,24,25,26,27,28,29,30,31,32,33,34,35,36,37,38,39,40,41,42,43,44,45,46,47,48,49,50],"tree_info":[0,0,0,0,0,0,0,0,0,0,0,0,0,0,0,0,0,0,0,0,0,0,0,0,0,0,0,0,0,0,0,0,0,0,0,0,0,0,0,0,0,0,0,0,0,0,0,0,0,0],"trees":[{"base_weights":[-1.9885476E-7,-1.0355289E1,1.227502E0,-1.1114168E1,-6.466811E0,3.508477E0,-4.938577E0,-1.1951698E0,-9.212608E-1,-3.625767E-1,-9.0250266E-1,2.1413524E-1,4.024673E0,-2.5630982E0,-7.963021E0,2.8845638E-1,-5.437407E-1,4.8500028E-1,6.341147E-2,-5.021321E-1,-6.019299E-2,-1.0340762E0,-6.230816E-1],"categories":[],"categories_nodes":[],"categories_segments":[],"categories_sizes":[],"default_left":[0,0,0,0,0,0,0,0,0,0,0,0,0,0,0,0,0,0,0,0,0,0,0],"id":0,"left_children":[1,3,5,7,9,11,13,-1,-1,-1,-1,15,17,19,21,-1,-1,-1,-1,-1,-1,-1,-1],"loss_changes":[7.316532E4,1.728168E3,7.2394125E4,7.0053906E2,7.086133E2,6.3880156E3,9.966047E3,0E0,0E0,0E0,0E0,7.712624E3,9.085898E3,3.757349E3,2.4521133E3,0E0,0E0,0E0,0E0,0E0,0E0,0E0,0E0],"parents":[2147483647,0,0,1,1,2,2,3,3,4,4,5,5,6,6,11,11,12,12,13,13,14,14],"right_children":[2,4,6,8,10,12,14,-1,-1,-1,-1,16,18,20,22,-1,-1,-1,-1,-1,-1,-1,-1],"split_conditions":[4E0,3E0,2E1,6E0,6E0,7E0,2.2E1,-1.1951698E0,-9.212608E-1,-3.625767E-1,-9.0250266E-1,6E0,1.8E1,4E0,4E0,2.8845638E-1,-5.437407E-1,4.8500028E-1,6.341147E-2,-5.021321E-1,-6.019299E-2,-1.0340762E0,-6.230816E-1],"split_indices":[1,1,1,0,0,1,1,0,0,0,0,0,1,0,0,0,0,0,0,0,0,0,0],"split_type":[0,0,0,0,0,0,0,0,0,0,0,0,0,0,0,0,0,0,0,0,0,0,0],"sum_hessian":[5.754E3,6.09E2,5.145E3,5.08E2,1.01E2,3.756E3,1.389E3,3.49E2,1.59E2,4.9E1,5.2E1,5.09E2,3.247E3,7.79E2,6.1E2,3.46E2,1.63E2,2.611E3,6.36E2,3.45E2,4.34E2,2.55E2,3.55E2],"tree_param":{"num_deleted":"0","num_feature":"2","num_nodes":"23","size_leaf_vector":"1"}},{"base_weights":[-9.226508E-4,-9.325304E0,1.1043773E0,-1.0006909E1,-5.8325324E0,3.482641E0,-3.7016478E0,-1.0759944E0,-8.297105E-1,-3.270442E-1,-8.139551E-1,1.9222127E-1,4.0534086E0,-1.761504E0,-7.169431E0,2.5969392E-1,-4.8969817E-1,4.3651882E-1,1.5195961E-1,-3.7929705E-1,-2.8158678E-2,-9.3107253E-1,-5.6094855E-1],"categories":[],"categories_nodes":[],"categories_segments":[],"categories_sizes":[],"default_left":[0,0,0,0,0,0,0,0,0,0,0,0,0,0,0,0,0,0,0,0,0,0,0],"id":1,"left_children":[1,3,5,7,9,11,13,-1,-1,-1,-1,15,17,19,21,-1,-1,-1,-1,-1,-1,-1,-1],"loss_changes":[5.9322703E4,1.3938555E3,5.8831645E4,5.6608203E2,5.76281E2,6.4653984E3,1.1451879E4,0E0,0E0,0E0,0E0,6.254146E3,2.3112031E3,3.2879363E3,1.9886973E3,0E0,0E0,0E0,0E0,0E0,0E0,0E0,0E0],"parents":[2147483647,0,0,1,1,2,2,3,3,4,4,5,5,6,6,11,11,12,12,13,13,14,14],"right_children":[2,4,6,8,10,12,14,-1,-1,-1,-1,16,18,20,22,-1,-1,-1,-1,-1,-1,-1,-1],"split_conditions":[4E0,3E0,1.9E1,6E0,6E0,7E0,2.2E1,-1.0759944E0,-8.297105E-1,-3.270442E-1,-8.139551E-1,6E0,1.8E1,4E0,4E0,2.5969392E-1,-4.8969817E-1,4.3651882E-1,1.5195961E-1,-3.7929705E-1,-2.8158678E-2,-9.3107253E-1,-5.6094855E-1],"split_indices":[1,1,1,0,0,1,1,0,0,0,0,0,1,0,0,0,0,0,0,0,0,0,0],"split_type":[0,0,0,0,0,0,0,0,0,0,0,0,0,0,0,0,0,0,0,0,0,0,0],"sum_hessian":[5.754E3,6.09E2,5.145E3,5.08E2,1.01E2,3.442E3,1.703E3,3.49E2,1.59E2,4.9E1,5.2E1,5.09E2,2.933E3,1.093E3,6.1E2,3.46E2,1.63E2,2.611E3,3.22E2,4.6E2,6.33E2,2.55E2,3.55E2],"tree_param":{"num_deleted":"0","num_feature":"2","num_nodes":"23","size_leaf_vector":"1"}},{"base_weights":[-1.6274019E-3,-8.397768E0,9.936403E-1,-9.009963E0,-5.260465E0,2.5415976E0,-5.0400677E0,-9.687023E-1,-7.4725807E-1,-2.9499382E-1,-7.340954E-1,3.3162835E0,6.174551E-2,-3.068365E0,-6.4549303E0,1.7254803E-2,3.9288366E-1,-1.8093473E-1,1.4203276E-1,-5.0568825E-1,-1.5569103E-1,-8.38329E-1,-5.0501126E-1],"categories":[],"categories_nodes":[],"categories_segments":[],"categories_sizes":[],"default_left":[0,0,0,0,0,0,0,0,0,0,0,0,0,0,0,0,0,0,0,0,0,0,0],"id":2,"left_children":[1,3,5,7,9,11,13,-1,-1,-1,-1,15,17,19,21,-1,-1,-1,-1,-1,-1,-1,-1],"loss_changes":[4.809947E4,1.1241914E3,4.8076055E4,4.574336E2,4.6866113E2,7.8686484E3,2.9121543E3,0E0,0E0,0E0,0E0,6.0094453E3,2.483594E3,1.3175762E3,1.6128594E3,0E0,0E0,0E0,0E0,0E0,0E0,0E0,0E0],"parents":[2147483647,0,0,1,1,2,2,3,3,4,4,5,5,6,6,11,11,12,12,13,13,14,14],"right_children":[2,4,6,8,10,12,14,-1,-1,-1,-1,16,18,20,22,-1,-1,-1,-1,-1,-1,-1,-1],"split_conditions":[4E0,3E0,2.1E1,6E0,6E0,1.8E1,2.2E1,-9.687023E-1,-7.4725807E-1,-2.9499382E-1,-7.340954E-1,7E0,4E0,4E0,4E0,1.7254803E-2,3.9288366E-1,-1.8093473E-1,1.4203276E-1,-5.0568825E-1,-1.5569103E-1,-8.38329E-1,-5.0501126E-1],"split_indices":[1,1,1,0,0,1,1,0,0,0,0,1,0,0,0,0,0,0,0,0,0,0,0],"split_type":[0,0,0,0,0,0,0,0,0,0,0,0,0,0,0,0,0,0,0,0,0,0,0],"sum_hessian":[5.754E3,6.09E2,5.145E3,5.08E2,1.01E2,4.095E3,1.05E3,3.49E2,1.59E2,4.9E1,5.2E1,3.12E3,9.75E2,4.4E2,6.1E2,5.09E2,2.611E3,4.1E2,5.65E2,1.89E2,2.51E2,2.55E2,3.55E2],"tree_param":{"num_deleted":"0","num_feature":"2","num_nodes":"23","size_leaf_vector":"1"}},{"base_weights":[-2.2252402E-3,-7.5624914E0,8.939591E-1,-8.112338E0,-4.7445083E0,2.5741584E0,-3.6480577E0,-8.7210894E-1,-6.729993E-1,-2.6608446E0,-6.6207093E-1,1.5532713E-1,2.9531703E0,-1.9485781E0,-5.8116355E0,-2.2449417E-1,-2.9869497E-1,2.3207882E-1,-4.4274187E-1,3.5361037E-1,5.5823244E-2,-3.7846324E-1,-4.8369687E-2,-7.5482357E-1,-4.5465198E-1],"categories":[],"categories_nodes":[],"categories_segments":[],"categories_sizes":[],"default_left":[0,0,0,0,0,0,0,0,0,0,0,0,0,0,0,0,0,0,0,0,0,0,0,0,0],"id":3,"left_children":[1,3,5,7,9,11,13,-1,-1,15,-1,17,19,21,23,-1,-1,-1,-1,-1,-1,-1,-1,-1,-1],"loss_changes":[3.8999145E4,9.066797E2,3.928106E4,3.696328E2,3.8113916E2,3.44383E3,5.0996465E3,0E0,0E0,7.58667E-2,0E0,5.0713916E3,4.5325215E3,2.0960583E3,1.3080488E3,0E0,0E0,0E0,0E0,0E0,0E0,0E0,0E0,0E0,0E0],"parents":[2147483647,0,0,1,1,2,2,3,3,4,4,5,5,6,6,9,9,11,11,12,12,13,13,14,14],"right_children":[2,4,6,8,10,12,14,-1,-1,16,-1,18,20,22,24,-1,-1,-1,-1,-1,-1,-1,-1,-1,-1],"split_conditions":[4E0,3E0,2E1,6E0,6E0,7E0,2.2E1,-8.7210894E-1,-6.729993E-1,2E0,-6.6207093E-1,6E0,1.8E1,4E0,4E0,-2.2449417E-1,-2.9869497E-1,2.3207882E-1,-4.4274187E-1,3.5361037E-1,5.5823244E-2,-3.7846324E-1,-4.8369687E-2,-7.5482357E-1,-4.5465198E-1],"split_indices":[1,1,1,0,0,1,1,0,0,0,0,0,1,0,0,0,0,0,0,0,0,0,0,0,0],"split_type":[0,0,0,0,0,0,0,0,0,0,0,0,0,0,0,0,0,0,0,0,0,0,0,0,0],"sum_hessian":[5.754E3,6.09E2,5.145E3,5.08E2,1.01E2,3.756E3,1.389E3,3.49E2,1.59E2,4.9E1,5.2E1,5.09E2,3.247E3,7.79E2,6.1E2,2.5E1,2.4E1,3.46E2,1.63E2,2.611E3,6.36E2,3.45E2,4.34E2,2.55E2,3.55E2],"tree_param":{"num_deleted":"0","num_feature":"2","num_nodes":"25","size_leaf_vector":"1"}},{"base_weights":[-2.7269367E-3,-6.8107185E0,8.0428386E-1,-7.30414E0,-4.2816772E0,2.0680413E0,-4.121649E0,-7.8514725E-1,-6.0612E-1,-2.405224E0,-5.97113E-1,2.5579996E0,-5.1451796E-1,-5.6934185E0,-2.9625728E0,-2.029082E-1,-2.700203E-1,-3.3934202E-2,2.9133108E-1,-1.88096E-1,4.57249E-2,-4.1773844E-1,-6.79636E-1,-1.7661265E-1,-6.294107E-1],"categories":[],"categories_nodes":[],"categories_segments":[],"categories_sizes":[],"default_left":[0,0,0,0,0,0,0,0,0,0,0,0,0,0,0,0,0,0,0,0,0,0,0,0,0],"id":4,"left_children":[1,3,5,7,9,11,13,-1,-1,15,-1,17,19,21,23,-1,-1,-1,-1,-1,-1,-1,-1,-1,-1],"loss_changes":[3.1624154E4,7.299336E2,3.2043326E4,2.986836E2,3.0899634E2,5.184174E3,1.8978457E3,0E0,0E0,6.87561E-2,0E0,3.545412E3,8.6928253E2,7.156924E2,2.4083867E3,0E0,0E0,0E0,0E0,0E0,0E0,0E0,0E0,0E0,0E0],"parents":[2147483647,0,0,1,1,2,2,3,3,4,4,5,5,6,6,9,9,11,11,12,12,13,13,14,14],"right_children":[2,4,6,8,10,12,14,-1,-1,16,-1,18,20,22,24,-1,-1,-1,-1,-1,-1,-1,-1,-1,-1],"split_conditions":[4E0,3E0,2.1E1,6E0,6E0,1.9E1,4E0,-7.8514725E-1,-6.0612E-1,2E0,-5.97113E-1,5E0,4E0,2.2E1,7E0,-2.029082E-1,-2.700203E-1,-3.3934202E-2,2.9133108E-1,-1.88096E-1,4.57249E-2,-4.1773844E-1,-6.79636E-1,-1.7661265E-1,-6.294107E-1],"split_indices":[1,1,1,0,0,1,0,0,0,0,0,1,0,1,0,0,0,0,0,0,0,0,0,0,0],"split_type":[0,0,0,0,0,0,0,0,0,0,0,0,0,0,0,0,0,0,0,0,0,0,0,0,0],"sum_hessian":[5.754E3,6.09E2,5.145E3,5.08E2,1.01E2,4.095E3,1.05E3,3.49E2,1.59E2,4.9E1,5.2E1,3.442E3,6.53E2,4.44E2,6.06E2,2.5E1,2.4E1,3.76E2,3.066E3,2.71E2,3.82E2,1.89E2,2.55E2,4.47E2,1.59E2],"tree_param":{"num_deleted":"0","num_feature":"2","num_nodes":"25","size_leaf_vector":"1"}},{"base_weights":[-3.192775E-3,-6.1336813E0,7.235078E-1,-6.576459E0,-3.8640003E0,1.8612652E0,-3.711295E0,-7.068568E-1,-5.4588675E-1,-2.17416E0,-5.385284E-1,2.434302E0,2.6931588E-2,-3.1364627E0,-6.692749E0,-1.8339778E-1,-2.4409834E-1,2.868524E-1,-1.696741E-2,-1.4942054E-1,1.1314552E-1,-4.862834E-1,-1.7291276E-1,-6.1104983E-1,-8.0332035E-1],"categories":[],"categories_nodes":[],"categories_segments":[],"categories_sizes":[],"default_left":[0,0,0,0,0,0,0,0,0,0,0,0,0,0,0,0,0,0,0,0,0,0,0,0,0],"id":5,"left_children":[1,3,5,7,9,11,13,-1,-1,15,-1,17,19,21,23,-1,-1,-1,-1,-1,-1,-1,-1,-1,-1],"loss_changes":[2.5643133E4,5.8761523E2,2.597223E4,2.4135156E2,2.505055E2,4.305407E3,1.780251E3,0E0,0E0,6.17218E-2,0E0,3.5294102E3,1.6414989E3,2.136913E3,8.281494E1,0E0,0E0,0E0,0E0,0E0,0E0,0E0,0E0,0E0,0E0],"parents":[2147483647,0,0,1,1,2,2,3,3,4,4,5,5,6,6,9,9,11,11,12,12,13,13,14,14],"right_children":[2,4,6,8,10,12,14,-1,-1,16,-1,18,20,22,24,-1,-1,-1,-1,-1,-1,-1,-1,-1,-1],"split_conditions":[4E0,3E0,2.1E1,6E0,6E0,1.8E1,2.3E1,-7.068568E-1,-5.4588675E-1,2E0,-5.385284E-1,7E0,4E0,4E0,7E0,-1.8339778E-1,-2.4409834E-1,2.868524E-1,-1.696741E-2,-1.4942054E-1,1.1314552E-1,-4.862834E-1,-1.7291276E-1,-6.1104983E-1,-8.0332035E-1],"split_indices":[1,1,1,0,0,1,1,0,0,0,0,0,0,0,0,0,0,0,0,0,0,0,0,0,0],"split_type":[0,0,0,0,0,0,0,0,0,0,0,0,0,0,0,0,0,0,0,0,0,0,0,0,0],"sum_hessian":[5.754E3,6.09E2,5.145E3,5.08E2,1.01E2,4.095E3,1.05E3,3.49E2,1.59E2,4.9E1,5.2E1,3.12E3,9.75E2,8.82E2,1.68E2,2.5E1,2.4E1,2.674E3,4.46E2,4.1E2,5.65E2,3.95E2,4.87E2,1.21E2,4.7E1],"tree_param":{"num_deleted":"0","num_feature":"2","num_nodes":"25","size_leaf_vector":"1"}},{"base_weights":[-3.5789385E-3,-5.5239506E0,6.507993E-1,-5.921274E0,-3.4870708E0,2.081707E0,-2.2407887E0,-6.363731E-1,-4.9163923E-1,-1.9652935E0,-4.856916E-1,-1.5854724E-1,2.4704077E0,-1.052249E0,-4.3652105E0,-1.6576333E-1,-2.2066486E-1,1.7762604E-1,-4.2513505E-1,2.690634E-1,1.167547E-1,-2.2624664E-1,-1.7060453E-2,-5.611114E-1,-3.4570178E-1],"categories":[],"categories_nodes":[],"categories_segments":[],"categories_sizes":[],"default_left":[0,0,0,0,0,0,0,0,0,0,0,0,0,0,0,0,0,0,0,0,0,0,0,0,0],"id":6,"left_children":[1,3,5,7,9,11,13,-1,-1,15,-1,17,19,21,23,-1,-1,-1,-1,-1,-1,-1,-1,-1,-1],"loss_changes":[2.0793018E4,4.730254E2,2.129673E4,1.9502344E2,2.0308386E2,2.9985166E3,4.2979385E3,0E0,0E0,5.496216E-2,0E0,4.046132E3,8.386953E2,1.1668917E3,6.7196094E2,0E0,0E0,0E0,0E0,0E0,0E0,0E0,0E0,0E0,0E0],"parents":[2147483647,0,0,1,1,2,2,3,3,4,4,5,5,6,6,9,9,11,11,12,12,13,13,14,14],"right_children":[2,4,6,8,10,12,14,-1,-1,16,-1,18,20,22,24,-1,-1,-1,-1,-1,-1,-1,-1,-1,-1],"split_conditions":[4E0,3E0,1.9E1,6E0,6E0,7E0,2.2E1,-6.363731E-1,-4.9163923E-1,2E0,-4.856916E-1,6E0,7E0,4E0,4E0,-1.6576333E-1,-2.2066486E-1,1.7762604E-1,-4.2513505E-1,2.690634E-1,1.167547E-1,-2.2624664E-1,-1.7060453E-2,-5.611114E-1,-3.4570178E-1],"split_indices":[1,1,1,0,0,1,1,0,0,0,0,0,0,0,0,0,0,0,0,0,0,0,0,0,0],"split_type":[0,0,0,0,0,0,0,0,0,0,0,0,0,0,0,0,0,0,0,0,0,0,0,0,0],"sum_hessian":[5.754E3,6.09E2,5.145E3,5.08E2,1.01E2,3.442E3,1.703E3,3.49E2,1.59E2,4.9E1,5.2E1,5.09E2,2.933E3,1.093E3,6.1E2,2.5E1,2.4E1,3.46E2,1.63E2,2.508E3,4.25E2,4.6E2,6.33E2,2.55E2,3.55E2],"tree_param":{"num_deleted":"0","num_feature":"2","num_nodes":"25","size_leaf_vector":"1"}},{"base_weights":[-3.7445151E-3,-4.9748344E0,5.855226E-1,-5.3313627E0,-3.1469138E0,1.5168058E0,-3.0444694E0,-5.646958E-1,-4.1754127E-1,-1.776493E0,-4.3803883E-1,1.9869179E0,1.1952682E-2,-2.546986E0,-5.625731E0,-1.4982459E-1,-1.9948103E-1,-5.8058966E-2,2.3388171E-1,-1.2869655E-1,9.551388E-2,-3.9779058E-1,-1.3806108E-1,-5.0750726E-1,-6.9081193E-1],"categories":[],"categories_nodes":[],"categories_segments":[],"categories_sizes":[],"default_left":[0,0,0,0,0,0,0,0,0,0,0,0,0,0,0,0,0,0,0,0,0,0,0,0,0],"id":7,"left_children":[1,3,5,7,9,11,13,-1,-1,15,-1,17,19,21,23,-1,-1,-1,-1,-1,-1,-1,-1,-1,-1],"loss_changes":[1.6861033E4,3.8076367E2,1.740093E4,1.6211133E2,1.6463696E2,2.8976895E3,1.3352969E3,0E0,0E0,4.8583984E-2,0E0,2.8211953E3,1.1969478E3,1.4682261E3,8.428125E1,0E0,0E0,0E0,0E0,0E0,0E0,0E0,0E0,0E0,0E0],"parents":[2147483647,0,0,1,1,2,2,3,3,4,4,5,5,6,6,9,9,11,11,12,12,13,13,14,14],"right_children":[2,4,6,8,10,12,14,-1,-1,16,-1,18,20,22,24,-1,-1,-1,-1,-1,-1,-1,-1,-1,-1],"split_conditions":[4E0,3E0,2.1E1,7E0,6E0,1.8E1,2.3E1,-5.646958E-1,-4.1754127E-1,2E0,-4.3803883E-1,5E0,4E0,4E0,7E0,-1.4982459E-1,-1.9948103E-1,-5.8058966E-2,2.3388171E-1,-1.2869655E-1,9.551388E-2,-3.9779058E-1,-1.3806108E-1,-5.0750726E-1,-6.9081193E-1],"split_indices":[1,1,1,0,0,1,1,0,0,0,0,1,0,0,0,0,0,0,0,0,0,0,0,0,0],"split_type":[0,0,0,0,0,0,0,0,0,0,0,0,0,0,0,0,0,0,0,0,0,0,0,0,0],"sum_hessian":[5.754E3,6.09E2,5.145E3,5.08E2,1.01E2,4.095E3,1.05E3,3.96E2,1.12E2,4.9E1,5.2E1,3.12E3,9.75E2,8.82E2,1.68E2,2.5E1,2.4E1,3.76E2,2.744E3,4.1E2,5.65E2,3.95E2,4.87E2,1.21E2,4.7E1],"tree_param":{"num_deleted":"0","num_feature":"2","num_nodes":"25","size_leaf_vector":"1"}},{"base_weights":[-3.953885E-3,-4.480252E0,5.266613E-1,-4.800156E0,-2.8399417E0,1.6936371E0,-1.831569E0,-5.166094E-1,-3.969668E-1,-1.60583E0,-3.950614E-1,-5.22685E-1,1.9655184E0,-8.483194E-1,-3.5890868E0,-1.3541843E-1,-1.8033084E-1,8.5581705E-2,-4.56659E-1,2.2201596E-1,4.680241E-2,-2.8628123E-1,-4.8744306E-2,-3.16121E-1,-5.968509E-1],"categories":[],"categories_nodes":[],"categories_segments":[],"categories_sizes":[],"default_left":[0,0,0,0,0,0,0,0,0,0,0,0,0,0,0,0,0,0,0,0,0,0,0,0,0],"id":8,"left_children":[1,3,5,7,9,11,13,-1,-1,15,-1,17,19,21,23,-1,-1,-1,-1,-1,-1,-1,-1,-1,-1],"loss_changes":[1.3671588E4,3.0646094E2,1.4164881E4,1.3418066E2,1.3346674E2,2.0756992E3,2.9416016E3,0E0,0E0,4.272461E-2,0E0,2.1055063E3,1.1684805E3,7.939239E2,6.031909E2,0E0,0E0,0E0,0E0,0E0,0E0,0E0,0E0,0E0,0E0],"parents":[2147483647,0,0,1,1,2,2,3,3,4,4,5,5,6,6,9,9,11,11,12,12,13,13,14,14],"right_children":[2,4,6,8,10,12,14,-1,-1,16,-1,18,20,22,24,-1,-1,-1,-1,-1,-1,-1,-1,-1,-1],"split_conditions":[4E0,3E0,1.9E1,6E0,6E0,5E0,2.2E1,-5.166094E-1,-3.969668E-1,2E0,-3.950614E-1,5E0,7E0,2E0,7E0,-1.3541843E-1,-1.8033084E-1,8.5581705E-2,-4.56659E-1,2.2201596E-1,4.680241E-2,-2.8628123E-1,-4.8744306E-2,-3.16121E-1,-5.968509E-1],"split_indices":[1,1,1,0,0,1,1,0,0,0,0,0,0,0,0,0,0,0,0,0,0,0,0,0,0],"split_type":[0,0,0,0,0,0,0,0,0,0,0,0,0,0,0,0,0,0,0,0,0,0,0,0,0],"sum_hessian":[5.754E3,6.09E2,5.145E3,5.08E2,1.01E2,3.442E3,1.703E3,3.49E2,1.59E2,4.9E1,5.2E1,3.76E2,3.066E3,1.093E3,6.1E2,2.5E1,2.4E1,2.81E2,9.5E1,2.62E3,4.46E2,1.65E2,9.28E2,5.19E2,9.1E1],"tree_param":{"num_deleted":"0","num_feature":"2","num_nodes":"25","size_leaf_vector":"1"}},{"base_weights":[-4.075182E-3,-4.0348897E0,4.7373298E-1,-4.3219357E0,-2.562916E0,1.2358208E0,-2.4967573E0,-4.58254E-1,-3.3681127E-1,-1.4515616E0,-3.5630068E-1,1.6217927E0,3.1449168E-4,-2.0764694E0,-4.6779246E0,-1.2239738E-1,-1.6301905E-1,1.9572304E-1,-3.892095E-2,-1.148934E-1,8.34839E-2,-3.3490202E-1,-1.0395708E-1,-5.4194874E-1,-4.0285984E-1],"categories":[],"categories_nodes":[],"categories_segments":[],"categories_sizes":[],"default_left":[0,0,0,0,0,0,0,0,0,0,0,0,0,0,0,0,0,0,0,0,0,0,0,0,0],"id":9,"left_children":[1,3,5,7,9,11,13,-1,-1,15,-1,17,19,21,23,-1,-1,-1,-1,-1,-1,-1,-1,-1,-1],"loss_changes":[1.1085788E4,2.4666406E2,1.1652467E4,1.1108789E2,1.0819653E2,1.9532617E3,9.537573E2,0E0,0E0,3.7376404E-2,0E0,2.106082E3,9.3701733E2,1.1616423E3,5.9543457E1,0E0,0E0,0E0,0E0,0E0,0E0,0E0,0E0,0E0,0E0],"parents":[2147483647,0,0,1,1,2,2,3,3,4,4,5,5,6,6,9,9,11,11,12,12,13,13,14,14],"right_children":[2,4,6,8,10,12,14,-1,-1,16,-1,18,20,22,24,-1,-1,-1,-1,-1,-1,-1,-1,-1,-1],"split_conditions":[4E0,3E0,2.1E1,7E0,6E0,1.8E1,2.3E1,-4.58254E-1,-3.3681127E-1,2E0,-3.5630068E-1,7E0,4E0,4E0,5E0,-1.2239738E-1,-1.6301905E-1,1.9572304E-1,-3.892095E-2,-1.148934E-1,8.34839E-2,-3.3490202E-1,-1.0395708E-1,-5.4194874E-1,-4.0285984E-1],"split_indices":[1,1,1,0,0,1,1,0,0,0,0,0,0,0,0,0,0,0,0,0,0,0,0,0,0],"split_type":[0,0,0,0,0,0,0,0,0,0,0,0,0,0,0,0,0,0,0,0,0,0,0,0,0],"sum_hessian":[5.754E3,6.09E2,5.145E3,5.08E2,1.01E2,4.095E3,1.05E3,3.96E2,1.12E2,4.9E1,5.2E1,3.12E3,9.75E2,8.82E2,1.68E2,2.5E1,2.4E1,2.674E3,4.46E2,4.1E2,5.65E2,3.95E2,4.87E2,7.5E1,9.3E1],"tree_param":{"num_deleted":"0","num_feature":"2","num_nodes":"25","size_leaf_vector":"1"}},{"base_weights":[-4.1357335E-3,-3.6337562E0,4.2611545E-1,-3.8913043E0,-2.3129156E0,1.1122696E0,-2.248398E0,-4.1940155E0,-3.204802E-1,-1.3121136E0,-3.2134286E-1,1.4596641E0,2.508183E-4,-1.8693196E0,-4.215723E0,-4.3068132E-1,-3.6433905E-1,-1.1062839E-1,-1.473692E-1,4.043022E-2,2.1001725E-1,-1.0343206E-1,7.515028E-2,-3.0149642E-1,-9.358267E-2,-3.7731317E-1,-5.2528155E-1],"categories":[],"categories_nodes":[],"categories_segments":[],"categories_sizes":[],"default_left":[0,0,0,0,0,0,0,0,0,0,0,0,0,0,0,0,0,0,0,0,0,0,0,0,0,0,0],"id":10,"left_children":[1,3,5,7,9,11,13,15,-1,17,-1,19,21,23,25,-1,-1,-1,-1,-1,-1,-1,-1,-1,-1,-1,-1],"loss_changes":[8.988835E3,1.9850977E2,9.446073E3,9.233496E1,8.770953E1,1.5823223E3,7.759238E2,6.046875E0,0E0,3.2562256E-2,0E0,2.1088467E3,7.593477E2,9.4150366E2,5.7752686E1,0E0,0E0,0E0,0E0,0E0,0E0,0E0,0E0,0E0,0E0,0E0,0E0],"parents":[2147483647,0,0,1,1,2,2,3,3,4,4,5,5,6,6,7,7,9,9,11,11,12,12,13,13,14,14],"right_children":[2,4,6,8,10,12,14,16,-1,18,-1,20,22,24,26,-1,-1,-1,-1,-1,-1,-1,-1,-1,-1,-1,-1],"split_conditions":[4E0,3E0,2.1E1,6E0,6E0,1.8E1,2.3E1,2E0,-3.204802E-1,2E0,-3.2134286E-1,1E1,4E0,4E0,7E0,-4.3068132E-1,-3.6433905E-1,-1.1062839E-1,-1.473692E-1,4.043022E-2,2.1001725E-1,-1.0343206E-1,7.515028E-2,-3.0149642E-1,-9.358267E-2,-3.7731317E-1,-5.2528155E-1],"split_indices":[1,1,1,0,0,1,1,1,0,0,0,1,0,0,0,0,0,0,0,0,0,0,0,0,0,0,0],"split_type":[0,0,0,0,0,0,0,0,0,0,0,0,0,0,0,0,0,0,0,0,0,0,0,0,0,0,0],"sum_hessian":[5.754E3,6.09E2,5.145E3,5.08E2,1.01E2,4.095E3,1.05E3,3.49E2,1.59E2,4.9E1,5.2E1,3.12E3,9.75E2,8.82E2,1.68E2,2.84E2,6.5E1,2.5E1,2.4E1,1.179E3,1.941E3,4.1E2,5.65E2,3.95E2,4.87E2,1.21E2,4.7E1],"tree_param":{"num_deleted":"0","num_feature":"2","num_nodes":"27","size_leaf_vector":"1"}},{"base_weights":[-4.2038234E-3,-3.2731588E0,3.8329458E-1,-3.5043652E0,-2.0873036E0,1.2454178E0,-1.3588848E0,-3.7197528E0,-2.7166378E-1,-1.1860622E0,-2.8981486E-1,-3.7946385E-1,1.527437E0,-6.0983616E-1,-2.6978378E0,-3.7950608E-1,-3.284572E-1,-9.999107E-2,-1.3322175E-1,1.2559876E-1,-3.8375258E-1,1.8801115E-1,1.0097277E-1,-3.190084E-2,-2.2689871E-1,-2.3190461E-1,-4.8095104E-1],"categories":[],"categories_nodes":[],"categories_segments":[],"categories_sizes":[],"default_left":[0,0,0,0,0,0,0,0,0,0,0,0,0,0,0,0,0,0,0,0,0,0,0,0,0,0,0],"id":11,"left_children":[1,3,5,7,9,11,13,15,-1,17,-1,19,21,23,25,-1,-1,-1,-1,-1,-1,-1,-1,-1,-1,-1,-1],"loss_changes":[7.291198E3,1.5993408E2,7.7308477E3,7.625488E1,7.110086E1,1.5783271E3,1.7073667E3,5.4541016E-1,0E0,2.8251648E-2,0E0,2.8891208E3,5.337993E2,5.271609E2,4.775752E2,0E0,0E0,0E0,0E0,0E0,0E0,0E0,0E0,0E0,0E0,0E0,0E0],"parents":[2147483647,0,0,1,1,2,2,3,3,4,4,5,5,6,6,7,7,9,9,11,11,12,12,13,13,14,14],"right_children":[2,4,6,8,10,12,14,16,-1,18,-1,20,22,24,26,-1,-1,-1,-1,-1,-1,-1,-1,-1,-1,-1,-1],"split_conditions":[4E0,3E0,1.9E1,7E0,6E0,7E0,2.2E1,2E0,-2.7166378E-1,2E0,-2.8981486E-1,6E0,5E0,7E0,7E0,-3.7950608E-1,-3.284572E-1,-9.999107E-2,-1.3322175E-1,1.2559876E-1,-3.8375258E-1,1.8801115E-1,1.0097277E-1,-3.190084E-2,-2.2689871E-1,-2.3190461E-1,-4.8095104E-1],"split_indices":[1,1,1,0,0,1,1,1,0,0,0,0,0,0,0,0,0,0,0,0,0,0,0,0,0,0,0],"split_type":[0,0,0,0,0,0,0,0,0,0,0,0,0,0,0,0,0,0,0,0,0,0,0,0,0,0,0],"sum_hessian":[5.754E3,6.09E2,5.145E3,5.08E2,1.01E2,3.442E3,1.703E3,3.96E2,1.12E2,4.9E1,5.2E1,5.09E2,2.933E3,1.093E3,6.1E2,3.31E2,6.5E1,2.5E1,2.4E1,3.46E2,1.63E2,1.743E3,1.19E3,9.31E2,1.62E2,5.19E2,9.1E1],"tree_param":{"num_deleted":"0","num_feature":"2","num_nodes":"27","size_leaf_vector":"1"}},{"base_weights":[-4.2081443E-3,-2.9483063E0,3.4478217E-1,-3.1558533E0,-1.8837011E0,1.0190036E0,-1.4778041E0,-3.4079444E0,-2.5846803E-1,-1.0721204E0,-2.6138017E-1,1.2560413E0,-3.893581E-1,-7.3063314E-1,-2.4292207E0,-3.4994686E-1,-2.9610914E-1,-9.037656E-2,-1.2043246E-1,1.4794993E-1,1.5086383E-2,-5.238438E-1,9.001163E-2,-1.65288E-1,4.6037787E-4,-3.4010184E-1,-1.7235763E-1],"categories":[],"categories_nodes":[],"categories_segments":[],"categories_sizes":[],"default_left":[0,0,0,0,0,0,0,0,0,0,0,0,0,0,0,0,0,0,0,0,0,0,0,0,0,0,0],"id":12,"left_children":[1,3,5,7,9,11,13,15,-1,17,-1,19,21,23,25,-1,-1,-1,-1,-1,-1,-1,-1,-1,-1,-1,-1],"loss_changes":[5.914059E3,1.2883789E2,6.3250483E3,6.4481445E1,5.7636322E1,1.2547063E3,9.863357E2,3.9521484E0,0E0,2.4433136E-2,0E0,7.9400244E2,3.3937136E3,5.289022E2,4.1312744E2,0E0,0E0,0E0,0E0,0E0,0E0,0E0,0E0,0E0,0E0,0E0,0E0],"parents":[2147483647,0,0,1,1,2,2,3,3,4,4,5,5,6,6,7,7,9,9,11,11,12,12,13,13,14,14],"right_children":[2,4,6,8,10,12,14,16,-1,18,-1,20,22,24,26,-1,-1,-1,-1,-1,-1,-1,-1,-1,-1,-1,-1],"split_conditions":[4E0,3E0,2E1,6E0,6E0,7E0,2.2E1,2E0,-2.5846803E-1,2E0,-2.6138017E-1,1.8E1,9E0,4E0,4E0,-3.4994686E-1,-2.9610914E-1,-9.037656E-2,-1.2043246E-1,1.4794993E-1,1.5086383E-2,-5.238438E-1,9.001163E-2,-1.65288E-1,4.6037787E-4,-3.4010184E-1,-1.7235763E-1],"split_indices":[1,1,1,0,0,0,1,1,0,0,0,1,1,0,0,0,0,0,0,0,0,0,0,0,0,0,0],"split_type":[0,0,0,0,0,0,0,0,0,0,0,0,0,0,0,0,0,0,0,0,0,0,0,0,0,0,0],"sum_hessian":[5.754E3,6.09E2,5.145E3,5.08E2,1.01E2,3.756E3,1.389E3,3.49E2,1.59E2,4.9E1,5.2E1,3.215E3,5.41E2,7.79E2,6.1E2,2.84E2,6.5E1,2.5E1,2.4E1,2.674E3,5.41E2,1.13E2,4.28E2,3.45E2,4.34E2,2.55E2,3.55E2],"tree_param":{"num_deleted":"0","num_feature":"2","num_nodes":"27","size_leaf_vector":"1"}},{"base_weights":[-4.191012E-3,-2.6557324E0,3.1012002E-1,-2.842045E0,-1.6999602E0,8.187199E-1,-1.6723114E0,-3.02014E0,-2.1911974E0,-9.6912426E-1,-2.3573533E-1,1.035397E0,-4.8089096E-1,-1.3301736E0,-3.5692775E0,-3.135441E-1,-2.7784345E-1,-1.7324315E-1,-2.2770849E-1,-8.168649E-2,-1.08870916E-1,1.3316052E-1,8.749692E-3,-3.8510412E-1,8.268762E-2,-2.192353E-1,8.321818E-2,-2.725515E-1,-4.163303E-1],"categories":[],"categories_nodes":[],"categories_segments":[],"categories_sizes":[],"default_left":[0,0,0,0,0,0,0,0,0,0,0,0,0,0,0,0,0,0,0,0,0,0,0,0,0,0,0,0,0],"id":13,"left_children":[1,3,5,7,9,11,13,15,17,19,-1,21,23,25,27,-1,-1,-1,-1,-1,-1,-1,-1,-1,-1,-1,-1,-1,-1],"loss_changes":[4.797091E3,1.0379248E2,5.189898E3,5.2381836E1,4.6720978E1,1.1539148E3,6.77376E2,2.352295E0,5.0756836E-1,2.1064758E-2,0E0,9.85687E2,2.5859038E3,1.664814E3,6.8847534E1,0E0,0E0,0E0,0E0,0E0,0E0,0E0,0E0,0E0,0E0,0E0,0E0,0E0,0E0],"parents":[2147483647,0,0,1,1,2,2,3,3,4,4,5,5,6,6,7,7,8,8,9,9,11,11,12,12,13,13,14,14],"right_children":[2,4,6,8,10,12,14,16,18,20,-1,22,24,26,28,-1,-1,-1,-1,-1,-1,-1,-1,-1,-1,-1,-1,-1,-1],"split_conditions":[4E0,3E0,2.1E1,7E0,6E0,7E0,7E0,4E0,2E0,2E0,-2.3573533E-1,1.8E1,1E1,5E0,2.2E1,-3.135441E-1,-2.7784345E-1,-1.7324315E-1,-2.2770849E-1,-8.168649E-2,-1.08870916E-1,1.3316052E-1,8.749692E-3,-3.8510412E-1,8.268762E-2,-2.192353E-1,8.321818E-2,-2.725515E-1,-4.163303E-1],"split_indices":[1,1,1,0,0,0,0,0,1,0,0,1,1,0,1,0,0,0,0,0,0,0,0,0,0,0,0,0,0],"split_type":[0,0,0,0,0,0,0,0,0,0,0,0,0,0,0,0,0,0,0,0,0,0,0,0,0,0,0,0,0],"sum_hessian":[5.754E3,6.09E2,5.145E3,5.08E2,1.01E2,4.095E3,1.05E3,3.96E2,1.12E2,4.9E1,5.2E1,3.51E3,5.85E2,8.91E2,1.59E2,2.6E2,1.36E2,2.1E1,9.1E1,2.5E1,2.4E1,2.674E3,8.36E2,1.63E2,4.22E2,6.37E2,2.54E2,6.8E1,9.1E1],"tree_param":{"num_deleted":"0","num_feature":"2","num_nodes":"29","size_leaf_vector":"1"}},{"base_weights":[-4.1893115E-3,-2.392485E0,2.789169E-1,-2.55979E0,-1.5341437E0,9.183093E-1,-1.0131646E0,-2.7654254E0,-2.0939636E-1,-8.760234E-1,-2.1260658E-1,-8.141492E-1,1.1309661E0,-4.565057E-1,-2.0082083E0,-2.849454E-1,-2.3606749E-1,-7.383206E-2,-9.8419346E-2,1.2995616E-2,-3.5789782E-1,1.5121986E-1,5.968333E-2,-1.8512735E-2,-2.0053898E-1,-1.6959183E-1,-3.7514982E-1],"categories":[],"categories_nodes":[],"categories_segments":[],"categories_sizes":[],"default_left":[0,0,0,0,0,0,0,0,0,0,0,0,0,0,0,0,0,0,0,0,0,0,0,0,0,0,0],"id":14,"left_children":[1,3,5,7,9,11,13,15,-1,17,-1,19,21,23,25,-1,-1,-1,-1,-1,-1,-1,-1,-1,-1,-1,-1],"loss_changes":[3.8918599E3,8.367212E1,4.252283E3,4.2966553E1,3.7872223E1,1.269388E3,9.429287E2,5.177002E0,0E0,1.8112183E-2,0E0,9.845443E2,6.2362695E2,4.594737E2,3.2627344E2,0E0,0E0,0E0,0E0,0E0,0E0,0E0,0E0,0E0,0E0,0E0,0E0],"parents":[2147483647,0,0,1,1,2,2,3,3,4,4,5,5,6,6,7,7,9,9,11,11,12,12,13,13,14,14],"right_children":[2,4,6,8,10,12,14,16,-1,18,-1,20,22,24,26,-1,-1,-1,-1,-1,-1,-1,-1,-1,-1,-1,-1],"split_conditions":[4E0,3E0,1.9E1,6E0,6E0,5E0,2.2E1,2E0,-2.0939636E-1,2E0,-2.1260658E-1,5E0,5E0,7E0,7E0,-2.849454E-1,-2.3606749E-1,-7.383206E-2,-9.8419346E-2,1.2995616E-2,-3.5789782E-1,1.5121986E-1,5.968333E-2,-1.8512735E-2,-2.0053898E-1,-1.6959183E-1,-3.7514982E-1],"split_indices":[1,1,1,0,0,1,1,1,0,0,0,0,0,0,0,0,0,0,0,0,0,0,0,0,0,0,0],"split_type":[0,0,0,0,0,0,0,0,0,0,0,0,0,0,0,0,0,0,0,0,0,0,0,0,0,0,0],"sum_hessian":[5.754E3,6.09E2,5.145E3,5.08E2,1.01E2,3.442E3,1.703E3,3.49E2,1.59E2,4.9E1,5.2E1,3.76E2,3.066E3,1.093E3,6.1E2,2.84E2,6.5E1,2.5E1,2.4E1,2.81E2,9.5E1,1.788E3,1.278E3,9.31E2,1.62E2,5.19E2,9.1E1],"tree_param":{"num_deleted":"0","num_feature":"2","num_nodes":"27","size_leaf_vector":"1"}},{"base_weights":[-4.1202763E-3,-2.1550646E0,2.5085062E-1,-2.4453108E0,-1.7495918E0,6.667142E-1,-1.3701086E0,-2.5093875E0,-1.367185E-1,-1.9756399E-1,-1.3845024E0,-7.336493E-1,8.0845356E-1,-2.158227E0,-7.9007107E-1,-2.6809165E-1,-2.2456717E-1,-7.9186596E-2,-1.9174707E-1,1.1700641E-2,-3.2248086E-1,1.1064603E-1,-3.05191E-3,-1.4506693E-1,-2.674937E-1,-2.8311452E-3,-2.91806E-1],"categories":[],"categories_nodes":[],"categories_segments":[],"categories_sizes":[],"default_left":[0,0,0,0,0,0,0,0,0,0,0,0,0,0,0,0,0,0,0,0,0,0,0,0,0,0,0],"id":15,"left_children":[1,3,5,7,9,11,13,15,-1,-1,17,19,21,23,25,-1,-1,-1,-1,-1,-1,-1,-1,-1,-1,-1,-1],"loss_changes":[3.1567449E3,6.751099E1,3.4698213E3,2.0955322E1,1.8556885E1,8.135941E2,4.7874707E2,8.997559E0,0E0,0E0,3.0698975E1,7.9928503E2,9.3010693E2,1.5881226E2,9.8387415E2,0E0,0E0,0E0,0E0,0E0,0E0,0E0,0E0,0E0,0E0,0E0,0E0],"parents":[2147483647,0,0,1,1,2,2,3,3,4,4,5,5,6,6,7,7,10,10,11,11,12,12,13,13,14,14],"right_children":[2,4,6,8,10,12,14,16,-1,-1,18,20,22,24,26,-1,-1,-1,-1,-1,-1,-1,-1,-1,-1,-1,-1],"split_conditions":[4E0,2E0,2.1E1,7E0,3E0,5E0,4E0,4E0,-1.367185E-1,-1.9756399E-1,6E0,5E0,1.8E1,2.2E1,7E0,-2.6809165E-1,-2.2456717E-1,-7.9186596E-2,-1.9174707E-1,1.1700641E-2,-3.2248086E-1,1.1064603E-1,-3.05191E-3,-1.4506693E-1,-2.674937E-1,-2.8311452E-3,-2.91806E-1],"split_indices":[1,1,1,0,1,1,0,0,0,0,0,0,1,1,0,0,0,0,0,0,0,0,0,0,0,0,0],"split_type":[0,0,0,0,0,0,0,0,0,0,0,0,0,0,0,0,0,0,0,0,0,0,0,0,0,0,0],"sum_hessian":[5.754E3,6.09E2,5.145E3,3.52E2,2.57E2,4.095E3,1.05E3,3.31E2,2.1E1,1.56E2,1.01E2,3.76E2,3.719E3,4.44E2,6.06E2,1.95E2,1.36E2,4.9E1,5.2E1,2.81E2,9.5E1,2.744E3,9.75E2,1.89E2,2.55E2,4.47E2,1.59E2],"tree_param":{"num_deleted":"0","num_feature":"2","num_nodes":"27","size_leaf_vector":"1"}},{"base_weights":[-4.056857E-3,-1.941358E0,2.2558902E-1,-2.2025628E0,-1.5764484E0,6.7614716E-1,-9.9237674E-1,-2.2599328E0,-1.2366811E-1,-1.7793341E-1,-1.2487084E0,-6.6110855E-1,8.250585E-1,-1.7588916E0,-4.0798715E-1,-2.4141927E-1,-2.022744E-1,-7.1426325E-2,-1.7293414E-1,1.0534738E-2,-2.9056865E-1,1.1358295E-1,3.9194513E-2,-1.2731819E-1,-2.4084878E-1,3.1397313E-2,-2.4833925E-1],"categories":[],"categories_nodes":[],"categories_segments":[],"categories_sizes":[],"default_left":[0,0,0,0,0,0,0,0,0,0,0,0,0,0,0,0,0,0,0,0,0,0,0,0,0,0,0],"id":16,"left_children":[1,3,5,7,9,11,13,15,-1,-1,17,19,21,23,25,-1,-1,-1,-1,-1,-1,-1,-1,-1,-1,-1,-1],"loss_changes":[2.5607983E3,5.4670654E1,2.8246125E3,1.6765747E1,1.4933533E1,7.4868665E2,6.219236E2,7.264282E0,0E0,0E0,2.4965729E1,6.488856E2,4.5463403E2,1.8655835E2,1.1844844E3,0E0,0E0,0E0,0E0,0E0,0E0,0E0,0E0,0E0,0E0,0E0,0E0],"parents":[2147483647,0,0,1,1,2,2,3,3,4,4,5,5,6,6,7,7,10,10,11,11,12,12,13,13,14,14],"right_children":[2,4,6,8,10,12,14,16,-1,-1,18,20,22,24,26,-1,-1,-1,-1,-1,-1,-1,-1,-1,-1,-1,-1],"split_conditions":[4E0,2E0,2E1,7E0,3E0,5E0,4E0,4E0,-1.2366811E-1,-1.7793341E-1,6E0,5E0,5E0,2.2E1,7E0,-2.4141927E-1,-2.022744E-1,-7.1426325E-2,-1.7293414E-1,1.0534738E-2,-2.9056865E-1,1.1358295E-1,3.9194513E-2,-1.2731819E-1,-2.4084878E-1,3.1397313E-2,-2.4833925E-1],"split_indices":[1,1,1,0,1,1,0,0,0,0,0,0,0,1,0,0,0,0,0,0,0,0,0,0,0,0,0],"split_type":[0,0,0,0,0,0,0,0,0,0,0,0,0,0,0,0,0,0,0,0,0,0,0,0,0,0,0],"sum_hessian":[5.754E3,6.09E2,5.145E3,3.52E2,2.57E2,3.756E3,1.389E3,3.31E2,2.1E1,1.56E2,1.01E2,3.76E2,3.38E3,6E2,7.89E2,1.95E2,1.36E2,4.9E1,5.2E1,2.81E2,9.5E1,1.967E3,1.413E3,3.45E2,2.55E2,5.86E2,2.03E2],"tree_param":{"num_deleted":"0","num_feature":"2","num_nodes":"27","size_leaf_vector":"1"}},{"base_weights":[-3.946638E-3,-1.7488446E0,2.02892E-1,-1.9839138E0,-1.4204404E0,6.801098E-1,-7.6146466E-1,-2.035276E0,-1.1186343E-1,-1.602534E0,-1.1262332E0,2.7832994E-1,1.2997847E0,-5.610912E-1,-2.5781045E0,-2.174005E-1,-1.821946E-1,-1.7583762E-1,-1.4733155E-1,-6.4426534E-2,-1.5596703E-1,5.9188653E-2,-1.6240768E-1,1.6493101E-1,1.7901076E-2,-2.0934172E-1,-2.8547695E-2,-3.3035415E-1,-1.9641542E-1],"categories":[],"categories_nodes":[],"categories_segments":[],"categories_sizes":[],"default_left":[0,0,0,0,0,0,0,0,0,0,0,0,0,0,0,0,0,0,0,0,0,0,0,0,0,0,0,0,0],"id":17,"left_children":[1,3,5,7,9,11,13,15,-1,17,19,21,23,25,27,-1,-1,-1,-1,-1,-1,-1,-1,-1,-1,-1,-1,-1,-1],"loss_changes":[2.0774055E3,4.427234E1,2.368749E3,1.3411621E1,1.201709E1,8.568518E2,6.188202E2,5.864624E0,0E0,5.709839E-1,2.0303223E1,1.2476716E3,5.301194E2,6.4810266E2,6.8781006E1,0E0,0E0,0E0,0E0,0E0,0E0,0E0,0E0,0E0,0E0,0E0,0E0,0E0,0E0],"parents":[2147483647,0,0,1,1,2,2,3,3,4,4,5,5,6,6,7,7,9,9,10,10,11,11,12,12,13,13,14,14],"right_children":[2,4,6,8,10,12,14,16,-1,18,20,22,24,26,28,-1,-1,-1,-1,-1,-1,-1,-1,-1,-1,-1,-1,-1,-1],"split_conditions":[4E0,2E0,1.9E1,7E0,3E0,1.4E1,2.3E1,4E0,-1.1186343E-1,2E0,6E0,7E0,1.8E1,2E0,5E0,-2.174005E-1,-1.821946E-1,-1.7583762E-1,-1.4733155E-1,-6.4426534E-2,-1.5596703E-1,5.9188653E-2,-1.6240768E-1,1.6493101E-1,1.7901076E-2,-2.0934172E-1,-2.8547695E-2,-3.3035415E-1,-1.9641542E-1],"split_indices":[1,1,1,0,1,1,1,0,0,0,0,0,1,0,0,0,0,0,0,0,0,0,0,0,0,0,0,0,0],"split_type":[0,0,0,0,0,0,0,0,0,0,0,0,0,0,0,0,0,0,0,0,0,0,0,0,0,0,0,0,0],"sum_hessian":[5.754E3,6.09E2,5.145E3,3.52E2,2.57E2,3.442E3,1.703E3,3.31E2,2.1E1,1.56E2,1.01E2,2.089E3,1.353E3,1.535E3,1.68E2,1.95E2,1.36E2,6.5E1,9.1E1,4.9E1,5.2E1,1.794E3,2.95E2,1.031E3,3.22E2,2.33E2,1.302E3,7.5E1,9.3E1],"tree_param":{"num_deleted":"0","num_feature":"2","num_nodes":"29","size_leaf_vector":"1"}},{"base_weights":[-3.8543728E-3,-1.2150587E0,2.4651279E-1,-1.6847978E0,-7.123135E-1,7.6439947E-1,-6.857672E-1,-1.8281178E0,-1.360755E0,-5.7222407E-2,-2.172603E0,4.435894E-1,1.1699417E0,-2.768585E-1,-1.4167988E0,-1.6488336E-1,-1.9240619E-1,-1.5275443E-1,-1.2778643E-1,-5.1399928E-2,1.3432185E-2,-1.4066458E-1,-2.5728437E-1,7.0348226E-2,-1.07404724E-1,1.7131582E-1,4.9660992E-2,-1.5858422E-1,-4.2662434E-3,-1.9401175E-1,-5.5353202E-2],"categories":[],"categories_nodes":[],"categories_segments":[],"categories_sizes":[],"default_left":[0,0,0,0,0,0,0,0,0,0,0,0,0,0,0,0,0,0,0,0,0,0,0,0,0,0,0,0,0,0,0],"id":18,"left_children":[1,3,5,7,9,11,13,15,17,19,21,23,25,27,29,-1,-1,-1,-1,-1,-1,-1,-1,-1,-1,-1,-1,-1,-1,-1,-1],"loss_changes":[1.745479E3,2.3165271E2,2.3035537E3,2.1151367E1,4.5714117E2,3.985039E2,5.0897626E2,2.8479004E0,2.600708E-1,2.902922E1,4.175287E1,6.767965E2,4.943949E2,3.3530774E2,2.749535E2,0E0,0E0,0E0,0E0,0E0,0E0,0E0,0E0,0E0,0E0,0E0,0E0,0E0,0E0,0E0,0E0],"parents":[2147483647,0,0,1,1,2,2,3,3,4,4,5,5,6,6,7,7,8,8,9,9,10,10,11,11,12,12,13,13,14,14],"right_children":[2,4,6,8,10,12,14,16,18,20,22,24,26,28,30,-1,-1,-1,-1,-1,-1,-1,-1,-1,-1,-1,-1,-1,-1,-1,-1],"split_conditions":[5E0,3E0,1.9E1,6E0,6E0,1.4E1,2.2E1,2E0,7E0,2E0,4E0,7E0,5E0,2E0,5E0,-1.6488336E-1,-1.9240619E-1,-1.5275443E-1,-1.2778643E-1,-5.1399928E-2,1.3432185E-2,-1.4066458E-1,-2.5728437E-1,7.0348226E-2,-1.07404724E-1,1.7131582E-1,4.9660992E-2,-1.5858422E-1,-4.2662434E-3,-1.9401175E-1,-5.5353202E-2],"split_indices":[1,1,1,0,0,1,1,0,0,0,1,0,0,0,0,0,0,0,0,0,0,0,0,0,0,0,0,0,0,0,0],"split_type":[0,0,0,0,0,0,0,0,0,0,0,0,0,0,0,0,0,0,0,0,0,0,0,0,0,0,0,0,0,0,0],"sum_hessian":[5.754E3,9.85E2,4.769E3,5.08E2,4.77E2,3.066E3,1.703E3,3.49E2,1.59E2,3.3E2,1.47E2,1.713E3,1.353E3,1.093E3,6.1E2,1.28E2,2.21E2,4.7E1,1.12E2,9.7E1,2.33E2,5.2E1,9.5E1,1.463E3,2.5E2,7.48E2,6.05E2,1.65E2,9.28E2,3.79E2,2.31E2],"tree_param":{"num_deleted":"0","num_feature":"2","num_nodes":"31","size_leaf_vector":"1"}},{"base_weights":[-3.6954777E-3,-1.0946419E0,2.2181329E-1,-1.517571E0,-6.4199424E-1,7.647177E-1,-5.1387E-1,-1.6463269E0,-1.2264327E0,-5.1615067E-2,-1.9580315E0,3.9920843E-1,1.3710338E0,-1.2361902E0,1.3517062E-2,-1.4852284E-1,-1.7325224E-1,-1.3779724E-1,-1.1512084E-1,-3.1773455E-2,2.2130985E-2,-1.2686352E-1,-2.3182395E-1,6.331816E-2,-9.670704E-2,2.1887846E-1,4.620343E-2,-9.760355E-2,-1.8410991E-1,5.058201E-2,-1.4255679E-1],"categories":[],"categories_nodes":[],"categories_segments":[],"categories_sizes":[],"default_left":[0,0,0,0,0,0,0,0,0,0,0,0,0,0,0,0,0,0,0,0,0,0,0,0,0,0,0,0,0,0,0],"id":19,"left_children":[1,3,5,7,9,11,13,15,17,19,21,23,25,27,29,-1,-1,-1,-1,-1,-1,-1,-1,-1,-1,-1,-1,-1,-1,-1,-1],"loss_changes":[1.4160764E3,1.8778333E2,1.9055581E3,1.706128E1,3.7128632E2,6.0778357E2,7.7180585E2,2.2868652E0,2.375946E-1,2.4111055E1,3.381122E1,5.4853125E2,7.661105E2,1.3275427E2,8.310431E2,0E0,0E0,0E0,0E0,0E0,0E0,0E0,0E0,0E0,0E0,0E0,0E0,0E0,0E0,0E0,0E0],"parents":[2147483647,0,0,1,1,2,2,3,3,4,4,5,5,6,6,7,7,8,8,9,9,10,10,11,11,12,12,13,13,14,14],"right_children":[2,4,6,8,10,12,14,16,18,20,22,24,26,28,30,-1,-1,-1,-1,-1,-1,-1,-1,-1,-1,-1,-1,-1,-1,-1,-1],"split_conditions":[5E0,3E0,1.8E1,6E0,6E0,1.4E1,4E0,2E0,7E0,3E0,4E0,7E0,5E0,2.2E1,7E0,-1.4852284E-1,-1.7325224E-1,-1.3779724E-1,-1.1512084E-1,-3.1773455E-2,2.2130985E-2,-1.2686352E-1,-2.3182395E-1,6.331816E-2,-9.670704E-2,2.1887846E-1,4.620343E-2,-9.760355E-2,-1.8410991E-1,5.058201E-2,-1.4255679E-1],"split_indices":[1,1,1,0,0,1,0,0,0,0,1,0,0,1,0,0,0,0,0,0,0,0,0,0,0,0,0,0,0,0,0],"split_type":[0,0,0,0,0,0,0,0,0,0,0,0,0,0,0,0,0,0,0,0,0,0,0,0,0,0,0,0,0,0,0],"sum_hessian":[5.754E3,9.85E2,4.769E3,5.08E2,4.77E2,2.744E3,2.025E3,3.49E2,1.59E2,3.3E2,1.47E2,1.713E3,1.031E3,8.54E2,1.171E3,1.28E2,2.21E2,4.7E1,1.12E2,1.67E2,1.63E2,5.2E1,9.5E1,1.463E3,2.5E2,5.42E2,4.89E2,5.99E2,2.55E2,8.73E2,2.98E2],"tree_param":{"num_deleted":"0","num_feature":"2","num_nodes":"31","size_leaf_vector":"1"}},{"base_weights":[-3.5143967E-3,-9.8613405E-1,1.9960226E-1,-1.3669429E0,-5.785653E-1,5.0508183E-1,-8.818284E-1,-1.4826136E0,-1.10537E0,-4.648252E-2,-1.7646519E0,6.8833035E-1,-1.0822145E-2,-6.4091E-1,-2.1353736E0,-1.337857E-1,-1.5600505E-1,-1.24304585E-1,-1.0371063E-1,1.3186698E-2,-4.9755376E-2,-1.14416555E-1,-2.0888305E-1,3.59268E-2,1.2341876E-1,-8.57561E-2,6.0405504E-2,-1.0696443E-1,1.1304103E-2,-2.6846772E-1,-1.6685389E-1],"categories":[],"categories_nodes":[],"categories_segments":[],"categories_sizes":[],"default_left":[0,0,0,0,0,0,0,0,0,0,0,0,0,0,0,0,0,0,0,0,0,0,0,0,0,0,0,0,0,0,0],"id":20,"left_children":[1,3,5,7,9,11,13,15,17,19,21,23,25,27,29,-1,-1,-1,-1,-1,-1,-1,-1,-1,-1,-1,-1,-1,-1,-1,-1],"loss_changes":[1.1488167E3,1.52242E2,1.5762388E3,1.3761597E1,3.0158197E2,3.5169122E2,3.1603558E2,1.8361816E0,2.1455383E-1,2.669401E1,2.7380005E1,4.9261633E2,5.0866302E2,2.8554593E2,3.885785E1,0E0,0E0,0E0,0E0,0E0,0E0,0E0,0E0,0E0,0E0,0E0,0E0,0E0,0E0,0E0,0E0],"parents":[2147483647,0,0,1,1,2,2,3,3,4,4,5,5,6,6,7,7,8,8,9,9,10,10,11,11,12,12,13,13,14,14],"right_children":[2,4,6,8,10,12,14,16,18,20,22,24,26,28,30,-1,-1,-1,-1,-1,-1,-1,-1,-1,-1,-1,-1,-1,-1,-1,-1],"split_conditions":[5E0,3E0,2.1E1,6E0,6E0,1.8E1,2.3E1,2E0,7E0,4E0,4E0,1.4E1,4E0,5E0,5E0,-1.337857E-1,-1.5600505E-1,-1.24304585E-1,-1.0371063E-1,1.3186698E-2,-4.9755376E-2,-1.14416555E-1,-2.0888305E-1,3.59268E-2,1.2341876E-1,-8.57561E-2,6.0405504E-2,-1.0696443E-1,1.1304103E-2,-2.6846772E-1,-1.6685389E-1],"split_indices":[1,1,1,0,0,1,1,0,0,0,1,1,0,0,0,0,0,0,0,0,0,0,0,0,0,0,0,0,0,0,0],"split_type":[0,0,0,0,0,0,0,0,0,0,0,0,0,0,0,0,0,0,0,0,0,0,0,0,0,0,0,0,0,0,0],"sum_hessian":[5.754E3,9.85E2,4.769E3,5.08E2,4.77E2,3.719E3,1.05E3,3.49E2,1.59E2,3.3E2,1.47E2,2.744E3,9.75E2,8.82E2,1.68E2,1.28E2,2.21E2,4.7E1,1.12E2,2.37E2,9.3E1,5.2E1,9.5E1,1.713E3,1.031E3,4.1E2,5.65E2,5.62E2,3.2E2,7.5E1,9.3E1],"tree_param":{"num_deleted":"0","num_feature":"2","num_nodes":"31","size_leaf_vector":"1"}},{"base_weights":[-3.3844272E-3,-8.884107E-1,1.7955881E-1,-1.2312659E0,-5.214615E-1,4.546097E-1,-7.9415077E-1,-1.3878739E0,-1.0621656E0,-4.1944657E-2,-1.590371E0,6.1955535E-1,-9.765867E-3,-5.612609E-1,-2.0875485E0,-1.2051082E-1,-1.5547077E-1,-1.1598673E-1,-9.3431346E-2,-4.4472616E-2,1.2692086E-2,-9.5809296E-2,-1.9031854E-1,3.2336216E-2,1.11088835E-1,-7.720133E-2,5.4375615E-2,-1.137925E-1,8.837312E-2,-1.5652752E-1,-2.4565625E-1],"categories":[],"categories_nodes":[],"categories_segments":[],"categories_sizes":[],"default_left":[0,0,0,0,0,0,0,0,0,0,0,0,0,0,0,0,0,0,0,0,0,0,0,0,0,0,0,0,0,0,0],"id":21,"left_children":[1,3,5,7,9,11,13,15,17,19,21,23,25,27,29,-1,-1,-1,-1,-1,-1,-1,-1,-1,-1,-1,-1,-1,-1,-1,-1],"loss_changes":[9.319491E2,1.2340704E2,1.2778608E3,1.2005371E1,2.4493701E2,2.8494604E2,3.1540973E2,6.0846863E0,2.0266724E0,2.256971E1,2.7448853E1,3.9911926E2,4.1221442E2,7.44287E2,2.6990967E1,0E0,0E0,0E0,0E0,0E0,0E0,0E0,0E0,0E0,0E0,0E0,0E0,0E0,0E0,0E0,0E0],"parents":[2147483647,0,0,1,1,2,2,3,3,4,4,5,5,6,6,7,7,8,8,9,9,10,10,11,11,12,12,13,13,14,14],"right_children":[2,4,6,8,10,12,14,16,18,20,22,24,26,28,30,-1,-1,-1,-1,-1,-1,-1,-1,-1,-1,-1,-1,-1,-1,-1,-1],"split_conditions":[5E0,3E0,2.1E1,4E0,6E0,1.8E1,7E0,2E0,7E0,2E0,7E0,1.4E1,4E0,5E0,2.2E1,-1.2051082E-1,-1.5547077E-1,-1.1598673E-1,-9.3431346E-2,-4.4472616E-2,1.2692086E-2,-9.5809296E-2,-1.9031854E-1,3.2336216E-2,1.11088835E-1,-7.720133E-2,5.4375615E-2,-1.137925E-1,8.837312E-2,-1.5652752E-1,-2.4565625E-1],"split_indices":[1,1,1,0,0,1,0,0,0,0,0,1,0,0,1,0,0,0,0,0,0,0,0,0,0,0,0,0,0,0,0],"split_type":[0,0,0,0,0,0,0,0,0,0,0,0,0,0,0,0,0,0,0,0,0,0,0,0,0,0,0,0,0,0,0],"sum_hessian":[5.754E3,9.85E2,4.769E3,5.08E2,4.77E2,3.719E3,1.05E3,2.6E2,2.48E2,3.3E2,1.47E2,2.744E3,9.75E2,8.91E2,1.59E2,1.28E2,1.32E2,1.36E2,1.12E2,9.7E1,2.33E2,5E1,9.7E1,1.713E3,1.031E3,4.1E2,5.65E2,6.37E2,2.54E2,6.8E1,9.1E1],"tree_param":{"num_deleted":"0","num_feature":"2","num_nodes":"31","size_leaf_vector":"1"}},{"base_weights":[-3.2388698E-3,-8.0038434E-1,1.6153863E-1,-1.1090928E0,-4.6998063E-1,4.0918124E-1,-7.151426E-1,-1.2501439E0,-9.5679E-1,1.4718826E-2,-1.3323803E0,5.576523E-1,-8.81281E-3,-5.0516343E-1,-1.8813071E0,-1.0855316E-1,-1.4004059E-1,-1.2966585E-1,-9.197992E-2,-2.7886886E-2,3.669189E-2,-8.03122E-2,-1.7430107E-1,8.5434E-2,1.5334082E-2,-6.950003E-2,4.894767E-2,-1.02431096E-1,7.957046E-2,-1.4110163E-1,-2.2135763E-1],"categories":[],"categories_nodes":[],"categories_segments":[],"categories_sizes":[],"default_left":[0,0,0,0,0,0,0,0,0,0,0,0,0,0,0,0,0,0,0,0,0,0,0,0,0,0,0,0,0,0,0],"id":22,"left_children":[1,3,5,7,9,11,13,15,17,19,21,23,25,27,29,-1,-1,-1,-1,-1,-1,-1,-1,-1,-1,-1,-1,-1,-1,-1,-1],"loss_changes":[7.5605804E2,1.00049194E2,1.035877E3,9.738464E0,1.9982584E2,2.3086816E2,2.5640833E2,4.935608E0,1.9377441E0,3.1846615E1,3.5980835E1,3.2914325E2,3.340541E2,6.032205E2,2.1878723E1,0E0,0E0,0E0,0E0,0E0,0E0,0E0,0E0,0E0,0E0,0E0,0E0,0E0,0E0,0E0,0E0],"parents":[2147483647,0,0,1,1,2,2,3,3,4,4,5,5,6,6,7,7,8,8,9,9,10,10,11,11,12,12,13,13,14,14],"right_children":[2,4,6,8,10,12,14,16,18,20,22,24,26,28,30,-1,-1,-1,-1,-1,-1,-1,-1,-1,-1,-1,-1,-1,-1,-1,-1],"split_conditions":[5E0,3E0,2.1E1,4E0,5E0,1.8E1,7E0,2E0,1E0,3E0,4E0,5E0,4E0,5E0,2.2E1,-1.0855316E-1,-1.4004059E-1,-1.2966585E-1,-9.197992E-2,-2.7886886E-2,3.669189E-2,-8.03122E-2,-1.7430107E-1,8.5434E-2,1.5334082E-2,-6.950003E-2,4.894767E-2,-1.02431096E-1,7.957046E-2,-1.4110163E-1,-2.2135763E-1],"split_indices":[1,1,1,0,0,1,0,0,1,0,1,0,0,0,1,0,0,0,0,0,0,0,0,0,0,0,0,0,0,0,0],"split_type":[0,0,0,0,0,0,0,0,0,0,0,0,0,0,0,0,0,0,0,0,0,0,0,0,0,0,0,0,0,0,0],"sum_hessian":[5.754E3,9.85E2,4.769E3,5.08E2,4.77E2,3.719E3,1.05E3,2.6E2,2.48E2,3.06E2,1.71E2,2.744E3,9.75E2,8.91E2,1.59E2,1.28E2,1.32E2,2.1E1,2.27E2,1.67E2,1.39E2,7.6E1,9.5E1,1.582E3,1.162E3,4.1E2,5.65E2,6.37E2,2.54E2,6.8E1,9.1E1],"tree_param":{"num_deleted":"0","num_feature":"2","num_nodes":"31","size_leaf_vector":"1"}},{"base_weights":[-3.0922056E-3,-7.21072E-1,1.4532104E-1,-9.9910736E-1,-4.234966E-1,3.6828497E-1,-6.439949E-1,-1.126082E0,-8.6200106E-1,-1.217845E-1,-1.592158E0,4.6516132E-1,-2.0183538E-1,-4.3267733E-1,-1.7442875E0,-9.778199E-2,-1.2614182E-1,-9.476418E-2,-7.505428E-2,1.3817149E-2,-5.5058826E-2,-7.66383E-2,-2.508982E-1,6.062446E-2,6.9504925E-3,-3.9891025E-1,3.5106793E-2,-1.5084031E-1,-2.2449723E-2,-2.2063632E-1,-1.3521382E-1],"categories":[],"categories_nodes":[],"categories_segments":[],"categories_sizes":[],"default_left":[0,0,0,0,0,0,0,0,0,0,0,0,0,0,0,0,0,0,0,0,0,0,0,0,0,0,0,0,0,0,0],"id":23,"left_children":[1,3,5,7,9,11,13,15,17,19,21,23,25,27,29,-1,-1,-1,-1,-1,-1,-1,-1,-1,-1,-1,-1,-1,-1,-1,-1],"loss_changes":[6.133444E2,8.115503E1,8.3970465E2,7.8904724E0,1.6834857E2,2.0555383E2,2.4361456E2,4.003601E0,1.6655426E0,4.2546185E1,7.227202E1,1.7746716E2,1.1342505E3,1.974045E2,2.7639954E1,0E0,0E0,0E0,0E0,0E0,0E0,0E0,0E0,0E0,0E0,0E0,0E0,0E0,0E0,0E0,0E0],"parents":[2147483647,0,0,1,1,2,2,3,3,4,4,5,5,6,6,7,7,8,8,9,9,10,10,11,11,12,12,13,13,14,14],"right_children":[2,4,6,8,10,12,14,16,18,20,22,24,26,28,30,-1,-1,-1,-1,-1,-1,-1,-1,-1,-1,-1,-1,-1,-1,-1,-1],"split_conditions":[5E0,3E0,2.1E1,4E0,7E0,7E0,2.3E1,2E0,7E0,4E0,4E0,1.8E1,9E0,2E0,5E0,-9.778199E-2,-1.2614182E-1,-9.476418E-2,-7.505428E-2,1.3817149E-2,-5.5058826E-2,-7.66383E-2,-2.508982E-1,6.062446E-2,6.9504925E-3,-3.9891025E-1,3.5106793E-2,-1.5084031E-1,-2.2449723E-2,-2.2063632E-1,-1.3521382E-1],"split_indices":[1,1,1,0,0,0,1,0,0,0,1,1,1,0,0,0,0,0,0,0,0,0,0,0,0,0,0,0,0,0,0],"split_type":[0,0,0,0,0,0,0,0,0,0,0,0,0,0,0,0,0,0,0,0,0,0,0,0,0,0,0,0,0,0,0],"sum_hessian":[5.754E3,9.85E2,4.769E3,5.08E2,4.77E2,3.719E3,1.05E3,2.6E2,2.48E2,3.8E2,9.7E1,3.179E3,5.4E2,8.82E2,1.68E2,1.28E2,1.32E2,1.36E2,1.12E2,2.37E2,1.43E2,5.2E1,4.5E1,2.343E3,8.36E2,6.8E1,4.72E2,1.42E2,7.4E2,7.5E1,9.3E1],"tree_param":{"num_deleted":"0","num_feature":"2","num_nodes":"31","size_leaf_vector":"1"}},{"base_weights":[-3.059138E-3,-6.497382E-1,1.3061562E-1,-8.9997023E-1,-3.819184E-1,4.153971E-1,-3.8203427E-1,-1.0143317E0,-7.76483E-1,-1.09714255E-1,-1.4362844E0,1.9353767E-1,6.959375E-1,-1.7721067E-1,-1.5506052E0,-7.881153E-2,-1.08382285E-1,-1.0824298E-1,-7.435562E-2,1.2441271E-2,-4.959122E-2,-6.911909E-2,-2.2635381E-1,3.759864E-2,-8.713965E-2,1.148464E-1,1.3547832E-2,-6.2899694E-2,8.195039E-2,-1.3355283E-1,-1.9148113E-1],"categories":[],"categories_nodes":[],"categories_segments":[],"categories_sizes":[],"default_left":[0,0,0,0,0,0,0,0,0,0,0,0,0,0,0,0,0,0,0,0,0,0,0,0,0,0,0,0,0,0,0],"id":24,"left_children":[1,3,5,7,9,11,13,15,17,19,21,23,25,27,29,-1,-1,-1,-1,-1,-1,-1,-1,-1,-1,-1,-1,-1,-1,-1,-1],"loss_changes":[4.9757388E2,6.573517E1,6.9654626E2,6.4006042E0,1.3702975E2,1.9075708E2,4.075792E2,3.2487488E0,1.703537E0,3.4511467E1,5.8840836E1,3.333507E2,3.432494E2,6.5390356E2,1.7339111E1,0E0,0E0,0E0,0E0,0E0,0E0,0E0,0E0,0E0,0E0,0E0,0E0,0E0,0E0,0E0,0E0],"parents":[2147483647,0,0,1,1,2,2,3,3,4,4,5,5,6,6,7,7,8,8,9,9,10,10,11,11,12,12,13,13,14,14],"right_children":[2,4,6,8,10,12,14,16,18,20,22,24,26,28,30,-1,-1,-1,-1,-1,-1,-1,-1,-1,-1,-1,-1,-1,-1,-1,-1],"split_conditions":[5E0,3E0,1.9E1,4E0,7E0,1.4E1,7E0,1E0,1E0,4E0,4E0,7E0,5E0,5E0,2.2E1,-7.881153E-2,-1.08382285E-1,-1.0824298E-1,-7.435562E-2,1.2441271E-2,-4.959122E-2,-6.911909E-2,-2.2635381E-1,3.759864E-2,-8.713965E-2,1.148464E-1,1.3547832E-2,-6.2899694E-2,8.195039E-2,-1.3355283E-1,-1.9148113E-1],"split_indices":[1,1,1,0,0,1,0,1,1,0,1,0,0,0,1,0,0,0,0,0,0,0,0,0,0,0,0,0,0,0,0],"split_type":[0,0,0,0,0,0,0,0,0,0,0,0,0,0,0,0,0,0,0,0,0,0,0,0,0,0,0,0,0,0,0],"sum_hessian":[5.754E3,9.85E2,4.769E3,5.08E2,4.77E2,3.066E3,1.703E3,2.6E2,2.48E2,3.8E2,9.7E1,1.713E3,1.353E3,1.45E3,2.53E2,6.4E1,1.96E2,2.1E1,2.27E2,2.37E2,1.43E2,5.2E1,4.5E1,1.463E3,2.5E2,7.48E2,6.05E2,9.98E2,4.52E2,1.62E2,9.1E1],"tree_param":{"num_deleted":"0","num_feature":"2","num_nodes":"31","size_leaf_vector":"1"}},{"base_weights":[-2.9150944E-3,9.152428E-2,-7.9814863E-1,-5.854769E-1,2.5196457E-1,-5.235986E-1,-1.5131042E0,-8.106997E-1,-3.4442264E-1,4.1860738E-1,-7.1260326E-2,-9.3795747E-1,3.8937292E-1,-1.926558E0,-1.1627256E0,-8.6793125E-2,-6.0245525E-2,-9.8840585E-3,-1.295671E-1,1.7415423E-2,8.2420245E-2,-5.7817053E-2,3.0109877E-2,-1.6755046E-1,-7.192709E-2,1.4987941E-1,-1.9613913E-1,-1.3688754E-1,-2.8879496E-1,-8.259776E-2,-1.4682344E-1],"categories":[],"categories_nodes":[],"categories_segments":[],"categories_sizes":[],"default_left":[0,0,0,0,0,0,0,0,0,0,0,0,0,0,0,0,0,0,0,0,0,0,0,0,0,0,0,0,0,0,0],"id":25,"left_children":[1,3,5,7,9,11,13,15,17,19,21,23,25,27,29,-1,-1,-1,-1,-1,-1,-1,-1,-1,-1,-1,-1,-1,-1,-1,-1],"loss_changes":[4.3228134E2,5.5898846E2,1.1914154E2,5.3251587E1,2.2410031E2,1.6795117E2,2.2242218E1,5.543457E0,1.1153729E2,2.7202045E2,2.674478E2,4.79888E1,3.6544995E2,3.679425E1,8.457947E0,0E0,0E0,0E0,0E0,0E0,0E0,0E0,0E0,0E0,0E0,0E0,0E0,0E0,0E0,0E0,0E0],"parents":[2147483647,0,0,1,1,2,2,3,3,4,4,5,5,6,6,7,7,8,8,9,9,10,10,11,11,12,12,13,13,14,14],"right_children":[2,4,6,8,10,12,14,16,18,20,22,24,26,28,30,-1,-1,-1,-1,-1,-1,-1,-1,-1,-1,-1,-1,-1,-1,-1,-1],"split_conditions":[2.2E1,5E0,2.3E1,3E0,1.8E1,5E0,5E0,7E0,7E0,1.4E1,4E0,2E0,7E0,3E0,7E0,-8.6793125E-2,-6.0245525E-2,-9.8840585E-3,-1.295671E-1,1.7415423E-2,8.2420245E-2,-5.7817053E-2,3.0109877E-2,-1.6755046E-1,-7.192709E-2,1.4987941E-1,-1.9613913E-1,-1.3688754E-1,-2.8879496E-1,-8.259776E-2,-1.4682344E-1],"split_indices":[1,1,1,1,1,0,0,0,0,1,0,0,0,0,0,0,0,0,0,0,0,0,0,0,0,0,0,0,0,0,0],"split_type":[0,0,0,0,0,0,0,0,0,0,0,0,0,0,0,0,0,0,0,0,0,0,0,0,0,0,0,0,0,0,0],"sum_hessian":[5.754E3,5.144E3,6.1E2,9.85E2,4.159E3,4.42E2,1.68E2,5.08E2,4.77E2,2.744E3,1.415E3,3.04E2,1.38E2,7.5E1,9.3E1,3.96E2,1.12E2,3.8E2,9.7E1,1.713E3,1.031E3,5.99E2,8.16E2,6.8E1,2.36E2,9.4E1,4.4E1,4.9E1,2.6E1,4.6E1,4.7E1],"tree_param":{"num_deleted":"0","num_feature":"2","num_nodes":"31","size_leaf_vector":"1"}},{"base_weights":[-2.8243808E-3,8.2330115E-2,-7.1987355E-1,-5.272198E-1,2.2678538E-1,-4.7188374E-1,-1.3656701E0,-7.299186E-1,-3.1027225E-1,3.7678266E-1,-6.415343E-2,-8.4494686E-1,3.5010287E-1,-1.7395033E0,-1.0488936E0,-8.271552E-2,-6.250646E-2,2.6377027E-3,-9.093482E-2,1.5674848E-2,7.41862E-2,-5.2044947E-2,2.7102623E-2,-1.5103821E-1,-6.476473E-2,1.3504924E-1,-1.7696105E-1,-1.23472564E-1,-2.6098508E-1,-7.4513726E-2,-1.3244697E-1],"categories":[],"categories_nodes":[],"categories_segments":[],"categories_sizes":[],"default_left":[0,0,0,0,0,0,0,0,0,0,0,0,0,0,0,0,0,0,0,0,0,0,0,0,0,0,0,0,0,0,0],"id":26,"left_children":[1,3,5,7,9,11,13,15,17,19,21,23,25,27,29,-1,-1,-1,-1,-1,-1,-1,-1,-1,-1,-1,-1,-1,-1,-1,-1],"loss_changes":[3.5145935E2,4.5315063E2,9.720776E1,4.3132904E1,1.8156671E2,1.3614304E2,1.818869E1,4.672516E0,9.64263E1,2.2038934E2,2.1670572E2,3.906526E1,2.9714474E2,3.0166794E1,6.881645E0,0E0,0E0,0E0,0E0,0E0,0E0,0E0,0E0,0E0,0E0,0E0,0E0,0E0,0E0,0E0,0E0],"parents":[2147483647,0,0,1,1,2,2,3,3,4,4,5,5,6,6,7,7,8,8,9,9,10,10,11,11,12,12,13,13,14,14],"right_children":[2,4,6,8,10,12,14,16,18,20,22,24,26,28,30,-1,-1,-1,-1,-1,-1,-1,-1,-1,-1,-1,-1,-1,-1,-1,-1],"split_conditions":[2.2E1,5E0,2.3E1,3E0,1.8E1,5E0,5E0,4E0,5E0,1.4E1,4E0,2E0,7E0,3E0,7E0,-8.271552E-2,-6.250646E-2,2.6377027E-3,-9.093482E-2,1.5674848E-2,7.41862E-2,-5.2044947E-2,2.7102623E-2,-1.5103821E-1,-6.476473E-2,1.3504924E-1,-1.7696105E-1,-1.23472564E-1,-2.6098508E-1,-7.4513726E-2,-1.3244697E-1],"split_indices":[1,1,1,1,1,0,0,0,0,1,0,0,0,0,0,0,0,0,0,0,0,0,0,0,0,0,0,0,0,0,0],"split_type":[0,0,0,0,0,0,0,0,0,0,0,0,0,0,0,0,0,0,0,0,0,0,0,0,0,0,0,0,0,0,0],"sum_hessian":[5.754E3,5.144E3,6.1E2,9.85E2,4.159E3,4.42E2,1.68E2,5.08E2,4.77E2,2.744E3,1.415E3,3.04E2,1.38E2,7.5E1,9.3E1,2.6E2,2.48E2,3.06E2,1.71E2,1.713E3,1.031E3,5.99E2,8.16E2,6.8E1,2.36E2,9.4E1,4.4E1,4.9E1,2.6E1,4.6E1,4.7E1],"tree_param":{"num_deleted":"0","num_feature":"2","num_nodes":"31","size_leaf_vector":"1"}},{"base_weights":[-2.718734E-3,9.518046E-2,-5.2473706E-1,-6.71009E-1,1.727873E-1,-1.4453471E0,-5.003713E-3,-7.347701E-1,-4.8109844E-1,2.6477507E-1,-5.144459E-1,-4.6001232E-1,-2.427877E0,1.0079255E0,-1.3170065E0,-8.068033E-2,-6.263521E-2,-5.492124E-2,-3.8156606E-2,-2.0369217E-2,3.7238825E-2,-9.250533E-2,5.9580397E-2,-2.4421789E-2,-4.8978638E-2,-2.8812367E-1,-1.3668792E-1,2.0111461E-1,8.335903E-2,-1.0080441E-1,-1.3877912E-1],"categories":[],"categories_nodes":[],"categories_segments":[],"categories_sizes":[],"default_left":[0,0,0,0,0,0,0,0,0,0,0,0,0,0,0,0,0,0,0,0,0,0,0,0,0,0,0,0,0,0,0],"id":27,"left_children":[1,3,5,7,9,11,13,15,17,19,21,23,25,27,29,-1,-1,-1,-1,-1,-1,-1,-1,-1,-1,-1,-1,-1,-1,-1,-1],"loss_changes":[2.9416025E2,2.8832605E2,4.3492365E2,5.047058E0,2.7841766E2,3.1642676E2,7.747856E2,2.0874786E0,5.7008743E-1,1.9583047E2,2.3760707E2,9.4052505E-1,7.4948E1,5.5864532E1,4.1559753E0,0E0,0E0,0E0,0E0,0E0,0E0,0E0,0E0,0E0,0E0,0E0,0E0,0E0,0E0,0E0,0E0],"parents":[2147483647,0,0,1,1,2,2,3,3,4,4,5,5,6,6,7,7,8,8,9,9,10,10,11,11,12,12,13,13,14,14],"right_children":[2,4,6,8,10,12,14,16,18,20,22,24,26,28,30,-1,-1,-1,-1,-1,-1,-1,-1,-1,-1,-1,-1,-1,-1,-1,-1],"split_conditions":[7E0,4E0,1E1,2E0,2.2E1,4E0,1.9E1,4E0,3E0,2E0,5E0,2E0,9E0,1.1E1,2E1,-8.068033E-2,-6.263521E-2,-5.492124E-2,-3.8156606E-2,-2.0369217E-2,3.7238825E-2,-9.250533E-2,5.9580397E-2,-2.4421789E-2,-4.8978638E-2,-2.8812367E-1,-1.3668792E-1,2.0111461E-1,8.335903E-2,-1.0080441E-1,-1.3877912E-1],"split_indices":[0,1,1,1,1,1,1,0,1,0,0,1,1,1,1,0,0,0,0,0,0,0,0,0,0,0,0,0,0,0,0],"split_type":[0,0,0,0,0,0,0,0,0,0,0,0,0,0,0,0,0,0,0,0,0,0,0,0,0,0,0,0,0,0,0],"sum_hessian":[5.754E3,4.846E3,9.08E2,4.45E2,4.401E3,3.27E2,5.81E2,3.31E2,1.14E2,3.882E3,5.19E2,1.64E2,1.63E2,3.28E2,2.53E2,1.95E2,1.36E2,6.5E1,4.9E1,7.25E2,3.157E3,3.79E2,1.4E2,2.1E1,1.43E2,1.13E2,5E1,4.7E1,2.81E2,5E1,2.03E2],"tree_param":{"num_deleted":"0","num_feature":"2","num_nodes":"31","size_leaf_vector":"1"}},{"base_weights":[-2.5696552E-3,8.561012E-2,-4.72762E-1,-6.044381E-1,1.5550469E-1,-1.3023311E0,-4.426178E-3,-6.6172475E-1,-4.3379804E-1,1.9418238E-1,-1.2029762E0,-4.1445577E-1,-2.1876793E0,9.079978E-1,-1.1862493E0,-7.265346E-2,-5.6417406E-2,-4.9512338E-2,-3.4417268E-2,-2.7804593E-2,3.0162364E-2,-1.4793237E-1,-7.3052146E-2,-2.2090627E-2,-4.411477E-2,-2.7878237E-1,-1.5066653E-1,1.8142214E-1,7.5052716E-2,-9.092164E-2,-1.2496926E-1],"categories":[],"categories_nodes":[],"categories_segments":[],"categories_sizes":[],"default_left":[0,0,0,0,0,0,0,0,0,0,0,0,0,0,0,0,0,0,0,0,0,0,0,0,0,0,0,0,0,0,0],"id":28,"left_children":[1,3,5,7,9,11,13,15,17,19,21,23,25,27,29,-1,-1,-1,-1,-1,-1,-1,-1,-1,-1,-1,-1,-1,-1,-1,-1],"loss_changes":[2.3865115E2,2.3386783E2,3.5315613E2,4.0727997E0,2.3152747E2,2.5692712E2,6.2866156E2,1.6890869E0,4.616661E-1,2.1728807E2,1.4847839E1,7.5497246E-1,6.2827637E1,4.558786E1,3.328003E0,0E0,0E0,0E0,0E0,0E0,0E0,0E0,0E0,0E0,0E0,0E0,0E0,0E0,0E0,0E0,0E0],"parents":[2147483647,0,0,1,1,2,2,3,3,4,4,5,5,6,6,7,7,8,8,9,9,10,10,11,11,12,12,13,13,14,14],"right_children":[2,4,6,8,10,12,14,16,18,20,22,24,26,28,30,-1,-1,-1,-1,-1,-1,-1,-1,-1,-1,-1,-1,-1,-1,-1,-1],"split_conditions":[7E0,4E0,1E1,2E0,2.3E1,4E0,1.9E1,4E0,3E0,2E0,5E0,2E0,8E0,1.1E1,2E1,-7.265346E-2,-5.6417406E-2,-4.9512338E-2,-3.4417268E-2,-2.7804593E-2,3.0162364E-2,-1.4793237E-1,-7.3052146E-2,-2.2090627E-2,-4.411477E-2,-2.7878237E-1,-1.5066653E-1,1.8142214E-1,7.5052716E-2,-9.092164E-2,-1.2496926E-1],"split_indices":[0,1,1,1,1,1,1,0,1,0,0,1,1,1,1,0,0,0,0,0,0,0,0,0,0,0,0,0,0,0,0],"split_type":[0,0,0,0,0,0,0,0,0,0,0,0,0,0,0,0,0,0,0,0,0,0,0,0,0,0,0,0,0,0,0],"sum_hessian":[5.754E3,4.846E3,9.08E2,4.45E2,4.401E3,3.27E2,5.81E2,3.31E2,1.14E2,4.28E3,1.21E2,1.64E2,1.63E2,3.28E2,2.53E2,1.95E2,1.36E2,6.5E1,4.9E1,7.93E2,3.487E3,7.5E1,4.6E1,2.1E1,1.43E2,8.5E1,7.8E1,4.7E1,2.81E2,5E1,2.03E2],"tree_param":{"num_deleted":"0","num_feature":"2","num_nodes":"31","size_leaf_vector":"1"}},{"base_weights":[-2.4669557E-3,6.324559E-2,-5.5580336E-1,-3.9132E-1,1.7097117E-1,-8.173511E-1,-1.250106E-1,-5.347607E-1,-2.37758E-1,2.4581939E-1,-2.658628E-1,-6.8609756E-1,-1.3333377E0,5.403699E-1,-1.1434197E0,-5.7257492E-2,-3.9717656E-2,1.0178763E-2,-5.720904E-2,-1.3288337E-2,3.3116806E-2,-3.0360046E-1,8.793694E-3,-1.2429668E-1,-5.210761E-2,-8.7809384E-2,-2.1269989E-1,1.1280661E-1,-6.590238E-2,-1.3386945E-1,-9.3652844E-2],"categories":[],"categories_nodes":[],"categories_segments":[],"categories_sizes":[],"default_left":[0,0,0,0,0,0,0,0,0,0,0,0,0,0,0,0,0,0,0,0,0,0,0,0,0,0,0,0,0,0,0],"id":29,"left_children":[1,3,5,7,9,11,13,15,17,19,21,23,25,27,29,-1,-1,-1,-1,-1,-1,-1,-1,-1,-1,-1,-1,-1,-1,-1,-1],"loss_changes":[2.0929353E2,2.5200903E2,6.874094E1,2.1591507E1,1.3608176E2,2.482071E1,1.5782794E2,2.4207306E0,5.432132E1,1.14851E2,5.971329E2,2.7380417E1,2.5591812E1,1.0013138E2,2.4631424E0,0E0,0E0,0E0,0E0,0E0,0E0,0E0,0E0,0E0,0E0,0E0,0E0,0E0,0E0,0E0,0E0],"parents":[2147483647,0,0,1,1,2,2,3,3,4,4,5,5,6,6,7,7,8,8,9,9,10,10,11,11,12,12,13,13,14,14],"right_children":[2,4,6,8,10,12,14,16,18,20,22,24,26,28,30,-1,-1,-1,-1,-1,-1,-1,-1,-1,-1,-1,-1,-1,-1,-1,-1],"split_conditions":[2.2E1,5E0,5E0,3E0,7E0,2.3E1,7E0,7E0,4E0,2E0,9E0,2E0,3E0,2.3E1,2.3E1,-5.7257492E-2,-3.9717656E-2,1.0178763E-2,-5.720904E-2,-1.3288337E-2,3.3116806E-2,-3.0360046E-1,8.793694E-3,-1.2429668E-1,-5.210761E-2,-8.7809384E-2,-2.1269989E-1,1.1280661E-1,-6.590238E-2,-1.3386945E-1,-9.3652844E-2],"split_indices":[1,1,0,1,0,1,0,0,0,0,1,0,0,1,1,0,0,0,0,0,0,0,0,0,0,0,0,0,0,0,0],"split_type":[0,0,0,0,0,0,0,0,0,0,0,0,0,0,0,0,0,0,0,0,0,0,0,0,0,0,0,0,0,0,0],"sum_hessian":[5.754E3,5.144E3,6.1E2,9.85E2,4.159E3,3.79E2,2.31E2,5.08E2,4.77E2,3.551E3,6.08E2,3.04E2,7.5E1,1.4E2,9.1E1,3.96E2,1.12E2,2.37E2,2.4E2,6.53E2,2.898E3,6.8E1,5.4E2,6.8E1,2.36E2,4.9E1,2.6E1,9.4E1,4.6E1,4.4E1,4.7E1],"tree_param":{"num_deleted":"0","num_feature":"2","num_nodes":"31","size_leaf_vector":"1"}},{"base_weights":[-2.4073326E-3,5.683956E-2,-5.012991E-1,-3.52334E-1,1.538079E-1,-7.368709E-1,-1.1328795E-1,-4.8147514E-1,-2.1408047E-1,2.8361818E-1,-9.794565E-2,-6.1806595E-1,-1.203958E0,4.8666573E-1,-1.0315508E0,-5.4715034E-2,-4.107013E-2,9.165191E-3,-5.1511873E-2,5.136586E-2,-2.9741717E-3,-5.1160898E-2,2.0596614E-2,-1.1204716E-1,-4.6918813E-2,-7.9204075E-2,-1.922177E-1,1.0164472E-1,-5.9452374E-2,-1.2077997E-1,-8.4482685E-2],"categories":[],"categories_nodes":[],"categories_segments":[],"categories_sizes":[],"default_left":[0,0,0,0,0,0,0,0,0,0,0,0,0,0,0,0,0,0,0,0,0,0,0,0,0,0,0,0,0,0,0],"id":30,"left_children":[1,3,5,7,9,11,13,15,17,19,21,23,25,27,29,-1,-1,-1,-1,-1,-1,-1,-1,-1,-1,-1,-1,-1,-1,-1,-1],"loss_changes":[1.7013354E2,2.0419173E2,5.5764664E1,1.7501183E1,1.3597739E2,2.0342926E1,1.2831435E2,2.141159E0,4.404097E1,1.9788977E2,1.7812086E2,2.2287392E1,2.0961922E1,8.136827E1,2.0073242E0,0E0,0E0,0E0,0E0,0E0,0E0,0E0,0E0,0E0,0E0,0E0,0E0,0E0,0E0,0E0,0E0],"parents":[2147483647,0,0,1,1,2,2,3,3,4,4,5,5,6,6,7,7,8,8,9,9,10,10,11,11,12,12,13,13,14,14],"right_children":[2,4,6,8,10,12,14,16,18,20,22,24,26,28,30,-1,-1,-1,-1,-1,-1,-1,-1,-1,-1,-1,-1,-1,-1,-1,-1],"split_conditions":[2.2E1,5E0,5E0,3E0,1.8E1,2.3E1,7E0,4E0,4E0,5E0,4E0,2E0,3E0,2.3E1,2.3E1,-5.4715034E-2,-4.107013E-2,9.165191E-3,-5.1511873E-2,5.136586E-2,-2.9741717E-3,-5.1160898E-2,2.0596614E-2,-1.1204716E-1,-4.6918813E-2,-7.9204075E-2,-1.922177E-1,1.0164472E-1,-5.9452374E-2,-1.2077997E-1,-8.4482685E-2],"split_indices":[1,1,0,1,1,1,0,0,0,0,0,0,0,1,1,0,0,0,0,0,0,0,0,0,0,0,0,0,0,0,0],"split_type":[0,0,0,0,0,0,0,0,0,0,0,0,0,0,0,0,0,0,0,0,0,0,0,0,0,0,0,0,0,0,0],"sum_hessian":[5.754E3,5.144E3,6.1E2,9.85E2,4.159E3,3.79E2,2.31E2,5.08E2,4.77E2,2.744E3,1.415E3,3.04E2,7.5E1,1.4E2,9.1E1,2.6E2,2.48E2,2.37E2,2.4E2,1.582E3,1.162E3,5.99E2,8.16E2,6.8E1,2.36E2,4.9E1,2.6E1,9.4E1,4.6E1,4.4E1,4.7E1],"tree_param":{"num_deleted":"0","num_feature":"2","num_nodes":"31","size_leaf_vector":"1"}},{"base_weights":[-2.2909767E-3,6.644118E-2,-3.6878434E-1,-2.645232E-1,1.4910115E-1,-1.0511999E0,1.6440945E-2,-5.6076692E-3,-8.336062E-1,-4.851501E-1,2.0086767E-1,-2.8431043E-1,-1.8163558E0,8.0895245E-1,-1.0101446E0,-3.507236E-2,1.12711646E-1,-1.19488515E-1,-6.6539995E-2,-6.02003E-2,-3.856061E-2,2.3373378E-2,-9.475111E-2,-1.2270442E-2,-3.070259E-2,-2.3128012E-1,-1.25293E-1,1.6308817E-1,6.661811E-2,-1.0627814E-1,-7.621042E-2],"categories":[],"categories_nodes":[],"categories_segments":[],"categories_sizes":[],"default_left":[0,0,0,0,0,0,0,0,0,0,0,0,0,0,0,0,0,0,0,0,0,0,0,0,0,0,0,0,0,0,0],"id":31,"left_children":[1,3,5,7,9,11,13,15,17,19,21,23,25,27,29,-1,-1,-1,-1,-1,-1,-1,-1,-1,-1,-1,-1,-1,-1,-1,-1],"loss_changes":[1.4499225E2,1.3264128E2,2.3897859E2,1.4277206E2,1.2745658E2,1.9195078E2,4.743212E2,2.611397E2,1.7618057E1,3.176033E0,1.356047E2,5.680332E-1,4.297461E1,3.7521057E1,2.5062866E0,0E0,0E0,0E0,0E0,0E0,0E0,0E0,0E0,0E0,0E0,0E0,0E0,0E0,0E0,0E0,0E0],"parents":[2147483647,0,0,1,1,2,2,3,3,4,4,5,5,6,6,7,7,8,8,9,9,10,10,11,11,12,12,13,13,14,14],"right_children":[2,4,6,8,10,12,14,16,18,20,22,24,26,28,30,-1,-1,-1,-1,-1,-1,-1,-1,-1,-1,-1,-1,-1,-1,-1,-1],"split_conditions":[7E0,2E0,1E1,1.8E1,4E0,4E0,1.9E1,1.4E1,2E1,4E0,2.3E1,2E0,8E0,1.1E1,2.3E1,-3.507236E-2,1.12711646E-1,-1.19488515E-1,-6.6539995E-2,-6.02003E-2,-3.856061E-2,2.3373378E-2,-9.475111E-2,-1.2270442E-2,-3.070259E-2,-2.3128012E-1,-1.25293E-1,1.6308817E-1,6.661811E-2,-1.0627814E-1,-7.621042E-2],"split_indices":[0,0,1,1,1,1,1,1,1,0,1,1,1,1,1,0,0,0,0,0,0,0,0,0,0,0,0,0,0,0,0],"split_type":[0,0,0,0,0,0,0,0,0,0,0,0,0,0,0,0,0,0,0,0,0,0,0,0,0,0,0,0,0,0,0],"sum_hessian":[5.754E3,4.846E3,9.08E2,9.68E2,3.878E3,3.27E2,5.81E2,6.66E2,3.02E2,2.92E2,3.586E3,1.64E2,1.63E2,3.28E2,2.53E2,5.11E2,1.55E2,9.4E1,2.08E2,1.32E2,1.6E2,3.487E3,9.9E1,2.1E1,1.43E2,8.5E1,7.8E1,4.7E1,2.81E2,2.06E2,4.7E1],"tree_param":{"num_deleted":"0","num_feature":"2","num_nodes":"31","size_leaf_vector":"1"}},{"base_weights":[-2.1712834E-3,6.718086E-2,-3.1263715E-1,-2.8579095E-1,1.607193E-1,-2.1674654E-1,-8.4527344E-1,-3.927859E-1,-1.7125909E-1,2.505131E-1,1.4736974E-1,-4.6116826E-1,8.5500854E-1,-9.048199E-2,-6.874814E-2,-4.288355E-2,-3.114726E-2,8.307058E-3,-4.217122E-2,2.9264277E-2,-5.4103085E-3,-3.9744306E-2,-1.0017955E-1,1.3565056E-1,-4.4360127E-2],"categories":[],"categories_nodes":[],"categories_segments":[],"categories_sizes":[],"default_left":[0,0,0,0,0,0,0,0,0,0,0,0,0,0,0,0,0,0,0,0,0,0,0,0,0],"id":32,"left_children":[1,3,5,7,9,11,13,15,17,-1,19,21,23,-1,-1,-1,-1,-1,-1,-1,-1,-1,-1,-1,-1],"loss_changes":[1.2393463E2,1.5538826E2,5.349643E1,1.2015495E1,1.16055145E2,2.3406282E2,8.8129425E-1,1.3584671E0,3.0482513E1,0E0,1.0830952E2,2.4648163E1,1.087091E2,0E0,0E0,0E0,0E0,0E0,0E0,0E0,0E0,0E0,0E0,0E0,0E0],"parents":[2147483647,0,0,1,1,2,2,3,3,4,4,5,5,6,6,7,7,8,8,10,10,11,11,12,12],"right_children":[2,4,6,8,10,12,14,16,18,-1,20,22,24,-1,-1,-1,-1,-1,-1,-1,-1,-1,-1,-1,-1],"split_conditions":[2.1E1,5E0,7E0,3E0,6E0,6E0,2.3E1,6E0,4E0,2.505131E-1,5E0,2.3E1,2.3E1,-9.048199E-2,-6.874814E-2,-4.288355E-2,-3.114726E-2,8.307058E-3,-4.217122E-2,2.9264277E-2,-5.4103085E-3,-3.9744306E-2,-1.0017955E-1,1.3565056E-1,-4.4360127E-2],"split_indices":[1,1,0,1,1,0,1,0,0,0,0,1,1,0,0,0,0,0,0,0,0,0,0,0,0],"split_type":[0,0,0,0,0,0,0,0,0,0,0,0,0,0,0,0,0,0,0,0,0,0,0,0,0],"sum_hessian":[5.754E3,4.704E3,1.05E3,9.85E2,3.719E3,8.91E2,1.59E2,5.08E2,4.77E2,2E1,3.699E3,7.26E2,1.65E2,1.12E2,4.7E1,3.49E2,1.59E2,2.37E2,2.4E2,2.149E3,1.55E3,6.51E2,7.5E1,1.19E2,4.6E1],"tree_param":{"num_deleted":"0","num_feature":"2","num_nodes":"25","size_leaf_vector":"1"}},{"base_weights":[-1.96128E-3,4.3710615E-2,-3.8654384E-1,-1.8660726E-1,1.3791959E-1,-5.9829E-1,-3.805206E-2,1.7496552E-1,-9.846154E-1,-3.6215156E-1,2.2956273E-1,-5.204171E-1,-9.02934E-1,4.3488723E-1,-7.6246935E-1,-2.0318069E-2,9.0914965E-2,-3.7640374E-2,-2.1454675E-1,-1.0400879E-1,5.4339523E-4,3.596425E-2,2.5825324E-3,-9.053042E-2,-4.0616553E-2,-5.3580143E-2,-1.5493673E-1,8.4345035E-2,-4.0018484E-2,-8.973164E-2,-6.2016543E-2],"categories":[],"categories_nodes":[],"categories_segments":[],"categories_sizes":[],"default_left":[0,0,0,0,0,0,0,0,0,0,0,0,0,0,0,0,0,0,0,0,0,0,0,0,0,0,0,0,0,0,0],"id":33,"left_children":[1,3,5,7,9,11,13,15,17,19,21,23,25,27,29,-1,-1,-1,-1,-1,-1,-1,-1,-1,-1,-1,-1,-1,-1,-1,-1],"loss_changes":[1.0110126E2,1.11662E2,4.506402E1,4.3124805E2,1.6744733E2,8.545029E0,7.981603E1,2.858649E2,3.2820883E2,1.410526E2,8.180275E1,1.304435E1,1.720668E1,4.844388E1,1.208931E0,0E0,0E0,0E0,0E0,0E0,0E0,0E0,0E0,0E0,0E0,0E0,0E0,0E0,0E0,0E0,0E0],"parents":[2147483647,0,0,1,1,2,2,3,3,4,4,5,5,6,6,7,7,8,8,9,9,10,10,11,11,12,12,13,13,14,14],"right_children":[2,4,6,8,10,12,14,16,18,20,22,24,26,28,30,-1,-1,-1,-1,-1,-1,-1,-1,-1,-1,-1,-1,-1,-1,-1,-1],"split_conditions":[2.2E1,9E0,5E0,6E0,2E0,2.3E1,7E0,5E0,5E0,1.4E1,1.8E1,2E0,3E0,2.3E1,2.3E1,-2.0318069E-2,9.0914965E-2,-3.7640374E-2,-2.1454675E-1,-1.0400879E-1,5.4339523E-4,3.596425E-2,2.5825324E-3,-9.053042E-2,-4.0616553E-2,-5.3580143E-2,-1.5493673E-1,8.4345035E-2,-4.0018484E-2,-8.973164E-2,-6.2016543E-2],"split_indices":[1,1,0,0,0,1,0,1,1,1,1,0,0,1,1,0,0,0,0,0,0,0,0,0,0,0,0,0,0,0,0],"split_type":[0,0,0,0,0,0,0,0,0,0,0,0,0,0,0,0,0,0,0,0,0,0,0,0,0,0,0,0,0,0,0],"sum_hessian":[5.754E3,5.144E3,6.1E2,1.493E3,3.651E3,3.79E2,2.31E2,1.028E3,4.65E2,5.65E2,3.086E3,3.04E2,7.5E1,1.4E2,9.1E1,6.79E2,3.49E2,3.06E2,1.59E2,1.98E2,3.67E2,1.883E3,1.203E3,6.8E1,2.36E2,4.9E1,2.6E1,9.4E1,4.6E1,4.4E1,4.7E1],"tree_param":{"num_deleted":"0","num_feature":"2","num_nodes":"31","size_leaf_vector":"1"}},{"base_weights":[-1.8859088E-3,5.168704E-2,-2.875473E-1,-2.176594E-1,1.1895825E-1,-8.592633E-1,3.5151005E-2,6.2942974E-2,-6.7811054E-1,-3.7314844E-1,1.5912226E-1,-3.3343107E-1,-1.779982E0,7.0286053E-1,-8.298552E-1,-2.8939454E-2,2.0230937E-1,-8.645849E-2,-5.330028E-2,-4.7952894E-2,-2.8295124E-2,1.8390952E-2,-7.070481E-2,-1.842946E-2,-8.611286E-2,-3.1034228E-1,-1.07060134E-1,1.4412741E-1,5.7468068E-2,-1.0062312E-1,-7.1994536E-2],"categories":[],"categories_nodes":[],"categories_segments":[],"categories_sizes":[],"default_left":[0,0,0,0,0,0,0,0,0,0,0,0,0,0,0,0,0,0,0,0,0,0,0,0,0,0,0,0,0,0,0],"id":34,"left_children":[1,3,5,7,9,11,13,15,17,19,21,23,25,27,29,-1,-1,-1,-1,-1,-1,-1,-1,-1,-1,-1,-1,-1,-1,-1,-1],"loss_changes":[8.808778E1,8.7849945E1,1.6773325E2,1.2524107E2,7.672772E1,1.582056E2,3.3673068E2,4.1703812E2,9.469772E0,2.6757164E0,7.7142845E1,1.6368074E1,1.0839743E2,3.0311493E1,4.199478E0,0E0,0E0,0E0,0E0,0E0,0E0,0E0,0E0,0E0,0E0,0E0,0E0,0E0,0E0,0E0,0E0],"parents":[2147483647,0,0,1,1,2,2,3,3,4,4,5,5,6,6,7,7,8,8,9,9,10,10,11,11,12,12,13,13,14,14],"right_children":[2,4,6,8,10,12,14,16,18,20,22,24,26,28,30,-1,-1,-1,-1,-1,-1,-1,-1,-1,-1,-1,-1,-1,-1,-1,-1],"split_conditions":[7E0,2E0,1E1,1.7E1,4E0,5E0,1.9E1,1.4E1,2E1,4E0,2.3E1,4E0,8E0,1.1E1,2.1E1,-2.8939454E-2,2.0230937E-1,-8.645849E-2,-5.330028E-2,-4.7952894E-2,-2.8295124E-2,1.8390952E-2,-7.070481E-2,-1.842946E-2,-8.611286E-2,-3.1034228E-1,-1.07060134E-1,1.4412741E-1,5.7468068E-2,-1.0062312E-1,-7.1994536E-2],"split_indices":[0,0,1,1,1,1,1,1,1,0,1,1,1,1,1,0,0,0,0,0,0,0,0,0,0,0,0,0,0,0,0],"split_type":[0,0,0,0,0,0,0,0,0,0,0,0,0,0,0,0,0,0,0,0,0,0,0,0,0,0,0,0,0,0,0],"sum_hessian":[5.754E3,4.846E3,9.08E2,9.68E2,3.878E3,3.27E2,5.81E2,6.02E2,3.66E2,2.92E2,3.586E3,2.09E2,1.18E2,3.28E2,2.53E2,5.11E2,9.1E1,1.58E2,2.08E2,1.32E2,1.6E2,3.487E3,9.9E1,1.64E2,4.5E1,4E1,7.8E1,4.7E1,2.81E2,9.4E1,1.59E2],"tree_param":{"num_deleted":"0","num_feature":"2","num_nodes":"31","size_leaf_vector":"1"}},{"base_weights":[-1.7992852E-3,5.265723E-2,-2.4558246E-1,-1.2259388E-1,1.6012092E-1,-3.8633493E-1,7.002559E-2,1.7177546E-1,-8.037774E-1,-9.197098E-2,3.484147E-1,-3.4327644E-1,-7.5064796E-1,7.620629E-1,-6.484008E-1,-1.6495893E-2,5.724893E-2,-3.1508185E-2,-1.4414944E-1,2.1479371E-1,-1.3764559E-2,1.0271132E-1,1.331387E-2,-6.586949E-2,-2.541625E-2,-4.216603E-2,-1.3320826E-1,1.1684821E-1,-2.9181732E-2,-7.103956E-2,-4.889463E-2],"categories":[],"categories_nodes":[],"categories_segments":[],"categories_sizes":[],"default_left":[0,0,0,0,0,0,0,0,0,0,0,0,0,0,0,0,0,0,0,0,0,0,0,0,0,0,0,0,0,0,0],"id":35,"left_children":[1,3,5,7,9,11,13,15,17,19,21,23,25,27,29,-1,-1,-1,-1,-1,-1,-1,-1,-1,-1,-1,-1,-1,-1,-1,-1],"loss_changes":[7.641392E1,8.862951E1,4.6715218E1,3.5886752E2,1.3849425E2,1.1146606E1,1.6207693E2,1.687621E2,1.6783652E2,1.2797472E2,2.438628E2,1.8159111E1,1.397596E1,7.1441635E1,1.2343063E0,0E0,0E0,0E0,0E0,0E0,0E0,0E0,0E0,0E0,0E0,0E0,0E0,0E0,0E0,0E0,0E0],"parents":[2147483647,0,0,1,1,2,2,3,3,4,4,5,5,6,6,7,7,8,8,9,9,10,10,11,11,12,12,13,13,14,14],"right_children":[2,4,6,8,10,12,14,16,18,20,22,24,26,28,30,-1,-1,-1,-1,-1,-1,-1,-1,-1,-1,-1,-1,-1,-1,-1,-1],"split_conditions":[2.1E1,1E1,6E0,6E0,4E0,2.3E1,7E0,5E0,5E0,1.1E1,5E0,2E0,3E0,2.3E1,2.3E1,-1.6495893E-2,5.724893E-2,-3.1508185E-2,-1.4414944E-1,2.1479371E-1,-1.3764559E-2,1.0271132E-1,1.331387E-2,-6.586949E-2,-2.541625E-2,-4.216603E-2,-1.3320826E-1,1.1684821E-1,-2.9181732E-2,-7.103956E-2,-4.889463E-2],"split_indices":[1,1,0,0,0,1,0,1,1,1,0,0,0,1,1,0,0,0,0,0,0,0,0,0,0,0,0,0,0,0,0],"split_type":[0,0,0,0,0,0,0,0,0,0,0,0,0,0,0,0,0,0,0,0,0,0,0,0,0,0,0,0,0,0,0],"sum_hessian":[5.754E3,4.704E3,1.05E3,1.788E3,2.916E3,7.26E2,3.24E2,1.249E3,5.39E2,1.247E3,1.669E3,6.51E2,7.5E1,1.65E2,1.59E2,6.79E2,5.7E2,3.06E2,2.33E2,2.4E1,1.223E3,4.01E2,1.268E3,1.42E2,5.09E2,4.9E1,2.6E1,1.19E2,4.6E1,1.12E2,4.7E1],"tree_param":{"num_deleted":"0","num_feature":"2","num_nodes":"31","size_leaf_vector":"1"}},{"base_weights":[-1.6394635E-3,7.9833984E-2,-1.5163666E-1,-4.1688185E-2,4.7286278E-1,-4.4232506E-1,6.055636E-2,2.101843E-2,-3.3573782E-1,1.0318164E0,-2.4992366E-1,-1.403327E0,-2.5380188E-1,8.495384E-1,-8.629222E-2,-2.6665522E-2,1.0109885E-2,-7.029929E-2,3.5848852E-2,7.14904E-2,2.5594988E-1,-1.2622066E-1,2.8934551E-2,-8.8737525E-2,-1.6545351E-1,5.929863E-2,-4.1681956E-2,2.427609E-1,-7.489191E-3,1.2979835E-2,-7.121047E-2],"categories":[],"categories_nodes":[],"categories_segments":[],"categories_sizes":[],"default_left":[0,0,0,0,0,0,0,0,0,0,0,0,0,0,0,0,0,0,0,0,0,0,0,0,0,0,0,0,0,0,0],"id":36,"left_children":[1,3,5,7,9,11,13,15,17,19,21,23,25,27,29,-1,-1,-1,-1,-1,-1,-1,-1,-1,-1,-1,-1,-1,-1,-1,-1],"loss_changes":[7.034275E1,1.781709E2,1.2499461E2,5.25578E1,3.5618542E2,1.5454515E2,1.3586227E2,5.4163963E1,1.2798602E2,2.3878851E2,2.1053401E2,1.6677368E1,9.908484E1,2.68604E2,1.3383705E2,0E0,0E0,0E0,0E0,0E0,0E0,0E0,0E0,0E0,0E0,0E0,0E0,0E0,0E0,0E0,0E0],"parents":[2147483647,0,0,1,1,2,2,3,3,4,4,5,5,6,6,7,7,8,8,9,9,10,10,11,11,12,12,13,13,14,14],"right_children":[2,4,6,8,10,12,14,16,18,20,22,24,26,28,30,-1,-1,-1,-1,-1,-1,-1,-1,-1,-1,-1,-1,-1,-1,-1,-1],"split_conditions":[1.8E1,1.5E1,4E0,7E0,5E0,1.9E1,1.9E1,2E0,1E1,4E0,6E0,2E0,2E1,5E0,7E0,-2.6665522E-2,1.0109885E-2,-7.029929E-2,3.5848852E-2,7.14904E-2,2.5594988E-1,-1.2622066E-1,2.8934551E-2,-8.8737525E-2,-1.6545351E-1,5.929863E-2,-4.1681956E-2,2.427609E-1,-7.489191E-3,1.2979835E-2,-7.121047E-2],"split_indices":[1,1,0,0,0,1,1,0,1,0,0,0,1,0,0,0,0,0,0,0,0,0,0,0,0,0,0,0,0,0,0],"split_type":[0,0,0,0,0,0,0,0,0,0,0,0,0,0,0,0,0,0,0,0,0,0,0,0,0,0,0,0,0,0,0],"sum_hessian":[5.754E3,3.729E3,2.025E3,2.849E3,8.8E2,8.54E2,1.171E3,2.349E3,5E2,4.96E2,3.84E2,1.39E2,7.15E2,1.83E2,9.88E2,5.11E2,1.838E3,3.27E2,1.73E2,4.12E2,8.4E1,1.33E2,2.51E2,4.7E1,9.2E1,1.15E2,6E2,6.7E1,1.16E2,7.35E2,2.53E2],"tree_param":{"num_deleted":"0","num_feature":"2","num_nodes":"31","size_leaf_vector":"1"}},{"base_weights":[-1.4545606E-3,7.1898796E-2,-1.3650222E-1,-3.753694E-2,4.2583746E-1,-3.9836916E-1,5.4651972E-2,1.8909942E-2,-3.0223283E-1,9.29293E-1,-2.2518393E-1,-1.2648096E0,-2.2839703E-1,7.658628E-1,-7.772159E-2,-2.8518382E-2,9.009467E-3,-6.3290805E-2,3.2284595E-2,6.4358585E-2,2.3065607E-1,-6.6233955E-2,8.598878E-2,-8.004864E-2,-1.4908603E-1,5.34199E-2,-3.752069E-2,2.1884175E-1,-6.746687E-3,1.1683646E-2,-6.411743E-2],"categories":[],"categories_nodes":[],"categories_segments":[],"categories_sizes":[],"default_left":[0,0,0,0,0,0,0,0,0,0,0,0,0,0,0,0,0,0,0,0,0,0,0,0,0,0,0,0,0,0,0],"id":37,"left_children":[1,3,5,7,9,11,13,15,17,19,21,23,25,27,29,-1,-1,-1,-1,-1,-1,-1,-1,-1,-1,-1,-1,-1,-1,-1,-1],"loss_changes":[5.701999E1,1.444921E2,1.01437195E2,4.2588303E1,2.8896606E2,1.2562761E2,1.1039807E2,5.0895744E1,1.03760056E2,1.940827E2,1.8319241E2,1.3501068E1,8.036139E1,2.1827173E2,1.0849332E2,0E0,0E0,0E0,0E0,0E0,0E0,0E0,0E0,0E0,0E0,0E0,0E0,0E0,0E0,0E0,0E0],"parents":[2147483647,0,0,1,1,2,2,3,3,4,4,5,5,6,6,7,7,8,8,9,9,10,10,11,11,12,12,13,13,14,14],"right_children":[2,4,6,8,10,12,14,16,18,20,22,24,26,28,30,-1,-1,-1,-1,-1,-1,-1,-1,-1,-1,-1,-1,-1,-1,-1,-1],"split_conditions":[1.8E1,1.5E1,4E0,7E0,5E0,1.9E1,1.9E1,4E0,1E1,4E0,7E0,2E0,2E1,5E0,7E0,-2.8518382E-2,9.009467E-3,-6.3290805E-2,3.2284595E-2,6.4358585E-2,2.3065607E-1,-6.6233955E-2,8.598878E-2,-8.004864E-2,-1.4908603E-1,5.34199E-2,-3.752069E-2,2.1884175E-1,-6.746687E-3,1.1683646E-2,-6.411743E-2],"split_indices":[1,1,0,0,0,1,1,1,1,0,0,0,1,0,0,0,0,0,0,0,0,0,0,0,0,0,0,0,0,0,0],"split_type":[0,0,0,0,0,0,0,0,0,0,0,0,0,0,0,0,0,0,0,0,0,0,0,0,0,0,0,0,0,0,0],"sum_hessian":[5.754E3,3.729E3,2.025E3,2.849E3,8.8E2,8.54E2,1.171E3,2.349E3,5E2,4.96E2,3.84E2,1.39E2,7.15E2,1.83E2,9.88E2,4.45E2,1.904E3,3.27E2,1.73E2,4.12E2,8.4E1,2.74E2,1.1E2,4.7E1,9.2E1,1.15E2,6E2,6.7E1,1.16E2,7.35E2,2.53E2],"tree_param":{"num_deleted":"0","num_feature":"2","num_nodes":"31","size_leaf_vector":"1"}},{"base_weights":[-1.2726034E-3,6.4779595E-2,-1.2287843E-1,-3.3801377E-2,3.836116E-1,-3.5878173E-1,4.9323086E-2,1.701012E-2,-2.7207127E-1,8.36958E-1,-2.0261383E-1,-1.1399654E0,-2.055352E-1,6.9042903E-1,-7.000232E-2,-2.3782013E-2,8.794872E-3,-5.698104E-2,2.9074768E-2,5.7938386E-2,2.0786189E-1,-1.0711875E-1,2.600508E-2,-7.221056E-2,-1.3433774E-1,4.8123945E-2,-3.377487E-2,1.9727941E-1,-6.0778237E-3,1.0516887E-2,-5.773093E-2],"categories":[],"categories_nodes":[],"categories_segments":[],"categories_sizes":[],"default_left":[0,0,0,0,0,0,0,0,0,0,0,0,0,0,0,0,0,0,0,0,0,0,0,0,0,0,0,0,0,0,0],"id":38,"left_children":[1,3,5,7,9,11,13,15,17,19,21,23,25,27,29,-1,-1,-1,-1,-1,-1,-1,-1,-1,-1,-1,-1,-1,-1,-1,-1],"loss_changes":[4.623403E1,1.17249725E2,8.23197E1,3.4509155E1,2.3430695E2,1.02120895E2,8.97066E1,4.2502567E1,8.411984E1,1.5774606E2,1.5499402E2,1.0929611E1,6.517597E1,1.7737114E2,8.794876E1,0E0,0E0,0E0,0E0,0E0,0E0,0E0,0E0,0E0,0E0,0E0,0E0,0E0,0E0,0E0,0E0],"parents":[2147483647,0,0,1,1,2,2,3,3,4,4,5,5,6,6,7,7,8,8,9,9,10,10,11,11,12,12,13,13,14,14],"right_children":[2,4,6,8,10,12,14,16,18,20,22,24,26,28,30,-1,-1,-1,-1,-1,-1,-1,-1,-1,-1,-1,-1,-1,-1,-1,-1],"split_conditions":[1.8E1,1.5E1,4E0,7E0,5E0,1.9E1,1.9E1,2E0,1E1,4E0,6E0,2E0,2E1,5E0,7E0,-2.3782013E-2,8.794872E-3,-5.698104E-2,2.9074768E-2,5.7938386E-2,2.0786189E-1,-1.0711875E-1,2.600508E-2,-7.221056E-2,-1.3433774E-1,4.8123945E-2,-3.377487E-2,1.9727941E-1,-6.0778237E-3,1.0516887E-2,-5.773093E-2],"split_indices":[1,1,0,0,0,1,1,0,1,0,0,0,1,0,0,0,0,0,0,0,0,0,0,0,0,0,0,0,0,0,0],"split_type":[0,0,0,0,0,0,0,0,0,0,0,0,0,0,0,0,0,0,0,0,0,0,0,0,0,0,0,0,0,0,0],"sum_hessian":[5.754E3,3.729E3,2.025E3,2.849E3,8.8E2,8.54E2,1.171E3,2.349E3,5E2,4.96E2,3.84E2,1.39E2,7.15E2,1.83E2,9.88E2,5.11E2,1.838E3,3.27E2,1.73E2,4.12E2,8.4E1,1.33E2,2.51E2,4.7E1,9.2E1,1.15E2,6E2,6.7E1,1.16E2,7.35E2,2.53E2],"tree_param":{"num_deleted":"0","num_feature":"2","num_nodes":"31","size_leaf_vector":"1"}},{"base_weights":[-1.1289916E-3,2.697905E-2,-2.3781434E-1,-2.7277943E-1,4.9050357E-2,-4.2183375E-1,6.462181E-2,-3.022426E-1,1.842455E-2,8.335255E-2,-1.2303863E-1,-2.703984E-1,-5.596662E-1,3.4562293E-1,-3.6674532E-1,-1.769694E-2,-3.4463637E-2,-1.2009599E-2,1.3549921E-2,-5.6129765E-2,1.5123545E-2,-4.8538867E-2,-5.712411E-3,-4.499791E-2,-1.2376856E-1,6.602545E-2,-2.9768815E-2,-4.809546E-2,-2.5203362E-2],"categories":[],"categories_nodes":[],"categories_segments":[],"categories_sizes":[],"default_left":[0,0,0,0,0,0,0,0,0,0,0,0,0,0,0,0,0,0,0,0,0,0,0,0,0,0,0,0,0],"id":39,"left_children":[1,3,5,7,9,11,13,15,-1,17,19,21,23,25,27,-1,-1,-1,-1,-1,-1,-1,-1,-1,-1,-1,-1,-1,-1],"loss_changes":[3.829306E1,3.4053017E1,3.4031925E1,4.8089714E0,2.8303474E1,7.7802963E0,2.8248554E1,1.702198E0,0E0,4.2421097E1,9.588676E1,8.363171E0,1.4168331E1,2.8735792E1,1.0840883E0,0E0,0E0,0E0,0E0,0E0,0E0,0E0,0E0,0E0,0E0,0E0,0E0,0E0,0E0],"parents":[2147483647,0,0,1,1,2,2,3,3,4,4,5,5,6,6,7,7,9,9,10,10,11,11,12,12,13,13,14,14],"right_children":[2,4,6,8,10,12,14,16,-1,18,20,22,24,26,28,-1,-1,-1,-1,-1,-1,-1,-1,-1,-1,-1,-1,-1,-1],"split_conditions":[2.2E1,2E0,5E0,7E0,7E0,3E0,7E0,1E0,1.842455E-2,2E0,1E1,2E0,2.3E1,2.3E1,2.3E1,-1.769694E-2,-3.4463637E-2,-1.2009599E-2,1.3549921E-2,-5.6129765E-2,1.5123545E-2,-4.8538867E-2,-5.712411E-3,-4.499791E-2,-1.2376856E-1,6.602545E-2,-2.9768815E-2,-4.809546E-2,-2.5203362E-2],"split_indices":[1,1,0,0,0,0,0,1,0,0,1,0,1,1,1,0,0,0,0,0,0,0,0,0,0,0,0,0,0],"split_type":[0,0,0,0,0,0,0,0,0,0,0,0,0,0,0,0,0,0,0,0,0,0,0,0,0,0,0,0,0],"sum_hessian":[5.754E3,5.144E3,6.1E2,3.52E2,4.792E3,3.79E2,2.31E2,3.31E2,2.1E1,3.996E3,7.96E2,1.82E2,1.97E2,1.4E2,9.1E1,8.5E1,2.46E2,8.15E2,3.181E3,3.06E2,4.9E2,9E1,9.2E1,1.71E2,2.6E1,9.4E1,4.6E1,4.4E1,4.7E1],"tree_param":{"num_deleted":"0","num_feature":"2","num_nodes":"29","size_leaf_vector":"1"}},{"base_weights":[-1.0739979E-3,5.837366E-2,-1.10520534E-1,-2.7537422E-2,3.3622634E-1,-3.167176E-1,3.9999086E-2,1.2787606E-2,-2.1663179E-1,7.482462E-1,-1.9652718E-1,-1.0323169E0,-1.7635359E-1,6.085644E-1,-6.582095E-2,-2.3025287E-2,6.9681704E-3,-4.618177E-2,2.4680272E-2,5.176617E-2,1.8598129E-1,-5.7137318E-2,7.339159E-2,-6.3964024E-2,-1.22388855E-1,4.3045297E-2,-2.9318089E-2,1.7650658E-1,-6.8791644E-3,8.978668E-3,-5.1645637E-2],"categories":[],"categories_nodes":[],"categories_segments":[],"categories_sizes":[],"default_left":[0,0,0,0,0,0,0,0,0,0,0,0,0,0,0,0,0,0,0,0,0,0,0,0,0,0,0,0,0,0,0],"id":40,"left_children":[1,3,5,7,9,11,13,15,17,19,21,23,25,27,29,-1,-1,-1,-1,-1,-1,-1,-1,-1,-1,-1,-1,-1,-1,-1,-1],"loss_changes":[3.745044E1,8.904669E1,6.289303E1,2.1734694E1,1.9353098E2,8.5697876E1,7.0554146E1,3.2510834E1,5.7041405E1,1.2642337E2,1.346969E2,9.748764E0,5.0884567E1,1.4426025E2,6.939733E1,0E0,0E0,0E0,0E0,0E0,0E0,0E0,0E0,0E0,0E0,0E0,0E0,0E0,0E0,0E0,0E0],"parents":[2147483647,0,0,1,1,2,2,3,3,4,4,5,5,6,6,7,7,8,8,9,9,10,10,11,11,12,12,13,13,14,14],"right_children":[2,4,6,8,10,12,14,16,18,20,22,24,26,28,30,-1,-1,-1,-1,-1,-1,-1,-1,-1,-1,-1,-1,-1,-1,-1,-1],"split_conditions":[1.8E1,1.5E1,4E0,7E0,5E0,1.9E1,1.9E1,4E0,1E1,4E0,7E0,2E0,2E1,5E0,7E0,-2.3025287E-2,6.9681704E-3,-4.618177E-2,2.4680272E-2,5.176617E-2,1.8598129E-1,-5.7137318E-2,7.339159E-2,-6.3964024E-2,-1.22388855E-1,4.3045297E-2,-2.9318089E-2,1.7650658E-1,-6.8791644E-3,8.978668E-3,-5.1645637E-2],"split_indices":[1,1,0,0,0,1,1,1,1,0,0,0,1,0,0,0,0,0,0,0,0,0,0,0,0,0,0,0,0,0,0],"split_type":[0,0,0,0,0,0,0,0,0,0,0,0,0,0,0,0,0,0,0,0,0,0,0,0,0,0,0,0,0,0,0],"sum_hessian":[5.754E3,3.729E3,2.025E3,2.849E3,8.8E2,8.54E2,1.171E3,2.349E3,5E2,4.96E2,3.84E2,1.39E2,7.15E2,1.83E2,9.88E2,4.45E2,1.904E3,3.27E2,1.73E2,4.12E2,8.4E1,2.74E2,1.1E2,4.7E1,9.2E1,1.15E2,6E2,6.7E1,1.16E2,7.35E2,2.53E2],"tree_param":{"num_deleted":"0","num_feature":"2","num_nodes":"31","size_leaf_vector":"1"}},{"base_weights":[-9.3684165E-4,5.2594528E-2,-9.949117E-2,-2.479663E-2,3.0289215E-1,-2.8524783E-1,3.6107328E-2,1.6080579E-2,-1.9654009E-1,6.739005E-1,-1.7683263E-1,-9.3041635E-1,-1.5869917E-1,5.486299E-1,-5.928221E-2,1.716173E-2,-3.0941984E-2,-1.1500052E-1,1.9960536E-2,4.6602156E-2,1.6760191E-1,-9.216069E-2,2.1989983E-2,-5.770089E-2,-1.1028158E-1,3.87779E-2,-2.6391178E-2,1.5911554E-1,-6.197157E-3,8.0820015E-3,-4.650143E-2],"categories":[],"categories_nodes":[],"categories_segments":[],"categories_sizes":[],"default_left":[0,0,0,0,0,0,0,0,0,0,0,0,0,0,0,0,0,0,0,0,0,0,0,0,0,0,0,0,0,0,0],"id":41,"left_children":[1,3,5,7,9,11,13,15,17,19,21,23,25,27,29,-1,-1,-1,-1,-1,-1,-1,-1,-1,-1,-1,-1,-1,-1,-1,-1],"loss_changes":[3.0367163E1,7.226068E1,5.1041847E1,2.0011278E1,1.569212E2,6.9659E1,5.7330772E1,1.1664769E2,2.0721512E2,1.0275363E2,1.1396095E2,7.893486E0,4.1269753E1,1.1722705E2,5.6256268E1,0E0,0E0,0E0,0E0,0E0,0E0,0E0,0E0,0E0,0E0,0E0,0E0,0E0,0E0,0E0,0E0],"parents":[2147483647,0,0,1,1,2,2,3,3,4,4,5,5,6,6,7,7,8,8,9,9,10,10,11,11,12,12,13,13,14,14],"right_children":[2,4,6,8,10,12,14,16,18,20,22,24,26,28,30,-1,-1,-1,-1,-1,-1,-1,-1,-1,-1,-1,-1,-1,-1,-1,-1],"split_conditions":[1.8E1,1.5E1,4E0,1.2E1,5E0,1.9E1,1.9E1,6E0,3E0,4E0,6E0,2E0,2E1,5E0,7E0,1.716173E-2,-3.0941984E-2,-1.1500052E-1,1.9960536E-2,4.6602156E-2,1.6760191E-1,-9.216069E-2,2.1989983E-2,-5.770089E-2,-1.1028158E-1,3.87779E-2,-2.6391178E-2,1.5911554E-1,-6.197157E-3,8.0820015E-3,-4.650143E-2],"split_indices":[1,1,0,1,0,1,1,0,0,0,0,0,1,0,0,0,0,0,0,0,0,0,0,0,0,0,0,0,0,0,0],"split_type":[0,0,0,0,0,0,0,0,0,0,0,0,0,0,0,0,0,0,0,0,0,0,0,0,0,0,0,0,0,0,0],"sum_hessian":[5.754E3,3.729E3,2.025E3,2.849E3,8.8E2,8.54E2,1.171E3,2.302E3,5.47E2,4.96E2,3.84E2,1.39E2,7.15E2,1.83E2,9.88E2,1.558E3,7.44E2,1.6E2,3.87E2,4.12E2,8.4E1,1.33E2,2.51E2,4.7E1,9.2E1,1.15E2,6E2,6.7E1,1.16E2,7.35E2,2.53E2],"tree_param":{"num_deleted":"0","num_feature":"2","num_nodes":"31","size_leaf_vector":"1"}},{"base_weights":[-8.442749E-4,4.7344454E-2,-8.95625E-2,-2.2355236E-2,2.7276644E-1,-4.5361856E-1,-2.5526214E-2,-1.9827816E-1,1.6163316E-2,6.069413E-1,-1.5933137E-1,-9.357317E-1,-2.3230578E-1,-1.17052525E-1,1.3641202E-1,1.6539518E-2,-1.2150947E-1,-1.6892133E-2,1.756148E-2,4.195322E-2,1.5103884E-1,-4.8114672E-2,6.393944E-2,-5.205099E-2,-1.3314591E-1,2.1106992E-2,-3.5181854E-2,-8.596058E-3,-7.188747E-2,4.5405284E-2,-2.0930594E-2],"categories":[],"categories_nodes":[],"categories_segments":[],"categories_sizes":[],"default_left":[0,0,0,0,0,0,0,0,0,0,0,0,0,0,0,0,0,0,0,0,0,0,0,0,0,0,0,0,0,0,0],"id":42,"left_children":[1,3,5,7,9,11,13,15,17,19,21,23,25,27,29,-1,-1,-1,-1,-1,-1,-1,-1,-1,-1,-1,-1,-1,-1,-1,-1],"loss_changes":[2.460812E1,5.8611267E1,4.7220142E1,1.9315647E1,1.27309784E2,3.211206E1,2.5568424E1,1.8953299E2,6.905829E1,8.351549E1,9.926889E1,1.4916847E1,1.1148967E1,2.0558632E1,6.850924E1,0E0,0E0,0E0,0E0,0E0,0E0,0E0,0E0,0E0,0E0,0E0,0E0,0E0,0E0,0E0,0E0],"parents":[2147483647,0,0,1,1,2,2,3,3,4,4,5,5,6,6,7,7,8,8,9,9,10,10,11,11,12,12,13,13,14,14],"right_children":[2,4,6,8,10,12,14,16,18,20,22,24,26,28,30,-1,-1,-1,-1,-1,-1,-1,-1,-1,-1,-1,-1,-1,-1,-1,-1],"split_conditions":[1.8E1,1.5E1,2E0,2E0,5E0,2E1,6E0,1E1,8E0,4E0,7E0,1.9E1,2.1E1,2.3E1,7E0,1.6539518E-2,-1.2150947E-1,-1.6892133E-2,1.756148E-2,4.195322E-2,1.5103884E-1,-4.8114672E-2,6.393944E-2,-5.205099E-2,-1.3314591E-1,2.1106992E-2,-3.5181854E-2,-8.596058E-3,-7.188747E-2,4.5405284E-2,-2.0930594E-2],"split_indices":[1,1,0,0,0,1,0,1,1,0,0,1,1,1,0,0,0,0,0,0,0,0,0,0,0,0,0,0,0,0,0],"split_type":[0,0,0,0,0,0,0,0,0,0,0,0,0,0,0,0,0,0,0,0,0,0,0,0,0,0,0,0,0,0,0],"sum_hessian":[5.754E3,3.729E3,2.025E3,2.849E3,8.8E2,3.02E2,1.723E3,5.11E2,2.338E3,4.96E2,3.84E2,9.4E1,2.08E2,1.101E3,6.22E2,3.77E2,1.34E2,1.082E3,1.256E3,4.12E2,8.4E1,2.74E2,1.1E2,4.7E1,4.7E1,4.4E1,1.64E2,1.048E3,5.3E1,3.24E2,2.98E2],"tree_param":{"num_deleted":"0","num_feature":"2","num_nodes":"31","size_leaf_vector":"1"}},{"base_weights":[-7.859535E-4,4.8611455E-2,-7.289739E-2,-2.0156087E-2,3.9418268E-1,-4.645395E-1,-4.7566802E-5,1.725266E-2,-1.7733161E-1,1.4523348E0,5.367298E-2,-7.973284E-1,-2.0914249E-1,5.5457152E-2,-2.6791093E-1,1.5827771E-2,-2.7788196E-2,-5.6896754E-2,6.5367706E-2,1.354798E-1,1.8390095E-1,-2.0926828E-2,1.3861404E-1,-6.1717015E-2,-1.20108664E-1,1.9043224E-2,-3.168499E-2,-3.717803E-3,3.703175E-2,1.1897221E-2,-3.9784808E-2],"categories":[],"categories_nodes":[],"categories_segments":[],"categories_sizes":[],"default_left":[0,0,0,0,0,0,0,0,0,0,0,0,0,0,0,0,0,0,0,0,0,0,0,0,0,0,0,0,0,0,0],"id":43,"left_children":[1,3,5,7,9,11,13,15,17,19,21,23,25,27,29,-1,-1,-1,-1,-1,-1,-1,-1,-1,-1,-1,-1,-1,-1,-1,-1],"loss_changes":[2.0503534E1,8.118606E1,6.6762665E1,1.6760315E1,2.0421841E2,3.102578E1,2.9363659E1,9.5897995E1,1.7872008E2,2.7131958E0,1.5094513E2,1.0824448E1,9.055102E0,4.7731216E1,1.7089033E1,0E0,0E0,0E0,0E0,0E0,0E0,0E0,0E0,0E0,0E0,0E0,0E0,0E0,0E0,0E0,0E0],"parents":[2147483647,0,0,1,1,2,2,3,3,4,4,5,5,6,6,7,7,8,8,9,9,10,10,11,11,12,12,13,13,14,14],"right_children":[2,4,6,8,10,12,14,16,18,20,22,24,26,28,30,-1,-1,-1,-1,-1,-1,-1,-1,-1,-1,-1,-1,-1,-1,-1,-1],"split_conditions":[1.7E1,1.5E1,2E0,1.2E1,3E0,2E1,7E0,6E0,6E0,1.6E1,7E0,1.9E1,2.1E1,6E0,1.9E1,1.5827771E-2,-2.7788196E-2,-5.6896754E-2,6.5367706E-2,1.354798E-1,1.8390095E-1,-2.0926828E-2,1.3861404E-1,-6.1717015E-2,-1.20108664E-1,1.9043224E-2,-3.168499E-2,-3.717803E-3,3.703175E-2,1.1897221E-2,-3.9784808E-2],"split_indices":[1,1,0,1,0,1,0,0,0,1,0,1,1,0,1,0,0,0,0,0,0,0,0,0,0,0,0,0,0,0,0],"split_type":[0,0,0,0,0,0,0,0,0,0,0,0,0,0,0,0,0,0,0,0,0,0,0,0,0,0,0,0,0,0,0],"sum_hessian":[5.754E3,3.415E3,2.339E3,2.849E3,5.66E2,3.66E2,1.973E3,2.302E3,5.47E2,1.37E2,4.29E2,1.58E2,2.08E2,1.635E3,3.38E2,1.558E3,7.44E2,3.72E2,1.75E2,1.13E2,2.4E1,3.59E2,7E1,1.11E2,4.7E1,4.4E1,1.64E2,1.264E3,3.71E2,8.5E1,2.53E2],"tree_param":{"num_deleted":"0","num_feature":"2","num_nodes":"31","size_leaf_vector":"1"}},{"base_weights":[-6.649149E-4,-2.2560944E-1,1.403175E-2,-2.58628E-1,2.829257E-2,7.4910276E-2,-6.5688685E-2,-2.8618187E-1,-8.963887E-3,1.1183475E-2,3.5553572E-1,-4.1861564E-1,-4.032028E-5,-1.68958E-2,-3.351572E-2,5.7144854E-3,-1.8216489E-2,1.3094163E-1,4.8579774E-3,-7.1873955E-2,-1.8828876E-2,4.9931547E-3,-2.4120236E-2],"categories":[],"categories_nodes":[],"categories_segments":[],"categories_sizes":[],"default_left":[0,0,0,0,0,0,0,0,0,0,0,0,0,0,0,0,0,0,0,0,0,0,0],"id":44,"left_children":[1,3,5,7,-1,9,11,13,-1,15,17,19,21,-1,-1,-1,-1,-1,-1,-1,-1,-1,-1],"loss_changes":[1.9028818E1,6.000431E0,2.6227098E1,1.5202408E0,0E0,5.479064E1,5.4215622E1,1.5795784E0,0E0,2.2209028E1,1.6595361E2,2.523413E1,2.380134E1,0E0,0E0,0E0,0E0,0E0,0E0,0E0,0E0,0E0,0E0],"parents":[2147483647,0,0,1,1,2,2,3,3,5,5,6,6,7,7,9,9,10,10,11,11,12,12],"right_children":[2,4,6,8,-1,10,12,14,-1,16,18,20,22,-1,-1,-1,-1,-1,-1,-1,-1,-1,-1],"split_conditions":[2E0,7E0,1.7E1,6E0,2.829257E-2,1.5E1,2E0,1E0,-8.963887E-3,7E0,3E0,2E1,7E0,-1.68958E-2,-3.351572E-2,5.7144854E-3,-1.8216489E-2,1.3094163E-1,4.8579774E-3,-7.1873955E-2,-1.8828876E-2,4.9931547E-3,-2.4120236E-2],"split_indices":[1,0,1,0,0,1,0,1,0,0,0,1,0,0,0,0,0,0,0,0,0,0,0],"split_type":[0,0,0,0,0,0,0,0,0,0,0,0,0,0,0,0,0,0,0,0,0,0,0],"sum_hessian":[5.754E3,3.52E2,5.402E3,3.31E2,2.1E1,3.063E3,2.339E3,2.84E2,4.7E1,2.497E3,5.66E2,3.66E2,1.973E3,8.5E1,1.99E2,2.018E3,4.79E2,1.37E2,4.29E2,1.58E2,2.08E2,1.635E3,3.38E2],"tree_param":{"num_deleted":"0","num_feature":"2","num_nodes":"23","size_leaf_vector":"1"}},{"base_weights":[-6.01495E-4,1.864304E-2,-1.6265146E-1,-2.0313658E-1,3.4973014E-2,-3.137294E-1,8.5504904E-2,-2.3294407E-1,2.5591908E-2,-1.0012487E-1,6.267661E-2,-1.3308637E-1,-4.791029E-1,2.8473777E-1,-2.10015E-1,-2.854127E-2,-1.5617917E-2,2.673698E-2,-2.6291823E-2,2.7780605E-2,2.096155E-3,-2.9753221E-2,2.9254023E-3,-3.8404178E-2,-1.06693305E-1,5.3741105E-2,-2.5501108E-2,-3.7082016E-2,-4.818463E-3],"categories":[],"categories_nodes":[],"categories_segments":[],"categories_sizes":[],"default_left":[0,0,0,0,0,0,0,0,0,0,0,0,0,0,0,0,0,0,0,0,0,0,0,0,0,0,0,0,0],"id":45,"left_children":[1,3,5,7,9,11,13,15,-1,17,19,21,23,25,27,-1,-1,-1,-1,-1,-1,-1,-1,-1,-1,-1,-1,-1,-1],"loss_changes":[1.7950438E1,1.8640522E1,2.2933802E1,4.889817E0,1.7945023E1,1.1288189E1,1.3719326E1,1.2926369E0,0E0,4.8888058E1,3.5693295E1,4.894108E0,1.0654457E1,1.9093878E1,2.428309E0,0E0,0E0,0E0,0E0,0E0,0E0,0E0,0E0,0E0,0E0,0E0,0E0,0E0,0E0],"parents":[2147483647,0,0,1,1,2,2,3,3,4,4,5,5,6,6,7,7,9,9,10,10,11,11,12,12,13,13,14,14],"right_children":[2,4,6,8,10,12,14,16,-1,18,20,22,24,26,28,-1,-1,-1,-1,-1,-1,-1,-1,-1,-1,-1,-1,-1,-1],"split_conditions":[2.2E1,2E0,5E0,7E0,2E0,3E0,2.3E1,4E0,2.5591908E-2,8E0,3E0,2E0,2.3E1,7E0,7E0,-2.854127E-2,-1.5617917E-2,2.673698E-2,-2.6291823E-2,2.7780605E-2,2.096155E-3,-2.9753221E-2,2.9254023E-3,-3.8404178E-2,-1.06693305E-1,5.3741105E-2,-2.5501108E-2,-3.7082016E-2,-4.818463E-3],"split_indices":[1,1,0,0,0,0,1,0,0,1,0,0,1,0,0,0,0,0,0,0,0,0,0,0,0,0,0,0,0],"split_type":[0,0,0,0,0,0,0,0,0,0,0,0,0,0,0,0,0,0,0,0,0,0,0,0,0,0,0,0,0],"sum_hessian":[5.754E3,5.144E3,6.1E2,3.52E2,4.792E3,3.79E2,2.31E2,3.31E2,2.1E1,8.15E2,3.977E3,1.82E2,1.97E2,1.38E2,9.3E1,1.95E2,1.36E2,2.5E2,5.65E2,6.45E2,3.332E3,9E1,9.2E1,1.71E2,2.6E1,9.4E1,4.4E1,4.6E1,4.7E1],"tree_param":{"num_deleted":"0","num_feature":"2","num_nodes":"29","size_leaf_vector":"1"}},{"base_weights":[-5.716217E-4,1.678094E-2,-1.4669006E-1,-7.582375E-2,5.1250104E-2,-2.8280884E-1,7.6895446E-2,7.7291116E-2,-4.6541357E-1,-2.3667343E-1,1.0240033E-1,-1.199243E-1,-4.3192533E-1,2.5646695E-1,-1.8945917E-1,-1.2837303E-2,5.0869334E-2,-2.9492192E-4,-2.0734946E-1,-8.968228E-2,7.866512E-4,2.8396357E-2,4.3696593E-3,-2.6810592E-2,2.6360117E-3,-3.4586076E-2,-9.641914E-2,4.8423525E-2,-2.3007652E-2,-3.3452693E-2,-4.346661E-3],"categories":[],"categories_nodes":[],"categories_segments":[],"categories_sizes":[],"default_left":[0,0,0,0,0,0,0,0,0,0,0,0,0,0,0,0,0,0,0,0,0,0,0,0,0,0,0,0,0,0,0],"id":46,"left_children":[1,3,5,7,9,11,13,15,17,19,21,23,25,27,29,-1,-1,-1,-1,-1,-1,-1,-1,-1,-1,-1,-1,-1,-1,-1,-1],"loss_changes":[1.4594432E1,1.642676E1,1.8617035E1,8.331015E1,5.5251804E1,9.177938E0,1.1145081E1,8.905545E1,2.930039E2,9.137807E1,3.3934723E1,3.973896E0,8.736755E0,1.5515277E1,1.976268E0,0E0,0E0,0E0,0E0,0E0,0E0,0E0,0E0,0E0,0E0,0E0,0E0,0E0,0E0,0E0,0E0],"parents":[2147483647,0,0,1,1,2,2,3,3,4,4,5,5,6,6,7,7,8,8,9,9,10,10,11,11,12,12,13,13,14,14],"right_children":[2,4,6,8,10,12,14,16,18,20,22,24,26,28,30,-1,-1,-1,-1,-1,-1,-1,-1,-1,-1,-1,-1,-1,-1,-1,-1],"split_conditions":[2.2E1,8E0,5E0,6E0,2E0,3E0,2.3E1,5E0,5E0,1.3E1,1.2E1,2E0,2.3E1,7E0,7E0,-1.2837303E-2,5.0869334E-2,-2.9492192E-4,-2.0734946E-1,-8.968228E-2,7.866512E-4,2.8396357E-2,4.3696593E-3,-2.6810592E-2,2.6360117E-3,-3.4586076E-2,-9.641914E-2,4.8423525E-2,-2.3007652E-2,-3.3452693E-2,-4.346661E-3],"split_indices":[1,1,0,0,0,0,1,1,1,1,1,0,1,0,0,0,0,0,0,0,0,0,0,0,0,0,0,0,0,0,0],"split_type":[0,0,0,0,0,0,0,0,0,0,0,0,0,0,0,0,0,0,0,0,0,0,0,0,0,0,0,0,0,0,0],"sum_hessian":[5.754E3,5.144E3,6.1E2,1.395E3,3.749E3,3.79E2,2.31E2,1.002E3,3.93E2,5.65E2,3.184E3,1.82E2,1.97E2,1.38E2,9.3E1,6.79E2,3.23E2,3.06E2,8.7E1,1.52E2,4.13E2,7.77E2,2.407E3,9E1,9.2E1,1.71E2,2.6E1,9.4E1,4.4E1,4.6E1,4.7E1],"tree_param":{"num_deleted":"0","num_feature":"2","num_nodes":"31","size_leaf_vector":"1"}},{"base_weights":[-5.828375E-4,3.3043902E-2,-6.2491603E-2,-1.9127721E-2,2.0177953E-1,-1.4551328E-1,1.24707334E-1,1.5498552E-2,-1.6461162E-1,4.9126232E-1,-1.7244054E-1,-2.9645687E-1,-1.0387861E-1,3.5720977E-1,-1.284298E-1,1.3455908E-2,-2.3367038E-2,-5.1954217E-2,5.8853444E-2,3.0909194E-2,1.3706167E-1,-7.7905916E-2,1.5081078E-2,-6.577985E-2,-1.3079225E-2,4.9668844E-3,-1.7782977E-2,-4.260282E-2,6.543886E-2,9.775495E-2,-3.2821964E-2],"categories":[],"categories_nodes":[],"categories_segments":[],"categories_sizes":[],"default_left":[0,0,0,0,0,0,0,0,0,0,0,0,0,0,0,0,0,0,0,0,0,0,0,0,0,0,0,0,0,0,0],"id":47,"left_children":[1,3,5,7,9,11,13,15,17,19,21,23,25,27,29,-1,-1,-1,-1,-1,-1,-1,-1,-1,-1,-1,-1,-1,-1,-1,-1],"loss_changes":[1.1982767E1,3.283984E1,3.150537E1,1.4359612E1,9.552369E1,8.7926235E0,3.671254E1,6.835266E1,1.4679413E2,7.919195E1,7.561224E1,1.805201E1,1.2522054E1,7.5926346E1,6.638891E1,0E0,0E0,0E0,0E0,0E0,0E0,0E0,0E0,0E0,0E0,0E0,0E0,0E0,0E0,0E0,0E0],"parents":[2147483647,0,0,1,1,2,2,3,3,4,4,5,5,6,6,7,7,8,8,9,9,10,10,11,11,12,12,13,13,14,14],"right_children":[2,4,6,8,10,12,14,16,18,20,22,24,26,28,30,-1,-1,-1,-1,-1,-1,-1,-1,-1,-1,-1,-1,-1,-1,-1,-1],"split_conditions":[1.8E1,1.5E1,6E0,1.2E1,5E0,2E0,7E0,6E0,6E0,4E0,6E0,2E1,2E1,2E1,1.9E1,1.3455908E-2,-2.3367038E-2,-5.1954217E-2,5.8853444E-2,3.0909194E-2,1.3706167E-1,-7.7905916E-2,1.5081078E-2,-6.577985E-2,-1.3079225E-2,4.9668844E-3,-1.7782977E-2,-4.260282E-2,6.543886E-2,9.775495E-2,-3.2821964E-2],"split_indices":[1,1,0,1,0,0,0,0,0,0,0,1,1,1,1,0,0,0,0,0,0,0,0,0,0,0,0,0,0,0,0],"split_type":[0,0,0,0,0,0,0,0,0,0,0,0,0,0,0,0,0,0,0,0,0,0,0,0,0,0,0,0,0,0,0],"sum_hessian":[5.754E3,3.729E3,2.025E3,2.849E3,8.8E2,1.403E3,6.22E2,2.302E3,5.47E2,4.96E2,3.84E2,3.02E2,1.101E3,3.24E2,2.98E2,1.558E3,7.44E2,3.72E2,1.75E2,4.12E2,8.4E1,1.33E2,2.51E2,9.4E1,2.08E2,3.58E2,7.43E2,8.9E1,2.35E2,4.5E1,2.53E2],"tree_param":{"num_deleted":"0","num_feature":"2","num_nodes":"31","size_leaf_vector":"1"}},{"base_weights":[-5.0755555E-4,7.4372115E-3,-2.6315197E-1,-1.7881507E-1,1.9994924E-2,-3.617476E-1,-7.072449E-4,-2.3395152E-1,5.151399E-2,-9.517901E-2,4.3385033E-2,-7.750341E-2,-5.5147994E-1,-1.2781634E-2,-2.784199E-2,-4.24004E-3,2.5407657E-2,6.8944134E-3,-3.5179153E-2,2.2908293E-2,7.120732E-4,8.97581E-3,-2.1212883E-2,-8.542186E-2,-3.6583263E-2],"categories":[],"categories_nodes":[],"categories_segments":[],"categories_sizes":[],"default_left":[0,0,0,0,0,0,0,0,0,0,0,0,0,0,0,0,0,0,0,0,0,0,0,0,0],"id":48,"left_children":[1,3,5,7,9,11,-1,13,15,17,19,21,23,-1,-1,-1,-1,-1,-1,-1,-1,-1,-1,-1,-1],"loss_changes":[1.201062E1,1.3071024E1,4.264408E0,4.4949856E0,1.4106857E1,6.5367556E0,0E0,1.309516E0,1.3233972E0,3.725485E1,2.9305626E1,1.1449229E0,3.790289E0,0E0,0E0,0E0,0E0,0E0,0E0,0E0,0E0,0E0,0E0,0E0,0E0],"parents":[2147483647,0,0,1,1,2,2,3,3,4,4,5,5,7,7,8,8,9,9,10,10,11,11,12,12],"right_children":[2,4,6,8,10,12,-1,14,16,18,20,22,24,-1,-1,-1,-1,-1,-1,-1,-1,-1,-1,-1,-1],"split_conditions":[2.3E1,2E0,7E0,6E0,2E0,3E0,-7.072449E-4,1E0,7E0,1.7E1,3E0,2E0,5E0,-1.2781634E-2,-2.784199E-2,-4.24004E-3,2.5407657E-2,6.8944134E-3,-3.5179153E-2,2.2908293E-2,7.120732E-4,8.97581E-3,-2.1212883E-2,-8.542186E-2,-3.6583263E-2],"split_indices":[1,1,0,0,0,0,0,1,0,1,0,0,0,0,0,0,0,0,0,0,0,0,0,0,0],"split_type":[0,0,0,0,0,0,0,0,0,0,0,0,0,0,0,0,0,0,0,0,0,0,0,0,0],"sum_hessian":[5.754E3,5.586E3,1.68E2,3.52E2,5.234E3,1.21E2,4.7E1,2.84E2,6.8E1,8.83E2,4.351E3,4.9E1,7.2E1,8.5E1,1.99E2,4.7E1,2.1E1,5.39E2,3.44E2,7.1E2,3.641E3,2.2E1,2.7E1,2.6E1,4.6E1],"tree_param":{"num_deleted":"0","num_feature":"2","num_nodes":"25","size_leaf_vector":"1"}},{"base_weights":[-4.8439592E-4,6.689217E-3,-2.3763524E-1,-7.072091E-2,3.2466374E-2,-3.2667306E-1,-6.3800014E-4,5.7726286E-2,-3.9752755E-1,-2.0298733E-1,7.440096E-2,-6.999778E-2,-4.980031E-1,-1.2341662E-2,4.3772455E-2,1.8994492E-3,-1.8461041E-1,-8.185404E-2,-7.172809E-4,2.5435774E-2,2.4048423E-3,8.117266E-3,-1.916736E-2,-7.719603E-2,-3.300276E-2],"categories":[],"categories_nodes":[],"categories_segments":[],"categories_sizes":[],"default_left":[0,0,0,0,0,0,0,0,0,0,0,0,0,0,0,0,0,0,0,0,0,0,0,0,0],"id":49,"left_children":[1,3,5,7,9,11,-1,13,15,17,19,21,23,-1,-1,-1,-1,-1,-1,-1,-1,-1,-1,-1,-1],"loss_changes":[9.792159E0,1.1150667E1,3.477705E0,5.8623398E1,4.1405453E1,5.3302345E0,0E0,6.909451E1,2.3776047E2,7.641282E1,3.2242973E1,9.352479E-1,3.1045532E0,0E0,0E0,0E0,0E0,0E0,0E0,0E0,0E0,0E0,0E0,0E0,0E0],"parents":[2147483647,0,0,1,1,2,2,3,3,4,4,5,5,7,7,8,8,9,9,10,10,11,11,12,12],"right_children":[2,4,6,8,10,12,-1,14,16,18,20,22,24,-1,-1,-1,-1,-1,-1,-1,-1,-1,-1,-1,-1],"split_conditions":[2.3E1,8E0,7E0,6E0,2E0,3E0,-6.3800014E-4,5E0,5E0,1.3E1,1.2E1,2E0,5E0,-1.2341662E-2,4.3772455E-2,1.8994492E-3,-1.8461041E-1,-8.185404E-2,-7.172809E-4,2.5435774E-2,2.4048423E-3,8.117266E-3,-1.916736E-2,-7.719603E-2,-3.300276E-2],"split_indices":[1,1,0,0,0,0,0,1,1,1,1,0,0,0,0,0,0,0,0,0,0,0,0,0,0],"split_type":[0,0,0,0,0,0,0,0,0,0,0,0,0,0,0,0,0,0,0,0,0,0,0,0,0],"sum_hessian":[5.754E3,5.586E3,1.68E2,1.395E3,4.191E3,1.21E2,4.7E1,1.002E3,3.93E2,6.33E2,3.558E3,4.9E1,7.2E1,6.79E2,3.23E2,3.06E2,8.7E1,1.52E2,4.81E2,7.77E2,2.781E3,2.2E1,2.7E1,2.6E1,4.6E1],"tree_param":{"num_deleted":"0","num_feature":"2","num_nodes":"25","size_leaf_vector":"1"}}]},"name":"gbtree"},"learner_model_param":{"base_score":"[1.3679354E1]","boost_from_average":"1","num_class":"0","num_feature":"2","num_target":"1"},"objective":{"name":"reg:squarederror","reg_loss_param":{"scale_pos_weight":"1"}}},"version":[3,2,0]}