{"learner":{"attributes":{},"feature_names":["day_of_week","hour_of_day"],"feature_types":[],"gradient_booster":{"model":{"cats":{"enc":[],"feature_segments":[],"sorted_idx":[]},"gbtree_model_param":{"num_parallel_tree":"1","num_trees":"50"},"iteration_indptr":[0,1,2,3,4,5,6,7,8,9,10,11,12,13,14,15,16,17,18,19,20,21,22,23,24,25,26,27,28,29,30,31,32,33,34,35,36,37,38,39,40,41,42,43,44,45,46,47,48,49,50],"tree_info":[0,0,0,0,0,0,0,0,0,0,0,0,0,0,0,0,0,0,0,0,0,0,0,0,0,0,0,0,0,0,0,0,0,0,0,0,0,0,0,0,0,0,0,0,0,0,0,0,0,0],"trees":[{"base_weights":[-4.7984594E-7,-1.0196896E1,1.1573843E0,-1.0589376E1,-6.3258233E0,3.6382265E0,-4.967365E0,-1.1508434E0,-8.530579E0,-4.629006E0,-8.754509E-1,4.2021265E0,8.434798E-1,-2.4251611E0,-7.9295745E0,-6.674184E-1,-8.959614E-1,-5.860892E-1,-2.1279006E-1,5.4233383E-2,4.9187475E-1,1.8791871E-1,-1.9035848E-2,-4.4271785E-1,-1.11790515E-1,-9.438278E-1,-5.722922E-1],"categories":[],"categories_nodes":[],"categories_segments":[],"categories_sizes":[],"default_left":[0,0,0,0,0,0,0,0,0,0,0,0,0,0,0,0,0,0,0,0,0,0,0,0,0,0,0],"id":0,"left_children":[1,3,5,7,9,11,13,-1,15,17,-1,19,21,23,25,-1,-1,-1,-1,-1,-1,-1,-1,-1,-1,-1,-1],"loss_changes":[1.4402833E5,1.8230469E3,1.6655019E5,2.0361797E3,4.416372E2,1.2290492E4,2.3777281E4,0E0,2.2055469E2,2.0628516E2,0E0,1.7021172E4,1.4041162E3,4.4494395E3,4.8032656E3,0E0,0E0,0E0,0E0,0E0,0E0,0E0,0E0,0E0,0E0,0E0,0E0],"parents":[2147483647,0,0,1,1,2,2,3,3,4,4,5,5,6,6,8,8,9,9,11,11,12,12,13,13,14,14],"right_children":[2,4,6,8,10,12,14,-1,16,18,-1,20,22,24,26,-1,-1,-1,-1,-1,-1,-1,-1,-1,-1,-1,-1],"split_conditions":[4E0,3E0,2E1,6E0,6E0,1.8E1,2.2E1,-1.1508434E0,1E0,4E0,-8.754509E-1,7E0,1.9E1,4E0,5E0,-6.674184E-1,-8.959614E-1,-5.860892E-1,-2.1279006E-1,5.4233383E-2,4.9187475E-1,1.8791871E-1,-1.9035848E-2,-4.4271785E-1,-1.11790515E-1,-9.438278E-1,-5.722922E-1],"split_indices":[1,1,1,0,0,1,1,0,1,0,0,1,1,0,0,0,0,0,0,0,0,0,0,0,0,0,0],"split_type":[0,0,0,0,0,0,0,0,0,0,0,0,0,0,0,0,0,0,0,0,0,0,0,0,0,0,0],"sum_hessian":[1.2202E4,1.243E3,1.0959E4,1.127E3,1.16E2,7.8E3,3.159E3,7.76E2,3.51E2,7E1,4.6E1,6.49E3,1.31E3,1.701E3,1.458E3,6.9E1,2.82E2,4.6E1,2.4E1,1.063E3,5.427E3,6.54E2,6.56E2,6.71E2,1.03E3,8.64E2,5.94E2],"tree_param":{"num_deleted":"0","num_feature":"2","num_nodes":"27","size_leaf_vector":"1"}},{"base_weights":[-4.71093E-4,-9.180734E0,1.0415223E0,-9.532845E0,-5.7075515E0,3.2744956E0,-4.471284E0,-1.0359071E0,-7.681962E0,-4.177357E0,-7.897684E-1,3.8020792E0,6.8833697E-1,-2.1829708E0,-7.137656E0,-6.0163E-1,-8.066818E-1,-5.2872723E-1,-1.9236217E-1,4.4163108E-1,8.141192E-2,-6.683967E-1,1.8701454E-1,-3.9851198E-1,-1.0062229E-1,-9.0403557E-1,-5.712902E-1],"categories":[],"categories_nodes":[],"categories_segments":[],"categories_sizes":[],"default_left":[0,0,0,0,0,0,0,0,0,0,0,0,0,0,0,0,0,0,0,0,0,0,0,0,0,0,0],"id":1,"left_children":[1,3,5,7,9,11,13,-1,15,17,-1,19,21,23,25,-1,-1,-1,-1,-1,-1,-1,-1,-1,-1,-1,-1],"loss_changes":[1.1674068E5,1.4669375E3,1.3493169E5,1.6454141E3,3.5911377E2,1.064118E4,1.9265148E4,0E0,1.7711523E2,1.6743262E2,0E0,1.18873125E4,1.1539336E4,3.6053784E3,3.9035234E3,0E0,0E0,0E0,0E0,0E0,0E0,0E0,0E0,0E0,0E0,0E0,0E0],"parents":[2147483647,0,0,1,1,2,2,3,3,4,4,5,5,6,6,8,8,9,9,11,11,12,12,13,13,14,14],"right_children":[2,4,6,8,10,12,14,-1,16,18,-1,20,22,24,26,-1,-1,-1,-1,-1,-1,-1,-1,-1,-1,-1,-1],"split_conditions":[4E0,3E0,2E1,6E0,6E0,7E0,2.2E1,-1.0359071E0,1E0,4E0,-7.897684E-1,1.8E1,8E0,4E0,4E0,-6.0163E-1,-8.066818E-1,-5.2872723E-1,-1.9236217E-1,4.4163108E-1,8.141192E-2,-6.683967E-1,1.8701454E-1,-3.9851198E-1,-1.0062229E-1,-9.0403557E-1,-5.712902E-1],"split_indices":[1,1,1,0,0,0,1,0,1,0,0,1,1,0,0,0,0,0,0,0,0,0,0,0,0,0,0],"split_type":[0,0,0,0,0,0,0,0,0,0,0,0,0,0,0,0,0,0,0,0,0,0,0,0,0,0,0],"sum_hessian":[1.2202E4,1.243E3,1.0959E4,1.127E3,1.16E2,7.8E3,3.159E3,7.76E2,3.51E2,7E1,4.6E1,6.478E3,1.322E3,1.701E3,1.458E3,6.9E1,2.82E2,4.6E1,2.4E1,5.373E3,1.105E3,1.82E2,1.14E3,6.71E2,1.03E3,6.22E2,8.36E2],"tree_param":{"num_deleted":"0","num_feature":"2","num_nodes":"27","size_leaf_vector":"1"}},{"base_weights":[-9.06637E-4,-8.26584E0,9.371935E-1,-8.581728E0,-5.1497097E0,2.9470513E0,-4.0247803E0,-9.324498E-1,-6.9177666E0,-3.7697775E0,-7.1247196E-1,1.9299135E-1,3.3815084E0,-1.964967E0,-6.424902E0,-5.4232645E-1,-7.2629875E-1,-4.7697946E-1,-1.7389545E-1,2.8132325E-1,-4.8326573E-1,4.0378615E-1,6.6139795E-2,-3.587201E-1,-9.0569824E-2,-7.6856434E-1,-4.5812616E-1],"categories":[],"categories_nodes":[],"categories_segments":[],"categories_sizes":[],"default_left":[0,0,0,0,0,0,0,0,0,0,0,0,0,0,0,0,0,0,0,0,0,0,0,0,0,0,0],"id":2,"left_children":[1,3,5,7,9,11,13,-1,15,17,-1,19,21,23,25,-1,-1,-1,-1,-1,-1,-1,-1,-1,-1,-1,-1],"loss_changes":[9.4621695E4,1.1803359E3,1.0931442E5,1.3296328E3,2.92011E2,9.333406E3,1.5609793E4,0E0,1.4221875E2,1.3589648E2,0E0,1.4024785E4,1.2027039E4,2.921437E3,3.3560156E3,0E0,0E0,0E0,0E0,0E0,0E0,0E0,0E0,0E0,0E0,0E0,0E0],"parents":[2147483647,0,0,1,1,2,2,3,3,4,4,5,5,6,6,8,8,9,9,11,11,12,12,13,13,14,14],"right_children":[2,4,6,8,10,12,14,-1,16,18,-1,20,22,24,26,-1,-1,-1,-1,-1,-1,-1,-1,-1,-1,-1,-1],"split_conditions":[4E0,3E0,2E1,6E0,6E0,7E0,2.2E1,-9.324498E-1,1E0,4E0,-7.1247196E-1,6E0,1.8E1,4E0,5E0,-5.4232645E-1,-7.2629875E-1,-4.7697946E-1,-1.7389545E-1,2.8132325E-1,-4.8326573E-1,4.0378615E-1,6.6139795E-2,-3.587201E-1,-9.0569824E-2,-7.6856434E-1,-4.5812616E-1],"split_indices":[1,1,1,0,0,1,1,0,1,0,0,0,1,0,0,0,0,0,0,0,0,0,0,0,0,0,0],"split_type":[0,0,0,0,0,0,0,0,0,0,0,0,0,0,0,0,0,0,0,0,0,0,0,0,0,0,0],"sum_hessian":[1.2202E4,1.243E3,1.0959E4,1.127E3,1.16E2,7.8E3,3.159E3,7.76E2,3.51E2,7E1,4.6E1,1.063E3,6.737E3,1.701E3,1.458E3,6.9E1,2.82E2,4.6E1,2.4E1,6.99E2,3.64E2,5.427E3,1.31E3,6.71E2,1.03E3,8.64E2,5.94E2],"tree_param":{"num_deleted":"0","num_feature":"2","num_nodes":"27","size_leaf_vector":"1"}},{"base_weights":[-1.2233357E-3,-7.442121E0,8.433458E-1,-7.725506E0,-4.6463914E0,2.9267871E0,-3.0578678E0,-8.393248E-1,-6.229594E0,-3.401967E0,-6.4274067E-1,1.7350245E-1,3.407972E0,-1.3702536E0,-5.7832527E0,-4.8886847E-1,-6.5392554E-1,-4.302964E-1,-1.5720145E-1,2.532311E-1,-4.3507153E-1,3.85179E-1,1.3395661E-1,-3.2860208E-1,-6.909203E-2,-6.917967E-1,-4.1239056E-1],"categories":[],"categories_nodes":[],"categories_segments":[],"categories_sizes":[],"default_left":[0,0,0,0,0,0,0,0,0,0,0,0,0,0,0,0,0,0,0,0,0,0,0,0,0,0,0],"id":3,"left_children":[1,3,5,7,9,11,13,-1,15,17,-1,19,21,23,25,-1,-1,-1,-1,-1,-1,-1,-1,-1,-1,-1,-1],"loss_changes":[7.6694234E4,9.496797E2,8.909127E4,1.0744453E3,2.374458E2,9.465387E3,1.7543379E4,0E0,1.1419141E2,1.10299194E2,0E0,1.1365774E4,5.5780938E3,3.0665356E3,2.7186016E3,0E0,0E0,0E0,0E0,0E0,0E0,0E0,0E0,0E0,0E0,0E0,0E0],"parents":[2147483647,0,0,1,1,2,2,3,3,4,4,5,5,6,6,8,8,9,9,11,11,12,12,13,13,14,14],"right_children":[2,4,6,8,10,12,14,-1,16,18,-1,20,22,24,26,-1,-1,-1,-1,-1,-1,-1,-1,-1,-1,-1,-1],"split_conditions":[4E0,3E0,1.9E1,6E0,6E0,7E0,2.2E1,-8.393248E-1,1E0,4E0,-6.4274067E-1,6E0,7E0,3E0,5E0,-4.8886847E-1,-6.5392554E-1,-4.302964E-1,-1.5720145E-1,2.532311E-1,-4.3507153E-1,3.85179E-1,1.3395661E-1,-3.2860208E-1,-6.909203E-2,-6.917967E-1,-4.1239056E-1],"split_indices":[1,1,1,0,0,1,1,0,1,0,0,0,0,0,0,0,0,0,0,0,0,0,0,0,0,0,0],"split_type":[0,0,0,0,0,0,0,0,0,0,0,0,0,0,0,0,0,0,0,0,0,0,0,0,0,0,0],"sum_hessian":[1.2202E4,1.243E3,1.0959E4,1.127E3,1.16E2,7.144E3,3.815E3,7.76E2,3.51E2,7E1,4.6E1,1.063E3,6.081E3,2.357E3,1.458E3,6.9E1,2.82E2,4.6E1,2.4E1,6.99E2,3.64E2,5.006E3,1.075E3,6.16E2,1.741E3,8.64E2,5.94E2],"tree_param":{"num_deleted":"0","num_feature":"2","num_nodes":"27","size_leaf_vector":"1"}},{"base_weights":[-1.4594904E-3,-6.700491E0,7.589052E-1,-6.9547124E0,-4.1922674E0,2.3953571E0,-3.281196E0,-7.5550027E0,-5.609881E0,-3.070045E0,-5.7983416E-1,2.8219109E0,3.0462638E-1,-1.6295456E0,-5.205684E0,-7.0826244E-1,-7.706464E-1,-4.4068003E-1,-5.88764E-1,-3.881823E-1,-1.4211008E-1,3.2902E-1,5.439656E-2,-4.8934203E-1,1.3742565E-1,-2.982385E-1,-7.46192E-2,-6.679755E-1,-4.1022775E-1],"categories":[],"categories_nodes":[],"categories_segments":[],"categories_sizes":[],"default_left":[0,0,0,0,0,0,0,0,0,0,0,0,0,0,0,0,0,0,0,0,0,0,0,0,0,0,0,0,0],"id":4,"left_children":[1,3,5,7,9,11,13,15,17,19,-1,21,23,25,27,-1,-1,-1,-1,-1,-1,-1,-1,-1,-1,-1,-1,-1,-1],"loss_changes":[6.2163586E4,7.640703E2,7.246915E4,8.682383E2,1.9307642E2,6.9561406E3,1.003584E4,1.015625E0,9.1680664E1,8.95224E1,0E0,6.9096016E3,7.362588E3,2.0317251E3,2.3456602E3,0E0,0E0,0E0,0E0,0E0,0E0,0E0,0E0,0E0,0E0,0E0,0E0,0E0,0E0],"parents":[2147483647,0,0,1,1,2,2,3,3,4,4,5,5,6,6,7,7,8,8,9,9,11,11,12,12,13,13,14,14],"right_children":[2,4,6,8,10,12,14,16,18,20,-1,22,24,26,28,-1,-1,-1,-1,-1,-1,-1,-1,-1,-1,-1,-1,-1,-1],"split_conditions":[4E0,3E0,2E1,6E0,6E0,7E0,2.2E1,2E0,1E0,4E0,-5.7983416E-1,1.8E1,9E0,4E0,4E0,-7.0826244E-1,-7.706464E-1,-4.4068003E-1,-5.88764E-1,-3.881823E-1,-1.4211008E-1,3.2902E-1,5.439656E-2,-4.8934203E-1,1.3742565E-1,-2.982385E-1,-7.46192E-2,-6.679755E-1,-4.1022775E-1],"split_indices":[1,1,1,0,0,0,1,0,1,0,0,1,1,0,0,0,0,0,0,0,0,0,0,0,0,0,0,0,0],"split_type":[0,0,0,0,0,0,0,0,0,0,0,0,0,0,0,0,0,0,0,0,0,0,0,0,0,0,0,0,0],"sum_hessian":[1.2202E4,1.243E3,1.0959E4,1.127E3,1.16E2,7.8E3,3.159E3,7.76E2,3.51E2,7E1,4.6E1,6.478E3,1.322E3,1.701E3,1.458E3,2E2,5.76E2,6.9E1,2.82E2,4.6E1,2.4E1,5.373E3,1.105E3,2.25E2,1.097E3,6.71E2,1.03E3,6.22E2,8.36E2],"tree_param":{"num_deleted":"0","num_feature":"2","num_nodes":"29","size_leaf_vector":"1"}},{"base_weights":[-1.7261792E-3,-6.0333505E0,6.8288535E-1,-6.2614646E0,-3.7825286E0,1.9085336E0,-3.7198758E0,-6.801406E0,-5.0518174E0,-2.7705092E0,-5.2308446E-1,2.506071E0,4.6477865E-2,-5.2522244E0,-2.6414127E0,-6.377886E-1,-6.9371533E-1,-3.972416E-1,-5.3009564E-1,-3.5018998E-1,-1.2846753E-1,-6.5049753E-3,3.009602E-1,1.1146889E-1,-4.4284012E-2,-3.9323276E-1,-6.0128516E-1,-1.6234776E-1,-5.11135E-1],"categories":[],"categories_nodes":[],"categories_segments":[],"categories_sizes":[],"default_left":[0,0,0,0,0,0,0,0,0,0,0,0,0,0,0,0,0,0,0,0,0,0,0,0,0,0,0,0,0],"id":5,"left_children":[1,3,5,7,9,11,13,15,17,19,-1,21,23,25,27,-1,-1,-1,-1,-1,-1,-1,-1,-1,-1,-1,-1,-1,-1],"loss_changes":[5.039421E4,6.1503906E2,5.914985E4,7.023828E2,1.5699756E2,9.539727E3,3.930836E3,4.2578125E-1,7.360254E1,7.265863E1,0E0,8.403695E3,1.0897897E3,9.652461E2,3.5191738E3,0E0,0E0,0E0,0E0,0E0,0E0,0E0,0E0,0E0,0E0,0E0,0E0,0E0,0E0],"parents":[2147483647,0,0,1,1,2,2,3,3,4,4,5,5,6,6,7,7,8,8,9,9,11,11,12,12,13,13,14,14],"right_children":[2,4,6,8,10,12,14,16,18,20,-1,22,24,26,28,-1,-1,-1,-1,-1,-1,-1,-1,-1,-1,-1,-1,-1,-1],"split_conditions":[4E0,3E0,2.1E1,6E0,6E0,1.8E1,4E0,2E0,1E0,4E0,-5.2308446E-1,7E0,1.9E1,2.2E1,7E0,-6.377886E-1,-6.9371533E-1,-3.972416E-1,-5.3009564E-1,-3.5018998E-1,-1.2846753E-1,-6.5049753E-3,3.009602E-1,1.1146889E-1,-4.4284012E-2,-3.9323276E-1,-6.0128516E-1,-1.6234776E-1,-5.11135E-1],"split_indices":[1,1,1,0,0,1,0,0,1,0,0,1,1,1,0,0,0,0,0,0,0,0,0,0,0,0,0,0,0],"split_type":[0,0,0,0,0,0,0,0,0,0,0,0,0,0,0,0,0,0,0,0,0,0,0,0,0,0,0,0,0],"sum_hessian":[1.2202E4,1.243E3,1.0959E4,1.127E3,1.16E2,8.573E3,2.386E3,7.76E2,3.51E2,7E1,4.6E1,6.49E3,2.083E3,9.84E2,1.402E3,2E2,5.76E2,6.9E1,2.82E2,4.6E1,2.4E1,1.063E3,5.427E3,6.54E2,1.429E3,3.62E2,6.22E2,9.94E2,4.08E2],"tree_param":{"num_deleted":"0","num_feature":"2","num_nodes":"29","size_leaf_vector":"1"}},{"base_weights":[-1.9280039E-3,-5.4326367E0,6.144774E-1,-5.637321E0,-3.4128375E0,1.7177222E0,-3.348587E0,-6.122979E0,-4.54927E0,-1.05167784E-1,-3.9793801E0,2.2555091E0,4.18621E-2,-1.8847064E0,-4.2783995E0,-5.74327E-1,-6.2446404E-1,-3.5808492E-1,-4.7727337E-1,-3.1723735E-1,-4.7188893E-1,8.592748E-2,3.0481872E-1,1.0033897E-1,-3.985872E-2,-3.5401782E-1,-8.215301E-2,-5.154089E-1,-2.9981488E-1],"categories":[],"categories_nodes":[],"categories_segments":[],"categories_sizes":[],"default_left":[0,0,0,0,0,0,0,0,0,0,0,0,0,0,0,0,0,0,0,0,0,0,0,0,0,0,0,0,0],"id":6,"left_children":[1,3,5,7,9,11,13,15,17,-1,19,21,23,25,27,-1,-1,-1,-1,-1,-1,-1,-1,-1,-1,-1,-1,-1,-1],"loss_changes":[4.08531E4,4.950586E2,4.792539E4,5.682031E2,1.5232556E2,7.7272715E3,3.240963E3,2.9296875E-2,5.9084473E1,0E0,4.1128174E1,7.1813867E3,8.829826E2,1.632186E3,1.6202344E3,0E0,0E0,0E0,0E0,0E0,0E0,0E0,0E0,0E0,0E0,0E0,0E0,0E0,0E0],"parents":[2147483647,0,0,1,1,2,2,3,3,4,4,5,5,6,6,7,7,8,8,10,10,11,11,12,12,13,13,14,14],"right_children":[2,4,6,8,10,12,14,16,18,-1,20,22,24,26,28,-1,-1,-1,-1,-1,-1,-1,-1,-1,-1,-1,-1,-1,-1],"split_conditions":[4E0,3E0,2.1E1,6E0,2E0,1.8E1,2.2E1,2E0,1E0,-1.05167784E-1,6E0,1E1,1.9E1,4E0,5E0,-5.74327E-1,-6.2446404E-1,-3.5808492E-1,-4.7727337E-1,-3.1723735E-1,-4.7188893E-1,8.592748E-2,3.0481872E-1,1.0033897E-1,-3.985872E-2,-3.5401782E-1,-8.215301E-2,-5.154089E-1,-2.9981488E-1],"split_indices":[1,1,1,0,0,1,1,0,1,0,0,1,1,0,0,0,0,0,0,0,0,0,0,0,0,0,0,0,0],"split_type":[0,0,0,0,0,0,0,0,0,0,0,0,0,0,0,0,0,0,0,0,0,0,0,0,0,0,0,0,0],"sum_hessian":[1.2202E4,1.243E3,1.0959E4,1.127E3,1.16E2,8.573E3,2.386E3,7.76E2,3.51E2,2.3E1,9.3E1,6.49E3,2.083E3,9.28E2,1.458E3,2E2,5.76E2,6.9E1,2.82E2,4.7E1,4.6E1,2.351E3,4.139E3,6.54E2,1.429E3,3.62E2,5.66E2,8.64E2,5.94E2],"tree_param":{"num_deleted":"0","num_feature":"2","num_nodes":"29","size_leaf_vector":"1"}},{"base_weights":[-2.0407767E-3,-4.891727E0,5.5295664E-1,-5.395156E0,-4.1988287E0,1.5460025E0,-3.0142524E0,-5.558214E0,-2.9524517E0,-4.3569446E0,-3.119731E0,2.0300183E0,3.770499E-2,-4.27244E0,-2.1287723E0,-5.1718E-1,-5.7113165E-1,-9.508924E-2,-4.8309922E-1,-5.172304E-1,-4.0967163E-1,-8.56799E-2,-4.257041E-1,2.4904978E-1,-1.852293E-2,9.03204E-2,-3.5875622E-2,-3.1871355E-1,-4.8979503E-1,-1.1970643E-1,-4.3901917E-1],"categories":[],"categories_nodes":[],"categories_segments":[],"categories_sizes":[],"default_left":[0,0,0,0,0,0,0,0,0,0,0,0,0,0,0,0,0,0,0,0,0,0,0,0,0,0,0,0,0,0,0],"id":7,"left_children":[1,3,5,7,9,11,13,15,17,19,21,23,25,27,29,-1,-1,-1,-1,-1,-1,-1,-1,-1,-1,-1,-1,-1,-1,-1,-1],"loss_changes":[3.3118758E4,4.1128516E2,3.882939E4,2.6917188E2,7.649609E1,6.259283E3,2.6502617E3,1.0160156E1,1.7212671E2,7.598926E1,1.7908209E2,6.6217773E3,7.154211E2,6.530742E2,2.9508408E3,0E0,0E0,0E0,0E0,0E0,0E0,0E0,0E0,0E0,0E0,0E0,0E0,0E0,0E0,0E0,0E0],"parents":[2147483647,0,0,1,1,2,2,3,3,4,4,5,5,6,6,7,7,8,8,9,9,10,10,11,11,12,12,13,13,14,14],"right_children":[2,4,6,8,10,12,14,16,18,20,22,24,26,28,30,-1,-1,-1,-1,-1,-1,-1,-1,-1,-1,-1,-1,-1,-1,-1,-1],"split_conditions":[4E0,5E0,2.1E1,3E0,3E0,1.8E1,4E0,2E0,2E0,6E0,6E0,7E0,1.9E1,2.2E1,7E0,-5.1718E-1,-5.7113165E-1,-9.508924E-2,-4.8309922E-1,-5.172304E-1,-4.0967163E-1,-8.56799E-2,-4.257041E-1,2.4904978E-1,-1.852293E-2,9.03204E-2,-3.5875622E-2,-3.1871355E-1,-4.8979503E-1,-1.1970643E-1,-4.3901917E-1],"split_indices":[1,0,1,1,1,1,0,0,0,0,0,0,1,1,0,0,0,0,0,0,0,0,0,0,0,0,0,0,0,0,0],"split_type":[0,0,0,0,0,0,0,0,0,0,0,0,0,0,0,0,0,0,0,0,0,0,0,0,0,0,0,0,0,0,0],"sum_hessian":[1.2202E4,1.243E3,1.0959E4,7.16E2,5.27E2,8.573E3,2.386E3,6.7E2,4.6E1,4.57E2,7E1,6.49E3,2.083E3,9.84E2,1.402E3,2E2,4.7E2,2.3E1,2.3E1,1.06E2,3.51E2,2.4E1,4.6E1,5.373E3,1.117E3,6.54E2,1.429E3,3.62E2,6.22E2,9.94E2,4.08E2],"tree_param":{"num_deleted":"0","num_feature":"2","num_nodes":"31","size_leaf_vector":"1"}},{"base_weights":[-2.1799232E-3,-4.4050503E0,4.975621E-1,-4.8579645E0,-3.7816699E0,1.3914354E0,-2.7134001E0,-5.0040145E0,-2.6695087E0,-3.923274E0,-2.8149605E0,1.7388687E0,-3.1673956E-1,-2.1484857E0,-4.6097336E0,-4.6571937E-1,-5.141397E-1,-8.597655E-2,-4.3680224E-1,-4.6599075E-1,-3.6882088E-1,-7.745462E-2,-3.8403946E-1,2.2414942E-1,1.961471E-2,-4.582513E-1,4.7051065E-2,-3.460053E-1,-1.2436868E-1,-5.3576094E-1,-3.594011E-1],"categories":[],"categories_nodes":[],"categories_segments":[],"categories_sizes":[],"default_left":[0,0,0,0,0,0,0,0,0,0,0,0,0,0,0,0,0,0,0,0,0,0,0,0,0,0,0,0,0,0,0],"id":8,"left_children":[1,3,5,7,9,11,13,15,17,19,21,23,25,27,29,-1,-1,-1,-1,-1,-1,-1,-1,-1,-1,-1,-1,-1,-1,-1,-1],"loss_changes":[2.6852443E4,3.3285547E2,3.1461096E4,2.1581445E2,6.1233887E1,5.0890215E3,2.547209E3,8.025391E0,1.4071658E2,6.2118652E1,1.4557947E2,5.524365E3,4.871591E3,2.180419E3,3.9626562E2,0E0,0E0,0E0,0E0,0E0,0E0,0E0,0E0,0E0,0E0,0E0,0E0,0E0,0E0,0E0,0E0],"parents":[2147483647,0,0,1,1,2,2,3,3,4,4,5,5,6,6,7,7,8,8,9,9,10,10,11,11,12,12,13,13,14,14],"right_children":[2,4,6,8,10,12,14,16,18,20,22,24,26,28,30,-1,-1,-1,-1,-1,-1,-1,-1,-1,-1,-1,-1,-1,-1,-1,-1],"split_conditions":[4E0,5E0,2.1E1,3E0,3E0,7E0,2.3E1,2E0,2E0,6E0,6E0,1.8E1,9E0,4E0,5E0,-4.6571937E-1,-5.141397E-1,-8.597655E-2,-4.3680224E-1,-4.6599075E-1,-3.6882088E-1,-7.745462E-2,-3.8403946E-1,2.2414942E-1,1.961471E-2,-4.582513E-1,4.7051065E-2,-3.460053E-1,-1.2436868E-1,-5.3576094E-1,-3.594011E-1],"split_indices":[1,0,1,1,1,0,1,0,0,0,0,1,1,0,0,0,0,0,0,0,0,0,0,0,0,0,0,0,0,0,0],"split_type":[0,0,0,0,0,0,0,0,0,0,0,0,0,0,0,0,0,0,0,0,0,0,0,0,0,0,0,0,0,0,0],"sum_hessian":[1.2202E4,1.243E3,1.0959E4,7.16E2,5.27E2,8.573E3,2.386E3,6.7E2,4.6E1,4.57E2,7E1,7.124E3,1.449E3,1.84E3,5.46E2,2E2,4.7E2,2.3E1,2.3E1,1.06E2,3.51E2,2.4E1,4.6E1,5.373E3,1.751E3,2.25E2,1.224E3,7.5E2,1.09E3,3.12E2,2.34E2],"tree_param":{"num_deleted":"0","num_feature":"2","num_nodes":"31","size_leaf_vector":"1"}},{"base_weights":[-2.31715E-3,-3.966795E0,4.4766578E-1,-4.3742642E0,-3.4059577E0,1.5721743E0,-1.6579583E0,-4.5050735E0,-2.413681E0,-3.5327692E0,-2.5399642E0,-1.4500604E0,1.8289127E0,-6.959218E-1,-3.2116418E0,-4.1937914E-1,-4.628349E-1,-7.7737115E-2,-3.9494208E-1,-4.198272E-1,-3.320435E-1,-7.0018984E-2,-3.4645256E-1,2.6321799E-2,-5.7349014E-1,2.4154317E-1,8.228361E-2,-1.7306511E-1,-5.140592E-3,-3.8815585E-1,-2.2323315E-1],"categories":[],"categories_nodes":[],"categories_segments":[],"categories_sizes":[],"default_left":[0,0,0,0,0,0,0,0,0,0,0,0,0,0,0,0,0,0,0,0,0,0,0,0,0,0,0,0,0,0,0],"id":9,"left_children":[1,3,5,7,9,11,13,15,17,19,21,23,25,27,29,-1,-1,-1,-1,-1,-1,-1,-1,-1,-1,-1,-1,-1,-1,-1,-1],"loss_changes":[2.1771283E4,2.6938672E2,2.5953611E4,1.7300977E2,4.901123E1,5.546627E3,5.701541E3,6.3398438E0,1.1503833E2,5.0779297E1,1.1834412E2,4.11254E3,3.8843008E3,1.5724601E3,9.485215E2,0E0,0E0,0E0,0E0,0E0,0E0,0E0,0E0,0E0,0E0,0E0,0E0,0E0,0E0,0E0,0E0],"parents":[2147483647,0,0,1,1,2,2,3,3,4,4,5,5,6,6,7,7,8,8,9,9,10,10,11,11,12,12,13,13,14,14],"right_children":[2,4,6,8,10,12,14,16,18,20,22,24,26,28,30,-1,-1,-1,-1,-1,-1,-1,-1,-1,-1,-1,-1,-1,-1,-1,-1],"split_conditions":[4E0,5E0,1.9E1,3E0,3E0,5E0,2.2E1,2E0,2E0,6E0,6E0,6E0,6E0,4E0,5E0,-4.1937914E-1,-4.628349E-1,-7.7737115E-2,-3.9494208E-1,-4.198272E-1,-3.320435E-1,-7.0018984E-2,-3.4645256E-1,2.6321799E-2,-5.7349014E-1,2.4154317E-1,8.228361E-2,-1.7306511E-1,-5.140592E-3,-3.8815585E-1,-2.2323315E-1],"split_indices":[1,0,1,1,1,1,1,0,0,0,0,0,0,0,0,0,0,0,0,0,0,0,0,0,0,0,0,0,0,0,0],"split_type":[0,0,0,0,0,0,0,0,0,0,0,0,0,0,0,0,0,0,0,0,0,0,0,0,0,0,0,0,0,0,0],"sum_hessian":[1.2202E4,1.243E3,1.0959E4,7.16E2,5.27E2,7.144E3,3.815E3,6.7E2,4.6E1,4.57E2,7E1,5.59E2,6.585E3,2.357E3,1.458E3,2E2,4.7E2,2.3E1,2.3E1,1.06E2,3.51E2,2.4E1,4.6E1,4E2,1.59E2,4.159E3,2.426E3,9.04E2,1.453E3,8.64E2,5.94E2],"tree_param":{"num_deleted":"0","num_feature":"2","num_nodes":"31","size_leaf_vector":"1"}},{"base_weights":[-2.375086E-3,-3.5721438E0,4.028069E-1,-3.9387274E0,-3.0675747E0,1.2864556E0,-1.7787585E0,-4.055881E0,-2.18237E0,-3.1811337E0,-2.2918336E0,-1.3060312E0,1.4867464E0,-8.243589E-1,-2.8908966E0,-3.7764987E-1,-4.1664967E-1,-7.028734E-2,-3.5709342E-1,-3.4975854E-1,-2.7974328E-1,-6.329718E-2,-3.1254444E-1,2.3696221E-2,-5.164996E-1,1.7772578E-1,9.810273E-3,-1.577696E-1,-1.7844773E-3,-2.3229925E-1,-3.8335025E-1],"categories":[],"categories_nodes":[],"categories_segments":[],"categories_sizes":[],"default_left":[0,0,0,0,0,0,0,0,0,0,0,0,0,0,0,0,0,0,0,0,0,0,0,0,0,0,0,0,0,0,0],"id":10,"left_children":[1,3,5,7,9,11,13,15,17,19,21,23,25,27,29,-1,-1,-1,-1,-1,-1,-1,-1,-1,-1,-1,-1,-1,-1,-1,-1],"loss_changes":[1.7651932E4,2.180166E2,2.1130293E4,1.3868164E2,3.9222168E1,4.052621E3,3.3517158E3,5.0009766E0,9.404579E1,4.5827637E1,9.620364E1,3.3356636E3,2.921371E3,1.0340679E3,7.721123E2,0E0,0E0,0E0,0E0,0E0,0E0,0E0,0E0,0E0,0E0,0E0,0E0,0E0,0E0,0E0,0E0],"parents":[2147483647,0,0,1,1,2,2,3,3,4,4,5,5,6,6,7,7,8,8,9,9,10,10,11,11,12,12,13,13,14,14],"right_children":[2,4,6,8,10,12,14,16,18,20,22,24,26,28,30,-1,-1,-1,-1,-1,-1,-1,-1,-1,-1,-1,-1,-1,-1,-1,-1],"split_conditions":[4E0,5E0,2E1,3E0,3E0,5E0,2.2E1,2E0,2E0,7E0,6E0,6E0,7E0,5E0,2.3E1,-3.7764987E-1,-4.1664967E-1,-7.028734E-2,-3.5709342E-1,-3.4975854E-1,-2.7974328E-1,-6.329718E-2,-3.1254444E-1,2.3696221E-2,-5.164996E-1,1.7772578E-1,9.810273E-3,-1.577696E-1,-1.7844773E-3,-2.3229925E-1,-3.8335025E-1],"split_indices":[1,0,1,1,1,1,1,0,0,0,0,0,0,0,1,0,0,0,0,0,0,0,0,0,0,0,0,0,0,0,0],"split_type":[0,0,0,0,0,0,0,0,0,0,0,0,0,0,0,0,0,0,0,0,0,0,0,0,0,0,0,0,0,0,0],"sum_hessian":[1.2202E4,1.243E3,1.0959E4,7.16E2,5.27E2,7.8E3,3.159E3,6.7E2,4.6E1,4.57E2,7E1,5.59E2,7.241E3,1.701E3,1.458E3,2E2,4.7E2,2.3E1,2.3E1,2.46E2,2.11E2,2.4E1,4.6E1,4E2,1.59E2,5.988E3,1.253E3,8.79E2,8.22E2,9.12E2,5.46E2],"tree_param":{"num_deleted":"0","num_feature":"2","num_nodes":"31","size_leaf_vector":"1"}},{"base_weights":[-2.4083343E-3,-3.2167196E0,3.6242795E-1,-3.5465584E0,-2.7627213E0,1.2882297E0,-1.3711193E0,-3.6514764E0,-1.9732258E0,-2.864395E0,-2.0679438E0,2.1660244E-1,1.8137156E0,-6.0879517E-1,-2.6022289E0,-3.4007275E-1,-3.7507316E-1,-6.355143E-2,-3.2287195E-1,-3.4358785E-1,-2.6825392E-1,-5.7220645E-2,-2.81955E-1,1.2699813E-1,-2.0439453E-1,2.0294116E-1,4.4761542E-2,-1.8211962E-1,-1.790247E-2,-3.2073376E-1,-1.7181599E-1],"categories":[],"categories_nodes":[],"categories_segments":[],"categories_sizes":[],"default_left":[0,0,0,0,0,0,0,0,0,0,0,0,0,0,0,0,0,0,0,0,0,0,0,0,0,0,0,0,0,0,0],"id":11,"left_children":[1,3,5,7,9,11,13,15,17,19,21,23,25,27,29,-1,-1,-1,-1,-1,-1,-1,-1,-1,-1,-1,-1,-1,-1,-1,-1],"loss_changes":[1.4311592E4,1.7648535E2,1.75917E4,1.1115039E2,3.1375244E1,4.0231357E3,3.579749E3,3.944336E0,7.688403E1,3.8381836E1,7.820523E1,5.6032095E3,1.4117021E3,1.2283198E3,7.749922E2,0E0,0E0,0E0,0E0,0E0,0E0,0E0,0E0,0E0,0E0,0E0,0E0,0E0,0E0,0E0,0E0],"parents":[2147483647,0,0,1,1,2,2,3,3,4,4,5,5,6,6,7,7,8,8,9,9,10,10,11,11,12,12,13,13,14,14],"right_children":[2,4,6,8,10,12,14,16,18,20,22,24,26,28,30,-1,-1,-1,-1,-1,-1,-1,-1,-1,-1,-1,-1,-1,-1,-1,-1],"split_conditions":[4E0,5E0,1.9E1,3E0,3E0,1E1,2.2E1,2E0,2E0,6E0,6E0,6E0,1.8E1,3E0,5E0,-3.4007275E-1,-3.7507316E-1,-6.355143E-2,-3.2287195E-1,-3.4358785E-1,-2.6825392E-1,-5.7220645E-2,-2.81955E-1,1.2699813E-1,-2.0439453E-1,2.0294116E-1,4.4761542E-2,-1.8211962E-1,-1.790247E-2,-3.2073376E-1,-1.7181599E-1],"split_indices":[1,0,1,1,1,1,1,0,0,0,0,0,1,0,0,0,0,0,0,0,0,0,0,0,0,0,0,0,0,0,0],"split_type":[0,0,0,0,0,0,0,0,0,0,0,0,0,0,0,0,0,0,0,0,0,0,0,0,0,0,0,0,0,0,0],"sum_hessian":[1.2202E4,1.243E3,1.0959E4,7.16E2,5.27E2,7.144E3,3.815E3,6.7E2,4.6E1,4.57E2,7E1,2.351E3,4.793E3,2.357E3,1.458E3,2E2,4.7E2,2.3E1,2.3E1,1.06E2,3.51E2,2.4E1,4.6E1,1.604E3,7.47E2,4.139E3,6.54E2,6.16E2,1.741E3,8.64E2,5.94E2],"tree_param":{"num_deleted":"0","num_feature":"2","num_nodes":"31","size_leaf_vector":"1"}},{"base_weights":[-2.3787704E-3,-2.3741126E0,4.0875846E-1,-3.002799E0,-1.3215497E0,1.360638E0,-1.2341889E0,-3.2652001E0,-2.4150476E0,-1.3172281E-1,-4.0355635E0,1.8321201E0,5.519334E-1,-5.4800063E-1,-2.3423438E0,-3.062347E-1,-3.330206E-1,-1.5470295E-1,-2.621218E-1,-1.679189E-1,3.786582E-2,-2.5435936E-1,-4.4486076E-1,1.415092E-1,2.2652252E-1,-2.7927947E-1,9.321814E-2,-1.639372E-1,-1.611326E-2,-2.0061937E-1,-4.0079832E-1],"categories":[],"categories_nodes":[],"categories_segments":[],"categories_sizes":[],"default_left":[0,0,0,0,0,0,0,0,0,0,0,0,0,0,0,0,0,0,0,0,0,0,0,0,0,0,0,0,0,0,0],"id":12,"left_children":[1,3,5,7,9,11,13,15,17,19,21,23,25,27,29,-1,-1,-1,-1,-1,-1,-1,-1,-1,-1,-1,-1,-1,-1,-1,-1],"loss_changes":[1.1900213E4,1.1891357E3,1.6267677E4,1.6608203E2,2.182412E3,2.510162E3,2.900414E3,4.7851562E-2,5.8938965E1,3.726304E2,1.1563208E2,7.481631E2,3.0893254E3,9.953228E2,8.0886084E2,0E0,0E0,0E0,0E0,0E0,0E0,0E0,0E0,0E0,0E0,0E0,0E0,0E0,0E0,0E0,0E0],"parents":[2147483647,0,0,1,1,2,2,3,3,4,4,5,5,6,6,7,7,8,8,9,9,10,10,11,11,12,12,13,13,14,14],"right_children":[2,4,6,8,10,12,14,16,18,20,22,24,26,28,30,-1,-1,-1,-1,-1,-1,-1,-1,-1,-1,-1,-1,-1,-1,-1,-1],"split_conditions":[5E0,3E0,1.9E1,6E0,6E0,6E0,2.2E1,2E0,1E0,2E0,4E0,1.3E1,8E0,3E0,7E0,-3.062347E-1,-3.330206E-1,-1.5470295E-1,-2.621218E-1,-1.679189E-1,3.786582E-2,-2.5435936E-1,-4.4486076E-1,1.415092E-1,2.2652252E-1,-2.7927947E-1,9.321814E-2,-1.639372E-1,-1.611326E-2,-2.0061937E-1,-4.0079832E-1],"split_indices":[1,1,1,0,0,0,1,0,1,0,1,1,1,0,0,0,0,0,0,0,0,0,0,0,0,0,0,0,0,0,0],"split_type":[0,0,0,0,0,0,0,0,0,0,0,0,0,0,0,0,0,0,0,0,0,0,0,0,0,0,0,0,0,0,0],"sum_hessian":[1.2202E4,1.802E3,1.04E4,1.127E3,6.75E2,6.585E3,3.815E3,7.76E2,3.51E2,4.7E2,2.05E2,4.159E3,2.426E3,2.357E3,1.458E3,2E2,5.76E2,6.9E1,2.82E2,1.16E2,3.54E2,4.6E1,1.59E2,2.121E3,2.038E3,2.47E2,2.179E3,6.16E2,1.741E3,1.215E3,2.43E2],"tree_param":{"num_deleted":"0","num_feature":"2","num_nodes":"31","size_leaf_vector":"1"}},{"base_weights":[-2.3445433E-3,-2.1377468E0,3.6782494E-1,-2.7034552E0,-1.1906214E0,1.2246016E0,-1.1109747E0,-2.9395027E0,-2.174727E0,-1.1882651E-1,-3.6354017E0,1.4862086E0,-1.7216865E-2,-4.932768E-1,-2.1085215E0,-3.0252212E-1,-2.772027E-1,-1.3945363E-1,-2.3600225E-1,-1.512705E-1,3.4089915E-2,-2.2946464E-1,-4.0065274E-1,1.6264336E-1,2.5399089E-2,-2.6594344E-1,7.835656E-2,-1.0500286E-1,1.3791958E-2,-2.6865873E-1,-1.2645964E-1],"categories":[],"categories_nodes":[],"categories_segments":[],"categories_sizes":[],"default_left":[0,0,0,0,0,0,0,0,0,0,0,0,0,0,0,0,0,0,0,0,0,0,0,0,0,0,0,0,0,0,0],"id":13,"left_children":[1,3,5,7,9,11,13,15,17,19,21,23,25,27,29,-1,-1,-1,-1,-1,-1,-1,-1,-1,-1,-1,-1,-1,-1,-1,-1],"loss_changes":[9.646779E3,9.6282227E2,1.3179439E4,1.3438672E2,1.770893E3,2.1396074E3,2.350312E3,2.7685547E0,4.7595947E1,3.0233325E2,9.330957E1,9.3955176E2,2.4289534E3,8.287924E2,7.083677E2,0E0,0E0,0E0,0E0,0E0,0E0,0E0,0E0,0E0,0E0,0E0,0E0,0E0,0E0,0E0,0E0],"parents":[2147483647,0,0,1,1,2,2,3,3,4,4,5,5,6,6,7,7,8,8,9,9,10,10,11,11,12,12,13,13,14,14],"right_children":[2,4,6,8,10,12,14,16,18,20,22,24,26,28,30,-1,-1,-1,-1,-1,-1,-1,-1,-1,-1,-1,-1,-1,-1,-1,-1],"split_conditions":[5E0,3E0,1.9E1,6E0,6E0,7E0,2.2E1,4E0,1E0,2E0,4E0,1.8E1,1E1,5E0,5E0,-3.0252212E-1,-2.772027E-1,-1.3945363E-1,-2.3600225E-1,-1.512705E-1,3.4089915E-2,-2.2946464E-1,-4.0065274E-1,1.6264336E-1,2.5399089E-2,-2.6594344E-1,7.835656E-2,-1.0500286E-1,1.3791958E-2,-2.6865873E-1,-1.2645964E-1],"split_indices":[1,1,1,0,0,0,1,0,1,0,1,1,1,0,0,0,0,0,0,0,0,0,0,0,0,0,0,0,0,0,0],"split_type":[0,0,0,0,0,0,0,0,0,0,0,0,0,0,0,0,0,0,0,0,0,0,0,0,0,0,0,0,0,0,0],"sum_hessian":[1.2202E4,1.802E3,1.04E4,1.127E3,6.75E2,6.585E3,3.815E3,7.76E2,3.51E2,4.7E2,2.05E2,5.439E3,1.146E3,2.357E3,1.458E3,5.02E2,2.74E2,6.9E1,2.82E2,1.16E2,3.54E2,4.6E1,1.59E2,4.883E3,5.56E2,2.66E2,8.8E2,1.252E3,1.105E3,8.64E2,5.94E2],"tree_param":{"num_deleted":"0","num_feature":"2","num_nodes":"31","size_leaf_vector":"1"}},{"base_weights":[-2.289501E-3,-1.9249164E0,3.3099562E-1,-2.4339566E0,-1.0726646E0,1.1021415E0,-1.0000048E0,-2.6462986E0,-1.9583209E0,-1.071925E-1,-3.2749202E0,1.500941E0,4.181249E-1,-7.0649654E-1,-2.7527874E0,-2.4566184E-1,-2.7077883E-1,-1.2570749E-1,-2.1248542E-1,-1.3627271E-1,3.0690534E-2,-4.0189573E-1,-2.663004E-1,1.111082E-1,1.9059338E-1,-2.4813452E-1,7.477811E-2,-4.2399142E-2,-2.1028419E-1,-2.4426089E-1,-4.221599E-1],"categories":[],"categories_nodes":[],"categories_segments":[],"categories_sizes":[],"default_left":[0,0,0,0,0,0,0,0,0,0,0,0,0,0,0,0,0,0,0,0,0,0,0,0,0,0,0,0,0,0,0],"id":14,"left_children":[1,3,5,7,9,11,13,15,17,19,21,23,25,27,29,-1,-1,-1,-1,-1,-1,-1,-1,-1,-1,-1,-1,-1,-1,-1,-1],"loss_changes":[7.820111E3,7.7958594E2,1.0676642E4,1.08742676E2,1.4369712E3,1.795938E3,1.9612202E3,2.4106445E0,3.8435547E1,2.4529782E2,8.3086914E1,6.547051E2,2.3216504E3,1.2890408E3,2.3889844E2,0E0,0E0,0E0,0E0,0E0,0E0,0E0,0E0,0E0,0E0,0E0,0E0,0E0,0E0,0E0,0E0],"parents":[2147483647,0,0,1,1,2,2,3,3,4,4,5,5,6,6,7,7,8,8,9,9,10,10,11,11,12,12,13,13,14,14],"right_children":[2,4,6,8,10,12,14,16,18,20,22,24,26,28,30,-1,-1,-1,-1,-1,-1,-1,-1,-1,-1,-1,-1,-1,-1,-1,-1],"split_conditions":[5E0,3E0,1.9E1,6E0,6E0,6E0,2.3E1,2E0,1E0,2E0,7E0,1.3E1,8E0,7E0,7E0,-2.4566184E-1,-2.7077883E-1,-1.2570749E-1,-2.1248542E-1,-1.3627271E-1,3.0690534E-2,-4.0189573E-1,-2.663004E-1,1.111082E-1,1.9059338E-1,-2.4813452E-1,7.477811E-2,-4.2399142E-2,-2.1028419E-1,-2.4426089E-1,-4.221599E-1],"split_indices":[1,1,1,0,0,0,1,0,1,0,0,1,1,0,0,0,0,0,0,0,0,0,0,0,0,0,0,0,0,0,0],"split_type":[0,0,0,0,0,0,0,0,0,0,0,0,0,0,0,0,0,0,0,0,0,0,0,0,0,0,0,0,0,0,0],"sum_hessian":[1.2202E4,1.802E3,1.04E4,1.127E3,6.75E2,6.585E3,3.815E3,7.76E2,3.51E2,4.7E2,2.05E2,4.159E3,2.426E3,3.269E3,5.46E2,2E2,5.76E2,6.9E1,2.82E2,1.16E2,3.54E2,9E1,1.15E2,2.121E3,2.038E3,2.47E2,2.179E3,2.72E3,5.49E2,4.53E2,9.3E1],"tree_param":{"num_deleted":"0","num_feature":"2","num_nodes":"31","size_leaf_vector":"1"}},{"base_weights":[-2.2589164E-3,-1.733328E0,2.9781988E-1,-2.1913185E0,-9.665427E-1,8.012247E-1,-1.3926232E0,-2.3311129E0,-1.576306E0,-9.669732E-2,-2.9506721E0,1.0975351E0,-4.2592146E-2,-1.9929174E0,-5.9028274E-1,-2.463047E-1,-2.1655853E-1,3.119154E-2,-1.8077399E-1,-1.2276193E-1,2.7630148E-2,-1.8094298E-1,-3.2674703E-1,1.3442728E-1,-5.228761E-3,-5.9287447E-2,3.127145E-2,-1.6846733E-1,-3.0235505E-1,8.7058835E-2,-2.785504E-1],"categories":[],"categories_nodes":[],"categories_segments":[],"categories_sizes":[],"default_left":[0,0,0,0,0,0,0,0,0,0,0,0,0,0,0,0,0,0,0,0,0,0,0,0,0,0,0,0,0,0,0],"id":15,"left_children":[1,3,5,7,9,11,13,15,17,19,21,23,25,27,29,-1,-1,-1,-1,-1,-1,-1,-1,-1,-1,-1,-1,-1,-1,-1,-1],"loss_changes":[6.339451E3,6.3106055E2,8.85213E3,9.3305664E1,1.1664136E3,2.0040508E3,1.148499E3,1.4692383E1,9.320746E1,1.9902234E2,6.8565674E1,1.6830059E3,4.076469E2,4.2854883E2,3.2831196E3,0E0,0E0,0E0,0E0,0E0,0E0,0E0,0E0,0E0,0E0,0E0,0E0,0E0,0E0,0E0,0E0],"parents":[2147483647,0,0,1,1,2,2,3,3,4,4,5,5,6,6,7,7,8,8,9,9,10,10,11,11,12,12,13,13,14,14],"right_children":[2,4,6,8,10,12,14,16,18,20,22,24,26,28,30,-1,-1,-1,-1,-1,-1,-1,-1,-1,-1,-1,-1,-1,-1,-1,-1],"split_conditions":[5E0,3E0,2.1E1,7E0,6E0,1.8E1,5E0,4E0,1E0,2E0,4E0,7E0,4E0,2.3E1,7E0,-2.463047E-1,-2.1655853E-1,3.119154E-2,-1.8077399E-1,-1.2276193E-1,2.7630148E-2,-1.8094298E-1,-3.2674703E-1,1.3442728E-1,-5.228761E-3,-5.9287447E-2,3.127145E-2,-1.6846733E-1,-3.0235505E-1,8.7058835E-2,-2.785504E-1],"split_indices":[1,1,1,0,0,1,0,0,1,0,1,0,0,1,0,0,0,0,0,0,0,0,0,0,0,0,0,0,0,0,0],"split_type":[0,0,0,0,0,0,0,0,0,0,0,0,0,0,0,0,0,0,0,0,0,0,0,0,0,0,0,0,0,0,0],"sum_hessian":[1.2202E4,1.802E3,1.04E4,1.127E3,6.75E2,8.014E3,2.386E3,9.16E2,2.11E2,4.7E2,2.05E2,5.931E3,2.083E3,1.364E3,1.022E3,5.02E2,4.14E2,2.3E1,1.88E2,1.16E2,3.54E2,4.6E1,1.59E2,4.883E3,1.048E3,8.17E2,1.266E3,1.052E3,3.12E2,6.14E2,4.08E2],"tree_param":{"num_deleted":"0","num_feature":"2","num_nodes":"31","size_leaf_vector":"1"}},{"base_weights":[-2.1788557E-3,-1.5606692E0,2.6798365E-1,-1.9224827E0,-7.541393E-1,7.2111446E-1,-1.2536383E0,-2.1293793E0,-1.6378855E0,1.2100872E-1,-2.9427655E0,9.878028E-1,-3.834634E-2,-1.7939703E0,-5.3144187E-1,-1.767315E-1,-2.289244E-1,-1.7976935E-1,-1.4636765E-1,-1.3712725E-1,5.7605226E-2,-3.2983217E-1,-2.4385034E-1,5.4858983E-2,1.540163E-1,-5.3365987E-2,2.8146807E-2,-1.5163657E-1,-2.7221617E-1,7.8367084E-2,-2.5076348E-1],"categories":[],"categories_nodes":[],"categories_segments":[],"categories_sizes":[],"default_left":[0,0,0,0,0,0,0,0,0,0,0,0,0,0,0,0,0,0,0,0,0,0,0,0,0,0,0,0,0,0,0],"id":16,"left_children":[1,3,5,7,9,11,13,15,17,19,21,23,25,27,29,-1,-1,-1,-1,-1,-1,-1,-1,-1,-1,-1,-1,-1,-1,-1,-1],"loss_changes":[5.138438E3,5.2468945E2,7.172329E3,6.976172E1,1.0729644E3,1.6233911E3,9.305156E2,3.745508E1,1.2068359E1,2.7309015E2,2.0644043E1,1.4382803E3,3.3027332E2,3.475923E2,2.6606567E3,0E0,0E0,0E0,0E0,0E0,0E0,0E0,0E0,0E0,0E0,0E0,0E0,0E0,0E0,0E0,0E0],"parents":[2147483647,0,0,1,1,2,2,3,3,4,4,5,5,6,6,7,7,8,8,9,9,10,10,11,11,12,12,13,13,14,14],"right_children":[2,4,6,8,10,12,14,16,18,20,22,24,26,28,30,-1,-1,-1,-1,-1,-1,-1,-1,-1,-1,-1,-1,-1,-1,-1,-1],"split_conditions":[5E0,4E0,2.1E1,5E0,6E0,1.8E1,5E0,2E0,7E0,2E0,7E0,1.3E1,4E0,2.3E1,7E0,-1.767315E-1,-2.289244E-1,-1.7976935E-1,-1.4636765E-1,-1.3712725E-1,5.7605226E-2,-3.2983217E-1,-2.4385034E-1,5.4858983E-2,1.540163E-1,-5.3365987E-2,2.8146807E-2,-1.5163657E-1,-2.7221617E-1,7.8367084E-2,-2.5076348E-1],"split_indices":[1,1,1,0,0,1,0,0,0,0,0,1,0,1,0,0,0,0,0,0,0,0,0,0,0,0,0,0,0,0,0],"split_type":[0,0,0,0,0,0,0,0,0,0,0,0,0,0,0,0,0,0,0,0,0,0,0,0,0,0,0,0,0,0,0],"sum_hessian":[1.2202E4,1.802E3,1.04E4,1.243E3,5.59E2,8.014E3,2.386E3,7.16E2,5.27E2,4E2,1.59E2,5.931E3,2.083E3,1.364E3,1.022E3,2.23E2,4.93E2,2.7E2,2.57E2,9.3E1,3.07E2,9E1,6.9E1,3.305E3,2.626E3,8.17E2,1.266E3,1.052E3,3.12E2,6.14E2,4.08E2],"tree_param":{"num_deleted":"0","num_feature":"2","num_nodes":"31","size_leaf_vector":"1"}},{"base_weights":[-2.1082936E-3,-1.4053702E0,2.4114558E-1,-1.7308227E0,-6.7989147E-1,6.490259E-1,-1.1285243E0,-1.9170071E0,-1.4747145E0,1.087099E-1,-2.6520743E0,8.5129696E-1,-3.2325327E-1,-2.0159886E0,-7.530981E-1,-1.5913723E-1,-2.0607829E-1,-1.6185874E-1,-1.3178764E-1,-1.2356042E-1,5.186346E-2,-2.972114E-1,-2.1981362E-1,1.1115567E-1,1.2529253E-2,-2.3817661E-1,1.69972E-2,-2.426487E-1,-1.6854015E-1,-2.6840333E-2,-2.2574842E-1],"categories":[],"categories_nodes":[],"categories_segments":[],"categories_sizes":[],"default_left":[0,0,0,0,0,0,0,0,0,0,0,0,0,0,0,0,0,0,0,0,0,0,0,0,0,0,0,0,0,0,0],"id":17,"left_children":[1,3,5,7,9,11,13,15,17,19,21,23,25,27,29,-1,-1,-1,-1,-1,-1,-1,-1,-1,-1,-1,-1,-1,-1,-1,-1],"loss_changes":[4.1658193E3,4.245276E2,5.8113696E3,5.6490967E1,8.712374E2,1.5765364E3,7.937759E2,3.0289307E1,9.781006E0,2.2161894E2,1.6711426E1,1.2535425E3,1.4025486E3,9.212573E1,1.2236672E3,0E0,0E0,0E0,0E0,0E0,0E0,0E0,0E0,0E0,0E0,0E0,0E0,0E0,0E0,0E0,0E0],"parents":[2147483647,0,0,1,1,2,2,3,3,4,4,5,5,6,6,7,7,8,8,9,9,10,10,11,11,12,12,13,13,14,14],"right_children":[2,4,6,8,10,12,14,16,18,20,22,24,26,28,30,-1,-1,-1,-1,-1,-1,-1,-1,-1,-1,-1,-1,-1,-1,-1,-1],"split_conditions":[5E0,4E0,2.1E1,5E0,6E0,7E0,3E0,2E0,7E0,2E0,7E0,1.8E1,1E1,2E0,7E0,-1.5913723E-1,-2.0607829E-1,-1.6185874E-1,-1.3178764E-1,-1.2356042E-1,5.186346E-2,-2.972114E-1,-2.1981362E-1,1.1115567E-1,1.2529253E-2,-2.3817661E-1,1.69972E-2,-2.426487E-1,-1.6854015E-1,-2.6840333E-2,-2.2574842E-1],"split_indices":[1,1,1,0,0,0,0,0,0,0,0,1,1,0,0,0,0,0,0,0,0,0,0,0,0,0,0,0,0,0,0],"split_type":[0,0,0,0,0,0,0,0,0,0,0,0,0,0,0,0,0,0,0,0,0,0,0,0,0,0,0,0,0,0,0],"sum_hessian":[1.2202E4,1.802E3,1.04E4,1.243E3,5.59E2,8.014E3,2.386E3,7.16E2,5.27E2,4E2,1.59E2,6.634E3,1.38E3,7.08E2,1.678E3,2.23E2,4.93E2,2.7E2,2.57E2,9.3E1,3.07E2,9E1,6.9E1,4.883E3,1.751E3,2.66E2,1.114E3,3.13E2,3.95E2,1.27E3,4.08E2],"tree_param":{"num_deleted":"0","num_feature":"2","num_nodes":"31","size_leaf_vector":"1"}},{"base_weights":[-2.0623985E-3,-1.2655252E0,2.1695746E-1,-1.6053926E0,-6.965374E-1,8.059975E-1,-5.6478804E-1,-1.7106487E0,-1.1425375E0,-5.2057035E-2,-2.1667008E0,5.033508E-1,1.4469875E0,-1.8521744E-1,-1.347997E0,-1.8225111E-1,-1.570944E-1,5.485891E-2,-1.3512386E-1,-8.3266884E-2,2.0536168E-2,-2.6781687E-1,-1.7467849E-1,7.658114E-2,-7.57562E-2,1.7881505E-1,9.112229E-2,-7.407117E-2,1.7248489E-2,-1.778491E-1,-7.198875E-2],"categories":[],"categories_nodes":[],"categories_segments":[],"categories_sizes":[],"default_left":[0,0,0,0,0,0,0,0,0,0,0,0,0,0,0,0,0,0,0,0,0,0,0,0,0,0,0,0,0,0,0],"id":18,"left_children":[1,3,5,7,9,11,13,15,17,19,21,23,25,27,29,-1,-1,-1,-1,-1,-1,-1,-1,-1,-1,-1,-1,-1,-1,-1,-1],"loss_changes":[3.3771309E3,3.4754688E2,4.789902E3,5.3E1,6.4039136E2,1.1500413E3,1.3286056E3,1.1467285E1,7.5564514E1,9.481566E1,3.9565186E1,1.3345991E3,3.4602417E2,5.986169E2,3.932295E2,0E0,0E0,0E0,0E0,0E0,0E0,0E0,0E0,0E0,0E0,0E0,0E0,0E0,0E0,0E0,0E0],"parents":[2147483647,0,0,1,1,2,2,3,3,4,4,5,5,6,6,7,7,8,8,9,9,10,10,11,11,12,12,13,13,14,14],"right_children":[2,4,6,8,10,12,14,16,18,20,22,24,26,28,30,-1,-1,-1,-1,-1,-1,-1,-1,-1,-1,-1,-1,-1,-1,-1,-1],"split_conditions":[5E0,3E0,1.8E1,7E0,6E0,1.5E1,2.2E1,4E0,1E0,2E0,7E0,7E0,1.7E1,4E0,5E0,-1.8225111E-1,-1.570944E-1,5.485891E-2,-1.3512386E-1,-8.3266884E-2,2.0536168E-2,-2.6781687E-1,-1.7467849E-1,7.658114E-2,-7.57562E-2,1.7881505E-1,9.112229E-2,-7.407117E-2,1.7248489E-2,-1.778491E-1,-7.198875E-2],"split_indices":[1,1,1,0,0,1,1,0,1,0,0,0,1,0,0,0,0,0,0,0,0,0,0,0,0,0,0,0,0,0,0],"split_type":[0,0,0,0,0,0,0,0,0,0,0,0,0,0,0,0,0,0,0,0,0,0,0,0,0,0,0,0,0,0,0],"sum_hessian":[1.2202E4,1.802E3,1.04E4,1.127E3,6.75E2,5.931E3,4.469E3,9.16E2,2.11E2,4.7E2,2.05E2,4.03E3,1.901E3,3.011E3,1.458E3,5.02E2,4.14E2,2.3E1,1.88E2,1.16E2,3.54E2,9E1,1.15E2,3.336E3,6.94E2,1.16E3,7.41E2,1.179E3,1.832E3,8.64E2,5.94E2],"tree_param":{"num_deleted":"0","num_feature":"2","num_nodes":"31","size_leaf_vector":"1"}},{"base_weights":[-1.9350882E-3,-1.1394857E0,1.9525804E-1,-1.4058151E0,-5.4581904E-1,5.293172E-1,-9.2651796E-1,-1.5593935E0,-1.1946002E0,1.01248704E-1,-2.1641214E0,7.009022E-1,-2.954446E-1,-1.3671002E0,-3.3773857E-1,-1.2616716E-1,-1.6912363E-1,-1.3165425E-1,-1.06188335E-1,-1.0309774E-1,4.464695E-2,-2.413295E-1,-1.8092796E-1,9.026426E-2,1.381163E-2,-4.059666E-1,-8.833056E-3,-1.1331177E-1,-2.1499006E-1,7.65938E-2,-1.9964755E-1],"categories":[],"categories_nodes":[],"categories_segments":[],"categories_sizes":[],"default_left":[0,0,0,0,0,0,0,0,0,0,0,0,0,0,0,0,0,0,0,0,0,0,0,0,0,0,0,0,0,0,0],"id":19,"left_children":[1,3,5,7,9,11,13,15,17,19,21,23,25,27,29,-1,-1,-1,-1,-1,-1,-1,-1,-1,-1,-1,-1,-1,-1,-1,-1],"loss_changes":[2.7375647E3,2.8430664E2,3.8981562E3,3.848999E1,5.866238E2,1.1344641E3,6.1873975E2,2.6010254E1,7.1470337E0,1.5719836E2,9.7803955E0,7.5319116E2,1.076301E3,2.4757959E2,1.8743445E3,0E0,0E0,0E0,0E0,0E0,0E0,0E0,0E0,0E0,0E0,0E0,0E0,0E0,0E0,0E0,0E0],"parents":[2147483647,0,0,1,1,2,2,3,3,4,4,5,5,6,6,7,7,8,8,9,9,10,10,11,11,12,12,13,13,14,14],"right_children":[2,4,6,8,10,12,14,16,18,20,22,24,26,28,30,-1,-1,-1,-1,-1,-1,-1,-1,-1,-1,-1,-1,-1,-1,-1,-1],"split_conditions":[5E0,4E0,2.1E1,5E0,6E0,7E0,5E0,2E0,7E0,2E0,7E0,1.8E1,7E0,2.3E1,7E0,-1.2616716E-1,-1.6912363E-1,-1.3165425E-1,-1.06188335E-1,-1.0309774E-1,4.464695E-2,-2.413295E-1,-1.8092796E-1,9.026426E-2,1.381163E-2,-4.059666E-1,-8.833056E-3,-1.1331177E-1,-2.1499006E-1,7.65938E-2,-1.9964755E-1],"split_indices":[1,1,1,0,0,0,0,0,0,0,0,1,1,1,0,0,0,0,0,0,0,0,0,0,0,0,0,0,0,0,0],"split_type":[0,0,0,0,0,0,0,0,0,0,0,0,0,0,0,0,0,0,0,0,0,0,0,0,0,0,0,0,0,0,0],"sum_hessian":[1.2202E4,1.802E3,1.04E4,1.243E3,5.59E2,8.014E3,2.386E3,7.16E2,5.27E2,4E2,1.59E2,6.634E3,1.38E3,1.364E3,1.022E3,2.23E2,4.93E2,2.7E2,2.57E2,9.3E1,3.07E2,9E1,6.9E1,4.883E3,1.751E3,7.1E1,1.309E3,1.052E3,3.12E2,6.14E2,4.08E2],"tree_param":{"num_deleted":"0","num_feature":"2","num_nodes":"31","size_leaf_vector":"1"}},{"base_weights":[-1.8868332E-3,-9.5850813E-1,1.9135971E-1,-1.3038119E0,-5.359311E-1,7.0652133E-1,-4.637566E-1,-1.3904352E0,-9.22975E-1,1.2968725E-1,-2.12365E0,4.4281128E-1,1.2306583E0,-2.887234E-1,-1.7185397E0,-1.338118E-1,-1.6941243E-1,5.9778016E-2,-1.11120336E-1,-7.433677E-2,2.3597112E-2,-2.7903685E-1,-1.4889285E-1,6.640456E-2,-5.8796246E-2,1.5393613E-1,7.459751E-2,-8.444392E-2,8.109034E-3,-1.4932923E-1,-2.7881545E-1],"categories":[],"categories_nodes":[],"categories_segments":[],"categories_sizes":[],"default_left":[0,0,0,0,0,0,0,0,0,0,0,0,0,0,0,0,0,0,0,0,0,0,0,0,0,0,0,0,0,0,0],"id":20,"left_children":[1,3,5,7,9,11,13,15,17,19,21,23,25,27,29,-1,-1,-1,-1,-1,-1,-1,-1,-1,-1,-1,-1,-1,-1,-1,-1],"loss_changes":[2.256076E3,2.9857788E2,3.426871E3,3.592859E1,9.767722E2,7.8509863E2,9.81244E2,1.230249E1,6.134909E1,6.0675575E1,1.1137366E2,8.630752E2,2.834348E2,8.06495E2,1.2762402E2,0E0,0E0,0E0,0E0,0E0,0E0,0E0,0E0,0E0,0E0,0E0,0E0,0E0,0E0,0E0,0E0],"parents":[2147483647,0,0,1,1,2,2,3,3,4,4,5,5,6,6,7,7,8,8,9,9,10,10,11,11,12,12,13,13,14,14],"right_children":[2,4,6,8,10,12,14,16,18,20,22,24,26,28,30,-1,-1,-1,-1,-1,-1,-1,-1,-1,-1,-1,-1,-1,-1,-1,-1],"split_conditions":[6E0,3E0,1.8E1,7E0,6E0,1.5E1,2.3E1,2E0,1E0,4E0,7E0,7E0,1.7E1,4E0,7E0,-1.338118E-1,-1.6941243E-1,5.9778016E-2,-1.11120336E-1,-7.433677E-2,2.3597112E-2,-2.7903685E-1,-1.4889285E-1,6.640456E-2,-5.8796246E-2,1.5393613E-1,7.459751E-2,-8.444392E-2,8.109034E-3,-1.4932923E-1,-2.7881545E-1],"split_indices":[1,1,1,0,0,1,1,1,1,1,0,0,1,0,0,0,0,0,0,0,0,0,0,0,0,0,0,0,0,0,0],"split_type":[0,0,0,0,0,0,0,0,0,0,0,0,0,0,0,0,0,0,0,0,0,0,0,0,0,0,0,0,0,0,0],"sum_hessian":[1.2202E4,2.05E3,1.0152E4,1.127E3,9.23E2,5.683E3,4.469E3,9.16E2,2.11E2,6.51E2,2.72E2,3.782E3,1.901E3,3.923E3,5.46E2,7.86E2,1.3E2,2.3E1,1.88E2,7E1,5.81E2,1.31E2,1.41E2,3.114E3,6.68E2,1.16E3,7.41E2,1.567E3,2.356E3,4.53E2,9.3E1],"tree_param":{"num_deleted":"0","num_feature":"2","num_nodes":"31","size_leaf_vector":"1"}},{"base_weights":[-1.788464E-3,-8.630636E-1,1.7219727E-1,-1.1737452E0,-4.82856E-1,4.6235847E-1,-7.7202326E-1,-1.2851696E0,-9.2445385E-1,1.1664084E-1,-1.9128526E0,6.114101E-1,-2.4342021E-1,-5.715476E-1,-1.7401632E0,-1.23442054E-1,-1.5260053E-1,-7.616237E-2,-1.3507341E-1,-6.7007765E-2,2.1241467E-2,-1.5574011E-1,-2.961532E-1,7.811586E-2,1.593673E-2,-4.6645448E-1,-8.798882E-3,-1.15189455E-1,7.174689E-2,-1.5049686E-1,-2.512305E-1],"categories":[],"categories_nodes":[],"categories_segments":[],"categories_sizes":[],"default_left":[0,0,0,0,0,0,0,0,0,0,0,0,0,0,0,0,0,0,0,0,0,0,0,0,0,0,0,0,0,0,0],"id":21,"left_children":[1,3,5,7,9,11,13,15,17,19,21,23,25,27,29,-1,-1,-1,-1,-1,-1,-1,-1,-1,-1,-1,-1,-1,-1,-1,-1],"loss_changes":[1.828763E3,2.4170447E2,2.782037E3,3.0144653E1,7.9234845E2,8.172173E2,4.6229468E2,7.612915E0,2.3404022E1,4.926861E1,9.714978E1,4.9196777E2,9.307206E2,1.4812705E3,7.049487E1,0E0,0E0,0E0,0E0,0E0,0E0,0E0,0E0,0E0,0E0,0E0,0E0,0E0,0E0,0E0,0E0],"parents":[2147483647,0,0,1,1,2,2,3,3,4,4,5,5,6,6,7,7,8,8,9,9,10,10,11,11,12,12,13,13,14,14],"right_children":[2,4,6,8,10,12,14,16,18,20,22,24,26,28,30,-1,-1,-1,-1,-1,-1,-1,-1,-1,-1,-1,-1,-1,-1,-1,-1],"split_conditions":[6E0,3E0,2.1E1,6E0,6E0,7E0,7E0,2E0,2E0,4E0,5E0,1.8E1,7E0,5E0,2.3E1,-1.23442054E-1,-1.5260053E-1,-7.616237E-2,-1.3507341E-1,-6.7007765E-2,2.1241467E-2,-1.5574011E-1,-2.961532E-1,7.811586E-2,1.593673E-2,-4.6645448E-1,-8.798882E-3,-1.15189455E-1,7.174689E-2,-1.5049686E-1,-2.512305E-1],"split_indices":[1,1,1,0,0,0,0,1,1,1,1,1,1,0,1,0,0,0,0,0,0,0,0,0,0,0,0,0,0,0,0],"split_type":[0,0,0,0,0,0,0,0,0,0,0,0,0,0,0,0,0,0,0,0,0,0,0,0,0,0,0,0,0,0,0],"sum_hessian":[1.2202E4,2.05E3,1.0152E4,1.127E3,9.23E2,7.766E3,2.386E3,7.76E2,3.51E2,6.51E2,2.72E2,6.412E3,1.354E3,1.978E3,4.08E2,6.46E2,1.3E2,2.56E2,9.5E1,7E1,5.81E2,2.05E2,6.7E1,4.661E3,1.751E3,4.5E1,1.309E3,1.364E3,6.14E2,3.15E2,9.3E1],"tree_param":{"num_deleted":"0","num_feature":"2","num_nodes":"31","size_leaf_vector":"1"}},{"base_weights":[-1.757928E-3,-7.7723753E-1,1.548963E-1,-1.0568026E0,-4.3510905E-1,5.7705957E-1,-3.8195628E-1,-1.1314996E0,-7.28718E-1,1.049065E-1,-1.7232227E0,2.6576874E-1,9.3920285E-1,-2.3192316E-1,-1.4575466E0,-1.2211006E-1,-1.02017246E-1,6.1348166E-2,-8.953004E-2,-5.1673045E-3,5.095442E-2,-2.3152725E-1,-1.1607313E-1,4.3792978E-2,-5.414501E-2,1.409591E-1,5.2021693E-2,-5.5610244E-3,-1.1231971E-1,-1.2874137E-1,-2.2637473E-1],"categories":[],"categories_nodes":[],"categories_segments":[],"categories_sizes":[],"default_left":[0,0,0,0,0,0,0,0,0,0,0,0,0,0,0,0,0,0,0,0,0,0,0,0,0,0,0,0,0,0,0],"id":22,"left_children":[1,3,5,7,9,11,13,15,17,19,21,23,25,27,29,-1,-1,-1,-1,-1,-1,-1,-1,-1,-1,-1,-1,-1,-1,-1,-1],"loss_changes":[1.4825673E3,1.957124E2,2.3012905E3,2.6819336E1,6.4291644E2,6.4051855E2,7.2100446E2,7.901367E0,4.794967E1,4.1335735E1,8.8227844E1,4.2521234E2,5.170115E2,6.165671E2,7.2112915E1,0E0,0E0,0E0,0E0,0E0,0E0,0E0,0E0,0E0,0E0,0E0,0E0,0E0,0E0,0E0,0E0],"parents":[2147483647,0,0,1,1,2,2,3,3,4,4,5,5,6,6,7,7,8,8,9,9,10,10,11,11,12,12,13,13,14,14],"right_children":[2,4,6,8,10,12,14,16,18,20,22,24,26,28,30,-1,-1,-1,-1,-1,-1,-1,-1,-1,-1,-1,-1,-1,-1,-1,-1],"split_conditions":[6E0,3E0,1.8E1,7E0,6E0,1.3E1,2.3E1,4E0,1E0,5E0,7E0,7E0,5E0,7E0,7E0,-1.2211006E-1,-1.02017246E-1,6.1348166E-2,-8.953004E-2,-5.1673045E-3,5.095442E-2,-2.3152725E-1,-1.1607313E-1,4.3792978E-2,-5.414501E-2,1.409591E-1,5.2021693E-2,-5.5610244E-3,-1.1231971E-1,-1.2874137E-1,-2.2637473E-1],"split_indices":[1,1,1,0,0,1,1,0,1,1,0,0,0,0,0,0,0,0,0,0,0,0,0,0,0,0,0,0,0,0,0],"split_type":[0,0,0,0,0,0,0,0,0,0,0,0,0,0,0,0,0,0,0,0,0,0,0,0,0,0,0,0,0,0,0],"sum_hessian":[1.2202E4,2.05E3,1.0152E4,1.127E3,9.23E2,5.683E3,4.469E3,9.16E2,2.11E2,6.51E2,2.72E2,3.057E3,2.626E3,3.923E3,5.46E2,5.02E2,4.14E2,2.3E1,1.88E2,4.7E2,1.81E2,1.31E2,1.41E2,2.52E3,5.37E2,1.236E3,1.39E3,3.276E3,6.47E2,4.53E2,9.3E1],"tree_param":{"num_deleted":"0","num_feature":"2","num_nodes":"31","size_leaf_vector":"1"}},{"base_weights":[-1.6512448E-3,1.1689815E-1,-8.7472296E-1,-6.9978404E-1,3.095259E-1,-1.1957481E0,-4.0655243E-1,-9.5134604E-1,-3.91925E-1,5.193861E-1,-8.660786E-2,-1.7468338E0,-1.0514326E0,5.0875264E-1,-1.7253264E0,-1.01859406E-1,-6.5597914E-2,9.448576E-3,-1.5521736E-1,3.0241434E-2,9.506609E-2,-6.8246655E-2,1.2810178E-2,-1.8398263E-1,-1.5611525E-1,-7.784056E-2,-1.5326968E-1,1.05261646E-1,-3.0296577E-2,-1.5181474E-1,-2.0397806E-1],"categories":[],"categories_nodes":[],"categories_segments":[],"categories_sizes":[],"default_left":[0,0,0,0,0,0,0,0,0,0,0,0,0,0,0,0,0,0,0,0,0,0,0,0,0,0,0,0,0,0,0],"id":23,"left_children":[1,3,5,7,9,11,13,15,17,19,21,23,25,27,29,-1,-1,-1,-1,-1,-1,-1,-1,-1,-1,-1,-1,-1,-1,-1,-1],"loss_changes":[1.2631385E3,1.6905732E3,2.1879346E2,1.5846814E2,7.2288385E2,6.695703E1,7.190907E2,2.1737122E1,5.216129E2,5.315896E2,3.8543253E2,2.0123291E-1,8.920892E1,1.5571432E2,1.27994995E1,0E0,0E0,0E0,0E0,0E0,0E0,0E0,0E0,0E0,0E0,0E0,0E0,0E0,0E0,0E0,0E0],"parents":[2147483647,0,0,1,1,2,2,3,3,4,4,5,5,6,6,7,7,8,8,9,9,10,10,11,11,12,12,13,13,14,14],"right_children":[2,4,6,8,10,12,14,16,18,20,22,24,26,28,30,-1,-1,-1,-1,-1,-1,-1,-1,-1,-1,-1,-1,-1,-1,-1,-1],"split_conditions":[2.2E1,6E0,5E0,3E0,1.8E1,2E0,7E0,7E0,6E0,1.5E1,3E0,2.3E1,2.3E1,2.3E1,2.3E1,-1.01859406E-1,-6.5597914E-2,9.448576E-3,-1.5521736E-1,3.0241434E-2,9.506609E-2,-6.8246655E-2,1.2810178E-2,-1.8398263E-1,-1.5611525E-1,-7.784056E-2,-1.5326968E-1,1.05261646E-1,-3.0296577E-2,-1.5181474E-1,-2.0397806E-1],"split_indices":[1,1,0,1,1,0,0,0,0,1,0,1,1,1,1,0,0,0,0,0,0,0,0,0,0,0,0,0,0,0,0],"split_type":[0,0,0,0,0,0,0,0,0,0,0,0,0,0,0,0,0,0,0,0,0,0,0,0,0,0,0,0,0,0,0],"sum_hessian":[1.2202E4,1.0744E4,1.458E3,2.05E3,8.694E3,8.64E2,5.94E2,1.127E3,9.23E2,5.683E3,3.011E3,1.77E2,6.87E2,3.51E2,2.43E2,9.16E2,2.11E2,6.51E2,2.72E2,3.782E3,1.901E3,7.97E2,2.214E3,1.12E2,6.5E1,4.4E2,2.47E2,2.1E2,1.41E2,1.5E2,9.3E1],"tree_param":{"num_deleted":"0","num_feature":"2","num_nodes":"31","size_leaf_vector":"1"}},{"base_weights":[-1.5757057E-3,1.05185896E-1,-7.878347E-1,-6.299585E-1,2.7858165E-1,-1.3246288E0,-5.592559E-1,-8.563599E-1,-3.528906E-1,4.0443444E-1,-3.157594E-1,-1.5740609E0,-1.1474057E0,-2.4808165E-1,-1.5542518E0,-7.885226E-2,-1.1236197E-1,8.5051255E-3,-1.397525E-1,4.628263E-3,5.7046194E-2,-4.184846E-1,-1.9488228E-2,-1.6574715E-1,-1.4074026E-1,-9.380933E-2,-1.395546E-1,-8.242404E-2,4.5809012E-2,-1.3673379E-1,-1.8379727E-1],"categories":[],"categories_nodes":[],"categories_segments":[],"categories_sizes":[],"default_left":[0,0,0,0,0,0,0,0,0,0,0,0,0,0,0,0,0,0,0,0,0,0,0,0,0,0,0,0,0,0,0],"id":24,"left_children":[1,3,5,7,9,11,13,15,17,19,21,23,25,27,29,-1,-1,-1,-1,-1,-1,-1,-1,-1,-1,-1,-1,-1,-1,-1,-1],"loss_changes":[1.0244304E3,1.3698505E3,1.7827808E2,1.2835406E2,6.5050916E2,1.7423096E1,3.1697202E2,1.956482E1,4.228388E2,4.2668054E2,7.1006415E2,1.4169312E-1,1.2091095E1,3.1854758E2,1.0426514E1,0E0,0E0,0E0,0E0,0E0,0E0,0E0,0E0,0E0,0E0,0E0,0E0,0E0,0E0,0E0,0E0],"parents":[2147483647,0,0,1,1,2,2,3,3,4,4,5,5,6,6,7,7,8,8,9,9,10,10,11,11,12,12,13,13,14,14],"right_children":[2,4,6,8,10,12,14,16,18,20,22,24,26,28,30,-1,-1,-1,-1,-1,-1,-1,-1,-1,-1,-1,-1,-1,-1,-1,-1],"split_conditions":[2.2E1,6E0,3E0,3E0,7E0,2E0,7E0,2E0,6E0,3E0,7E0,2.3E1,2.3E1,5E0,2.3E1,-7.885226E-2,-1.1236197E-1,8.5051255E-3,-1.397525E-1,4.628263E-3,5.7046194E-2,-4.184846E-1,-1.9488228E-2,-1.6574715E-1,-1.4074026E-1,-9.380933E-2,-1.395546E-1,-8.242404E-2,4.5809012E-2,-1.3673379E-1,-1.8379727E-1],"split_indices":[1,1,0,1,0,0,0,1,0,0,1,1,1,0,1,0,0,0,0,0,0,0,0,0,0,0,0,0,0,0,0],"split_type":[0,0,0,0,0,0,0,0,0,0,0,0,0,0,0,0,0,0,0,0,0,0,0,0,0,0,0,0,0,0,0],"sum_hessian":[1.2202E4,1.0744E4,1.458E3,2.05E3,8.694E3,4.34E2,1.024E3,1.127E3,9.23E2,7.175E3,1.519E3,1.77E2,2.57E2,7.81E2,2.43E2,9.02E2,2.25E2,6.51E2,2.72E2,2.273E3,4.902E3,4.5E1,1.474E3,1.12E2,6.5E1,1.42E2,1.15E2,4.3E2,3.51E2,1.5E2,9.3E1],"tree_param":{"num_deleted":"0","num_feature":"2","num_nodes":"31","size_leaf_vector":"1"}},{"base_weights":[-1.5491437E-3,1.3157305E-1,-5.490393E-1,-5.6711984E-1,3.160571E-1,-8.587336E-1,-1.3527411E-1,-7.4873924E-1,-2.8679603E-1,4.2488256E-1,-1.992298E-1,-1.4610559E0,-6.781367E-1,5.94617E-1,-1.2324569E0,-9.125467E-2,-6.1845332E-2,1.6099103E-2,-1.4336035E-1,5.3973377E-2,1.1902573E-2,-1.703053E-1,1.259905E-2,-1.506149E-1,-1.2687948E-1,-4.945061E-2,-1.2714614E-1,8.668732E-2,-3.18369E-2,-1.1025273E-1,-1.6561306E-1],"categories":[],"categories_nodes":[],"categories_segments":[],"categories_sizes":[],"default_left":[0,0,0,0,0,0,0,0,0,0,0,0,0,0,0,0,0,0,0,0,0,0,0,0,0,0,0,0,0,0,0],"id":25,"left_children":[1,3,5,7,9,11,13,15,17,19,21,23,25,27,29,-1,-1,-1,-1,-1,-1,-1,-1,-1,-1,-1,-1,-1,-1,-1,-1],"loss_changes":[8.8946454E2,1.2655679E3,3.0575568E2,1.042063E2,4.356294E2,1.4749054E2,8.1997577E2,2.5984863E1,4.151594E2,2.2521179E2,6.6290967E2,8.112793E-1,1.1398935E2,1.5314406E2,2.068866E1,0E0,0E0,0E0,0E0,0E0,0E0,0E0,0E0,0E0,0E0,0E0,0E0,0E0,0E0,0E0,0E0],"parents":[2147483647,0,0,1,1,2,2,3,3,4,4,5,5,6,6,7,7,8,8,9,9,10,10,11,11,12,12,13,13,14,14],"right_children":[2,4,6,8,10,12,14,16,18,20,22,24,26,28,30,-1,-1,-1,-1,-1,-1,-1,-1,-1,-1,-1,-1,-1,-1,-1,-1],"split_conditions":[2.1E1,6E0,5E0,4E0,7E0,2E0,7E0,4E0,6E0,1.8E1,1E1,2.3E1,2.3E1,2.3E1,2.3E1,-9.125467E-2,-6.1845332E-2,1.6099103E-2,-1.4336035E-1,5.3973377E-2,1.1902573E-2,-1.703053E-1,1.259905E-2,-1.506149E-1,-1.2687948E-1,-4.945061E-2,-1.2714614E-1,8.668732E-2,-3.18369E-2,-1.1025273E-1,-1.6561306E-1],"split_indices":[1,1,0,1,0,0,0,0,0,1,1,1,1,1,1,0,0,0,0,0,0,0,0,0,0,0,0,0,0,0,0],"split_type":[0,0,0,0,0,0,0,0,0,0,0,0,0,0,0,0,0,0,0,0,0,0,0,0,0,0,0,0,0,0,0],"sum_hessian":[1.2202E4,9.816E3,2.386E3,2.05E3,7.766E3,1.364E3,1.022E3,1.243E3,8.07E2,6.412E3,1.354E3,3.13E2,1.051E3,6.14E2,4.08E2,5.48E2,6.95E2,5.81E2,2.26E2,4.661E3,1.751E3,2.4E2,1.114E3,2.48E2,6.5E1,8.04E2,2.47E2,4.73E2,1.41E2,3.15E2,9.3E1],"tree_param":{"num_deleted":"0","num_feature":"2","num_nodes":"31","size_leaf_vector":"1"}},{"base_weights":[-1.4804151E-3,1.1837737E-1,-4.9441817E-1,-3.5939732E-1,3.4101683E-1,-9.9247056E-1,-2.8380853E-1,-1.6354705E-1,-7.8142893E-1,5.1158255E-1,-3.678126E-2,-1.3158342E0,-7.3355985E-1,-1.7758645E-2,-1.1098858E0,-7.561951E-2,2.266134E-2,-9.944596E-2,1.4361443E-2,3.23258E-2,7.799384E-2,1.0712976E-2,-7.938243E-2,-1.356139E-1,-1.1438378E-1,-3.2714E-2,-9.4967924E-2,-5.353831E-2,5.3524464E-2,-9.926235E-2,-1.4922792E-1],"categories":[],"categories_nodes":[],"categories_segments":[],"categories_sizes":[],"default_left":[0,0,0,0,0,0,0,0,0,0,0,0,0,0,0,0,0,0,0,0,0,0,0,0,0,0,0,0,0,0,0],"id":26,"left_children":[1,3,5,7,9,11,13,15,17,19,21,23,25,27,29,-1,-1,-1,-1,-1,-1,-1,-1,-1,-1,-1,-1,-1,-1,-1,-1],"loss_changes":[7.210414E2,1.0443716E3,2.501018E2,2.5783847E2,4.315694E2,5.839386E1,3.6898718E2,4.9338034E2,1.9503772E2,2.329303E2,2.2713022E2,6.255493E-1,3.447206E1,3.6410782E2,1.6858398E1,0E0,0E0,0E0,0E0,0E0,0E0,0E0,0E0,0E0,0E0,0E0,0E0,0E0,0E0,0E0,0E0],"parents":[2147483647,0,0,1,1,2,2,3,3,4,4,5,5,6,6,7,7,8,8,9,9,10,10,11,11,12,12,13,13,14,14],"right_children":[2,4,6,8,10,12,14,16,18,20,22,24,26,28,30,-1,-1,-1,-1,-1,-1,-1,-1,-1,-1,-1,-1,-1,-1,-1,-1],"split_conditions":[2.1E1,9E0,3E0,6E0,1.8E1,2E0,7E0,4E0,8E0,1.5E1,7E0,2.3E1,2.2E1,5E0,2.3E1,-7.561951E-2,2.266134E-2,-9.944596E-2,1.4361443E-2,3.23258E-2,7.799384E-2,1.0712976E-2,-7.938243E-2,-1.356139E-1,-1.1438378E-1,-3.2714E-2,-9.4967924E-2,-5.353831E-2,5.3524464E-2,-9.926235E-2,-1.4922792E-1],"split_indices":[1,1,0,0,1,0,0,1,1,1,0,1,1,0,1,0,0,0,0,0,0,0,0,0,0,0,0,0,0,0,0],"split_type":[0,0,0,0,0,0,0,0,0,0,0,0,0,0,0,0,0,0,0,0,0,0,0,0,0,0,0,0,0,0,0],"sum_hessian":[1.2202E4,9.816E3,2.386E3,3.12E3,6.696E3,7.08E2,1.678E3,2.132E3,9.88E2,4.613E3,2.083E3,3.13E2,3.95E2,1.27E3,4.08E2,8.46E2,1.286E3,8.03E2,1.85E2,2.712E3,1.901E3,1.751E3,3.32E2,2.48E2,6.5E1,1.38E2,2.57E2,6.56E2,6.14E2,3.15E2,9.3E1],"tree_param":{"num_deleted":"0","num_feature":"2","num_nodes":"31","size_leaf_vector":"1"}},{"base_weights":[-1.3914226E-3,1.0653E-1,-4.452386E-1,-2.8357708E-1,3.3187604E-1,-8.937564E-1,-2.555755E-1,-8.4909916E-2,-7.085986E-1,5.708786E-1,4.419408E-2,-1.1850471E0,-6.605264E-1,-1.5982552E-2,-9.995048E-1,-6.80665E-2,2.2953833E-2,-8.951373E-2,-2.679973E-2,3.5691924E-2,9.830096E-2,1.69214E-2,-6.1253484E-2,-1.2210702E-1,-1.0311872E-1,-2.9466143E-2,-8.550795E-2,-4.8192624E-2,4.818077E-2,-8.936754E-2,-1.3446388E-1],"categories":[],"categories_nodes":[],"categories_segments":[],"categories_sizes":[],"default_left":[0,0,0,0,0,0,0,0,0,0,0,0,0,0,0,0,0,0,0,0,0,0,0,0,0,0,0,0,0,0,0],"id":27,"left_children":[1,3,5,7,9,11,13,15,17,19,21,23,25,27,29,-1,-1,-1,-1,-1,-1,-1,-1,-1,-1,-1,-1,-1,-1,-1,-1],"loss_changes":[5.845787E2,8.630976E2,2.0282718E2,3.034938E2,4.278479E2,4.738513E1,2.9924933E2,4.593122E2,9.38667E1,2.993706E2,2.32048E2,4.8117065E-1,2.7935379E1,2.9503073E2,1.3737213E1,0E0,0E0,0E0,0E0,0E0,0E0,0E0,0E0,0E0,0E0,0E0,0E0,0E0,0E0,0E0,0E0],"parents":[2147483647,0,0,1,1,2,2,3,3,4,4,5,5,6,6,7,7,8,8,9,9,10,10,11,11,12,12,13,13,14,14],"right_children":[2,4,6,8,10,12,14,16,18,20,22,24,26,28,30,-1,-1,-1,-1,-1,-1,-1,-1,-1,-1,-1,-1,-1,-1,-1,-1],"split_conditions":[2.1E1,1E1,3E0,6E0,1.7E1,2E0,7E0,4E0,8E0,1.5E1,7E0,2.3E1,2.2E1,5E0,2.3E1,-6.80665E-2,2.2953833E-2,-8.951373E-2,-2.679973E-2,3.5691924E-2,9.830096E-2,1.69214E-2,-6.1253484E-2,-1.2210702E-1,-1.0311872E-1,-2.9466143E-2,-8.550795E-2,-4.8192624E-2,4.818077E-2,-8.936754E-2,-1.3446388E-1],"split_indices":[1,1,0,0,1,0,0,1,1,1,0,1,1,0,1,0,0,0,0,0,0,0,0,0,0,0,0,0,0,0,0],"split_type":[0,0,0,0,0,0,0,0,0,0,0,0,0,0,0,0,0,0,0,0,0,0,0,0,0,0,0,0,0,0,0],"sum_hessian":[1.2202E4,9.816E3,2.386E3,3.594E3,6.222E3,7.08E2,1.678E3,2.45E3,1.144E3,3.398E3,2.824E3,3.13E2,3.95E2,1.27E3,4.08E2,8.46E2,1.604E3,8.03E2,3.41E2,2.238E3,1.16E3,2.373E3,4.51E2,2.48E2,6.5E1,1.38E2,2.57E2,6.56E2,6.14E2,3.15E2,9.3E1],"tree_param":{"num_deleted":"0","num_feature":"2","num_nodes":"31","size_leaf_vector":"1"}},{"base_weights":[-1.3043033E-3,7.1742564E-2,-5.392668E-1,-4.0680104E-1,1.8461446E-1,-3.359801E-1,-8.775876E-1,-5.3836834E-1,-2.4574618E-1,2.7465746E-1,-2.4060462E-1,-7.810504E-1,-5.5642175E-3,-6.429251E-1,-1.0509682E0,-6.0500998E-2,-2.4757234E-2,4.570684E-3,-9.40917E-2,-2.6479417E-3,4.14268E-2,-3.4240037E-1,-1.4116262E-2,-1.088469E-1,-6.5282166E-2,3.6854487E-2,-9.346061E-2,-9.492469E-2,3.768418E-2,-2.025346E-1,-7.1893916E-2],"categories":[],"categories_nodes":[],"categories_segments":[],"categories_sizes":[],"default_left":[0,0,0,0,0,0,0,0,0,0,0,0,0,0,0,0,0,0,0,0,0,0,0,0,0,0,0,0,0,0,0],"id":28,"left_children":[1,3,5,7,9,11,13,15,17,19,21,23,25,27,29,-1,-1,-1,-1,-1,-1,-1,-1,-1,-1,-1,-1,-1,-1,-1,-1],"loss_changes":[4.7957355E2,5.804569E2,1.0004959E2,4.3327484E1,3.3298022E2,1.3425986E2,2.1579498E1,2.170987E1,1.872543E2,3.017035E2,4.8069333E2,1.4623764E1,1.8281502E2,7.376629E1,9.980621E1,0E0,0E0,0E0,0E0,0E0,0E0,0E0,0E0,0E0,0E0,0E0,0E0,0E0,0E0,0E0,0E0],"parents":[2147483647,0,0,1,1,2,2,3,3,4,4,5,5,6,6,7,7,8,8,9,9,10,10,11,11,12,12,13,13,14,14],"right_children":[2,4,6,8,10,12,14,16,18,20,22,24,26,28,30,-1,-1,-1,-1,-1,-1,-1,-1,-1,-1,-1,-1,-1,-1,-1,-1],"split_conditions":[2.2E1,6E0,2.3E1,3E0,7E0,4E0,4E0,7E0,6E0,3E0,7E0,2E0,7E0,3E0,5E0,-6.0500998E-2,-2.4757234E-2,4.570684E-3,-9.40917E-2,-2.6479417E-3,4.14268E-2,-3.4240037E-1,-1.4116262E-2,-1.088469E-1,-6.5282166E-2,3.6854487E-2,-9.346061E-2,-9.492469E-2,3.768418E-2,-2.025346E-1,-7.1893916E-2],"split_indices":[1,1,1,1,0,0,0,0,0,0,1,0,0,0,0,0,0,0,0,0,0,0,0,0,0,0,0,0,0,0,0],"split_type":[0,0,0,0,0,0,0,0,0,0,0,0,0,0,0,0,0,0,0,0,0,0,0,0,0,0,0,0,0,0,0],"sum_hessian":[1.2202E4,1.0744E4,1.458E3,2.05E3,8.694E3,9.12E2,5.46E2,1.127E3,9.23E2,7.175E3,1.519E3,3.88E2,5.24E2,2.34E2,3.12E2,9.16E2,2.11E2,6.51E2,2.72E2,2.273E3,4.902E3,4.5E1,1.474E3,1.12E2,2.76E2,3.74E2,1.5E2,1.8E2,5.4E1,7.8E1,2.34E2],"tree_param":{"num_deleted":"0","num_feature":"2","num_nodes":"31","size_leaf_vector":"1"}},{"base_weights":[-1.2605601E-3,1.08552255E-1,-3.155472E-1,-2.36415E-1,3.3608413E-1,-1.6510466E-1,-1.0517341E0,-6.747917E-2,-5.9783447E-1,4.9346682E-1,7.522647E-2,-5.665111E-1,6.287932E-1,-1.707987E-1,-8.437827E-1,-5.576269E-2,1.912265E-2,-2.6358068E-2,-7.748868E-2,3.0090425E-2,8.644007E-2,-6.0035415E-2,1.7923651E-2,-4.9424216E-2,-8.953372E-2,8.090667E-2,-3.1635765E-2,-7.5285554E-2,-1.1404765E-1],"categories":[],"categories_nodes":[],"categories_segments":[],"categories_sizes":[],"default_left":[0,0,0,0,0,0,0,0,0,0,0,0,0,0,0,0,0,0,0,0,0,0,0,0,0,0,0,0,0],"id":29,"left_children":[1,3,5,7,9,11,13,15,17,19,21,23,25,-1,27,-1,-1,-1,-1,-1,-1,-1,-1,-1,-1,-1,-1,-1,-1],"loss_changes":[4.2119275E2,7.0995245E2,3.498085E2,2.1945851E2,2.237099E2,8.368798E2,7.170599E1,3.109032E2,6.755737E1,2.425235E2,1.4429584E2,4.100177E1,1.5053607E2,0E0,1.0175201E1,0E0,0E0,0E0,0E0,0E0,0E0,0E0,0E0,0E0,0E0,0E0,0E0,0E0,0E0],"parents":[2147483647,0,0,1,1,2,2,3,3,4,4,5,5,6,6,7,7,8,8,9,9,10,10,11,11,12,12,14,14],"right_children":[2,4,6,8,10,12,14,16,18,20,22,24,26,-1,28,-1,-1,-1,-1,-1,-1,-1,-1,-1,-1,-1,-1,-1,-1],"split_conditions":[2E1,1E1,7E0,6E0,1.7E1,5E0,2.1E1,4E0,4E0,1.5E1,2E0,2.3E1,2.3E1,-1.707987E-1,2.3E1,-5.576269E-2,1.912265E-2,-2.6358068E-2,-7.748868E-2,3.0090425E-2,8.644007E-2,-6.0035415E-2,1.7923651E-2,-4.9424216E-2,-8.953372E-2,8.090667E-2,-3.1635765E-2,-7.5285554E-2,-1.1404765E-1],"split_indices":[1,1,0,0,1,0,1,1,1,1,0,1,1,0,1,0,0,0,0,0,0,0,0,0,0,0,0,0,0],"split_type":[0,0,0,0,0,0,0,0,0,0,0,0,0,0,0,0,0,0,0,0,0,0,0,0,0,0,0,0,0],"sum_hessian":[1.2202E4,9.043E3,3.159E3,3.594E3,5.449E3,2.624E3,5.35E2,2.45E3,1.144E3,3.398E3,2.051E3,1.743E3,8.81E2,1.27E2,4.08E2,8.46E2,1.604E3,3.97E2,7.47E2,2.238E3,1.16E3,2.73E2,1.778E3,1.431E3,3.12E2,7.4E2,1.41E2,3.15E2,9.3E1],"tree_param":{"num_deleted":"0","num_feature":"2","num_nodes":"29","size_leaf_vector":"1"}},{"base_weights":[-1.1766541E-3,8.162938E-2,-3.4173203E-1,-2.1281266E-1,2.5171417E-1,-9.5006865E-1,-2.4946615E-1,-6.0746334E-2,-5.381417E-1,4.0580553E-1,-5.451905E-2,-9.9982224E-2,-7.479673E-2,-1.24013856E-1,-7.598673E-1,-5.0193E-2,1.7211555E-2,-6.896157E-2,-1.8047158E-2,2.7082736E-2,5.6448605E-2,-3.709419E-2,1.4981277E-2,-4.097243E-2,3.6491524E-2,-6.7780815E-2,-1.0276421E-1],"categories":[],"categories_nodes":[],"categories_segments":[],"categories_sizes":[],"default_left":[0,0,0,0,0,0,0,0,0,0,0,0,0,0,0,0,0,0,0,0,0,0,0,0,0,0,0],"id":30,"left_children":[1,3,5,7,9,11,13,15,17,19,21,-1,-1,23,25,-1,-1,-1,-1,-1,-1,-1,-1,-1,-1,-1,-1],"loss_changes":[3.44153E2,4.9168994E2,1.3374225E2,1.778177E2,2.9367242E2,2.4094849E0,1.3270605E2,2.5188951E2,6.1909027E1,8.851935E1,1.3479713E2,0E0,0E0,2.3287662E2,8.290573E0,0E0,0E0,0E0,0E0,0E0,0E0,0E0,0E0,0E0,0E0,0E0,0E0],"parents":[2147483647,0,0,1,1,2,2,3,3,4,4,5,5,6,6,7,7,8,8,9,9,10,10,13,13,14,14],"right_children":[2,4,6,8,10,12,14,16,18,20,22,-1,-1,24,26,-1,-1,-1,-1,-1,-1,-1,-1,-1,-1,-1,-1],"split_conditions":[2.1E1,1E1,2E0,6E0,1.8E1,2.3E1,7E0,4E0,8E0,1.5E1,4E0,-9.9982224E-2,-7.479673E-2,5E0,2.3E1,-5.0193E-2,1.7211555E-2,-6.896157E-2,-1.8047158E-2,2.7082736E-2,5.6448605E-2,-3.709419E-2,1.4981277E-2,-4.097243E-2,3.6491524E-2,-6.7780815E-2,-1.0276421E-1],"split_indices":[1,1,0,0,1,1,0,1,1,1,0,0,0,0,1,0,0,0,0,0,0,0,0,0,0,0,0],"split_type":[0,0,0,0,0,0,0,0,0,0,0,0,0,0,0,0,0,0,0,0,0,0,0,0,0,0,0],"sum_hessian":[1.2202E4,9.816E3,2.386E3,3.594E3,6.222E3,3.13E2,2.073E3,2.45E3,1.144E3,4.139E3,2.083E3,2.48E2,6.5E1,1.665E3,4.08E2,8.46E2,1.604E3,8.03E2,3.41E2,2.238E3,1.901E3,8.17E2,1.266E3,1.051E3,6.14E2,3.15E2,9.3E1],"tree_param":{"num_deleted":"0","num_feature":"2","num_nodes":"27","size_leaf_vector":"1"}},{"base_weights":[-1.0923533E-3,8.832417E-2,-2.5700435E-1,-1.9156493E-1,2.7293205E-1,-1.270181E-1,-8.931181E-1,-5.4685373E-2,-4.8440358E-1,4.070586E-1,5.062749E-2,-4.6227178E-1,5.360311E-1,-1.5533872E-1,-6.842976E-1,-1.7696897E-2,6.897768E-2,-5.072458E-3,-6.0923047E-2,2.4375705E-2,7.2163664E-2,2.9493287E-2,-2.4385294E-2,-3.9726112E-2,-7.5822376E-2,6.995774E-2,-3.2117866E-2,-6.1024185E-2,-9.259713E-2],"categories":[],"categories_nodes":[],"categories_segments":[],"categories_sizes":[],"default_left":[0,0,0,0,0,0,0,0,0,0,0,0,0,0,0,0,0,0,0,0,0,0,0,0,0,0,0,0,0],"id":31,"left_children":[1,3,5,7,9,11,13,15,17,19,21,23,25,-1,27,-1,-1,-1,-1,-1,-1,-1,-1,-1,-1,-1,-1,-1,-1],"loss_changes":[2.7926102E2,4.6735342E2,2.611745E2,1.4407411E2,1.6248172E2,5.8375824E2,7.283945E1,2.2325008E2,6.195343E1,1.7443433E2,1.4769926E2,3.3253387E1,1.2387529E2,0E0,6.754944E0,0E0,0E0,0E0,0E0,0E0,0E0,0E0,0E0,0E0,0E0,0E0,0E0,0E0,0E0],"parents":[2147483647,0,0,1,1,2,2,3,3,4,4,5,5,6,6,7,7,8,8,9,9,10,10,11,11,12,12,14,14],"right_children":[2,4,6,8,10,12,14,16,18,20,22,24,26,-1,28,-1,-1,-1,-1,-1,-1,-1,-1,-1,-1,-1,-1,-1,-1],"split_conditions":[2E1,1E1,7E0,6E0,1.7E1,5E0,2.1E1,5E0,2E0,1.5E1,5E0,2.3E1,2.3E1,-1.5533872E-1,2.3E1,-1.7696897E-2,6.897768E-2,-5.072458E-3,-6.0923047E-2,2.4375705E-2,7.2163664E-2,2.9493287E-2,-2.4385294E-2,-3.9726112E-2,-7.5822376E-2,6.995774E-2,-3.2117866E-2,-6.1024185E-2,-9.259713E-2],"split_indices":[1,1,0,0,1,0,1,0,1,1,0,1,1,0,1,0,0,0,0,0,0,0,0,0,0,0,0,0,0],"split_type":[0,0,0,0,0,0,0,0,0,0,0,0,0,0,0,0,0,0,0,0,0,0,0,0,0,0,0,0,0],"sum_hessian":[1.2202E4,9.043E3,3.159E3,3.594E3,5.449E3,2.624E3,5.35E2,2.45E3,1.144E3,3.398E3,2.051E3,1.743E3,8.81E2,1.27E2,4.08E2,2.105E3,3.45E2,2.56E2,8.88E2,2.238E3,1.16E3,1.121E3,9.3E2,1.431E3,3.12E2,7.4E2,1.41E2,3.15E2,9.3E1],"tree_param":{"num_deleted":"0","num_feature":"2","num_nodes":"29","size_leaf_vector":"1"}},{"base_weights":[-1.0078286E-3,6.69729E-2,-2.805913E-1,-1.7241274E-1,2.0525418E-1,-8.085466E-1,-2.0052451E-1,-4.919614E-2,-4.3602103E-1,3.3129382E-1,-4.523015E-2,-8.6067486E-1,-5.9963036E-2,-7.676551E-2,-6.091294E-1,-4.4742327E-2,1.6098926E-2,-5.7767607E-2,-1.0173252E-2,4.6417095E-2,2.0519847E-2,-3.3720274E-2,1.4330876E-2,-9.101077E-2,-7.9312645E-2,4.0161535E-3,-5.4941107E-2,-2.7047545E-2,-7.911168E-2],"categories":[],"categories_nodes":[],"categories_segments":[],"categories_sizes":[],"default_left":[0,0,0,0,0,0,0,0,0,0,0,0,0,0,0,0,0,0,0,0,0,0,0,0,0,0,0,0,0],"id":32,"left_children":[1,3,5,7,9,11,13,15,17,19,21,23,-1,25,27,-1,-1,-1,-1,-1,-1,-1,-1,-1,-1,-1,-1,-1,-1],"loss_changes":[2.3195253E2,3.2500314E2,1.0074043E2,1.16747444E2,1.9648099E2,2.9035034E0,1.0483237E2,2.0522447E2,5.4161133E1,6.927124E1,1.14768745E2,1.0960388E-1,0E0,8.805928E1,2.949205E1,0E0,0E0,0E0,0E0,0E0,0E0,0E0,0E0,0E0,0E0,0E0,0E0,0E0,0E0],"parents":[2147483647,0,0,1,1,2,2,3,3,4,4,5,5,6,6,7,7,8,8,9,9,10,10,11,11,13,13,14,14],"right_children":[2,4,6,8,10,12,14,16,18,20,22,24,-1,26,28,-1,-1,-1,-1,-1,-1,-1,-1,-1,-1,-1,-1,-1,-1],"split_conditions":[2.1E1,1E1,2E0,6E0,1.8E1,2.3E1,2.3E1,4E0,8E0,5E0,4E0,2.2E1,-5.9963036E-2,7E0,4E0,-4.4742327E-2,1.6098926E-2,-5.7767607E-2,-1.0173252E-2,4.6417095E-2,2.0519847E-2,-3.3720274E-2,1.4330876E-2,-9.101077E-2,-7.9312645E-2,4.0161535E-3,-5.4941107E-2,-2.7047545E-2,-7.911168E-2],"split_indices":[1,1,0,0,1,1,1,1,1,0,0,1,0,0,0,0,0,0,0,0,0,0,0,0,0,0,0,0,0],"split_type":[0,0,0,0,0,0,0,0,0,0,0,0,0,0,0,0,0,0,0,0,0,0,0,0,0,0,0,0,0],"sum_hessian":[1.2202E4,9.816E3,2.386E3,3.594E3,6.222E3,3.13E2,2.073E3,2.45E3,1.144E3,4.139E3,2.083E3,2.48E2,6.5E1,1.592E3,4.81E2,8.46E2,1.604E3,8.03E2,3.41E2,2.014E3,2.125E3,8.17E2,1.266E3,1.36E2,1.12E2,1.277E3,3.15E2,1.69E2,3.12E2],"tree_param":{"num_deleted":"0","num_feature":"2","num_nodes":"29","size_leaf_vector":"1"}},{"base_weights":[-9.426019E-4,8.320226E-2,-1.8590228E-1,-1.5519795E-1,2.619602E-1,-4.0645736E-1,8.8863E-2,-8.239083E-2,-5.236374E-1,4.569126E-1,6.892141E-2,-7.1565914E-1,-3.146213E-1,5.304252E-1,-6.37827E-1,-2.897038E-2,1.875763E-2,-6.8112286E-3,-1.18868604E-1,-1.5510573E-2,7.5330675E-2,1.5149239E-1,-9.988894E-3,-2.541753E-1,-5.041181E-2,-2.5287751E-2,-6.586697E-2,1.5956705E-2,7.7431366E-2,-1.6826894E-3,-7.617639E-2],"categories":[],"categories_nodes":[],"categories_segments":[],"categories_sizes":[],"default_left":[0,0,0,0,0,0,0,0,0,0,0,0,0,0,0,0,0,0,0,0,0,0,0,0,0,0,0,0,0,0,0],"id":33,"left_children":[1,3,5,7,9,11,13,15,17,19,21,23,25,27,29,-1,-1,-1,-1,-1,-1,-1,-1,-1,-1,-1,-1,-1,-1,-1,-1],"loss_changes":[1.899357E2,3.5750305E2,2.3128908E2,9.639281E1,1.8038293E2,5.9888885E1,5.4583234E2,1.6812527E2,1.7956624E2,4.3275266E2,5.8843274E2,1.8568489E2,3.4544266E1,9.5570465E1,4.9475525E1,0E0,0E0,0E0,0E0,0E0,0E0,0E0,0E0,0E0,0E0,0E0,0E0,0E0,0E0,0E0,0E0],"parents":[2147483647,0,0,1,1,2,2,3,3,4,4,5,5,6,6,7,7,8,8,9,9,10,10,11,11,12,12,13,13,14,14],"right_children":[2,4,6,8,10,12,14,16,18,20,22,24,26,28,30,-1,-1,-1,-1,-1,-1,-1,-1,-1,-1,-1,-1,-1,-1,-1,-1],"split_conditions":[1.9E1,1E1,5E0,7E0,5E0,2E0,7E0,6E0,6E0,1.3E1,1.1E1,2E1,2.3E1,6E0,2E1,-2.897038E-2,1.875763E-2,-6.8112286E-3,-1.18868604E-1,-1.5510573E-2,7.5330675E-2,1.5149239E-1,-9.988894E-3,-2.541753E-1,-5.041181E-2,-2.5287751E-2,-6.586697E-2,1.5956705E-2,7.7431366E-2,-1.6826894E-3,-7.617639E-2],"split_indices":[1,1,0,0,0,0,0,1,1,1,1,1,1,0,1,0,0,0,0,0,0,0,0,0,0,0,0,0,0,0,0],"split_type":[0,0,0,0,0,0,0,0,0,0,0,0,0,0,0,0,0,0,0,0,0,0,0,0,0,0,0,0,0,0,0],"sum_hessian":[1.2202E4,8.387E3,3.815E3,3.594E3,4.793E3,2.116E3,1.699E3,3.002E3,5.92E2,2.384E3,2.409E3,4.83E2,1.633E3,1.057E3,6.42E2,1.698E3,1.304E3,3.52E2,2.4E2,7.78E2,1.606E3,2.51E2,2.158E3,4.9E1,4.34E2,1.386E3,2.47E2,4.2E2,6.37E2,1.07E2,5.35E2],"tree_param":{"num_deleted":"0","num_feature":"2","num_nodes":"31","size_leaf_vector":"1"}},{"base_weights":[-8.741161E-4,4.1437678E-2,-3.1248435E-1,-2.2655329E-1,1.04647346E-1,-1.9118667E-1,-5.143716E-1,-2.9818764E-1,-1.3885838E-1,1.6415398E-1,-1.7635544E-1,-5.041722E-1,4.1084886E-2,-2.667213E-1,-6.986638E-1,-3.860771E-2,-1.0333462E-2,4.3635704E-3,-5.741964E-2,1.1236363E-1,1.3492579E-2,-2.7133846E-1,-9.711496E-3,-6.6455014E-2,-4.369272E-2,2.623862E-2,-5.0877657E-2,-5.3883977E-2,6.336452E-2,-1.4785153E-1,-4.3352786E-2],"categories":[],"categories_nodes":[],"categories_segments":[],"categories_sizes":[],"default_left":[0,0,0,0,0,0,0,0,0,0,0,0,0,0,0,0,0,0,0,0,0,0,0,0,0,0,0,0,0,0,0],"id":34,"left_children":[1,3,5,7,9,11,13,15,17,19,21,23,25,27,29,-1,-1,-1,-1,-1,-1,-1,-1,-1,-1,-1,-1,-1,-1,-1,-1],"loss_changes":[1.6090694E2,1.8203992E2,3.5630295E1,1.2842918E1,1.4542264E2,6.639366E1,2.4778732E1,1.9277695E1,7.3433716E1,2.0109166E2,3.053103E2,3.9048538E0,6.401814E1,5.791792E1,6.4076965E1,0E0,0E0,0E0,0E0,0E0,0E0,0E0,0E0,0E0,0E0,0E0,0E0,0E0,0E0,0E0,0E0],"parents":[2147483647,0,0,1,1,2,2,3,3,4,4,5,5,6,6,7,7,8,8,9,9,10,10,11,11,12,12,13,13,14,14],"right_children":[2,4,6,8,10,12,14,16,18,20,22,24,26,28,30,-1,-1,-1,-1,-1,-1,-1,-1,-1,-1,-1,-1,-1,-1,-1,-1],"split_conditions":[2.2E1,6E0,2.3E1,3E0,7E0,4E0,4E0,6E0,6E0,7E0,7E0,2E0,7E0,3E0,5E0,-3.860771E-2,-1.0333462E-2,4.3635704E-3,-5.741964E-2,1.1236363E-1,1.3492579E-2,-2.7133846E-1,-9.711496E-3,-6.6455014E-2,-4.369272E-2,2.623862E-2,-5.0877657E-2,-5.3883977E-2,6.336452E-2,-1.4785153E-1,-4.3352786E-2],"split_indices":[1,1,1,1,0,0,0,0,0,1,1,0,0,0,0,0,0,0,0,0,0,0,0,0,0,0,0,0,0,0,0],"split_type":[0,0,0,0,0,0,0,0,0,0,0,0,0,0,0,0,0,0,0,0,0,0,0,0,0,0,0,0,0,0,0],"sum_hessian":[1.2202E4,1.0744E4,1.458E3,2.05E3,8.694E3,9.12E2,5.46E2,1.127E3,9.23E2,7.175E3,1.519E3,3.88E2,5.24E2,2.34E2,3.12E2,7.76E2,3.51E2,6.51E2,2.72E2,2.11E2,6.964E3,4.5E1,1.474E3,1.12E2,2.76E2,3.74E2,1.5E2,1.8E2,5.4E1,7.8E1,2.34E2],"tree_param":{"num_deleted":"0","num_feature":"2","num_nodes":"31","size_leaf_vector":"1"}},{"base_weights":[-8.337134E-4,7.223872E-2,-1.6145498E-1,-1.3359278E-1,2.265758E-1,-3.583859E-1,8.387692E-2,-3.457668E-2,-3.454311E-1,3.9775944E-1,5.7073914E-2,-6.306384E-1,-2.7752385E-1,4.6903676E-1,-5.500002E-1,-1.4367354E-2,6.295637E-2,-5.569369E-3,-4.991344E-2,-1.1966232E-1,4.9395423E-2,1.3592486E-1,-9.494327E-3,-2.3058842E-1,-4.366317E-2,-2.3121875E-2,-5.3537726E-2,5.7581153E-2,-2.2379044E-2,-5.538923E-4,-6.586789E-2],"categories":[],"categories_nodes":[],"categories_segments":[],"categories_sizes":[],"default_left":[0,0,0,0,0,0,0,0,0,0,0,0,0,0,0,0,0,0,0,0,0,0,0,0,0,0,0,0,0,0,0],"id":35,"left_children":[1,3,5,7,9,11,13,15,17,19,21,23,25,27,29,-1,-1,-1,-1,-1,-1,-1,-1,-1,-1,-1,-1,-1,-1,-1,-1],"loss_changes":[1.432381E2,2.6649548E2,1.8439417E2,7.539462E1,1.3907977E2,4.643051E1,4.153028E2,1.776792E2,5.096318E1,3.6638162E2,4.7719562E2,1.5629752E2,1.9386055E1,7.839592E1,3.804355E1,0E0,0E0,0E0,0E0,0E0,0E0,0E0,0E0,0E0,0E0,0E0,0E0,0E0,0E0,0E0,0E0],"parents":[2147483647,0,0,1,1,2,2,3,3,4,4,5,5,6,6,7,7,8,8,9,9,10,10,11,11,12,12,13,13,14,14],"right_children":[2,4,6,8,10,12,14,16,18,20,22,24,26,28,30,-1,-1,-1,-1,-1,-1,-1,-1,-1,-1,-1,-1,-1,-1,-1,-1],"split_conditions":[1.9E1,1E1,5E0,6E0,5E0,2E0,7E0,5E0,4E0,1.1E1,1.1E1,2E1,2.3E1,2.3E1,2E1,-1.4367354E-2,6.295637E-2,-5.569369E-3,-4.991344E-2,-1.1966232E-1,4.9395423E-2,1.3592486E-1,-9.494327E-3,-2.3058842E-1,-4.366317E-2,-2.3121875E-2,-5.3537726E-2,5.7581153E-2,-2.2379044E-2,-5.538923E-4,-6.586789E-2],"split_indices":[1,1,0,0,0,0,0,0,1,1,1,1,1,1,1,0,0,0,0,0,0,0,0,0,0,0,0,0,0,0,0],"split_type":[0,0,0,0,0,0,0,0,0,0,0,0,0,0,0,0,0,0,0,0,0,0,0,0,0,0,0,0,0,0,0],"sum_hessian":[1.2202E4,8.387E3,3.815E3,3.594E3,4.793E3,2.116E3,1.699E3,2.45E3,1.144E3,2.384E3,2.409E3,4.83E2,1.633E3,1.057E3,6.42E2,2.105E3,3.45E2,3.97E2,7.47E2,1.35E2,2.249E3,2.51E2,2.158E3,4.9E1,4.34E2,1.386E3,2.47E2,9.16E2,1.41E2,1.07E2,5.35E2],"tree_param":{"num_deleted":"0","num_feature":"2","num_nodes":"31","size_leaf_vector":"1"}},{"base_weights":[-7.773565E-4,7.385493E-2,-1.2990607E-1,-1.2023522E-1,2.4237673E-1,-3.3353233E-1,7.6227603E-3,-3.1098904E-2,-3.1093642E-1,3.0549977E-2,3.1107852E-1,-4.7916147E-1,-2.574896E-1,1.7265211E-1,-4.2199832E-1,-1.2931272E-2,5.667896E-2,-4.4195168E-2,-2.0265048E-4,-1.24435164E-1,6.9467455E-2,1.1183744E-1,2.182941E-2,-1.5419575E-2,-5.681413E-2,-6.058202E-2,-2.0953102E-2,2.7062166E-2,-5.896234E-2,2.4815449E-3,-5.9293427E-2],"categories":[],"categories_nodes":[],"categories_segments":[],"categories_sizes":[],"default_left":[0,0,0,0,0,0,0,0,0,0,0,0,0,0,0,0,0,0,0,0,0,0,0,0,0,0,0,0,0,0,0],"id":36,"left_children":[1,3,5,7,9,11,13,15,17,19,21,23,25,27,29,-1,-1,-1,-1,-1,-1,-1,-1,-1,-1,-1,-1,-1,-1,-1,-1],"loss_changes":[1.1761199E2,2.5299608E2,1.2518259E2,6.1099594E1,6.0239395E1,1.9832047E1,1.8930518E2,1.4399825E2,4.633943E1,8.6025836E2,2.3390732E2,1.7753204E1,1.9685715E1,1.4421692E2,5.6609726E1,0E0,0E0,0E0,0E0,0E0,0E0,0E0,0E0,0E0,0E0,0E0,0E0,0E0,0E0,0E0,0E0],"parents":[2147483647,0,0,1,1,2,2,3,3,4,4,5,5,6,6,7,7,8,8,9,9,10,10,11,11,12,12,13,13,14,14],"right_children":[2,4,6,8,10,12,14,16,18,20,22,24,26,28,30,-1,-1,-1,-1,-1,-1,-1,-1,-1,-1,-1,-1,-1,-1,-1,-1],"split_conditions":[1.8E1,1E1,4E0,6E0,3E0,2E0,7E0,5E0,8E0,1.3E1,1.1E1,1.9E1,1.9E1,2.3E1,2E1,-1.2931272E-2,5.667896E-2,-4.4195168E-2,-2.0265048E-4,-1.24435164E-1,6.9467455E-2,1.1183744E-1,2.182941E-2,-1.5419575E-2,-5.681413E-2,-6.058202E-2,-2.0953102E-2,2.7062166E-2,-5.896234E-2,2.4815449E-3,-5.9293427E-2],"split_indices":[1,1,0,0,0,0,0,0,1,1,1,1,1,1,1,0,0,0,0,0,0,0,0,0,0,0,0,0,0,0,0],"split_type":[0,0,0,0,0,0,0,0,0,0,0,0,0,0,0,0,0,0,0,0,0,0,0,0,0,0,0,0,0,0,0],"sum_hessian":[1.2202E4,7.733E3,4.469E3,3.594E3,4.139E3,1.801E3,2.668E3,2.45E3,1.144E3,1.014E3,3.125E3,6.16E2,1.185E3,1.928E3,7.4E2,2.105E3,3.45E2,8.03E2,3.41E2,3.47E2,6.67E2,3.21E2,2.804E3,1.33E2,4.83E2,1.42E2,1.043E3,1.709E3,2.19E2,2.05E2,5.35E2],"tree_param":{"num_deleted":"0","num_feature":"2","num_nodes":"31","size_leaf_vector":"1"}},{"base_weights":[-7.1311934E-4,6.647952E-2,-1.1696975E-1,-1.0821176E-1,2.1815795E-1,-3.6512366E-1,-2.2544745E-2,-2.7970936E-2,-2.798817E-1,1.1780085E-1,3.361818E-1,-6.3108253E-1,-2.6427537E-1,8.341936E-2,-3.7987506E-1,-3.3407222E-2,1.3358406E-2,-7.440198E-3,-4.7372263E-2,-5.9917517E-2,3.4105226E-2,7.096448E-2,1.2394774E-2,-3.1446885E-2,-9.9409275E-2,2.2772845E-2,-3.9366953E-2,1.3019683E-2,-2.969093E-2,2.2346033E-3,-5.3375132E-2],"categories":[],"categories_nodes":[],"categories_segments":[],"categories_sizes":[],"default_left":[0,0,0,0,0,0,0,0,0,0,0,0,0,0,0,0,0,0,0,0,0,0,0,0,0,0,0,0,0,0,0],"id":37,"left_children":[1,3,5,7,9,11,13,15,17,19,21,23,25,27,29,-1,-1,-1,-1,-1,-1,-1,-1,-1,-1,-1,-1,-1,-1,-1,-1],"loss_changes":[9.53326E1,2.0495062E2,1.0473251E2,4.951307E1,4.899675E1,3.2877304E1,1.2267379E2,1.2125194E2,4.557054E1,3.5859192E2,1.5066753E2,3.853508E1,5.7067505E1,4.4497894E1,4.5874107E1,0E0,0E0,0E0,0E0,0E0,0E0,0E0,0E0,0E0,0E0,0E0,0E0,0E0,0E0,0E0,0E0],"parents":[2147483647,0,0,1,1,2,2,3,3,4,4,5,5,6,6,7,7,8,8,9,9,10,10,11,11,12,12,13,13,14,14],"right_children":[2,4,6,8,10,12,14,16,18,20,22,24,26,28,30,-1,-1,-1,-1,-1,-1,-1,-1,-1,-1,-1,-1,-1,-1,-1,-1],"split_conditions":[1.8E1,1E1,3E0,6E0,1.5E1,2E1,7E0,4E0,5E0,3E0,1.6E1,1.9E1,2.1E1,2.3E1,2E1,-3.3407222E-2,1.3358406E-2,-7.440198E-3,-4.7372263E-2,-5.9917517E-2,3.4105226E-2,7.096448E-2,1.2394774E-2,-3.1446885E-2,-9.9409275E-2,2.2772845E-2,-3.9366953E-2,1.3019683E-2,-2.969093E-2,2.2346033E-3,-5.3375132E-2],"split_indices":[1,1,0,0,1,1,0,1,1,0,1,1,1,1,1,0,0,0,0,0,0,0,0,0,0,0,0,0,0,0,0],"split_type":[0,0,0,0,0,0,0,0,0,0,0,0,0,0,0,0,0,0,0,0,0,0,0,0,0,0,0,0,0,0,0],"sum_hessian":[1.2202E4,7.733E3,4.469E3,3.594E3,4.139E3,1.231E3,3.238E3,2.45E3,1.144E3,2.238E3,1.901E3,3.37E2,8.94E2,2.498E3,7.4E2,8.46E2,1.604E3,5.56E2,5.88E2,5.31E2,1.707E3,6.88E2,1.213E3,1.81E2,1.56E2,1.86E2,7.08E2,2.225E3,2.73E2,2.05E2,5.35E2],"tree_param":{"num_deleted":"0","num_feature":"2","num_nodes":"31","size_leaf_vector":"1"}},{"base_weights":[-6.608751E-4,5.98293E-2,-1.0532091E-1,-4.5472063E-2,2.6455694E-1,-2.7822173E-1,1.14541305E-2,-2.4772656E-1,3.2697786E-2,5.712427E-1,-8.365269E-3,-4.011844E-1,-2.140175E-1,1.4720623E-1,-3.4195647E-1,1.3608495E-2,-8.048508E-2,-1.8310696E-2,3.5543304E-2,7.8425094E-2,4.982385E-2,2.5319923E-2,-2.9845139E-2,-1.0767914E-2,-4.8161525E-2,-5.4366447E-2,-1.686597E-2,2.3056317E-2,-5.013736E-2,2.0122326E-3,-4.8047565E-2],"categories":[],"categories_nodes":[],"categories_segments":[],"categories_sizes":[],"default_left":[0,0,0,0,0,0,0,0,0,0,0,0,0,0,0,0,0,0,0,0,0,0,0,0,0,0,0,0,0,0,0],"id":38,"left_children":[1,3,5,7,9,11,13,15,17,19,21,23,25,27,29,-1,-1,-1,-1,-1,-1,-1,-1,-1,-1,-1,-1,-1,-1,-1,-1],"loss_changes":[7.7262314E1,1.6674237E2,9.0254715E1,8.076662E1,2.1988821E2,1.4140427E1,1.280989E2,3.0460443E2,2.5671725E2,1.8845215E1,1.05619415E2,1.451358E1,1.7641453E1,1.04404335E2,3.7174423E1,0E0,0E0,0E0,0E0,0E0,0E0,0E0,0E0,0E0,0E0,0E0,0E0,0E0,0E0,0E0,0E0],"parents":[2147483647,0,0,1,1,2,2,3,3,4,4,5,5,6,6,7,7,8,8,9,9,10,10,11,11,12,12,13,13,14,14],"right_children":[2,4,6,8,10,12,14,16,18,20,22,24,26,28,30,-1,-1,-1,-1,-1,-1,-1,-1,-1,-1,-1,-1,-1,-1,-1,-1],"split_conditions":[1.8E1,1.3E1,4E0,3E0,5E0,2E0,7E0,8E0,9E0,1.5E1,1.6E1,1.9E1,1.9E1,2.3E1,2E1,1.3608495E-2,-8.048508E-2,-1.8310696E-2,3.5543304E-2,7.8425094E-2,4.982385E-2,2.5319923E-2,-2.9845139E-2,-1.0767914E-2,-4.8161525E-2,-5.4366447E-2,-1.686597E-2,2.3056317E-2,-5.013736E-2,2.0122326E-3,-4.8047565E-2],"split_indices":[1,1,0,0,0,0,0,1,1,1,1,1,1,1,1,0,0,0,0,0,0,0,0,0,0,0,0,0,0,0,0],"split_type":[0,0,0,0,0,0,0,0,0,0,0,0,0,0,0,0,0,0,0,0,0,0,0,0,0,0,0,0,0,0,0],"sum_hessian":[1.2202E4,7.733E3,4.469E3,5.107E3,2.626E3,1.801E3,2.668E3,1.423E3,3.684E3,1.236E3,1.39E3,6.16E2,1.185E3,1.928E3,7.4E2,8.43E2,5.8E2,2.208E3,1.476E3,3.13E2,9.23E2,7.31E2,6.59E2,1.33E2,4.83E2,1.42E2,1.043E3,1.709E3,2.19E2,2.05E2,5.35E2],"tree_param":{"num_deleted":"0","num_feature":"2","num_nodes":"31","size_leaf_vector":"1"}},{"base_weights":[-6.054511E-4,5.3855766E-2,-9.4834186E-2,-4.0934775E-2,2.381482E-1,-2.5047183E-1,1.0281546E-2,-2.2300129E-1,2.9432561E-2,5.142223E-1,-7.5324764E-3,-3.6116147E-1,-1.926759E-1,1.3247181E-1,-3.0782276E-1,2.1896034E-3,-9.802755E-2,-1.3381693E-2,3.8178567E-2,5.912253E-2,3.38339E-2,2.2791376E-2,-2.6865235E-2,-5.84576E-2,-2.6634304E-2,-4.896786E-2,-1.5180995E-2,2.0752057E-2,-4.5146395E-2,1.8120034E-3,-4.3251753E-2],"categories":[],"categories_nodes":[],"categories_segments":[],"categories_sizes":[],"default_left":[0,0,0,0,0,0,0,0,0,0,0,0,0,0,0,0,0,0,0,0,0,0,0,0,0,0,0,0,0,0,0],"id":39,"left_children":[1,3,5,7,9,11,13,15,17,19,21,23,25,27,29,-1,-1,-1,-1,-1,-1,-1,-1,-1,-1,-1,-1,-1,-1,-1,-1],"loss_changes":[6.26286E1,1.351164E2,7.313162E1,6.544788E1,1.7818298E2,1.14585495E1,1.037828E2,2.6410855E2,2.1201768E2,1.6553314E1,8.557948E1,1.2914719E1,1.4320503E1,8.462953E1,3.0124565E1,0E0,0E0,0E0,0E0,0E0,0E0,0E0,0E0,0E0,0E0,0E0,0E0,0E0,0E0,0E0,0E0],"parents":[2147483647,0,0,1,1,2,2,3,3,4,4,5,5,6,6,7,7,8,8,9,9,10,10,11,11,12,12,13,13,14,14],"right_children":[2,4,6,8,10,12,14,16,18,20,22,24,26,28,30,-1,-1,-1,-1,-1,-1,-1,-1,-1,-1,-1,-1,-1,-1,-1,-1],"split_conditions":[1.8E1,1.3E1,4E0,3E0,5E0,2E0,7E0,1E1,1E1,1.7E1,1.6E1,2E1,1.9E1,2.3E1,2E1,2.1896034E-3,-9.802755E-2,-1.3381693E-2,3.8178567E-2,5.912253E-2,3.38339E-2,2.2791376E-2,-2.6865235E-2,-5.84576E-2,-2.6634304E-2,-4.896786E-2,-1.5180995E-2,2.0752057E-2,-4.5146395E-2,1.8120034E-3,-4.3251753E-2],"split_indices":[1,1,0,0,0,0,0,1,1,1,1,1,1,1,1,0,0,0,0,0,0,0,0,0,0,0,0,0,0,0,0],"split_type":[0,0,0,0,0,0,0,0,0,0,0,0,0,0,0,0,0,0,0,0,0,0,0,0,0,0,0,0,0,0,0],"sum_hessian":[1.2202E4,7.733E3,4.469E3,5.107E3,2.626E3,1.801E3,2.668E3,1.423E3,3.684E3,1.236E3,1.39E3,6.16E2,1.185E3,1.928E3,7.4E2,1.076E3,3.47E2,2.518E3,1.166E3,8.58E2,3.78E2,7.31E2,6.59E2,1.82E2,4.34E2,1.42E2,1.043E3,1.709E3,2.19E2,2.05E2,5.35E2],"tree_param":{"num_deleted":"0","num_feature":"2","num_nodes":"31","size_leaf_vector":"1"}},{"base_weights":[-5.6108675E-4,-1.488333E-1,2.939133E-2,-1.9448507E-1,7.131168E-2,1.3622957E-1,-7.195789E-2,-1.396729E-1,-4.8153389E-1,1.21039465E-1,-1.1746808E-2,4.5878243E-2,4.3051282E-1,-3.5528678E-1,-2.740443E-2,-2.1356162E-2,3.673539E-2,-1.9352255E-2,-2.054131E-1,2.0835E-2,-9.899302E-3,1.3538408E-2,-3.7094768E-2,1.0501406E-1,2.531959E-2,-5.3738344E-2,-2.3977006E-2,3.1288706E-3,-2.7613593E-2],"categories":[],"categories_nodes":[],"categories_segments":[],"categories_sizes":[],"default_left":[0,0,0,0,0,0,0,0,0,0,0,0,0,0,0,0,0,0,0,0,0,0,0,0,0,0,0,0,0],"id":40,"left_children":[1,3,5,7,9,11,13,15,17,-1,19,21,23,25,27,-1,-1,-1,-1,-1,-1,-1,-1,-1,-1,-1,-1,-1,-1],"loss_changes":[5.4199257E1,2.0626427E1,1.0994621E2,2.6664413E1,3.3411724E1,1.3140909E2,6.577019E1,5.35764E1,1.227983E2,0E0,6.3574867E0,1.4118773E2,1.2729376E2,1.4764084E1,6.576178E1,0E0,0E0,0E0,0E0,0E0,0E0,0E0,0E0,0E0,0E0,0E0,0E0,0E0,0E0],"parents":[2147483647,0,0,1,1,2,2,3,3,4,4,5,5,6,6,7,7,8,8,10,10,11,11,12,12,13,13,14,14],"right_children":[2,4,6,8,10,12,14,16,18,-1,20,22,24,26,28,-1,-1,-1,-1,-1,-1,-1,-1,-1,-1,-1,-1,-1,-1],"split_conditions":[6E0,7E0,1.7E1,6E0,1E0,1.5E1,2E0,5E0,5E0,1.21039465E-1,2E0,7E0,3E0,2E1,7E0,-2.1356162E-2,3.673539E-2,-1.9352255E-2,-2.054131E-1,2.0835E-2,-9.899302E-3,1.3538408E-2,-3.7094768E-2,1.0501406E-1,2.531959E-2,-5.3738344E-2,-2.3977006E-2,3.1288706E-3,-2.7613593E-2],"split_indices":[1,0,1,0,1,1,0,1,1,0,1,0,0,1,0,0,0,0,0,0,0,0,0,0,0,0,0,0,0],"split_type":[0,0,0,0,0,0,0,0,0,0,0,0,0,0,0,0,0,0,0,0,0,0,0,0,0,0,0,0,0],"sum_hessian":[1.2202E4,2.05E3,1.0152E4,1.698E3,3.52E2,4.942E3,5.21E3,1.427E3,2.71E2,2.3E1,3.29E2,3.782E3,1.16E3,7.07E2,4.503E3,1.246E3,1.81E2,2.3E2,4.1E1,9.3E1,2.36E2,3.114E3,6.68E2,2.57E2,9.03E2,2.73E2,4.34E2,3.644E3,8.59E2],"tree_param":{"num_deleted":"0","num_feature":"2","num_nodes":"29","size_leaf_vector":"1"}},{"base_weights":[-5.109902E-4,-1.9253434E-1,1.9045064E-2,-1.2774442E-1,-4.5055544E-1,8.5030444E-2,-7.849061E-2,-2.0237106E-1,3.7532318E-1,-5.821298E-1,-3.6557317E-2,2.0940935E-2,2.435584E-1,-2.1636298E-1,1.462461E-2,-2.8294846E-4,-2.4442393E-2,1.0943983E-1,1.8773673E-2,-4.4370897E-2,-9.269965E-2,7.93315E-3,-2.6000842E-2,5.1090103E-2,9.162872E-3,-2.57071E-2,-1.2815175E-2,1.1608472E-2,-2.4952004E-2],"categories":[],"categories_nodes":[],"categories_segments":[],"categories_sizes":[],"default_left":[0,0,0,0,0,0,0,0,0,0,0,0,0,0,0,0,0,0,0,0,0,0,0,0,0,0,0,0,0],"id":41,"left_children":[1,3,5,7,9,11,13,15,17,19,-1,21,23,25,27,-1,-1,-1,-1,-1,-1,-1,-1,-1,-1,-1,-1,-1,-1],"loss_changes":[4.5828606E1,1.8799412E1,7.1291016E1,3.3976604E1,2.3142052E0,6.712189E1,5.738909E1,6.603256E0,1.5576525E1,3.7417774E0,0E0,7.722158E1,7.720726E1,6.437866E0,7.155855E1,0E0,0E0,0E0,0E0,0E0,0E0,0E0,0E0,0E0,0E0,0E0,0E0,0E0,0E0],"parents":[2147483647,0,0,1,1,2,2,3,3,4,4,5,5,6,6,7,7,8,8,9,9,11,11,12,12,13,13,14,14],"right_children":[2,4,6,8,10,12,14,16,18,20,-1,22,24,26,28,-1,-1,-1,-1,-1,-1,-1,-1,-1,-1,-1,-1,-1,-1],"split_conditions":[3E0,2E0,1.8E1,7E0,4E0,1.5E1,4E0,2E0,1E0,2E0,-3.6557317E-2,7E0,1.6E1,3E0,7E0,-2.8294846E-4,-2.4442393E-2,1.0943983E-1,1.8773673E-2,-4.4370897E-2,-9.269965E-2,7.93315E-3,-2.6000842E-2,5.1090103E-2,9.162872E-3,-2.57071E-2,-1.2815175E-2,1.1608472E-2,-2.4952004E-2],"split_indices":[1,1,1,0,0,1,0,0,1,0,0,0,1,0,0,0,0,0,0,0,0,0,0,0,0,0,0,0,0],"split_type":[0,0,0,0,0,0,0,0,0,0,0,0,0,0,0,0,0,0,0,0,0,0,0,0,0,0,0,0,0],"sum_hessian":[1.2202E4,1.127E3,1.1075E4,9.02E2,2.25E2,6.606E3,4.469E3,7.86E2,1.16E2,8.6E1,1.39E2,4.705E3,1.901E3,1.801E3,2.668E3,1.37E2,6.49E2,2.3E1,9.3E1,6.3E1,2.3E1,3.896E3,8.09E2,6.88E2,1.213E3,1.231E3,5.7E2,1.928E3,7.4E2],"tree_param":{"num_deleted":"0","num_feature":"2","num_nodes":"29","size_leaf_vector":"1"}},{"base_weights":[-4.6626834E-4,2.084759E-2,-1.574347E-1,-1.2467026E-1,5.5170335E-2,-2.5245172E-1,5.2114677E-2,-1.656047E-1,7.270165E-2,8.8582136E-2,-1.0260484E-1,-2.080631E-1,-3.2418382E-1,3.5009715E-1,-2.0822296E-1,-1.159949E-2,-4.2544734E-2,9.895185E-2,5.80375E-4,1.04331926E-1,5.9509226E-3,-2.2168127E-1,-3.6600665E-3,-3.02461E-2,-5.091905E-3,-1.7141541E-2,-6.295738E-2,7.273113E-2,-1.3517722E-2,-1.3797E-2,-3.1886097E-2],"categories":[],"categories_nodes":[],"categories_segments":[],"categories_sizes":[],"default_left":[0,0,0,0,0,0,0,0,0,0,0,0,0,0,0,0,0,0,0,0,0,0,0,0,0,0,0,0,0,0,0],"id":42,"left_children":[1,3,5,7,9,11,13,15,17,19,21,23,25,27,29,-1,-1,-1,-1,-1,-1,-1,-1,-1,-1,-1,-1,-1,-1,-1,-1],"loss_changes":[4.0829678E1,5.3673553E1,2.906295E1,1.6582699E1,4.5845245E1,3.1293755E0,3.5447582E1,2.1852013E1,2.1644846E1,1.9912207E2,2.1202962E2,9.226225E0,1.7713886E1,3.9088463E1,1.8525333E0,0E0,0E0,0E0,0E0,0E0,0E0,0E0,0E0,0E0,0E0,0E0,0E0,0E0,0E0,0E0,0E0],"parents":[2147483647,0,0,1,1,2,2,3,3,4,4,5,5,6,6,7,7,8,8,9,9,10,10,11,11,12,12,13,13,14,14],"right_children":[2,4,6,8,10,12,14,16,18,20,22,24,26,28,30,-1,-1,-1,-1,-1,-1,-1,-1,-1,-1,-1,-1,-1,-1,-1,-1],"split_conditions":[2.2E1,6E0,6E0,7E0,7E0,4E0,7E0,6E0,1E0,7E0,7E0,2.3E1,2.3E1,2.3E1,2.3E1,-1.159949E-2,-4.2544734E-2,9.895185E-2,5.80375E-4,1.04331926E-1,5.9509226E-3,-2.2168127E-1,-3.6600665E-3,-3.02461E-2,-5.091905E-3,-1.7141541E-2,-6.295738E-2,7.273113E-2,-1.3517722E-2,-1.3797E-2,-3.1886097E-2],"split_indices":[1,1,0,0,0,0,0,0,1,1,1,1,1,1,1,0,0,0,0,0,0,0,0,0,0,0,0,0,0,0,0],"split_type":[0,0,0,0,0,0,0,0,0,0,0,0,0,0,0,0,0,0,0,0,0,0,0,0,0,0,0,0,0,0,0],"sum_hessian":[1.2202E4,1.0744E4,1.458E3,2.05E3,8.694E3,1.003E3,4.55E2,1.698E3,3.52E2,7.175E3,1.519E3,6.22E2,3.81E2,2.12E2,2.43E2,1.427E3,2.71E2,2.3E1,3.29E2,2.11E2,6.964E3,4.5E1,1.474E3,3.88E2,2.34E2,2.55E2,1.26E2,1.19E2,9.3E1,1.5E2,9.3E1],"tree_param":{"num_deleted":"0","num_feature":"2","num_nodes":"31","size_leaf_vector":"1"}},{"base_weights":[-4.3370246E-4,3.579113E-2,-8.005986E-2,1.1723678E-1,-1.11822344E-1,-2.4032025E-1,1.19558536E-1,-3.293606E-2,3.6523327E-1,-3.4849897E-2,-1.1076254E0,-1.883801E-1,-3.7411427E-1,3.5269323E-1,-2.6423007E-1,-1.0071921E-2,3.70197E-2,4.6113912E-2,8.452885E-4,-3.1072885E-2,7.793177E-3,-2.1323787E-1,1.0428365E-2,-3.4723714E-2,-1.145533E-2,-2.6923085E-2,-1.0504571E-1,2.4640502E-3,5.6861408E-2,-5.2784897E-2,-1.12115955E-2],"categories":[],"categories_nodes":[],"categories_segments":[],"categories_sizes":[],"default_left":[0,0,0,0,0,0,0,0,0,0,0,0,0,0,0,0,0,0,0,0,0,0,0,0,0,0,0,0,0,0,0],"id":43,"left_children":[1,3,5,7,9,11,13,15,17,19,21,23,25,27,29,-1,-1,-1,-1,-1,-1,-1,-1,-1,-1,-1,-1,-1,-1,-1,-1],"loss_changes":[3.5201736E1,1.00857635E2,1.2210608E2,2.0134413E2,2.2860654E2,1.4641151E1,1.5219974E2,9.206999E1,6.976523E1,8.621024E1,2.6599066E2,1.786874E1,4.1641037E1,7.4927765E1,2.572522E1,0E0,0E0,0E0,0E0,0E0,0E0,0E0,0E0,0E0,0E0,0E0,0E0,0E0,0E0,0E0,0E0],"parents":[2147483647,0,0,1,1,2,2,3,3,4,4,5,5,6,6,7,7,8,8,9,9,10,10,11,11,12,12,13,13,14,14],"right_children":[2,4,6,8,10,12,14,16,18,20,22,24,26,28,30,-1,-1,-1,-1,-1,-1,-1,-1,-1,-1,-1,-1,-1,-1,-1,-1],"split_conditions":[1.9E1,6E0,5E0,1.3E1,1.8E1,4E0,7E0,5E0,5E0,8E0,7E0,2E0,2.3E1,6E0,2.1E1,-1.0071921E-2,3.70197E-2,4.6113912E-2,8.452885E-4,-3.1072885E-2,7.793177E-3,-2.1323787E-1,1.0428365E-2,-3.4723714E-2,-1.145533E-2,-2.6923085E-2,-1.0504571E-1,2.4640502E-3,5.6861408E-2,-5.2784897E-2,-1.12115955E-2],"split_indices":[1,0,0,1,1,0,0,0,0,1,0,0,1,0,1,0,0,0,0,0,0,0,0,0,0,0,0,0,0,0,0],"split_type":[0,0,0,0,0,0,0,0,0,0,0,0,0,0,0,0,0,0,0,0,0,0,0,0,0,0,0,0,0,0,0],"sum_hessian":[1.2202E4,8.387E3,3.815E3,5.405E3,2.982E3,2.116E3,1.699E3,3.367E3,2.038E3,2.769E3,2.13E2,1.526E3,5.9E2,1.057E3,6.42E2,2.883E3,4.84E2,1.606E3,4.32E2,8.03E2,1.966E3,1.15E2,9.8E1,4.83E2,1.043E3,5.12E2,7.8E1,4.2E2,6.37E2,2.34E2,4.08E2],"tree_param":{"num_deleted":"0","num_feature":"2","num_nodes":"31","size_leaf_vector":"1"}},{"base_weights":[-4.1773083E-4,-8.38608E-2,3.0791264E-2,1.9691403E-1,-1.5687092E-1,-1.2417557E-1,8.207849E-2,-2.649074E-1,2.516447E0,-5.591226E-1,-2.511674E-4,-3.0714214E-1,9.159573E-4,5.053497E-1,3.7797593E-2,-1.6714703E-2,-4.6580765E-2,2.9885718E-1,2.199533E-1,-3.9288163E-2,-1.2867445E-1,5.962115E-2,-1.8107165E-2,-7.6886974E-3,-2.1210651E-1,-1.8469732E-2,8.803461E-2,1.4689986E-1,3.4262385E-2,1.842665E-2,-4.5203655E-3],"categories":[],"categories_nodes":[],"categories_segments":[],"categories_sizes":[],"default_left":[0,0,0,0,0,0,0,0,0,0,0,0,0,0,0,0,0,0,0,0,0,0,0,0,0,0,0,0,0,0,0],"id":44,"left_children":[1,3,5,7,9,11,13,15,17,19,21,23,25,27,29,-1,-1,-1,-1,-1,-1,-1,-1,-1,-1,-1,-1,-1,-1,-1,-1],"loss_changes":[3.1781322E1,6.81299E1,7.060272E1,7.355167E2,1.6613235E2,5.0558907E1,1.25070526E2,1.1175907E1,1.04835205E1,8.888432E1,2.0492017E2,3.7448254E2,2.1448871E2,9.860098E1,7.3473694E1,0E0,0E0,0E0,0E0,0E0,0E0,0E0,0E0,0E0,0E0,0E0,0E0,0E0,0E0,0E0,0E0],"parents":[2147483647,0,0,1,1,2,2,3,3,4,4,5,5,6,6,7,7,8,8,9,9,10,10,11,11,12,12,13,13,14,14],"right_children":[2,4,6,8,10,12,14,16,18,20,22,24,26,28,30,-1,-1,-1,-1,-1,-1,-1,-1,-1,-1,-1,-1,-1,-1,-1,-1],"split_conditions":[3E0,7E0,9E0,5E0,1.3E1,5E0,1.1E1,4E0,2E0,1.2E1,1.7E1,8E0,8E0,4E0,5E0,-1.6714703E-2,-4.6580765E-2,2.9885718E-1,2.199533E-1,-3.9288163E-2,-1.2867445E-1,5.962115E-2,-1.8107165E-2,-7.6886974E-3,-2.1210651E-1,-1.8469732E-2,8.803461E-2,1.4689986E-1,3.4262385E-2,1.842665E-2,-4.5203655E-3],"split_indices":[0,1,1,1,1,0,1,1,0,1,1,1,1,0,0,0,0,0,0,0,0,0,0,0,0,0,0,0,0,0,0],"split_type":[0,0,0,0,0,0,0,0,0,0,0,0,0,0,0,0,0,0,0,0,0,0,0,0,0,0,0,0,0,0,0],"sum_hessian":[1.2202E4,3.321E3,8.881E3,6.85E2,2.636E3,2.208E3,6.673E3,5.72E2,1.13E2,7.38E2,1.898E3,8.96E2,1.312E3,6.31E2,6.042E3,3.86E2,1.86E2,4.2E1,7.1E1,6.02E2,1.36E2,4.41E2,1.457E3,7.96E2,1E2,1.084E3,2.28E2,9E1,5.41E2,2.185E3,3.857E3],"tree_param":{"num_deleted":"0","num_feature":"2","num_nodes":"31","size_leaf_vector":"1"}},{"base_weights":[-3.4538013E-4,1.7293131E-2,-1.3024631E-1,-6.4401135E-2,5.0729264E-2,-2.0334378E-1,3.0981973E-2,5.0413683E-2,-1.11825995E-1,-1.01748064E-1,1.0404687E-1,-1.6221222E-1,-2.698925E-1,2.6326963E-1,-1.7192069E-1,-2.385272E-2,5.3578824E-2,-2.7667303E-2,8.7743414E-5,-5.782001E-2,6.4835674E-3,4.5510173E-2,5.982078E-3,-2.4869146E-2,-1.837121E-3,-1.4816684E-2,-5.1313568E-2,6.0328107E-2,-1.7358826E-2,-1.0863696E-2,-2.7174965E-2],"categories":[],"categories_nodes":[],"categories_segments":[],"categories_sizes":[],"default_left":[0,0,0,0,0,0,0,0,0,0,0,0,0,0,0,0,0,0,0,0,0,0,0,0,0,0,0,0,0,0,0],"id":45,"left_children":[1,3,5,7,9,11,13,15,17,19,21,23,25,27,29,-1,-1,-1,-1,-1,-1,-1,-1,-1,-1,-1,-1,-1,-1,-1,-1],"loss_changes":[2.7962486E1,2.9353668E1,1.7201166E1,1.6999722E1,6.199974E1,2.704422E0,2.1537355E1,1.2817108E2,4.1040863E1,1.5687094E2,8.7693436E1,7.7450924E0,1.1234581E1,3.1743036E1,1.5119596E0,0E0,0E0,0E0,0E0,0E0,0E0,0E0,0E0,0E0,0E0,0E0,0E0,0E0,0E0,0E0,0E0],"parents":[2147483647,0,0,1,1,2,2,3,3,4,4,5,5,6,6,7,7,8,8,9,9,10,10,11,11,12,12,13,13,14,14],"right_children":[2,4,6,8,10,12,14,16,18,20,22,24,26,28,30,-1,-1,-1,-1,-1,-1,-1,-1,-1,-1,-1,-1,-1,-1,-1,-1],"split_conditions":[2.2E1,9E0,6E0,3E0,3E0,4E0,7E0,5E0,5E0,1.3E1,1.1E1,2.3E1,2.3E1,2.3E1,2.3E1,-2.385272E-2,5.3578824E-2,-2.7667303E-2,8.7743414E-5,-5.782001E-2,6.4835674E-3,4.5510173E-2,5.982078E-3,-2.4869146E-2,-1.837121E-3,-1.4816684E-2,-5.1313568E-2,6.0328107E-2,-1.7358826E-2,-1.0863696E-2,-2.7174965E-2],"split_indices":[1,1,0,0,0,0,0,1,0,1,1,1,1,1,1,0,0,0,0,0,0,0,0,0,0,0,0,0,0,0,0],"split_type":[0,0,0,0,0,0,0,0,0,0,0,0,0,0,0,0,0,0,0,0,0,0,0,0,0,0,0,0,0,0,0],"sum_hessian":[1.2202E4,1.0744E4,1.458E3,3.12E3,7.624E3,1.003E3,4.55E2,9.12E2,2.208E3,1.975E3,5.649E3,6.22E2,3.81E2,2.12E2,2.43E2,5.72E2,3.4E2,8.96E2,1.312E3,5.11E2,1.464E3,6.31E2,5.018E3,3.88E2,2.34E2,2.55E2,1.26E2,1.19E2,9.3E1,1.5E2,9.3E1],"tree_param":{"num_deleted":"0","num_feature":"2","num_nodes":"31","size_leaf_vector":"1"}},{"base_weights":[-3.177668E-4,3.096182E-2,-6.907376E-2,1.096687E-1,-1.1168665E-1,-2.125545E-1,1.09642595E-1,-1.0054393E-2,3.0737233E-1,2.713712E-2,-5.661844E-1,-1.6000874E-1,-3.4796026E-1,3.1634638E-1,-2.3064083E-1,-6.6361534E-3,3.2479063E-2,1.5532925E-2,5.3552628E-2,-1.20634055E-2,1.3614956E-1,-9.818269E-2,-1.0501884E-2,-2.9261325E-2,-9.837984E-3,-6.4957514E-2,-1.8001093E-2,5.8869917E-2,1.1920656E-2,-4.7674444E-2,-8.867267E-3],"categories":[],"categories_nodes":[],"categories_segments":[],"categories_sizes":[],"default_left":[0,0,0,0,0,0,0,0,0,0,0,0,0,0,0,0,0,0,0,0,0,0,0,0,0,0,0,0,0,0,0],"id":46,"left_children":[1,3,5,7,9,11,13,15,17,19,21,23,25,27,29,-1,-1,-1,-1,-1,-1,-1,-1,-1,-1,-1,-1,-1,-1,-1,-1],"loss_changes":[2.624663E1,9.418781E1,9.787453E1,1.2796143E2,1.8822803E2,1.5006775E1,1.1964735E2,6.3522377E1,7.064816E1,4.5091705E2,1.3368953E2,1.2450268E1,2.9820778E1,5.6735497E1,2.2423416E1,0E0,0E0,0E0,0E0,0E0,0E0,0E0,0E0,0E0,0E0,0E0,0E0,0E0,0E0,0E0,0E0],"parents":[2147483647,0,0,1,1,2,2,3,3,4,4,5,5,6,6,7,7,8,8,9,9,10,10,11,11,12,12,13,13,14,14],"right_children":[2,4,6,8,10,12,14,16,18,20,22,24,26,28,30,-1,-1,-1,-1,-1,-1,-1,-1,-1,-1,-1,-1,-1,-1,-1,-1],"split_conditions":[1.9E1,6E0,5E0,1.3E1,1.6E1,4E0,7E0,5E0,4E0,1.5E1,7E0,2E0,2.1E1,2.1E1,2.1E1,-6.6361534E-3,3.2479063E-2,1.5532925E-2,5.3552628E-2,-1.20634055E-2,1.3614956E-1,-9.818269E-2,-1.0501884E-2,-2.9261325E-2,-9.837984E-3,-6.4957514E-2,-1.8001093E-2,5.8869917E-2,1.1920656E-2,-4.7674444E-2,-8.867267E-3],"split_indices":[1,0,0,1,1,0,0,0,0,1,0,0,1,1,1,0,0,0,0,0,0,0,0,0,0,0,0,0,0,0,0],"split_type":[0,0,0,0,0,0,0,0,0,0,0,0,0,0,0,0,0,0,0,0,0,0,0,0,0,0,0,0,0,0,0],"sum_hessian":[1.2202E4,8.387E3,3.815E3,5.405E3,2.982E3,2.116E3,1.699E3,3.367E3,2.038E3,2.285E3,6.97E2,1.526E3,5.9E2,1.057E3,6.42E2,2.883E3,4.84E2,1.224E3,8.14E2,2.058E3,2.27E2,3.66E2,3.31E2,4.83E2,1.043E3,2.1E2,3.8E2,4.43E2,6.14E2,2.34E2,4.08E2],"tree_param":{"num_deleted":"0","num_feature":"2","num_nodes":"31","size_leaf_vector":"1"}},{"base_weights":[-2.8583378E-4,2.7878743E-2,-6.2194686E-2,9.871925E-2,-1.0051269E-1,-1.9135661E-1,9.8686494E-2,-9.041407E-3,2.7666882E-1,-3.5489775E-2,-9.416948E-1,-1.4403342E-1,-3.1330448E-1,2.8477836E-1,-2.0766477E-1,-5.9727915E-3,2.923791E-2,3.637826E-2,-4.7276863E-3,-2.492869E-2,5.191663E-3,-1.8250923E-1,1.0290912E-2,-3.572497E-2,-1.0536522E-2,-2.228844E-2,-8.9649685E-2,-2.1426413E-5,4.7239136E-2,-4.292731E-2,-7.982708E-3],"categories":[],"categories_nodes":[],"categories_segments":[],"categories_sizes":[],"default_left":[0,0,0,0,0,0,0,0,0,0,0,0,0,0,0,0,0,0,0,0,0,0,0,0,0,0,0,0,0,0,0],"id":47,"left_children":[1,3,5,7,9,11,13,15,17,19,21,23,25,27,29,-1,-1,-1,-1,-1,-1,-1,-1,-1,-1,-1,-1,-1,-1,-1,-1],"loss_changes":[2.1279331E1,7.630142E1,7.9314316E1,1.0366776E2,1.6312509E2,1.2172005E1,9.697525E1,5.1473606E1,5.7558044E1,5.1776592E1,1.976671E2,1.2551998E1,3.096497E1,5.6569572E1,1.8181858E1,0E0,0E0,0E0,0E0,0E0,0E0,0E0,0E0,0E0,0E0,0E0,0E0,0E0,0E0,0E0,0E0],"parents":[2147483647,0,0,1,1,2,2,3,3,4,4,5,5,6,6,7,7,8,8,9,9,10,10,11,11,12,12,13,13,14,14],"right_children":[2,4,6,8,10,12,14,16,18,20,22,24,26,28,30,-1,-1,-1,-1,-1,-1,-1,-1,-1,-1,-1,-1,-1,-1,-1,-1],"split_conditions":[1.9E1,6E0,5E0,1.3E1,1.8E1,4E0,7E0,5E0,5E0,8E0,7E0,2E1,2.3E1,6E0,2.1E1,-5.9727915E-3,2.923791E-2,3.637826E-2,-4.7276863E-3,-2.492869E-2,5.191663E-3,-1.8250923E-1,1.0290912E-2,-3.572497E-2,-1.0536522E-2,-2.228844E-2,-8.9649685E-2,-2.1426413E-5,4.7239136E-2,-4.292731E-2,-7.982708E-3],"split_indices":[1,0,0,1,1,0,0,0,0,1,0,1,1,0,1,0,0,0,0,0,0,0,0,0,0,0,0,0,0,0,0],"split_type":[0,0,0,0,0,0,0,0,0,0,0,0,0,0,0,0,0,0,0,0,0,0,0,0,0,0,0,0,0,0,0],"sum_hessian":[1.2202E4,8.387E3,3.815E3,5.405E3,2.982E3,2.116E3,1.699E3,3.367E3,2.038E3,2.769E3,2.13E2,1.526E3,5.9E2,1.057E3,6.42E2,2.883E3,4.84E2,1.606E3,4.32E2,8.03E2,1.966E3,1.15E2,9.8E1,2.33E2,1.293E3,5.12E2,7.8E1,4.2E2,6.37E2,2.34E2,4.08E2],"tree_param":{"num_deleted":"0","num_feature":"2","num_nodes":"31","size_leaf_vector":"1"}},{"base_weights":[-2.819797E-4,-6.6118814E-2,2.4342008E-2,2.015401E-1,-1.3572364E-1,-9.0571135E-2,6.2372994E-2,-2.0212908E-1,2.228741E0,-4.673252E-1,-6.608675E-3,-2.3644193E-1,9.152146E-3,2.5754666E-1,-4.2268215E-3,-1.1410794E-2,-3.8320955E-2,2.6566464E-1,1.9422317E-1,-3.2528527E-2,-1.08909726E-1,4.7846135E-2,-1.5365555E-2,-2.8982516E-3,-1.8711816E-1,-1.549385E-2,7.865723E-2,1.1541332E-1,4.689623E-3,-3.3539608E-2,1.8601086E-3],"categories":[],"categories_nodes":[],"categories_segments":[],"categories_sizes":[],"default_left":[0,0,0,0,0,0,0,0,0,0,0,0,0,0,0,0,0,0,0,0,0,0,0,0,0,0,0,0,0,0,0],"id":48,"left_children":[1,3,5,7,9,11,13,15,17,19,21,23,25,27,29,-1,-1,-1,-1,-1,-1,-1,-1,-1,-1,-1,-1,-1,-1,-1,-1],"loss_changes":[1.978469E1,6.1917374E1,3.88223E1,5.618169E2,1.1289934E2,3.2135853E1,8.675329E1,9.089268E0,8.816467E0,6.4911606E1,1.3552544E2,3.0415625E2,1.6761783E2,3.2064093E2,3.7631863E1,0E0,0E0,0E0,0E0,0E0,0E0,0E0,0E0,0E0,0E0,0E0,0E0,0E0,0E0,0E0,0E0],"parents":[2147483647,0,0,1,1,2,2,3,3,4,4,5,5,6,6,7,7,8,8,9,9,10,10,11,11,12,12,13,13,14,14],"right_children":[2,4,6,8,10,12,14,16,18,20,22,24,26,28,30,-1,-1,-1,-1,-1,-1,-1,-1,-1,-1,-1,-1,-1,-1,-1,-1],"split_conditions":[3E0,7E0,9E0,5E0,1.3E1,5E0,1.4E1,4E0,2E0,1.2E1,1.7E1,8E0,8E0,4E0,1.5E1,-1.1410794E-2,-3.8320955E-2,2.6566464E-1,1.9422317E-1,-3.2528527E-2,-1.08909726E-1,4.7846135E-2,-1.5365555E-2,-2.8982516E-3,-1.8711816E-1,-1.549385E-2,7.865723E-2,1.1541332E-1,4.689623E-3,-3.3539608E-2,1.8601086E-3],"split_indices":[0,1,1,1,1,0,1,1,0,1,1,1,1,0,1,0,0,0,0,0,0,0,0,0,0,0,0,0,0,0,0],"split_type":[0,0,0,0,0,0,0,0,0,0,0,0,0,0,0,0,0,0,0,0,0,0,0,0,0,0,0,0,0,0,0],"sum_hessian":[1.2202E4,3.321E3,8.881E3,6.85E2,2.636E3,2.208E3,6.673E3,5.72E2,1.13E2,7.38E2,1.898E3,8.96E2,1.312E3,1.697E3,4.976E3,3.86E2,1.86E2,4.2E1,7.1E1,6.02E2,1.36E2,4.41E2,1.457E3,7.96E2,1E2,1.084E3,2.28E2,3.22E2,1.375E3,3.2E2,4.656E3],"tree_param":{"num_deleted":"0","num_feature":"2","num_nodes":"31","size_leaf_vector":"1"}},{"base_weights":[-2.3220366E-4,2.1787819E-2,-6.325399E-2,-6.1811212E-2,5.2459825E-2,-1.4983207E-1,4.3348286E-2,-1.7052613E-2,-7.091343E-1,-7.437121E-2,1.303898E-1,-8.4794626E-2,-3.3610398E-1,2.2947331E-1,-2.630055E-1,-1.3070148E-2,1.7358704E-2,-1.6261332E-1,-2.7803173E-2,-2.5731577E-3,-2.3230411E-2,4.068368E-2,-1.4092686E-3,1.2588388E-2,-1.5101345E-2,-1.4486787E-1,-1.2789165E-2,5.7913125E-2,7.6728924E-3,-8.657788E-2,-7.3719467E-3],"categories":[],"categories_nodes":[],"categories_segments":[],"categories_sizes":[],"default_left":[0,0,0,0,0,0,0,0,0,0,0,0,0,0,0,0,0,0,0,0,0,0,0,0,0,0,0,0,0,0,0],"id":49,"left_children":[1,3,5,7,9,11,13,15,17,19,21,23,25,27,29,-1,-1,-1,-1,-1,-1,-1,-1,-1,-1,-1,-1,-1,-1,-1,-1],"loss_changes":[1.6935986E1,2.3193413E1,2.9171463E1,7.0335014E1,6.541172E1,2.109945E1,8.0857834E1,4.924779E1,6.1613205E1,1.9344473E1,1.6372693E2,1.8071453E1,1.0428966E2,4.706168E1,6.109193E1,0E0,0E0,0E0,0E0,0E0,0E0,0E0,0E0,0E0,0E0,0E0,0E0,0E0,0E0,0E0,0E0],"parents":[2147483647,0,0,1,1,2,2,3,3,4,4,5,5,6,6,7,7,8,8,9,9,10,10,11,11,12,12,13,13,14,14],"right_children":[2,4,6,8,10,12,14,16,18,20,22,24,26,28,30,-1,-1,-1,-1,-1,-1,-1,-1,-1,-1,-1,-1,-1,-1,-1,-1],"split_conditions":[2E1,3E0,5E0,1.9E1,1E1,4E0,7E0,1.3E1,2E0,7E0,5E0,2.1E1,2.1E1,2.1E1,2.1E1,-1.3070148E-2,1.7358704E-2,-1.6261332E-1,-2.7803173E-2,-2.5731577E-3,-2.3230411E-2,4.068368E-2,-1.4092686E-3,1.2588388E-2,-1.5101345E-2,-1.4486787E-1,-1.2789165E-2,5.7913125E-2,7.6728924E-3,-8.657788E-2,-7.3719467E-3],"split_indices":[1,0,0,1,1,0,0,1,0,0,0,1,1,1,1,0,0,0,0,0,0,0,0,0,0,0,0,0,0,0,0],"split_type":[0,0,0,0,0,0,0,0,0,0,0,0,0,0,0,0,0,0,0,0,0,0,0,0,0,0,0,0,0,0,0],"sum_hessian":[1.2202E4,9.043E3,3.159E3,2.427E3,6.616E3,1.743E3,1.416E3,2.271E3,1.56E2,2.518E3,4.098E3,1.293E3,4.5E2,8.81E2,5.35E2,1.423E3,8.48E2,4.9E1,1.07E2,1.926E3,5.92E2,1.406E3,2.692E3,3.09E2,9.84E2,7E1,3.8E2,2.67E2,6.14E2,1.27E2,4.08E2],"tree_param":{"num_deleted":"0","num_feature":"2","num_nodes":"31","size_leaf_vector":"1"}}]},"name":"gbtree"},"learner_model_param":{"base_score":"[1.3466563E1]","boost_from_average":"1","num_class":"0","num_feature":"2","num_target":"1"},"objective":{"name":"reg:squarederror","reg_loss_param":{"scale_pos_weight":"1"}}},"version":[3,2,1]}